~o
<STREAMINFO> 1 39
<VECSIZE> 39<NULLD><MFCC_D_A_0><DIAGC>
~h "a"
<BEGINHMM>
<NUMSTATES> 5
<STATE> 2
<MEAN> 39
 -9.165413e-01 -8.296913e+00 -9.788722e+00 -1.043422e+01 -4.927680e+00 9.921898e+00 -1.121835e+01 3.611864e-01 -1.882037e+00 -6.992616e+00 -1.652801e+00 -6.143632e+00 6.325657e+01 -2.130947e-02 1.717196e-01 -1.086555e-01 9.036263e-02 9.154500e-02 8.815283e-02 1.709762e-01 -4.382544e-02 -1.035152e-01 -7.467172e-02 3.959705e-02 3.713666e-02 -2.577684e-01 -1.081487e-02 4.551794e-03 6.881273e-03 6.547702e-03 -4.286075e-03 -1.239849e-02 5.472169e-03 9.847557e-04 -2.651086e-03 6.643894e-03 -2.758710e-03 2.058370e-03 -1.431397e-02
<VARIANCE> 39
 8.197345e+01 7.382106e+01 6.234232e+01 6.287232e+01 6.076143e+01 1.307201e+02 9.404807e+01 4.632306e+01 4.747939e+01 6.955455e+01 5.537269e+01 3.220642e+01 1.968500e+02 4.006285e+00 3.367551e+00 2.374990e+00 3.151147e+00 3.827391e+00 7.827763e+00 5.812663e+00 4.120999e+00 2.825189e+00 3.494016e+00 3.014382e+00 3.087010e+00 4.688612e+00 5.998547e-01 5.610890e-01 4.010291e-01 5.190307e-01 6.816383e-01 1.141215e+00 9.662510e-01 8.530591e-01 5.101708e-01 5.574031e-01 5.199080e-01 5.703048e-01 7.028371e-01
<GCONST> 1.382170e+02
<STATE> 3
<MEAN> 39
 -1.053799e+00 -7.591508e+00 -1.019633e+01 -1.005057e+01 -4.580741e+00 1.021750e+01 -1.052110e+01 1.855300e-01 -2.301421e+00 -7.260467e+00 -1.505190e+00 -5.985244e+00 6.216254e+01 -6.655465e-02 1.888041e-01 -8.053853e-02 1.169107e-01 7.422101e-02 3.733980e-02 1.906049e-01 -4.066445e-02 -1.122263e-01 -4.671497e-02 2.749499e-02 4.567296e-02 -3.152951e-01 -1.259350e-02 2.545397e-03 7.681875e-03 6.061443e-03 -4.880209e-03 -1.354791e-02 3.513654e-03 5.733917e-04 -7.894273e-04 8.341941e-03 -3.979581e-03 2.305704e-03 -1.364535e-02
<VARIANCE> 39
 8.465575e+01 7.362034e+01 5.969114e+01 6.310379e+01 5.740692e+01 1.242126e+02 9.305419e+01 4.455444e+01 4.736979e+01 6.889147e+01 5.417870e+01 3.060297e+01 2.064793e+02 3.736274e+00 3.130712e+00 2.290770e+00 2.946144e+00 3.543162e+00 7.185649e+00 5.433710e+00 3.826745e+00 2.783095e+00 3.369574e+00 2.935033e+00 2.861862e+00 4.397599e+00 5.460568e-01 5.236992e-01 3.852248e-01 4.907604e-01 6.259135e-01 1.052957e+00 8.888681e-01 7.796173e-01 4.977258e-01 5.266346e-01 5.033473e-01 5.296274e-01 6.412767e-01
<GCONST> 1.363663e+02
<STATE> 4
<MEAN> 39
 -1.465280e+00 -6.697997e+00 -1.054973e+01 -9.502749e+00 -4.225785e+00 1.029435e+01 -9.569864e+00 -3.215897e-02 -2.826581e+00 -7.414773e+00 -1.404049e+00 -5.752881e+00 6.063951e+01 -1.315939e-01 2.023415e-01 -4.345454e-02 1.486363e-01 5.180744e-02 -2.962124e-02 2.004386e-01 -4.038069e-02 -1.135203e-01 -7.599560e-03 8.965186e-03 5.762867e-02 -3.837414e-01 -1.380082e-02 -1.354219e-04 8.141554e-03 5.241382e-03 -5.453602e-03 -1.391990e-02 2.263434e-04 2.128922e-04 1.294947e-03 9.015524e-03 -4.601693e-03 2.294535e-03 -1.142320e-02
<VARIANCE> 39
 8.985664e+01 7.320665e+01 5.535925e+01 6.466365e+01 5.219102e+01 1.174637e+02 9.062093e+01 4.253652e+01 4.618111e+01 6.672536e+01 5.187843e+01 2.877014e+01 2.200665e+02 3.436583e+00 2.856626e+00 2.179823e+00 2.722291e+00 3.195155e+00 6.429486e+00 4.975035e+00 3.514043e+00 2.706403e+00 3.177965e+00 2.822502e+00 2.594362e+00 4.024751e+00 4.851595e-01 4.792322e-01 3.656415e-01 4.589623e-01 5.598974e-01 9.457132e-01 7.989165e-01 6.994448e-01 4.795114e-01 4.887921e-01 4.816309e-01 4.815914e-01 5.675071e-01
<GCONST> 1.339090e+02
<TRANSP> 5
 0.000000e+00 1.000000e+00 0.000000e+00 0.000000e+00 0.000000e+00
 0.000000e+00 7.473869e-01 2.526130e-01 0.000000e+00 0.000000e+00
 0.000000e+00 0.000000e+00 7.473865e-01 2.526135e-01 0.000000e+00
 0.000000e+00 0.000000e+00 0.000000e+00 8.709636e-01 1.290364e-01
 0.000000e+00 0.000000e+00 0.000000e+00 0.000000e+00 0.000000e+00
<ENDHMM>
~h "b"
<BEGINHMM>
<NUMSTATES> 5
<STATE> 2
<MEAN> 39
 -7.146556e+00 -5.021215e+00 -4.608949e+00 -7.209960e+00 -1.176766e+01 2.562289e+00 -9.633381e+00 7.436713e-01 -3.076106e+00 -4.326365e+00 -3.617589e+00 -4.754284e+00 5.512201e+01 2.020265e-01 -2.369502e-01 1.598788e-01 -1.620084e-01 -4.302337e-02 6.546466e-02 -5.133991e-02 1.289127e-01 2.607081e-02 1.859112e-02 -8.630294e-03 -6.799109e-02 5.843617e-01 6.024085e-04 -4.992916e-03 -1.378629e-03 -4.427342e-03 2.185132e-03 1.345638e-03 -1.163587e-03 1.192962e-03 1.460630e-03 2.748562e-03 -1.341063e-03 -1.897141e-03 7.059645e-03
<VARIANCE> 39
 1.005244e+02 8.611345e+01 5.823326e+01 1.107820e+02 5.188663e+01 6.481627e+01 5.918130e+01 5.879494e+01 3.983664e+01 3.323917e+01 4.726099e+01 2.902544e+01 4.040804e+02 2.781213e+00 3.003941e+00 2.941850e+00 4.071853e+00 3.316682e+00 4.322093e+00 3.479279e+00 4.165763e+00 2.853374e+00 2.836709e+00 2.578485e+00 2.830245e+00 4.740019e+00 4.636056e-01 4.736995e-01 4.339409e-01 6.045031e-01 5.770476e-01 8.140373e-01 5.907394e-01 7.944404e-01 5.385711e-01 5.006838e-01 4.727040e-01 5.679207e-01 5.398959e-01
<GCONST> 1.341734e+02
<STATE> 3
<MEAN> 39
 -6.324867e+00 -6.026832e+00 -4.008348e+00 -7.935002e+00 -1.190814e+01 2.853938e+00 -9.857491e+00 1.260576e+00 -2.947220e+00 -4.213949e+00 -3.672948e+00 -5.038370e+00 5.754419e+01 2.037212e-01 -2.565940e-01 1.436695e-01 -1.882849e-01 -3.050003e-02 7.577530e-02 -5.541262e-02 1.278841e-01 3.432978e-02 2.953463e-02 -1.464398e-02 -7.243904e-02 6.111775e-01 1.436819e-04 -4.441691e-03 -4.848974e-03 -6.714745e-03 3.536668e-03 2.821546e-03 -6.402518e-04 -8.774706e-04 2.209743e-03 2.590404e-03 -1.388251e-03 -8.324810e-04 5.869250e-03
<VARIANCE> 39
 9.701040e+01 9.001979e+01 6.207702e+01 1.141996e+02 5.412675e+01 6.933923e+01 6.281878e+01 6.467106e+01 4.180072e+01 3.413312e+01 5.105414e+01 3.096642e+01 4.113779e+02 2.878280e+00 3.177773e+00 3.317119e+00 4.254519e+00 3.632204e+00 4.616781e+00 3.698997e+00 4.515279e+00 3.056218e+00 2.929365e+00 2.769166e+00 3.008905e+00 5.564660e+00 4.746791e-01 4.958791e-01 4.836111e-01 6.302493e-01 6.306236e-01 8.523487e-01 6.207474e-01 8.467273e-01 5.740117e-01 5.153380e-01 5.083837e-01 6.050551e-01 6.313834e-01
<GCONST> 1.365753e+02
<STATE> 4
<MEAN> 39
 -4.913043e+00 -7.897431e+00 -3.321799e+00 -9.522614e+00 -1.189024e+01 3.518262e+00 -1.020435e+01 2.011084e+00 -2.617132e+00 -3.908720e+00 -3.822288e+00 -5.527723e+00 6.192688e+01 1.933201e-01 -2.670630e-01 7.535254e-02 -2.370981e-01 7.372153e-03 1.049415e-01 -4.959053e-02 9.975512e-02 5.197365e-02 4.208697e-02 -1.851553e-02 -6.678851e-02 6.105730e-01 -2.448216e-03 -9.773231e-05 -1.010038e-02 -5.652416e-03 5.839830e-03 3.795722e-03 1.711682e-03 -4.819408e-03 2.286990e-03 1.269973e-03 -1.752011e-04 1.164061e-03 -2.616420e-03
<VARIANCE> 39
 8.732752e+01 9.143754e+01 6.738525e+01 1.169007e+02 5.694363e+01 8.026289e+01 6.759700e+01 7.387077e+01 4.403824e+01 3.444757e+01 5.558362e+01 3.382474e+01 3.956026e+02 3.078752e+00 3.421639e+00 3.870019e+00 4.575772e+00 4.089490e+00 5.168705e+00 4.037872e+00 5.096364e+00 3.340087e+00 2.998476e+00 3.023348e+00 3.263452e+00 7.026289e+00 4.976496e-01 5.245749e-01 5.576318e-01 6.829418e-01 7.055473e-01 9.098217e-01 6.651449e-01 9.254408e-01 6.221498e-01 5.269600e-01 5.601361e-01 6.568913e-01 7.897103e-01
<GCONST> 1.396803e+02
<TRANSP> 5
 0.000000e+00 1.000000e+00 0.000000e+00 0.000000e+00 0.000000e+00
 0.000000e+00 7.495127e-01 2.504873e-01 0.000000e+00 0.000000e+00
 0.000000e+00 0.000000e+00 7.495125e-01 2.504874e-01 0.000000e+00
 0.000000e+00 0.000000e+00 0.000000e+00 8.731887e-01 1.268113e-01
 0.000000e+00 0.000000e+00 0.000000e+00 0.000000e+00 0.000000e+00
<ENDHMM>
~h "d"
<BEGINHMM>
<NUMSTATES> 5
<STATE> 2
<MEAN> 39
 -1.484296e+00 -1.026426e+01 -2.342799e+00 -7.717174e+00 -1.185159e+01 4.437837e+00 -1.409359e+01 5.521127e+00 -3.182500e+00 -8.511338e+00 -1.353614e+00 -8.407155e+00 6.422820e+01 -9.945556e-02 -2.277483e-02 -4.964098e-02 1.659339e-02 5.097330e-02 -5.897991e-02 1.399111e-01 -2.396822e-03 -5.391589e-03 7.778878e-02 -8.659219e-02 9.950298e-02 -1.623433e-01 2.806805e-03 3.905606e-03 2.066607e-03 -5.608090e-03 1.766549e-03 2.621089e-03 -5.965236e-03 -7.989047e-03 -6.849270e-05 3.744425e-03 6.189886e-03 6.740186e-04 7.309334e-03
<VARIANCE> 39
 5.225567e+01 7.710297e+01 4.826690e+01 6.956567e+01 4.476542e+01 7.517935e+01 1.311798e+02 9.718981e+01 4.171789e+01 3.882526e+01 1.019677e+02 4.348222e+01 1.578645e+02 3.063908e+00 3.679591e+00 4.136780e+00 4.976546e+00 4.447315e+00 6.504020e+00 5.988217e+00 6.227900e+00 4.151747e+00 3.491529e+00 4.702009e+00 3.114844e+00 6.144671e+00 4.990414e-01 5.627197e-01 7.046989e-01 8.490623e-01 9.031801e-01 1.044662e+00 1.069111e+00 1.139114e+00 8.412833e-01 7.110229e-01 6.769198e-01 5.797974e-01 9.567922e-01
<GCONST> 1.429871e+02
<STATE> 3
<MEAN> 39
 -1.853258e+00 -1.032592e+01 -2.524481e+00 -7.687844e+00 -1.164020e+01 4.223588e+00 -1.358461e+01 5.462052e+00 -3.206063e+00 -8.184265e+00 -1.653273e+00 -8.015374e+00 6.364028e+01 -8.612145e-02 -8.245980e-03 -4.064852e-02 -6.528103e-03 5.668702e-02 -4.712919e-02 1.121933e-01 -3.289529e-02 -4.529417e-03 9.081455e-02 -6.084694e-02 9.974641e-02 -1.292197e-01 4.330550e-03 3.153022e-03 2.474347e-03 -6.490955e-03 1.148449e-03 3.607877e-03 -8.629797e-03 -7.263583e-03 7.065499e-04 2.713405e-03 6.758344e-03 -8.479300e-04 1.023314e-02
<VARIANCE> 39
 5.437545e+01 7.838548e+01 4.642451e+01 7.273974e+01 4.415486e+01 7.572565e+01 1.335429e+02 9.543565e+01 4.143151e+01 3.974156e+01 9.649818e+01 4.363945e+01 1.666841e+02 3.206531e+00 3.897217e+00 3.926419e+00 4.989699e+00 4.400879e+00 6.521837e+00 6.116419e+00 6.119885e+00 4.104348e+00 3.522267e+00 4.574664e+00 3.230383e+00 6.629468e+00 5.108985e-01 6.017301e-01 6.789671e-01 8.294246e-01 8.908665e-01 1.038442e+00 1.079377e+00 1.134215e+00 8.358318e-01 7.214497e-01 6.669490e-01 6.083302e-01 1.033010e+00
<GCONST> 1.433264e+02
<STATE> 4
<MEAN> 39
 -2.238546e+00 -1.031427e+01 -2.718200e+00 -7.786120e+00 -1.131885e+01 3.998523e+00 -1.307416e+01 5.184281e+00 -3.222924e+00 -7.678031e+00 -1.913724e+00 -7.511756e+00 6.306067e+01 -5.971473e-02 5.567258e-03 -2.809982e-02 -4.184066e-02 6.204427e-02 -2.577640e-02 6.198230e-02 -6.762998e-02 1.422939e-03 1.017280e-01 -2.542077e-02 9.125148e-02 -6.911689e-02 5.868145e-03 1.447857e-03 2.251148e-03 -7.023455e-03 6.740461e-04 4.677723e-03 -1.068999e-02 -5.468414e-03 1.880038e-03 1.083636e-03 6.351049e-03 -2.635187e-03 1.301580e-02
<VARIANCE> 39
 5.702262e+01 7.966757e+01 4.493463e+01 7.787699e+01 4.437703e+01 7.757513e+01 1.347406e+02 9.290756e+01 4.159057e+01 4.112959e+01 8.928455e+01 4.344034e+01 1.763724e+02 3.451810e+00 4.197828e+00 3.692034e+00 5.057178e+00 4.436370e+00 6.650284e+00 6.322444e+00 6.025521e+00 4.059152e+00 3.600345e+00 4.434797e+00 3.434753e+00 7.287144e+00 5.356722e-01 6.565404e-01 6.519424e-01 8.096427e-01 8.946364e-01 1.046701e+00 1.104347e+00 1.141618e+00 8.303920e-01 7.436053e-01 6.616566e-01 6.557745e-01 1.141504e+00
<GCONST> 1.440321e+02
<TRANSP> 5
 0.000000e+00 1.000000e+00 0.000000e+00 0.000000e+00 0.000000e+00
 0.000000e+00 7.428684e-01 2.571317e-01 0.000000e+00 0.000000e+00
 0.000000e+00 0.000000e+00 7.428678e-01 2.571322e-01 0.000000e+00
 0.000000e+00 0.000000e+00 0.000000e+00 8.658576e-01 1.341424e-01
 0.000000e+00 0.000000e+00 0.000000e+00 0.000000e+00 0.000000e+00
<ENDHMM>
~h "e"
<BEGINHMM>
<NUMSTATES> 5
<STATE> 2
<MEAN> 39
 -2.203861e+00 -6.425437e+00 -3.322843e+00 -1.817289e+01 -6.685241e+00 1.195016e+01 -1.211709e+01 -8.068600e-01 -5.193870e+00 -5.328379e+00 1.859539e+00 -6.228741e+00 6.888701e+01 3.446914e-02 -6.579888e-02 -1.985093e-01 -7.613757e-02 1.213789e-01 7.579330e-02 -7.471836e-02 3.802580e-02 1.406354e-01 -5.273978e-03 -3.695938e-02 7.402933e-02 2.041467e-02 1.819367e-03 2.084961e-03 7.386488e-03 5.225648e-03 -5.423093e-03 -3.772567e-03 -5.444096e-03 1.450791e-03 -3.022894e-03 3.260794e-04 2.695248e-03 -5.610909e-03 2.311912e-04
<VARIANCE> 39
 9.551868e+01 4.896659e+01 1.230426e+02 9.070547e+01 1.208286e+02 1.312442e+02 8.791926e+01 4.187795e+01 6.836417e+01 4.786058e+01 5.131064e+01 5.626448e+01 6.940788e+01 7.153284e+00 2.749609e+00 3.348797e+00 5.218844e+00 6.998750e+00 7.750793e+00 6.116240e+00 3.606124e+00 3.788071e+00 2.962016e+00 3.248436e+00 3.337216e+00 3.776224e+00 9.873260e-01 4.292125e-01 4.985851e-01 8.497642e-01 1.049887e+00 1.161240e+00 1.002446e+00 7.061059e-01 6.494825e-01 4.948473e-01 5.357536e-01 5.223444e-01 5.539749e-01
<GCONST> 1.418243e+02
<STATE> 3
<MEAN> 39
 -2.051036e+00 -6.668712e+00 -4.050960e+00 -1.843148e+01 -6.245430e+00 1.221747e+01 -1.246051e+01 -6.436495e-01 -4.660810e+00 -5.345006e+00 1.735814e+00 -5.981753e+00 6.897031e+01 4.150132e-02 -5.640736e-02 -1.649126e-01 -5.187149e-02 9.654840e-02 5.794168e-02 -9.504463e-02 4.353469e-02 1.260988e-01 -3.610173e-03 -2.628785e-02 5.043504e-02 2.157612e-02 1.705836e-03 2.410299e-03 8.956213e-03 6.600477e-03 -6.676140e-03 -4.914422e-03 -4.745787e-03 1.384718e-03 -4.004984e-03 3.976615e-04 2.568995e-03 -6.040760e-03 3.653800e-04
<VARIANCE> 39
 9.216052e+01 4.617669e+01 1.123654e+02 8.983342e+01 1.203723e+02 1.300601e+02 9.218354e+01 4.174434e+01 6.367199e+01 4.904809e+01 5.089329e+01 5.544386e+01 6.961502e+01 6.851776e+00 2.718931e+00 3.356556e+00 5.136074e+00 7.170681e+00 7.961226e+00 6.517205e+00 3.676420e+00 3.731329e+00 2.990057e+00 3.275251e+00 3.408566e+00 3.928466e+00 9.563234e-01 4.276254e-01 5.078803e-01 8.376381e-01 1.069768e+00 1.190537e+00 1.069476e+00 7.274872e-01 6.483438e-01 4.974194e-01 5.418900e-01 5.333958e-01 5.903484e-01
<GCONST> 1.419296e+02
<STATE> 4
<MEAN> 39
 -1.783983e+00 -6.963996e+00 -4.859742e+00 -1.860787e+01 -5.791421e+00 1.243212e+01 -1.311889e+01 -3.594351e-01 -3.967083e+00 -5.353940e+00 1.627289e+00 -5.805178e+00 6.912876e+01 5.109002e-02 -4.104437e-02 -1.050447e-01 -4.953743e-03 5.064715e-02 2.289276e-02 -1.190462e-01 5.151884e-02 9.725335e-02 -1.042366e-03 -1.207467e-02 1.222720e-02 2.472081e-02 1.498786e-03 2.326327e-03 1.000317e-02 8.099649e-03 -7.929469e-03 -5.954071e-03 -3.457259e-03 1.393788e-03 -4.848654e-03 1.955030e-04 2.031594e-03 -6.209395e-03 5.763588e-04
<VARIANCE> 39
 8.606263e+01 4.210414e+01 9.798018e+01 8.923045e+01 1.198514e+02 1.272570e+02 9.850822e+01 4.228456e+01 5.694691e+01 5.079528e+01 5.152185e+01 5.496125e+01 7.001007e+01 6.352490e+00 2.666616e+00 3.447890e+00 5.029531e+00 7.410034e+00 8.289478e+00 7.112301e+00 3.841959e+00 3.677567e+00 3.033015e+00 3.351418e+00 3.516828e+00 4.171468e+00 9.070784e-01 4.232204e-01 5.329143e-01 8.231341e-01 1.102499e+00 1.239909e+00 1.174218e+00 7.711549e-01 6.508070e-01 5.014750e-01 5.545301e-01 5.509530e-01 6.468084e-01
<GCONST> 1.421888e+02
<TRANSP> 5
 0.000000e+00 1.000000e+00 0.000000e+00 0.000000e+00 0.000000e+00
 0.000000e+00 7.504899e-01 2.495101e-01 0.000000e+00 0.000000e+00
 0.000000e+00 0.000000e+00 7.504913e-01 2.495088e-01 0.000000e+00
 0.000000e+00 0.000000e+00 0.000000e+00 8.746872e-01 1.253128e-01
 0.000000e+00 0.000000e+00 0.000000e+00 0.000000e+00 0.000000e+00
<ENDHMM>
~h "h"
<BEGINHMM>
<NUMSTATES> 5
<STATE> 2
<MEAN> 39
 -1.725699e+00 -5.205429e+00 4.815359e-01 -1.610489e+01 -1.001771e+01 1.024193e+01 -1.154812e+01 -1.320949e+00 -7.166512e+00 -5.348751e+00 2.570304e+00 -8.207194e+00 6.829313e+01 2.695418e-02 -6.116395e-02 -2.039210e-01 -8.512062e-02 1.137353e-01 6.891903e-02 2.233297e-02 -1.493660e-03 1.396228e-01 -1.181547e-02 -6.878730e-02 1.169522e-01 1.198473e-02 1.600362e-03 -1.103108e-03 -1.408247e-03 2.591656e-04 1.438559e-03 4.108439e-04 -6.089641e-03 1.691355e-03 1.613793e-03 -1.021123e-03 1.174027e-03 -1.765411e-03 9.826666e-04
<VARIANCE> 39
 1.035898e+02 5.794443e+01 1.460656e+02 9.089934e+01 1.007710e+02 1.307330e+02 7.180463e+01 4.600198e+01 9.676369e+01 4.100361e+01 5.364410e+01 5.243064e+01 6.891214e+01 7.903757e+00 2.868562e+00 3.606965e+00 5.605485e+00 5.764071e+00 6.855690e+00 4.459340e+00 3.679209e+00 4.477704e+00 2.850564e+00 3.279552e+00 2.870992e+00 3.212433e+00 1.078026e+00 4.293564e-01 4.920085e-01 8.936347e-01 9.171363e-01 1.015402e+00 7.525263e-01 6.822517e-01 6.790445e-01 4.902563e-01 5.304398e-01 4.636158e-01 4.121152e-01
<GCONST> 1.407594e+02
<STATE> 3
<MEAN> 39
 -1.600249e+00 -5.461729e+00 -3.499362e-01 -1.644811e+01 -9.548952e+00 1.052378e+01 -1.151423e+01 -1.311216e+00 -6.591951e+00 -5.406400e+00 2.307444e+00 -7.756396e+00 6.835026e+01 3.359997e-02 -6.302072e-02 -2.037804e-01 -8.152797e-02 1.165160e-01 6.868187e-02 -2.534759e-03 4.448105e-03 1.421461e-01 -1.509080e-02 -6.233770e-02 1.075624e-01 1.444690e-02 1.625660e-03 -1.179274e-04 9.955133e-04 1.370516e-03 9.799760e-05 -4.318458e-04 -6.223588e-03 1.444588e-03 4.281366e-05 -6.389117e-04 1.796260e-03 -2.705312e-03 5.452050e-04
<VARIANCE> 39
 1.025864e+02 5.620221e+01 1.390636e+02 9.229320e+01 1.005529e+02 1.319988e+02 7.264407e+01 4.516175e+01 9.573073e+01 4.092847e+01 5.200241e+01 5.090308e+01 6.793192e+01 7.816602e+00 2.858308e+00 3.472924e+00 5.573302e+00 5.811199e+00 6.964094e+00 4.667665e+00 3.675235e+00 4.484942e+00 2.856150e+00 3.255944e+00 2.879908e+00 3.291061e+00 1.073726e+00 4.310940e-01 4.829444e-01 8.871365e-01 9.236646e-01 1.029736e+00 7.859132e-01 6.855361e-01 6.817268e-01 4.952479e-01 5.319869e-01 4.652961e-01 4.361717e-01
<GCONST> 1.407529e+02
<STATE> 4
<MEAN> 39
 -1.352529e+00 -5.862728e+00 -1.596216e+00 -1.692880e+01 -8.844435e+00 1.092947e+01 -1.165033e+01 -1.268873e+00 -5.682733e+00 -5.515341e+00 1.967346e+00 -7.151274e+00 6.844472e+01 4.360473e-02 -5.803586e-02 -1.838748e-01 -6.619078e-02 1.096543e-01 5.964386e-02 -4.014526e-02 1.167173e-02 1.330826e-01 -1.722552e-02 -4.764666e-02 8.564962e-02 1.540080e-02 1.383299e-03 1.188342e-03 4.376428e-03 3.278545e-03 -1.941700e-03 -2.022881e-03 -5.847432e-03 1.183188e-03 -2.109250e-03 -8.334279e-05 2.376829e-03 -3.829703e-03 1.792044e-04
<VARIANCE> 39
 9.957885e+01 5.294597e+01 1.257673e+02 9.383072e+01 9.964169e+01 1.324910e+02 7.550762e+01 4.450056e+01 9.263692e+01 4.128854e+01 4.974841e+01 4.841436e+01 6.712061e+01 7.543244e+00 2.828484e+00 3.337052e+00 5.481678e+00 5.888316e+00 7.141770e+00 5.042825e+00 3.694973e+00 4.500644e+00 2.873820e+00 3.238642e+00 2.903837e+00 3.443198e+00 1.050981e+00 4.310149e-01 4.788258e-01 8.684003e-01 9.340841e-01 1.052145e+00 8.487906e-01 6.951679e-01 6.885146e-01 5.027094e-01 5.354480e-01 4.706400e-01 4.778565e-01
<GCONST> 1.407499e+02
<TRANSP> 5
 0.000000e+00 1.000000e+00 0.000000e+00 0.000000e+00 0.000000e+00
 0.000000e+00 7.511782e-01 2.488218e-01 0.000000e+00 0.000000e+00
 0.000000e+00 0.000000e+00 7.511790e-01 2.488209e-01 0.000000e+00
 0.000000e+00 0.000000e+00 0.000000e+00 8.755731e-01 1.244269e-01
 0.000000e+00 0.000000e+00 0.000000e+00 0.000000e+00 0.000000e+00
<ENDHMM>
~h "i"
<BEGINHMM>
<NUMSTATES> 5
<STATE> 2
<MEAN> 39
 -3.458190e+00 -7.523094e+00 1.713619e-01 -1.279041e+01 -9.957258e+00 5.499819e+00 -1.292740e+01 1.293033e+00 -5.514630e+00 -4.993821e+00 9.838819e-01 -8.794248e+00 7.017738e+01 6.101497e-03 5.852903e-02 -1.111412e-02 -2.785684e-02 5.277302e-02 5.720101e-02 4.666983e-02 -6.646235e-02 -3.716195e-02 -3.069793e-02 4.659573e-02 6.695184e-03 1.312379e-02 -3.439235e-03 3.202728e-03 -3.252978e-03 3.586708e-03 2.243237e-03 -1.602028e-03 2.480455e-03 -5.745374e-05 6.887318e-04 -1.531409e-03 -8.425918e-04 3.500142e-03 -8.883526e-03
<VARIANCE> 39
 1.137812e+02 8.002414e+01 1.318461e+02 7.101054e+01 8.517897e+01 1.372706e+02 9.946594e+01 7.153860e+01 7.792364e+01 5.431369e+01 6.819888e+01 5.492581e+01 1.200777e+02 5.812541e+00 3.287089e+00 4.095582e+00 4.067083e+00 5.091778e+00 6.815152e+00 5.550462e+00 4.867986e+00 3.702124e+00 3.355979e+00 3.518963e+00 3.157873e+00 3.868607e+00 7.808999e-01 4.943248e-01 5.646605e-01 6.184665e-01 8.471498e-01 9.636180e-01 8.990100e-01 8.959206e-01 6.160774e-01 5.612101e-01 5.768633e-01 5.474716e-01 4.851648e-01
<GCONST> 1.430677e+02
<STATE> 3
<MEAN> 39
 -3.464682e+00 -7.266619e+00 9.578490e-02 -1.287496e+01 -9.723560e+00 5.717679e+00 -1.273036e+01 1.027109e+00 -5.645660e+00 -5.129001e+00 1.158578e+00 -8.733905e+00 7.015442e+01 -4.905817e-03 6.839168e-02 -2.423098e-02 -1.493742e-02 6.044228e-02 5.236524e-02 5.334102e-02 -6.410204e-02 -3.272228e-02 -3.648831e-02 4.229339e-02 1.924464e-02 -1.980109e-02 -2.577743e-03 2.184739e-03 -2.904775e-03 3.051632e-03 1.521499e-03 -1.329975e-03 1.312611e-03 8.224010e-04 1.166809e-03 -1.099239e-03 -1.163012e-03 2.823693e-03 -7.956779e-03
<VARIANCE> 39
 1.163805e+02 7.918268e+01 1.359684e+02 6.938024e+01 8.687207e+01 1.390281e+02 9.860992e+01 7.027886e+01 7.858611e+01 5.474081e+01 6.644880e+01 5.469595e+01 1.127717e+02 5.946672e+00 3.246712e+00 4.023257e+00 4.052324e+00 5.099238e+00 6.780243e+00 5.492018e+00 4.767074e+00 3.716622e+00 3.329279e+00 3.483228e+00 3.104071e+00 3.706266e+00 7.934106e-01 4.888018e-01 5.540518e-01 6.237217e-01 8.449957e-01 9.621754e-01 8.855467e-01 8.750367e-01 6.159743e-01 5.524117e-01 5.704193e-01 5.340945e-01 4.699469e-01
<GCONST> 1.427638e+02
<STATE> 4
<MEAN> 39
 -3.585409e+00 -6.817316e+00 -3.513455e-02 -1.294079e+01 -9.347068e+00 5.965934e+00 -1.241706e+01 6.393311e-01 -5.790672e+00 -5.368923e+00 1.407560e+00 -8.566715e+00 6.995853e+01 -9.136759e-03 7.015870e-02 -4.304443e-02 -3.419987e-03 6.440645e-02 5.296570e-02 4.892831e-02 -5.349112e-02 -2.011866e-02 -4.175067e-02 3.332705e-02 2.980892e-02 -5.782776e-02 -7.296084e-04 3.767552e-04 -2.191468e-03 1.954596e-03 1.393841e-05 -4.069630e-04 -4.421804e-04 1.737375e-03 1.434991e-03 -3.373078e-04 -1.313023e-03 1.206777e-03 -6.046162e-03
<VARIANCE> 39
 1.221183e+02 7.722511e+01 1.396806e+02 6.829736e+01 8.857751e+01 1.420960e+02 9.747453e+01 6.781661e+01 7.841446e+01 5.486910e+01 6.331481e+01 5.492705e+01 1.057861e+02 6.180071e+00 3.183449e+00 3.924564e+00 4.038343e+00 5.133626e+00 6.721108e+00 5.386320e+00 4.602233e+00 3.720414e+00 3.276572e+00 3.428236e+00 3.041095e+00 3.472083e+00 8.139584e-01 4.798304e-01 5.423372e-01 6.317014e-01 8.464167e-01 9.553019e-01 8.613205e-01 8.411461e-01 6.134576e-01 5.381126e-01 5.603745e-01 5.161125e-01 4.473723e-01
<GCONST> 1.422955e+02
<TRANSP> 5
 0.000000e+00 1.000000e+00 0.000000e+00 0.000000e+00 0.000000e+00
 0.000000e+00 7.515146e-01 2.484854e-01 0.000000e+00 0.000000e+00
 0.000000e+00 0.000000e+00 7.515143e-01 2.484857e-01 0.000000e+00
 0.000000e+00 0.000000e+00 0.000000e+00 8.758798e-01 1.241203e-01
 0.000000e+00 0.000000e+00 0.000000e+00 0.000000e+00 0.000000e+00
<ENDHMM>
~h "j"
<BEGINHMM>
<NUMSTATES> 5
<STATE> 2
<MEAN> 39
 -3.173497e+00 -1.058628e+01 -4.852896e+00 -9.566010e+00 -8.476828e+00 3.778000e+00 -1.267741e+01 2.594437e+00 -1.654911e+00 -4.623034e+00 -2.367630e+00 -6.469927e+00 6.518647e+01 1.212586e-01 -1.595026e-02 -9.405036e-02 -1.361221e-01 9.282779e-02 1.800328e-01 -7.747369e-02 -6.595087e-02 5.399319e-02 1.440025e-03 8.197965e-03 -2.179645e-02 1.843557e-01 -3.095781e-04 2.957956e-03 -5.644221e-03 3.952750e-03 2.256360e-03 3.825347e-03 6.373313e-03 4.171797e-04 -2.472544e-03 -6.538459e-03 1.008843e-03 3.571095e-04 -7.317238e-03
<VARIANCE> 39
 9.613169e+01 7.022221e+01 6.442016e+01 9.541190e+01 5.951959e+01 1.537013e+02 1.125688e+02 6.040081e+01 4.240375e+01 5.270732e+01 5.752968e+01 4.227057e+01 1.969531e+02 5.989269e+00 4.392733e+00 3.365484e+00 5.076085e+00 5.212372e+00 1.022489e+01 7.454160e+00 5.751529e+00 3.068580e+00 3.847234e+00 3.533916e+00 4.229249e+00 6.188183e+00 9.066940e-01 7.343876e-01 5.690945e-01 7.320133e-01 9.879487e-01 1.410519e+00 1.341900e+00 1.231779e+00 5.931382e-01 7.531459e-01 6.201584e-01 7.914813e-01 9.735342e-01
<GCONST> 1.468010e+02
<STATE> 3
<MEAN> 39
 -2.693571e+00 -1.064180e+01 -5.252556e+00 -1.009801e+01 -8.103174e+00 4.508103e+00 -1.295148e+01 2.336689e+00 -1.450962e+00 -4.650945e+00 -2.326831e+00 -6.559730e+00 6.590372e+01 1.171636e-01 -1.869098e-03 -1.166286e-01 -1.184964e-01 1.025833e-01 1.930861e-01 -4.977659e-02 -6.579056e-02 4.211213e-02 -2.422718e-02 1.392199e-02 -1.908550e-02 1.496151e-01 -1.730206e-03 4.652352e-03 -5.026326e-03 5.322867e-03 2.222225e-03 2.209916e-03 7.794100e-03 2.204474e-05 -3.932149e-03 -6.325877e-03 1.992672e-03 1.105088e-03 -1.028808e-02
<VARIANCE> 39
 9.217467e+01 6.945370e+01 6.728905e+01 8.932555e+01 6.245009e+01 1.566098e+02 1.096454e+02 5.880314e+01 4.343206e+01 5.525242e+01 5.814622e+01 4.202314e+01 1.863824e+02 5.888201e+00 4.387733e+00 3.332836e+00 4.909782e+00 5.264883e+00 1.031224e+01 7.595347e+00 5.760960e+00 3.069322e+00 3.877807e+00 3.554843e+00 4.221573e+00 6.189915e+00 9.000088e-01 7.321622e-01 5.630659e-01 7.188851e-01 9.923972e-01 1.429127e+00 1.362449e+00 1.239093e+00 5.890299e-01 7.468030e-01 6.247634e-01 7.869093e-01 9.711297e-01
<GCONST> 1.467336e+02
<STATE> 4
<MEAN> 39
 -2.109239e+00 -1.065459e+01 -5.826505e+00 -1.071382e+01 -7.602661e+00 5.402421e+00 -1.306824e+01 2.016224e+00 -1.284106e+00 -4.804563e+00 -2.227007e+00 -6.676895e+00 6.681375e+01 1.003776e-01 2.773916e-02 -1.415549e-01 -8.826298e-02 1.150911e-01 1.988027e-01 -8.085456e-03 -7.170231e-02 1.830859e-02 -5.413037e-02 2.926162e-02 -1.150710e-02 8.350831e-02 -3.744879e-03 7.082390e-03 -3.603196e-03 7.307015e-03 1.891492e-03 -1.851625e-04 8.699321e-03 -6.656128e-04 -5.633545e-03 -5.417862e-03 3.041008e-03 1.917582e-03 -1.483089e-02
<VARIANCE> 39
 8.695506e+01 6.780155e+01 7.093153e+01 8.049047e+01 6.552857e+01 1.591495e+02 1.065148e+02 5.661885e+01 4.484818e+01 5.954853e+01 5.931350e+01 4.095210e+01 1.696835e+02 5.769466e+00 4.308276e+00 3.274651e+00 4.666635e+00 5.243320e+00 1.025295e+01 7.715681e+00 5.664698e+00 3.078907e+00 3.908758e+00 3.587861e+00 4.115477e+00 6.143715e+00 8.890389e-01 7.179549e-01 5.525034e-01 6.982101e-01 9.807639e-01 1.431102e+00 1.374488e+00 1.220265e+00 5.847080e-01 7.369694e-01 6.285976e-01 7.640474e-01 9.551263e-01
<GCONST> 1.463161e+02
<TRANSP> 5
 0.000000e+00 1.000000e+00 0.000000e+00 0.000000e+00 0.000000e+00
 0.000000e+00 7.477074e-01 2.522925e-01 0.000000e+00 0.000000e+00
 0.000000e+00 0.000000e+00 7.477065e-01 2.522935e-01 0.000000e+00
 0.000000e+00 0.000000e+00 0.000000e+00 8.714887e-01 1.285113e-01
 0.000000e+00 0.000000e+00 0.000000e+00 0.000000e+00 0.000000e+00
<ENDHMM>
~h "l"
<BEGINHMM>
<NUMSTATES> 5
<STATE> 2
<MEAN> 39
 -1.326967e+01 -1.249708e+00 -9.049522e+00 -2.626379e+00 -9.782967e+00 1.504342e+00 -8.900404e+00 -1.389750e+00 -3.820454e+00 -4.158260e+00 -3.413543e+00 -3.939296e+00 4.102055e+01 2.204706e-01 -9.185102e-02 1.092827e-01 -1.705315e-01 -5.742803e-02 1.672194e-02 -7.022700e-02 5.826178e-02 2.499963e-02 2.305996e-03 -2.170712e-02 -1.435120e-02 3.819203e-01 4.374573e-03 -4.578006e-03 5.166624e-03 -3.221919e-03 -5.050800e-04 1.838756e-03 -6.791507e-04 1.816644e-03 -1.349517e-03 4.423631e-04 -1.229761e-03 -3.939748e-04 1.202340e-02
<VARIANCE> 39
 7.524528e+01 3.806377e+01 3.818159e+01 7.131781e+01 3.004868e+01 3.978747e+01 3.515347e+01 2.536774e+01 2.118539e+01 2.077781e+01 2.004282e+01 1.658779e+01 1.878512e+02 1.863454e+00 1.609040e+00 1.529698e+00 2.596843e+00 1.848622e+00 2.305101e+00 2.270823e+00 2.084528e+00 1.880740e+00 1.936751e+00 1.588294e+00 1.548502e+00 1.552110e+00 3.251969e-01 2.847713e-01 2.701224e-01 3.969817e-01 3.418810e-01 4.166358e-01 4.284581e-01 4.120726e-01 3.650711e-01 3.683818e-01 3.115317e-01 3.134028e-01 1.951826e-01
<GCONST> 1.124079e+02
<STATE> 3
<MEAN> 39
 -1.235665e+01 -1.682643e+00 -8.545301e+00 -3.330030e+00 -1.001744e+01 1.605612e+00 -9.179571e+00 -1.131399e+00 -3.735902e+00 -4.129634e+00 -3.516541e+00 -3.995211e+00 4.267664e+01 2.255285e-01 -1.128409e-01 1.297694e-01 -1.752547e-01 -5.883450e-02 2.734788e-02 -6.957173e-02 6.662488e-02 1.949007e-02 8.837827e-03 -2.503548e-02 -1.445940e-02 4.197261e-01 5.147186e-04 -5.294567e-03 4.870506e-03 -5.324196e-04 -1.673229e-04 2.581555e-03 3.250520e-04 2.078661e-03 -1.367003e-03 1.722128e-03 -6.940413e-04 -1.279975e-04 8.650931e-03
<VARIANCE> 39
 8.378664e+01 4.516895e+01 4.268535e+01 8.150069e+01 3.331117e+01 4.506042e+01 3.906594e+01 2.891734e+01 2.221939e+01 2.296376e+01 2.227561e+01 1.755908e+01 2.225807e+02 2.034274e+00 1.785028e+00 1.640434e+00 2.884051e+00 1.978799e+00 2.471266e+00 2.377602e+00 2.264328e+00 1.939119e+00 2.061580e+00 1.657796e+00 1.628606e+00 1.742603e+00 3.534772e-01 3.144040e-01 2.862026e-01 4.352388e-01 3.632524e-01 4.403074e-01 4.424251e-01 4.447111e-01 3.742026e-01 3.850946e-01 3.195172e-01 3.306821e-01 2.145358e-01
<GCONST> 1.156091e+02
<STATE> 4
<MEAN> 39
 -1.077304e+01 -2.724935e+00 -7.418615e+00 -4.426507e+00 -1.042719e+01 1.842257e+00 -9.611437e+00 -5.133325e-01 -3.587822e+00 -4.035540e+00 -3.815510e+00 -4.072576e+00 4.599837e+01 2.159177e-01 -1.480942e-01 1.620802e-01 -1.502865e-01 -6.193231e-02 3.819283e-02 -6.594808e-02 8.913524e-02 1.999165e-02 1.549892e-02 -3.437801e-02 -1.530749e-02 4.693209e-01 -1.619951e-03 -4.617343e-03 3.991200e-03 3.756165e-03 -2.539524e-04 8.842032e-04 3.241197e-04 2.884944e-03 1.848850e-06 7.459798e-04 -1.123981e-03 -4.703319e-04 6.314290e-03
<VARIANCE> 39
 9.617262e+01 5.852547e+01 4.969265e+01 9.545961e+01 3.874963e+01 5.277388e+01 4.674981e+01 3.697263e+01 2.436717e+01 2.763432e+01 2.736833e+01 2.027740e+01 2.853879e+02 2.293870e+00 2.057636e+00 1.815011e+00 3.259617e+00 2.182384e+00 2.708062e+00 2.593130e+00 2.634866e+00 2.036583e+00 2.311407e+00 1.813413e+00 1.791948e+00 2.117781e+00 3.925944e-01 3.539297e-01 3.082074e-01 4.826750e-01 3.966976e-01 4.737996e-01 4.688461e-01 5.105225e-01 3.896958e-01 4.205341e-01 3.382607e-01 3.630840e-01 2.512251e-01
<GCONST> 1.205789e+02
<TRANSP> 5
 0.000000e+00 1.000000e+00 0.000000e+00 0.000000e+00 0.000000e+00
 0.000000e+00 7.523185e-01 2.476815e-01 0.000000e+00 0.000000e+00
 0.000000e+00 0.000000e+00 7.523168e-01 2.476832e-01 0.000000e+00
 0.000000e+00 0.000000e+00 0.000000e+00 8.770300e-01 1.229700e-01
 0.000000e+00 0.000000e+00 0.000000e+00 0.000000e+00 0.000000e+00
<ENDHMM>
~h "n"
<BEGINHMM>
<NUMSTATES> 5
<STATE> 2
<MEAN> 39
 -1.259103e-01 -8.545486e+00 -2.452945e+00 -9.400150e+00 -1.068113e+01 6.131470e+00 -1.526690e+01 2.577842e+00 -3.116759e+00 -8.219797e+00 6.798795e-01 -8.594425e+00 6.712498e+01 -6.301971e-02 -4.093121e-02 -1.028509e-02 1.437961e-01 -3.361312e-02 -8.715915e-02 5.710663e-02 8.322374e-02 8.313397e-04 -3.481172e-02 -6.427449e-02 -8.233557e-03 -1.379088e-01 -2.547937e-03 1.267929e-03 -1.397671e-03 -6.839423e-04 1.812695e-03 -3.551091e-04 4.656602e-03 -2.042867e-03 -1.216174e-03 2.200699e-03 -9.675168e-04 2.214869e-03 -3.908428e-03
<VARIANCE> 39
 5.731970e+01 5.916434e+01 6.571712e+01 8.645261e+01 7.293305e+01 1.030659e+02 1.128773e+02 8.508510e+01 4.815672e+01 4.428336e+01 9.602189e+01 4.624377e+01 1.184166e+02 3.714918e+00 2.915816e+00 5.022985e+00 5.125093e+00 5.767736e+00 8.002207e+00 6.282853e+00 6.138599e+00 4.314612e+00 3.358434e+00 4.810053e+00 3.090725e+00 4.464946e+00 6.455148e-01 4.621842e-01 8.342573e-01 9.207536e-01 1.093385e+00 1.318663e+00 1.162529e+00 1.133129e+00 8.022860e-01 6.436754e-01 7.542193e-01 5.371160e-01 6.801837e-01
<GCONST> 1.445860e+02
<STATE> 3
<MEAN> 39
 -4.024038e-01 -8.703437e+00 -2.507475e+00 -8.825267e+00 -1.080140e+01 5.780233e+00 -1.499835e+01 2.902708e+00 -3.122587e+00 -8.345666e+00 4.084365e-01 -8.609308e+00 6.653316e+01 -7.286192e-02 -3.527275e-02 -1.654036e-02 1.400903e-01 -2.533599e-02 -8.830569e-02 7.538304e-02 7.370098e-02 -3.721003e-03 -2.519001e-02 -6.778378e-02 1.202123e-03 -1.531036e-01 -2.192030e-03 1.432776e-03 -1.611497e-03 -1.259040e-03 2.229093e-03 -1.311871e-04 4.073422e-03 -2.696032e-03 -1.008049e-03 2.504224e-03 -6.852266e-04 2.269500e-03 -3.260387e-03
<VARIANCE> 39
 5.929804e+01 6.169067e+01 6.404977e+01 8.399754e+01 6.908485e+01 1.002645e+02 1.160552e+02 8.611311e+01 4.674222e+01 4.374321e+01 9.755536e+01 4.577818e+01 1.288599e+02 3.615237e+00 2.938020e+00 4.965853e+00 5.020823e+00 5.530839e+00 7.797863e+00 6.154830e+00 6.094160e+00 4.245678e+00 3.350259e+00 4.804736e+00 3.043313e+00 4.420287e+00 6.291362e-01 4.621838e-01 8.249151e-01 9.055762e-01 1.055981e+00 1.287236e+00 1.136661e+00 1.121144e+00 7.940952e-01 6.445531e-01 7.522466e-01 5.316870e-01 6.705792e-01
<GCONST> 1.442395e+02
<STATE> 4
<MEAN> 39
 -8.710074e-01 -8.901398e+00 -2.644778e+00 -8.001238e+00 -1.092281e+01 5.265502e+00 -1.447259e+01 3.290819e+00 -3.158005e+00 -8.473322e+00 -1.664135e-02 -8.575302e+00 6.556108e+01 -8.557645e-02 -2.622829e-02 -2.750323e-02 1.312276e-01 -9.892045e-03 -8.757190e-02 9.850030e-02 5.682100e-02 -8.899529e-03 -9.974565e-03 -7.221124e-02 1.587555e-02 -1.728430e-01 -1.656874e-03 1.601117e-03 -1.678109e-03 -1.923251e-03 2.712879e-03 2.897049e-04 3.013591e-03 -3.365785e-03 -7.126027e-04 2.643955e-03 -2.632322e-04 2.226375e-03 -2.203771e-03
<VARIANCE> 39
 6.317625e+01 6.543861e+01 6.166558e+01 8.020065e+01 6.361934e+01 9.651434e+01 1.202518e+02 8.690822e+01 4.482559e+01 4.295922e+01 9.873461e+01 4.513877e+01 1.445959e+02 3.519509e+00 2.979361e+00 4.837123e+00 4.869644e+00 5.171505e+00 7.489813e+00 5.940576e+00 5.984159e+00 4.132298e+00 3.330758e+00 4.775139e+00 2.969759e+00 4.354075e+00 6.110060e-01 4.638359e-01 8.041087e-01 8.809874e-01 9.968174e-01 1.237733e+00 1.092039e+00 1.095201e+00 7.787582e-01 6.442256e-01 7.484727e-01 5.237688e-01 6.564769e-01
<GCONST> 1.436452e+02
<TRANSP> 5
 0.000000e+00 1.000000e+00 0.000000e+00 0.000000e+00 0.000000e+00
 0.000000e+00 7.524934e-01 2.475066e-01 0.000000e+00 0.000000e+00
 0.000000e+00 0.000000e+00 7.524916e-01 2.475084e-01 0.000000e+00
 0.000000e+00 0.000000e+00 0.000000e+00 8.769681e-01 1.230319e-01
 0.000000e+00 0.000000e+00 0.000000e+00 0.000000e+00 0.000000e+00
<ENDHMM>
~h "o"
<BEGINHMM>
<NUMSTATES> 5
<STATE> 2
<MEAN> 39
 -9.426600e+00 -4.859629e+00 -7.123810e+00 -5.156906e+00 -9.208344e+00 2.207994e+00 -1.068061e+01 1.923257e-01 -3.541309e+00 -4.601656e+00 -2.569264e+00 -4.899433e+00 4.932087e+01 1.236987e-01 -1.225852e-02 4.929882e-02 -1.229156e-01 3.403876e-02 5.357151e-02 -5.556108e-02 -2.856462e-02 1.446817e-02 2.073900e-02 1.337176e-02 1.059447e-02 2.091997e-01 7.342632e-03 2.637110e-03 5.482264e-04 -3.809280e-03 -1.829454e-03 7.188056e-03 8.165556e-04 1.168642e-03 1.172112e-03 -4.037440e-03 4.905534e-04 -1.043739e-03 6.583902e-03
<VARIANCE> 39
 8.762734e+01 6.348257e+01 4.612890e+01 7.871896e+01 3.539273e+01 6.074578e+01 7.478464e+01 4.820376e+01 3.025883e+01 2.926123e+01 3.994612e+01 2.845621e+01 2.892502e+02 2.566866e+00 2.584413e+00 1.988287e+00 3.294096e+00 2.982335e+00 4.470537e+00 4.040264e+00 3.582880e+00 2.521735e+00 2.640648e+00 2.587458e+00 2.794856e+00 4.144791e+00 4.023180e-01 4.312056e-01 3.646076e-01 4.961964e-01 5.859314e-01 7.097706e-01 7.349054e-01 7.483609e-01 5.029820e-01 5.391223e-01 4.530464e-01 5.502006e-01 6.658162e-01
<GCONST> 1.301438e+02
<STATE> 3
<MEAN> 39
 -8.822187e+00 -4.869755e+00 -6.893441e+00 -5.721336e+00 -9.129688e+00 2.511916e+00 -1.090434e+01 9.208471e-02 -3.471385e+00 -4.552996e+00 -2.494491e+00 -4.859656e+00 5.025671e+01 1.611334e-01 -3.925411e-03 5.331977e-02 -1.461054e-01 2.037721e-02 8.654972e-02 -5.536055e-02 -2.272504e-02 2.083340e-02 7.152485e-03 1.782839e-02 7.733082e-03 2.442559e-01 9.409260e-03 2.283305e-03 7.466011e-04 -5.634098e-03 -3.500389e-03 8.465495e-03 7.307041e-04 1.513640e-03 1.413904e-03 -3.468212e-03 1.227833e-03 -3.911660e-04 8.167764e-03
<VARIANCE> 39
 9.203460e+01 6.750145e+01 4.768325e+01 8.502560e+01 3.834249e+01 6.625124e+01 7.582681e+01 4.645454e+01 3.156540e+01 3.056109e+01 3.953999e+01 2.909073e+01 2.957346e+02 2.904567e+00 2.769520e+00 2.073586e+00 3.557048e+00 3.144555e+00 4.764040e+00 4.191763e+00 3.661479e+00 2.533919e+00 2.741982e+00 2.600338e+00 2.906319e+00 4.318687e+00 4.614024e-01 4.641715e-01 3.764239e-01 5.307853e-01 6.124554e-01 7.489863e-01 7.636731e-01 7.715203e-01 5.002574e-01 5.534342e-01 4.580730e-01 5.705592e-01 6.938707e-01
<GCONST> 1.318285e+02
<STATE> 4
<MEAN> 39
 -7.285205e+00 -4.810151e+00 -6.289265e+00 -7.042360e+00 -9.367238e+00 3.345675e+00 -1.132343e+01 4.122883e-02 -3.338835e+00 -4.541821e+00 -2.271560e+00 -4.804467e+00 5.233138e+01 2.397685e-01 -1.607346e-02 7.226491e-02 -2.071582e-01 -2.379740e-02 1.443878e-01 -7.426838e-02 -4.091037e-03 3.269842e-02 -2.462983e-03 3.413412e-02 -4.245761e-04 3.435302e-01 9.688919e-03 -1.732133e-03 1.068361e-03 -6.787109e-03 -5.103378e-03 7.960971e-03 -1.270720e-03 2.653714e-03 1.240459e-03 -1.837186e-03 1.987970e-03 -1.069159e-03 1.148056e-02
<VARIANCE> 39
 1.017474e+02 7.816434e+01 5.133927e+01 1.026267e+02 4.585254e+01 7.814527e+01 7.784004e+01 4.533569e+01 3.358445e+01 3.428405e+01 3.965488e+01 3.031115e+01 3.055743e+02 3.605786e+00 3.176987e+00 2.262363e+00 4.305420e+00 3.424353e+00 5.315541e+00 4.426749e+00 3.783912e+00 2.579340e+00 2.974062e+00 2.620518e+00 3.045746e+00 4.702428e+00 5.869158e-01 5.316449e-01 4.012029e-01 6.243327e-01 6.525840e-01 8.268082e-01 8.062299e-01 7.992098e-01 5.010730e-01 5.828761e-01 4.640450e-01 5.948978e-01 7.416902e-01
<GCONST> 1.351186e+02
<TRANSP> 5
 0.000000e+00 1.000000e+00 0.000000e+00 0.000000e+00 0.000000e+00
 0.000000e+00 7.467594e-01 2.532405e-01 0.000000e+00 0.000000e+00
 0.000000e+00 0.000000e+00 7.467597e-01 2.532404e-01 0.000000e+00
 0.000000e+00 0.000000e+00 0.000000e+00 8.703711e-01 1.296289e-01
 0.000000e+00 0.000000e+00 0.000000e+00 0.000000e+00 0.000000e+00
<ENDHMM>
~h "q"
<BEGINHMM>
<NUMSTATES> 5
<STATE> 2
<MEAN> 39
 -3.696438e+00 -5.652161e+00 2.579309e+00 -1.305826e+01 -1.077817e+01 6.476857e+00 -1.462981e+01 1.217205e+00 -7.682736e+00 -5.863156e+00 3.315780e+00 -1.075926e+01 6.921905e+01 1.148023e-01 4.382468e-02 1.118133e-01 -3.903184e-02 -8.908923e-02 1.100308e-01 1.799771e-03 -4.956911e-02 -1.115516e-01 2.369902e-02 6.016221e-02 -6.938905e-02 -4.055309e-02 -2.919574e-03 5.590956e-04 -4.579836e-04 3.445294e-04 7.361713e-04 -4.483981e-03 6.585791e-03 -2.331613e-03 7.879491e-04 2.277985e-03 -2.885899e-03 4.718541e-03 9.399883e-04
<VARIANCE> 39
 1.202907e+02 7.311675e+01 1.395052e+02 6.193913e+01 8.609352e+01 1.340422e+02 1.012273e+02 6.958822e+01 8.361437e+01 5.373046e+01 6.700442e+01 6.738151e+01 1.262483e+02 5.680941e+00 2.859644e+00 4.686846e+00 3.672745e+00 5.175737e+00 5.930165e+00 4.712367e+00 4.447041e+00 3.686280e+00 3.123111e+00 3.863294e+00 3.109830e+00 2.702676e+00 7.250873e-01 3.956086e-01 6.062556e-01 5.634562e-01 8.315992e-01 7.727478e-01 7.252125e-01 7.799541e-01 5.879494e-01 4.740338e-01 5.890695e-01 5.100185e-01 2.720906e-01
<GCONST> 1.406076e+02
<STATE> 3
<MEAN> 39
 -3.271205e+00 -5.465460e+00 3.025517e+00 -1.321261e+01 -1.112777e+01 6.868285e+00 -1.454920e+01 9.880041e-01 -8.124613e+00 -5.742792e+00 3.530091e+00 -1.098675e+01 6.906647e+01 9.841564e-02 4.609904e-02 1.055151e-01 -3.754108e-02 -8.165184e-02 8.961973e-02 2.957016e-02 -5.903233e-02 -1.043834e-01 3.151244e-02 4.711012e-02 -4.649827e-02 -3.643729e-02 -4.300114e-03 3.465692e-04 -2.246429e-03 3.160178e-04 2.344265e-03 -5.093878e-03 6.709606e-03 -2.142549e-03 2.343528e-03 1.713404e-03 -3.401017e-03 5.971100e-03 1.160969e-03
<VARIANCE> 39
 1.154203e+02 7.260555e+01 1.431298e+02 6.342820e+01 8.774127e+01 1.301593e+02 9.798474e+01 6.902819e+01 8.601362e+01 5.332516e+01 6.748614e+01 6.564266e+01 1.188878e+02 5.804709e+00 2.890476e+00 4.772912e+00 3.944022e+00 5.265969e+00 6.026692e+00 4.568729e+00 4.403389e+00 3.808459e+00 3.125428e+00 3.881667e+00 3.088724e+00 2.844230e+00 7.519379e-01 4.040153e-01 6.126934e-01 6.050825e-01 8.479576e-01 8.010336e-01 7.158316e-01 7.754657e-01 6.028050e-01 4.782491e-01 5.895332e-01 5.070554e-01 2.878781e-01
<GCONST> 1.409570e+02
<STATE> 4
<MEAN> 39
 -2.794700e+00 -5.123500e+00 3.636388e+00 -1.343675e+01 -1.157340e+01 7.285871e+00 -1.411604e+01 4.989616e-01 -8.717714e+00 -5.496304e+00 3.749319e+00 -1.108908e+01 6.885452e+01 6.002558e-02 4.658930e-02 7.596319e-02 -3.490632e-02 -5.450342e-02 5.479288e-02 7.262714e-02 -7.266094e-02 -7.623536e-02 3.792676e-02 2.185532e-02 6.097617e-04 -2.970941e-02 -5.416943e-03 -5.682947e-04 -5.462800e-03 2.301324e-04 4.601413e-03 -4.698324e-03 5.575081e-03 -1.378001e-03 5.007315e-03 4.793040e-04 -3.948584e-03 7.019152e-03 1.227984e-03
<VARIANCE> 39
 1.103539e+02 7.134541e+01 1.473903e+02 6.653097e+01 9.054176e+01 1.244840e+02 9.244888e+01 6.762041e+01 8.816811e+01 5.205536e+01 6.702563e+01 6.266837e+01 1.065378e+02 6.132306e+00 2.948254e+00 4.843728e+00 4.421970e+00 5.427934e+00 6.181650e+00 4.363575e+00 4.315282e+00 4.011114e+00 3.119521e+00 3.853641e+00 3.035677e+00 3.083447e+00 8.094115e-01 4.206811e-01 6.170944e-01 6.807281e-01 8.767769e-01 8.537884e-01 7.058997e-01 7.656285e-01 6.285797e-01 4.875570e-01 5.848665e-01 4.985762e-01 3.202867e-01
<GCONST> 1.414695e+02
<TRANSP> 5
 0.000000e+00 1.000000e+00 0.000000e+00 0.000000e+00 0.000000e+00
 0.000000e+00 7.526339e-01 2.473661e-01 0.000000e+00 0.000000e+00
 0.000000e+00 0.000000e+00 7.526343e-01 2.473657e-01 0.000000e+00
 0.000000e+00 0.000000e+00 0.000000e+00 8.771366e-01 1.228634e-01
 0.000000e+00 0.000000e+00 0.000000e+00 0.000000e+00 0.000000e+00
<ENDHMM>
~h "s"
<BEGINHMM>
<NUMSTATES> 5
<STATE> 2
<MEAN> 39
 -7.933812e+00 -6.093233e+00 -4.176606e+00 -6.242355e+00 -1.019798e+01 2.170230e+00 -1.031806e+01 2.340552e+00 -3.817639e+00 -3.511960e+00 -3.698976e+00 -4.696767e+00 5.615311e+01 2.126907e-01 -1.903639e-01 1.744780e-01 -1.568145e-01 -3.991735e-02 -9.515665e-03 -9.668539e-02 1.795641e-01 3.900387e-02 -3.149111e-03 -7.470747e-02 -6.744766e-02 6.656654e-01 -9.310755e-04 -1.825941e-03 -2.350110e-03 -6.740340e-03 -6.333060e-04 -1.759062e-03 -1.851310e-04 2.091486e-03 1.773239e-03 -1.918408e-03 -2.002829e-03 -2.284711e-03 1.262042e-02
<VARIANCE> 39
 9.722531e+01 7.852629e+01 5.084539e+01 1.233931e+02 4.908187e+01 6.183432e+01 6.727179e+01 6.629159e+01 3.412962e+01 3.365894e+01 4.124796e+01 2.988012e+01 3.905311e+02 3.317958e+00 3.186006e+00 3.019803e+00 4.326283e+00 3.320934e+00 4.095115e+00 3.941868e+00 4.535870e+00 3.083758e+00 3.030268e+00 2.523405e+00 2.371291e+00 4.015628e+00 5.348793e-01 5.170109e-01 5.180331e-01 6.336640e-01 5.741121e-01 7.151952e-01 6.648590e-01 8.146536e-01 5.430914e-01 5.748164e-01 4.794570e-01 4.415787e-01 4.363839e-01
<GCONST> 1.343005e+02
<STATE> 3
<MEAN> 39
 -7.132595e+00 -6.850470e+00 -3.531742e+00 -6.932223e+00 -1.035219e+01 2.106954e+00 -1.067625e+01 3.054026e+00 -3.647962e+00 -3.552577e+00 -4.000668e+00 -4.973618e+00 5.889532e+01 2.008473e-01 -1.904155e-01 1.589442e-01 -1.834334e-01 -3.762240e-02 -1.441810e-02 -8.923581e-02 1.783518e-01 4.379884e-02 -1.206404e-02 -7.418218e-02 -7.110436e-02 7.015874e-01 -3.649322e-03 5.632389e-04 -4.489963e-03 -6.536543e-03 8.653728e-04 -9.667425e-04 2.533598e-03 -1.102479e-03 1.063474e-03 -2.218239e-03 6.399121e-04 -6.086972e-04 7.726262e-03
<VARIANCE> 39
 9.474625e+01 8.236990e+01 5.216254e+01 1.213039e+02 5.032176e+01 6.259999e+01 7.168306e+01 7.098312e+01 3.676323e+01 3.476080e+01 4.450369e+01 3.150603e+01 3.900700e+02 3.634402e+00 3.422473e+00 3.317667e+00 4.252326e+00 3.585411e+00 4.279335e+00 4.392143e+00 4.919262e+00 3.308380e+00 3.104532e+00 2.684927e+00 2.446570e+00 4.438129e+00 5.774626e-01 5.386659e-01 5.608197e-01 6.135219e-01 6.178691e-01 7.380397e-01 7.267413e-01 8.719105e-01 5.786196e-01 5.890425e-01 5.077197e-01 4.503450e-01 4.735973e-01
<GCONST> 1.362448e+02
<STATE> 4
<MEAN> 39
 -6.027679e+00 -8.023955e+00 -2.710003e+00 -8.303123e+00 -1.048950e+01 1.965351e+00 -1.104124e+01 4.088589e+00 -3.290529e+00 -3.759085e+00 -4.434275e+00 -5.385505e+00 6.370485e+01 1.444760e-01 -1.555144e-01 1.120167e-01 -1.964889e-01 -1.075774e-02 -1.701448e-02 -4.696436e-02 1.394075e-01 4.662274e-02 -3.363119e-02 -4.440034e-02 -5.961353e-02 6.717508e-01 -8.189639e-03 5.652850e-03 -6.850513e-03 -1.405039e-03 3.950560e-03 1.180239e-04 6.178980e-03 -6.316313e-03 1.741681e-04 -2.878574e-03 4.735374e-03 1.631549e-03 -6.027462e-03
<VARIANCE> 39
 9.028802e+01 8.460478e+01 5.354762e+01 1.122665e+02 5.190157e+01 6.428494e+01 7.875510e+01 7.717635e+01 4.080904e+01 3.646501e+01 4.746680e+01 3.304261e+01 3.547900e+02 4.264490e+00 3.840303e+00 3.657665e+00 4.081121e+00 3.913739e+00 4.565417e+00 5.289893e+00 5.526404e+00 3.728526e+00 3.179221e+00 2.838763e+00 2.512742e+00 4.817921e+00 6.528172e-01 5.796683e-01 5.987734e-01 5.760303e-01 6.640455e-01 7.725855e-01 8.512743e-01 9.549767e-01 6.509745e-01 6.006535e-01 5.262806e-01 4.528021e-01 4.929780e-01
<GCONST> 1.384552e+02
<TRANSP> 5
 0.000000e+00 1.000000e+00 0.000000e+00 0.000000e+00 0.000000e+00
 0.000000e+00 7.478715e-01 2.521285e-01 0.000000e+00 0.000000e+00
 0.000000e+00 0.000000e+00 7.478716e-01 2.521284e-01 0.000000e+00
 0.000000e+00 0.000000e+00 0.000000e+00 8.717654e-01 1.282346e-01
 0.000000e+00 0.000000e+00 0.000000e+00 0.000000e+00 0.000000e+00
<ENDHMM>
~h "t"
<BEGINHMM>
<NUMSTATES> 5
<STATE> 2
<MEAN> 39
 -2.068677e+00 -5.307652e+00 -9.135387e+00 -1.204895e+01 -3.973093e+00 1.148249e+01 -1.040134e+01 -4.888425e-01 -3.820015e+00 -6.993601e+00 1.840721e-01 -5.447059e+00 6.118784e+01 -1.329194e-01 1.299767e-01 1.460300e-03 1.616225e-01 -7.223027e-03 -1.019644e-01 7.391898e-02 5.028308e-03 -4.432667e-02 3.605853e-02 -1.962932e-02 3.909248e-02 -3.278973e-01 -7.711316e-03 -3.734679e-03 9.332083e-03 4.311301e-03 -8.246241e-03 -1.043934e-02 -4.460505e-03 8.967091e-04 1.090173e-03 5.672098e-03 -2.442424e-03 -1.918623e-03 -1.612847e-03
<VARIANCE> 39
 9.519371e+01 5.292698e+01 6.962414e+01 1.007179e+02 7.284531e+01 1.121145e+02 1.026595e+02 3.439046e+01 4.633692e+01 6.032490e+01 5.006656e+01 3.775928e+01 1.904986e+02 4.175801e+00 2.431358e+00 2.491794e+00 3.240157e+00 4.667307e+00 6.591079e+00 5.788547e+00 3.197398e+00 2.964380e+00 2.984966e+00 2.938945e+00 2.736882e+00 3.200523e+00 5.829012e-01 4.073094e-01 4.068265e-01 5.490075e-01 7.325980e-01 9.837267e-01 9.335331e-01 6.539810e-01 5.222380e-01 4.655873e-01 4.887166e-01 4.591050e-01 4.923622e-01
<GCONST> 1.357688e+02
<STATE> 3
<MEAN> 39
 -2.619353e+00 -4.805146e+00 -9.070940e+00 -1.137452e+01 -4.051331e+00 1.102374e+01 -1.013806e+01 -4.604210e-01 -3.999656e+00 -6.827432e+00 9.884955e-02 -5.312655e+00 5.989211e+01 -1.621257e-01 1.133907e-01 3.622617e-02 1.774724e-01 -3.946658e-02 -1.411831e-01 5.560536e-02 8.240407e-03 -3.919346e-02 5.684048e-02 -2.880954e-02 3.120844e-02 -3.314290e-01 -6.365497e-03 -4.971244e-03 7.530420e-03 3.016972e-03 -7.652670e-03 -8.387710e-03 -5.585172e-03 5.317929e-04 1.943099e-03 3.831704e-03 -1.527537e-03 -2.557980e-03 1.200349e-03
<VARIANCE> 39
 9.814845e+01 5.063901e+01 6.527100e+01 1.049403e+02 7.141819e+01 1.088637e+02 1.047251e+02 3.393488e+01 4.326880e+01 5.745135e+01 4.925602e+01 3.730387e+01 2.069531e+02 3.872339e+00 2.291991e+00 2.503375e+00 3.136892e+00 4.566664e+00 6.282694e+00 5.696085e+00 3.159337e+00 2.915189e+00 2.871747e+00 2.907616e+00 2.667009e+00 3.053316e+00 5.402348e-01 3.838401e-01 4.090324e-01 5.333910e-01 7.170033e-01 9.461180e-01 9.223092e-01 6.462107e-01 5.170865e-01 4.525355e-01 4.848308e-01 4.471411e-01 4.652425e-01
<GCONST> 1.348542e+02
<STATE> 4
<MEAN> 39
 -3.362032e+00 -4.321613e+00 -8.763139e+00 -1.047603e+01 -4.366410e+00 1.023822e+01 -1.004268e+01 -3.711299e-01 -4.160775e+00 -6.538863e+00 -2.978252e-02 -5.253284e+00 5.846291e+01 -1.852633e-01 8.830575e-02 7.050980e-02 1.932037e-01 -7.724675e-02 -1.770992e-01 2.832277e-02 1.194341e-02 -3.156206e-02 7.010841e-02 -3.457909e-02 1.592433e-02 -3.181499e-01 -3.985641e-03 -5.321243e-03 4.726492e-03 1.626156e-03 -5.993924e-03 -5.107131e-03 -5.627328e-03 1.437060e-04 2.577822e-03 1.039720e-03 -3.292701e-04 -3.307808e-03 4.200950e-03
<VARIANCE> 39
 1.006341e+02 4.834506e+01 6.126492e+01 1.082520e+02 7.064610e+01 1.051201e+02 1.072963e+02 3.444579e+01 3.974248e+01 5.357298e+01 4.934298e+01 3.751732e+01 2.258437e+02 3.503033e+00 2.141854e+00 2.565645e+00 3.050472e+00 4.477870e+00 6.008773e+00 5.602976e+00 3.199683e+00 2.874754e+00 2.744525e+00 2.906865e+00 2.616841e+00 2.923133e+00 4.945385e-01 3.572166e-01 4.204927e-01 5.218363e-01 7.100576e-01 9.169969e-01 9.193862e-01 6.550035e-01 5.155671e-01 4.417937e-01 4.855006e-01 4.389856e-01 4.433703e-01
<GCONST> 1.340951e+02
<TRANSP> 5
 0.000000e+00 1.000000e+00 0.000000e+00 0.000000e+00 0.000000e+00
 0.000000e+00 7.484676e-01 2.515323e-01 0.000000e+00 0.000000e+00
 0.000000e+00 0.000000e+00 7.484674e-01 2.515327e-01 0.000000e+00
 0.000000e+00 0.000000e+00 0.000000e+00 8.722954e-01 1.277046e-01
 0.000000e+00 0.000000e+00 0.000000e+00 0.000000e+00 0.000000e+00
<ENDHMM>
~h "u"
<BEGINHMM>
<NUMSTATES> 5
<STATE> 2
<MEAN> 39
 -2.537846e+00 -1.027121e+01 -2.852023e+00 -8.143611e+00 -1.093895e+01 3.923182e+00 -1.285966e+01 4.719953e+00 -3.192439e+00 -7.042560e+00 -1.961403e+00 -6.983124e+00 6.283184e+01 -2.109228e-02 8.905036e-03 -1.549710e-02 -8.489366e-02 6.476885e-02 5.198431e-03 -6.374394e-03 -9.558235e-02 1.613097e-02 1.036997e-01 1.102319e-02 7.124223e-02 1.527722e-02 6.834130e-03 -1.009297e-03 9.346108e-04 -6.662533e-03 6.275956e-04 5.462588e-03 -1.080470e-02 -2.576650e-03 3.083217e-03 -8.829773e-04 4.372511e-03 -4.200644e-03 1.417262e-02
<VARIANCE> 39
 5.948195e+01 7.894201e+01 4.473590e+01 8.441264e+01 4.574697e+01 8.157792e+01 1.358306e+02 8.870357e+01 4.217636e+01 4.279716e+01 8.238510e+01 4.338713e+01 1.859375e+02 3.720839e+00 4.469391e+00 3.491507e+00 5.155889e+00 4.578330e+00 6.984835e+00 6.655534e+00 5.999679e+00 4.001660e+00 3.740285e+00 4.343384e+00 3.777412e+00 8.012800e+00 5.633261e-01 7.116941e-01 6.284931e-01 7.921121e-01 9.194735e-01 1.082658e+00 1.161035e+00 1.175546e+00 8.184363e-01 7.775117e-01 6.669934e-01 7.290019e-01 1.263312e+00
<GCONST> 1.450890e+02
<STATE> 3
<MEAN> 39
 -2.579384e+00 -1.023953e+01 -2.906890e+00 -8.512383e+00 -1.068179e+01 3.976049e+00 -1.294760e+01 4.330836e+00 -3.112401e+00 -6.644533e+00 -1.889714e+00 -6.730400e+00 6.297452e+01 5.502604e-03 2.678819e-03 -1.382063e-02 -1.092966e-01 6.752223e-02 2.698133e-02 -4.649449e-02 -1.027126e-01 2.908068e-02 9.820674e-02 2.564005e-02 5.397912e-02 6.950809e-02 6.611863e-03 -2.341363e-03 -6.005927e-04 -5.405948e-03 9.809129e-04 5.694441e-03 -9.012526e-03 -7.283982e-04 3.523950e-03 -2.080893e-03 2.582134e-03 -4.616367e-03 1.291978e-02
<VARIANCE> 39
 6.079091e+01 7.803900e+01 4.579255e+01 8.806913e+01 4.733416e+01 8.521224e+01 1.355354e+02 8.577937e+01 4.297958e+01 4.389067e+01 7.896593e+01 4.331758e+01 1.898072e+02 3.896448e+00 4.617506e+00 3.410812e+00 5.230999e+00 4.727770e+00 7.276605e+00 6.879937e+00 6.045973e+00 3.969024e+00 3.852351e+00 4.320908e+00 4.022169e+00 8.378567e+00 5.835603e-01 7.424599e-01 6.191389e-01 7.858285e-01 9.489676e-01 1.116738e+00 1.205173e+00 1.210721e+00 8.098759e-01 8.026509e-01 6.763000e-01 7.794176e-01 1.331516e+00
<GCONST> 1.458736e+02
<STATE> 4
<MEAN> 39
 -2.471188e+00 -1.022786e+01 -3.002752e+00 -9.113654e+00 -1.030006e+01 4.159543e+00 -1.324303e+01 3.768179e+00 -2.928370e+00 -6.163427e+00 -1.745162e+00 -6.506124e+00 6.343699e+01 3.753559e-02 -1.168833e-02 -2.191745e-02 -1.317073e-01 7.433307e-02 5.707991e-02 -8.498696e-02 -1.022975e-01 4.755000e-02 8.355772e-02 3.487674e-02 3.026072e-02 1.289505e-01 5.500507e-03 -3.256769e-03 -3.003969e-03 -2.836906e-03 1.714359e-03 5.796414e-03 -5.172193e-03 1.155754e-03 3.478815e-03 -3.514217e-03 3.285672e-04 -4.454163e-03 9.170608e-03
<VARIANCE> 39
 6.222311e+01 7.682398e+01 4.834422e+01 9.119170e+01 4.998076e+01 9.102396e+01 1.334853e+02 8.150727e+01 4.451216e+01 4.542232e+01 7.518066e+01 4.321999e+01 1.915214e+02 4.127784e+00 4.786048e+00 3.336655e+00 5.321490e+00 4.950802e+00 7.704063e+00 7.176066e+00 6.148305e+00 3.921903e+00 4.012456e+00 4.310170e+00 4.327405e+00 8.710923e+00 6.137801e-01 7.761054e-01 6.105709e-01 7.814616e-01 9.949594e-01 1.168050e+00 1.268262e+00 1.264388e+00 7.968011e-01 8.365561e-01 6.912171e-01 8.404903e-01 1.403916e+00
<GCONST> 1.468776e+02
<TRANSP> 5
 0.000000e+00 1.000000e+00 0.000000e+00 0.000000e+00 0.000000e+00
 0.000000e+00 7.428570e-01 2.571429e-01 0.000000e+00 0.000000e+00
 0.000000e+00 0.000000e+00 7.428573e-01 2.571427e-01 0.000000e+00
 0.000000e+00 0.000000e+00 0.000000e+00 8.658369e-01 1.341631e-01
 0.000000e+00 0.000000e+00 0.000000e+00 0.000000e+00 0.000000e+00
<ENDHMM>
~h "w"
<BEGINHMM>
<NUMSTATES> 5
<STATE> 2
<MEAN> 39
 -1.641934e+01 -5.568337e-01 -1.129413e+01 -4.369774e-01 -8.976261e+00 7.165861e-01 -8.033732e+00 -2.100928e+00 -3.925588e+00 -4.022781e+00 -3.206606e+00 -4.086846e+00 3.574119e+01 1.040332e-01 -6.068988e-02 3.652048e-02 -8.331303e-02 -1.063051e-02 -5.755066e-02 -4.982740e-02 -1.763981e-04 6.305487e-03 2.478337e-02 -1.881829e-02 8.918220e-03 1.650477e-01 -4.665549e-03 -3.543261e-03 7.436236e-03 3.245662e-04 8.355475e-03 2.423548e-03 3.116370e-03 3.500953e-03 -4.556141e-03 5.629203e-03 8.005648e-04 2.398282e-03 6.087723e-04
<VARIANCE> 39
 1.991980e+01 8.167885e+00 1.375714e+01 2.462082e+01 1.511957e+01 2.075914e+01 1.806295e+01 1.730038e+01 1.585361e+01 1.394519e+01 1.603732e+01 1.221158e+01 3.752747e+01 4.958680e-01 5.119122e-01 7.638031e-01 1.141370e+00 1.022498e+00 1.395999e+00 1.398674e+00 1.501187e+00 1.402839e+00 1.491878e+00 1.420855e+00 1.236716e+00 4.549813e-01 8.453386e-02 9.252793e-02 1.453319e-01 2.003347e-01 1.997481e-01 2.870431e-01 2.779999e-01 3.096080e-01 2.846632e-01 3.095549e-01 2.913546e-01 2.529756e-01 5.633150e-02
<GCONST> 8.688090e+01
<STATE> 3
<MEAN> 39
 -1.605102e+01 -8.026953e-01 -1.106432e+01 -7.355576e-01 -8.913173e+00 5.204220e-01 -8.190616e+00 -2.062508e+00 -3.953364e+00 -3.897921e+00 -3.264247e+00 -4.033748e+00 3.639546e+01 9.131148e-02 -6.313263e-02 6.128503e-02 -7.246520e-02 1.922468e-02 -4.761002e-02 -3.986394e-02 1.092241e-02 -9.948134e-03 3.222793e-02 -1.433433e-02 1.345910e-02 1.664180e-01 -3.028992e-03 2.506675e-04 5.832965e-03 3.258692e-03 7.213656e-03 2.218669e-03 2.589162e-03 2.452817e-03 -4.030656e-03 1.050614e-03 9.442007e-04 9.032090e-04 -2.832353e-05
<VARIANCE> 39
 2.207315e+01 9.487534e+00 1.508041e+01 2.622028e+01 1.617255e+01 2.125107e+01 1.869920e+01 1.693818e+01 1.604934e+01 1.361880e+01 1.612402e+01 1.295275e+01 4.701215e+01 5.033807e-01 5.249404e-01 7.800103e-01 1.141677e+00 1.057526e+00 1.398778e+00 1.385280e+00 1.506473e+00 1.437121e+00 1.455508e+00 1.383715e+00 1.289094e+00 3.978770e-01 8.837094e-02 9.325046e-02 1.499759e-01 2.001931e-01 2.063222e-01 2.855550e-01 2.753443e-01 3.081042e-01 2.920597e-01 2.994640e-01 2.817276e-01 2.629374e-01 5.228276e-02
<GCONST> 8.766045e+01
<STATE> 4
<MEAN> 39
 -1.520770e+01 -9.824162e-01 -1.038683e+01 -1.305916e+00 -8.727371e+00 4.080200e-01 -8.341640e+00 -1.966854e+00 -4.121442e+00 -3.813128e+00 -3.321292e+00 -3.915139e+00 3.774142e+01 1.234301e-01 -2.295112e-02 9.488062e-02 -8.299947e-02 1.643102e-02 -5.882537e-03 -2.283548e-02 1.404695e-02 -2.199396e-02 8.064732e-03 -6.202541e-03 1.349742e-02 1.954124e-01 5.062894e-03 5.543395e-03 4.462712e-03 -2.163777e-03 -1.096643e-03 5.664750e-03 2.091592e-03 3.425866e-04 -1.362018e-03 -3.379085e-03 1.037631e-03 4.589069e-05 4.687078e-03
<VARIANCE> 39
 3.190458e+01 1.485976e+01 1.921860e+01 3.325245e+01 1.907275e+01 2.330078e+01 2.106570e+01 1.745876e+01 1.713731e+01 1.405974e+01 1.586441e+01 1.412881e+01 6.762476e+01 9.340686e-01 7.515460e-01 9.295257e-01 1.497876e+00 1.263143e+00 1.587772e+00 1.485414e+00 1.592759e+00 1.535722e+00 1.481933e+00 1.363993e+00 1.391443e+00 5.876997e-01 1.648902e-01 1.333433e-01 1.763893e-01 2.532650e-01 2.395422e-01 3.113105e-01 2.900193e-01 3.225713e-01 3.069698e-01 2.998730e-01 2.749452e-01 2.845240e-01 8.180925e-02
<GCONST> 9.455167e+01
<TRANSP> 5
 0.000000e+00 1.000000e+00 0.000000e+00 0.000000e+00 0.000000e+00
 0.000000e+00 7.494972e-01 2.505028e-01 0.000000e+00 0.000000e+00
 0.000000e+00 0.000000e+00 7.494974e-01 2.505025e-01 0.000000e+00
 0.000000e+00 0.000000e+00 0.000000e+00 8.734568e-01 1.265431e-01
 0.000000e+00 0.000000e+00 0.000000e+00 0.000000e+00 0.000000e+00
<ENDHMM>
~h "x"
<BEGINHMM>
<NUMSTATES> 5
<STATE> 2
<MEAN> 39
 -5.282844e+00 -8.794650e+00 -6.574194e-01 -1.133657e+01 -1.134577e+01 2.160505e+00 -1.172397e+01 3.133463e+00 -3.711540e+00 -3.484789e+00 -2.115611e+00 -6.723476e+00 6.921710e+01 1.681832e-02 -7.064550e-02 7.723421e-02 -1.274046e-01 4.866024e-02 -1.852407e-02 -9.785099e-03 2.868605e-03 -6.804294e-03 -2.609085e-02 7.214034e-02 -5.950397e-02 4.303254e-01 -7.640295e-03 8.577120e-03 -4.750017e-03 4.928757e-03 4.581151e-03 -3.000497e-04 2.431110e-03 -6.154906e-03 -2.073108e-03 -2.808821e-03 3.308862e-03 1.774227e-03 -1.762238e-02
<VARIANCE> 39
 1.092247e+02 8.567604e+01 8.363548e+01 9.881883e+01 6.953444e+01 9.685876e+01 9.374477e+01 8.112193e+01 4.934501e+01 4.492752e+01 6.206536e+01 4.074725e+01 2.607369e+02 4.335761e+00 3.252497e+00 4.191504e+00 3.809024e+00 4.401374e+00 5.024142e+00 5.364133e+00 5.259181e+00 3.627785e+00 3.311278e+00 3.225570e+00 2.899731e+00 4.926683e+00 5.958661e-01 4.862829e-01 6.055921e-01 5.292616e-01 7.320317e-01 7.783120e-01 8.412548e-01 9.173816e-01 6.263530e-01 5.908854e-01 5.689548e-01 5.434712e-01 5.211784e-01
<GCONST> 1.408470e+02
<STATE> 3
<MEAN> 39
 -5.307761e+00 -8.972528e+00 -3.986647e-01 -1.178513e+01 -1.109434e+01 2.082921e+00 -1.173630e+01 3.073472e+00 -3.763747e+00 -3.624370e+00 -1.785605e+00 -6.938197e+00 7.072976e+01 -1.187389e-02 -3.484770e-02 6.071423e-02 -1.044071e-01 6.570403e-02 -1.871578e-02 -3.074832e-03 -1.906556e-02 -1.558040e-02 -3.744821e-02 8.435260e-02 -5.160506e-02 3.533823e-01 -6.650390e-03 8.777609e-03 -3.774104e-03 5.753721e-03 3.894789e-03 1.102397e-04 1.279249e-03 -5.074482e-03 -2.193754e-03 -2.745413e-03 2.900949e-03 1.905024e-03 -1.915202e-02
<VARIANCE> 39
 1.125423e+02 8.453698e+01 8.670473e+01 9.194167e+01 7.137810e+01 1.023974e+02 9.737241e+01 8.283705e+01 5.096882e+01 4.648553e+01 6.254432e+01 4.180513e+01 2.199941e+02 4.555890e+00 3.225688e+00 4.176036e+00 3.681694e+00 4.458387e+00 5.117515e+00 5.557656e+00 5.309124e+00 3.661729e+00 3.337821e+00 3.261903e+00 2.892618e+00 4.726096e+00 6.103789e-01 4.785165e-01 5.976037e-01 5.167570e-01 7.364092e-01 7.809713e-01 8.626658e-01 9.196483e-01 6.296369e-01 5.906590e-01 5.731151e-01 5.357347e-01 5.012103e-01
<GCONST> 1.409286e+02
<STATE> 4
<MEAN> 39
 -5.655068e+00 -8.866205e+00 -7.296777e-02 -1.226695e+01 -1.049076e+01 1.911276e+00 -1.169982e+01 2.767294e+00 -3.934502e+00 -4.010665e+00 -1.111331e+00 -7.197507e+00 7.248846e+01 -4.466995e-02 2.070096e-02 4.413798e-02 -6.196721e-02 8.466505e-02 -1.343813e-02 -8.341134e-03 -3.889092e-02 -2.800899e-02 -5.497131e-02 9.765434e-02 -3.940148e-02 2.175751e-01 -3.423562e-03 7.077168e-03 -1.848651e-03 5.523836e-03 1.853464e-03 1.132892e-03 -1.353016e-03 -2.033609e-03 -1.727003e-03 -2.208776e-03 1.556551e-03 1.308778e-03 -1.809516e-02
<VARIANCE> 39
 1.216187e+02 8.333201e+01 9.260262e+01 8.122215e+01 7.403735e+01 1.125440e+02 1.032539e+02 8.432367e+01 5.295415e+01 4.885918e+01 6.165567e+01 4.452970e+01 1.603737e+02 4.958384e+00 3.128225e+00 4.062566e+00 3.412579e+00 4.517695e+00 5.203678e+00 5.804540e+00 5.281562e+00 3.637799e+00 3.330233e+00 3.279003e+00 2.869914e+00 4.147318e+00 6.349533e-01 4.580593e-01 5.736502e-01 4.901578e-01 7.367526e-01 7.685295e-01 8.839714e-01 9.049480e-01 6.235082e-01 5.769566e-01 5.709749e-01 5.177204e-01 4.463741e-01
<GCONST> 1.405461e+02
<TRANSP> 5
 0.000000e+00 1.000000e+00 0.000000e+00 0.000000e+00 0.000000e+00
 0.000000e+00 7.525443e-01 2.474557e-01 0.000000e+00 0.000000e+00
 0.000000e+00 0.000000e+00 7.525440e-01 2.474560e-01 0.000000e+00
 0.000000e+00 0.000000e+00 0.000000e+00 8.770740e-01 1.229260e-01
 0.000000e+00 0.000000e+00 0.000000e+00 0.000000e+00 0.000000e+00
<ENDHMM>
~h "y"
<BEGINHMM>
<NUMSTATES> 5
<STATE> 2
<MEAN> 39
 -1.446444e+01 -8.259335e-01 -9.477606e+00 -2.208622e+00 -9.388775e+00 9.006610e-01 -8.820837e+00 -1.430387e+00 -4.196880e+00 -4.006848e+00 -2.773853e+00 -3.899925e+00 3.906958e+01 1.873334e-01 -4.748237e-02 1.184876e-01 -1.630122e-01 -6.391866e-02 3.160549e-02 -4.580062e-02 3.709621e-02 -3.031461e-03 8.118415e-03 3.659124e-02 4.970931e-03 3.077242e-01 7.449006e-03 -4.309088e-03 7.594747e-03 -6.126752e-03 -5.998349e-05 3.789413e-03 -2.497419e-04 4.564508e-04 -5.790761e-03 -3.809521e-04 2.425323e-03 -9.487185e-05 1.655219e-02
<VARIANCE> 39
 5.423763e+01 2.361016e+01 3.436247e+01 5.873003e+01 2.602654e+01 3.220579e+01 2.785725e+01 2.336564e+01 1.758816e+01 1.625709e+01 1.753587e+01 1.618237e+01 1.273266e+02 1.547740e+00 1.173995e+00 1.582771e+00 2.452641e+00 1.931666e+00 2.180589e+00 1.943909e+00 1.967777e+00 1.698081e+00 1.821860e+00 1.514247e+00 1.566652e+00 1.394952e+00 2.723266e-01 2.024711e-01 2.853252e-01 3.872594e-01 3.649630e-01 3.980486e-01 3.754424e-01 3.873602e-01 3.320307e-01 3.704561e-01 3.075208e-01 3.160299e-01 1.753834e-01
<GCONST> 1.077363e+02
<STATE> 3
<MEAN> 39
 -1.365384e+01 -1.071510e+00 -8.903378e+00 -2.919226e+00 -9.615836e+00 1.082266e+00 -9.010173e+00 -1.275107e+00 -4.276563e+00 -3.985107e+00 -2.601045e+00 -3.891027e+00 4.049429e+01 2.068568e-01 -6.543844e-02 1.474736e-01 -1.815201e-01 -5.694079e-02 4.954793e-02 -4.940299e-02 3.997993e-02 -2.163423e-02 5.373973e-03 4.555178e-02 1.439055e-04 3.684780e-01 4.207001e-03 -4.475096e-03 6.901694e-03 -4.278665e-03 1.787069e-03 4.453447e-03 -1.120890e-03 9.158293e-04 -4.265326e-03 -6.070631e-04 2.370662e-03 -1.354147e-03 1.454141e-02
<VARIANCE> 39
 6.582767e+01 2.924071e+01 3.907065e+01 7.226453e+01 3.014447e+01 3.798171e+01 3.186133e+01 2.563355e+01 1.822962e+01 1.706175e+01 1.921788e+01 1.826525e+01 1.622281e+02 1.779179e+00 1.363097e+00 1.679184e+00 2.827383e+00 2.066098e+00 2.465121e+00 2.059208e+00 2.062031e+00 1.783447e+00 1.877907e+00 1.574121e+00 1.720642e+00 1.623716e+00 3.105802e-01 2.317478e-01 2.945570e-01 4.324585e-01 3.826343e-01 4.403237e-01 3.926059e-01 4.017016e-01 3.488470e-01 3.748227e-01 3.182352e-01 3.441543e-01 2.013731e-01
<GCONST> 1.116624e+02
<STATE> 4
<MEAN> 39
 -1.212751e+01 -1.739230e+00 -7.561136e+00 -4.315037e+00 -9.991249e+00 1.552952e+00 -9.465246e+00 -8.457662e-01 -4.560277e+00 -3.915529e+00 -2.130342e+00 -4.048356e+00 4.372880e+01 2.116049e-01 -9.505674e-02 1.838059e-01 -1.916265e-01 -5.562262e-02 6.878685e-02 -6.716856e-02 6.301154e-02 -3.698219e-02 1.032719e-02 6.802113e-02 -2.770508e-02 4.522650e-01 3.672215e-04 -4.040521e-03 4.423382e-03 -1.234753e-03 -1.244607e-04 2.216241e-03 -2.702783e-03 3.478831e-03 -1.786499e-03 7.475556e-04 3.107806e-03 -3.956228e-03 1.098675e-02
<VARIANCE> 39
 8.448358e+01 4.070156e+01 4.899514e+01 9.750298e+01 3.971665e+01 4.964198e+01 4.195580e+01 3.222508e+01 2.093334e+01 1.921857e+01 2.352975e+01 2.292791e+01 2.389887e+02 2.122435e+00 1.724851e+00 2.020104e+00 3.452751e+00 2.407184e+00 3.102763e+00 2.368630e+00 2.380847e+00 2.040547e+00 2.031718e+00 1.761513e+00 2.074912e+00 2.097416e+00 3.633975e-01 2.915225e-01 3.364877e-01 5.025523e-01 4.278823e-01 5.348840e-01 4.393011e-01 4.526517e-01 3.908216e-01 3.942244e-01 3.515940e-01 4.101521e-01 2.544220e-01
<GCONST> 1.190037e+02
<TRANSP> 5
 0.000000e+00 1.000000e+00 0.000000e+00 0.000000e+00 0.000000e+00
 0.000000e+00 7.514738e-01 2.485263e-01 0.000000e+00 0.000000e+00
 0.000000e+00 0.000000e+00 7.514743e-01 2.485257e-01 0.000000e+00
 0.000000e+00 0.000000e+00 0.000000e+00 8.756931e-01 1.243069e-01
 0.000000e+00 0.000000e+00 0.000000e+00 0.000000e+00 0.000000e+00
<ENDHMM>
~h "z"
<BEGINHMM>
<NUMSTATES> 5
<STATE> 2
<MEAN> 39
 1.523586e+00 -6.002868e+00 -2.192155e+00 -1.537768e+01 -9.668510e+00 9.951674e+00 -1.349168e+01 -1.581051e+00 -3.922749e+00 -6.468031e+00 1.431252e+00 -7.137907e+00 6.827966e+01 6.044448e-02 -6.646755e-03 -1.093581e-02 6.651574e-02 1.584134e-02 -3.693288e-02 -1.226076e-01 2.495409e-02 3.165716e-02 -3.068376e-02 5.697965e-03 -9.655645e-03 1.831289e-02 -1.173977e-03 3.815526e-04 3.293231e-03 3.140550e-03 -3.358849e-03 -1.857954e-03 -1.497599e-03 2.822022e-03 -1.941666e-03 -6.435370e-04 1.984695e-03 -3.385172e-03 2.159939e-04
<VARIANCE> 39
 7.306073e+01 4.592216e+01 8.057607e+01 1.029671e+02 5.893956e+01 1.260235e+02 7.622684e+01 5.367195e+01 1.077901e+02 3.371836e+01 4.628657e+01 3.162776e+01 5.909793e+01 6.516132e+00 2.978467e+00 3.863700e+00 5.791325e+00 5.035217e+00 7.827056e+00 5.494067e+00 4.608645e+00 5.787808e+00 3.011843e+00 3.520552e+00 2.510589e+00 3.704443e+00 1.066145e+00 4.552989e-01 6.094788e-01 8.566886e-01 9.271390e-01 1.174932e+00 1.045188e+00 8.502268e-01 8.461698e-01 5.854433e-01 5.968670e-01 4.463473e-01 5.348915e-01
<GCONST> 1.408854e+02
<STATE> 3
<MEAN> 39
 1.756762e+00 -6.022712e+00 -2.198871e+00 -1.507885e+01 -9.631382e+00 9.784147e+00 -1.400153e+01 -1.459415e+00 -3.821450e+00 -6.594028e+00 1.472350e+00 -7.206908e+00 6.835561e+01 5.495777e-02 -6.150185e-03 6.743493e-04 7.854692e-02 1.724401e-03 -4.382574e-02 -1.266819e-01 3.710153e-02 2.516653e-02 -3.370368e-02 1.290419e-02 -2.295583e-02 1.905451e-02 -1.508279e-03 -1.739097e-04 2.573627e-03 2.846993e-03 -3.515631e-03 -1.659189e-03 -4.643916e-04 3.009514e-03 -1.366867e-03 -9.423443e-04 1.612906e-03 -3.164074e-03 -7.335853e-05
<VARIANCE> 39
 6.849582e+01 4.544190e+01 7.772141e+01 1.039634e+02 5.948321e+01 1.245568e+02 7.729361e+01 5.578807e+01 1.038399e+02 3.400823e+01 4.860903e+01 3.224061e+01 5.869984e+01 6.293451e+00 2.994754e+00 4.102099e+00 5.865552e+00 5.198488e+00 8.113907e+00 5.704862e+00 4.814165e+00 5.803481e+00 3.056412e+00 3.622121e+00 2.563191e+00 3.778576e+00 1.055956e+00 4.576072e-01 6.595181e-01 8.693533e-01 9.694167e-01 1.233985e+00 1.102161e+00 8.926967e-01 8.656538e-01 5.969867e-01 6.079835e-01 4.566770e-01 5.461497e-01
<GCONST> 1.415343e+02
<STATE> 4
<MEAN> 39
 2.072482e+00 -6.062549e+00 -2.140173e+00 -1.453580e+01 -9.685763e+00 9.486407e+00 -1.476484e+01 -1.221849e+00 -3.721657e+00 -6.806044e+00 1.602443e+00 -7.399352e+00 6.843111e+01 4.392261e-02 -9.303247e-03 1.389065e-02 9.482694e-02 -1.976318e-02 -5.224976e-02 -1.260439e-01 5.670529e-02 1.801484e-02 -3.948554e-02 2.009079e-02 -4.109230e-02 1.832224e-02 -2.057829e-03 -1.157519e-03 1.309398e-03 2.302250e-03 -3.422630e-03 -1.228017e-03 1.140422e-03 3.166098e-03 -4.660103e-04 -1.281645e-03 6.950990e-04 -2.554978e-03 -6.452388e-04
<VARIANCE> 39
 6.176427e+01 4.540141e+01 7.427557e+01 1.050426e+02 6.112533e+01 1.217516e+02 7.819579e+01 5.950614e+01 9.699712e+01 3.462003e+01 5.358582e+01 3.354957e+01 5.835170e+01 5.939834e+00 3.013226e+00 4.490261e+00 5.988912e+00 5.481087e+00 8.519857e+00 5.994743e+00 5.153671e+00 5.793473e+00 3.134649e+00 3.811198e+00 2.657307e+00 3.874849e+00 1.033805e+00 4.596930e-01 7.396060e-01 8.934299e-01 1.040530e+00 1.319302e+00 1.181089e+00 9.634919e-01 8.933593e-01 6.164091e-01 6.271448e-01 4.741545e-01 5.592058e-01
<GCONST> 1.425353e+02
<TRANSP> 5
 0.000000e+00 1.000000e+00 0.000000e+00 0.000000e+00 0.000000e+00
 0.000000e+00 7.520731e-01 2.479269e-01 0.000000e+00 0.000000e+00
 0.000000e+00 0.000000e+00 7.520728e-01 2.479273e-01 0.000000e+00
 0.000000e+00 0.000000e+00 0.000000e+00 8.767008e-01 1.232992e-01
 0.000000e+00 0.000000e+00 0.000000e+00 0.000000e+00 0.000000e+00
<ENDHMM>
~h "ai"
<BEGINHMM>
<NUMSTATES> 5
<STATE> 2
<MEAN> 39
 -5.996939e+00 -7.060616e+00 -5.020645e+00 -4.893292e+00 -1.048134e+01 2.767309e+00 -1.060517e+01 2.693412e+00 -3.477149e+00 -6.792152e+00 -2.783122e+00 -6.338741e+00 5.551559e+01 2.214935e-03 -3.313968e-02 2.214927e-02 1.151376e-02 1.680838e-02 -3.869214e-02 8.588544e-02 3.384784e-03 -8.412064e-03 5.047101e-02 -5.603626e-02 4.483192e-02 2.764529e-02 1.692388e-03 -1.713052e-04 2.112669e-03 -1.067937e-03 9.000357e-04 1.762745e-03 -3.433422e-03 -2.190604e-03 5.646249e-04 1.152150e-03 1.478475e-03 -9.437378e-04 7.116359e-03
<VARIANCE> 39
 9.990596e+01 8.309975e+01 5.140905e+01 7.815308e+01 4.182684e+01 7.586717e+01 9.739840e+01 7.343211e+01 3.327148e+01 4.176987e+01 6.435227e+01 3.714111e+01 2.744997e+02 3.171199e+00 2.859956e+00 3.114625e+00 3.906361e+00 3.093501e+00 5.009347e+00 4.161511e+00 4.177779e+00 2.998893e+00 2.903638e+00 3.341363e+00 2.324517e+00 3.665335e+00 5.246218e-01 4.497155e-01 5.219561e-01 6.538829e-01 5.974298e-01 8.168679e-01 7.383171e-01 7.605035e-01 5.794998e-01 5.563887e-01 5.552158e-01 4.396353e-01 5.008470e-01
<GCONST> 1.353342e+02
<STATE> 3
<MEAN> 39
 -5.970766e+00 -7.203171e+00 -4.908012e+00 -4.842282e+00 -1.041374e+01 2.610425e+00 -1.027801e+01 2.704397e+00 -3.502295e+00 -6.577522e+00 -3.011853e+00 -6.163073e+00 5.569636e+01 1.123525e-02 -3.427368e-02 3.102239e-02 6.156435e-03 1.921888e-02 -3.366740e-02 6.944662e-02 -3.518152e-03 -4.990130e-03 5.341364e-02 -5.047473e-02 3.905778e-02 6.099325e-02 2.172853e-03 -4.775134e-04 2.123713e-03 -1.645531e-03 7.032042e-04 1.714402e-03 -4.694683e-03 -9.322062e-04 1.385570e-03 1.668588e-04 1.483048e-03 -1.827650e-03 8.859139e-03
<VARIANCE> 39
 1.015850e+02 8.446915e+01 4.985869e+01 8.051823e+01 4.196087e+01 7.821692e+01 9.585408e+01 7.318228e+01 3.323155e+01 4.275617e+01 6.183506e+01 3.675346e+01 2.734378e+02 3.364572e+00 2.966677e+00 3.032032e+00 3.925609e+00 3.034166e+00 5.046269e+00 4.169616e+00 4.152351e+00 2.953479e+00 2.962011e+00 3.314323e+00 2.368087e+00 3.823629e+00 5.483841e-01 4.671092e-01 5.078828e-01 6.453590e-01 5.816290e-01 8.131868e-01 7.333770e-01 7.560815e-01 5.705416e-01 5.660164e-01 5.590154e-01 4.508485e-01 5.185457e-01
<GCONST> 1.355299e+02
<STATE> 4
<MEAN> 39
 -5.746226e+00 -7.566755e+00 -4.569636e+00 -4.867755e+00 -1.036065e+01 2.361089e+00 -9.928898e+00 2.809308e+00 -3.481471e+00 -6.273084e+00 -3.400519e+00 -5.967854e+00 5.658291e+01 2.394543e-02 -3.848855e-02 4.323306e-02 -1.002209e-02 2.012246e-02 -3.203787e-02 4.224848e-02 -5.389994e-03 1.955198e-03 5.076652e-02 -3.939195e-02 2.522077e-02 1.247277e-01 1.670881e-03 -4.272705e-04 1.081655e-03 -3.638366e-03 3.781795e-04 1.764570e-03 -5.414004e-03 -1.302806e-04 1.969519e-03 -1.027621e-03 2.910614e-03 -2.857480e-03 1.010455e-02
<VARIANCE> 39
 1.034976e+02 8.690992e+01 4.938693e+01 8.301379e+01 4.300507e+01 8.165947e+01 9.426127e+01 7.385973e+01 3.377805e+01 4.424799e+01 5.990138e+01 3.660109e+01 2.757438e+02 3.687435e+00 3.156669e+00 2.991688e+00 3.931121e+00 3.013284e+00 5.122339e+00 4.298318e+00 4.228340e+00 2.927670e+00 3.074572e+00 3.339094e+00 2.469787e+00 4.142369e+00 5.886304e-01 4.945043e-01 4.980819e-01 6.300657e-01 5.698390e-01 8.118526e-01 7.438302e-01 7.702608e-01 5.637702e-01 5.846291e-01 5.744206e-01 4.728593e-01 5.511070e-01
<GCONST> 1.362887e+02
<TRANSP> 5
 0.000000e+00 1.000000e+00 0.000000e+00 0.000000e+00 0.000000e+00
 0.000000e+00 7.528040e-01 2.471959e-01 0.000000e+00 0.000000e+00
 0.000000e+00 0.000000e+00 7.528039e-01 2.471961e-01 0.000000e+00
 0.000000e+00 0.000000e+00 0.000000e+00 8.773653e-01 1.226347e-01
 0.000000e+00 0.000000e+00 0.000000e+00 0.000000e+00 0.000000e+00
<ENDHMM>
~h "an"
<BEGINHMM>
<NUMSTATES> 5
<STATE> 2
<MEAN> 39
 -5.522599e+00 -8.614453e+00 -2.267028e+00 -9.195374e+00 -1.043680e+01 1.896839e+00 -1.116940e+01 4.632650e+00 -3.102508e+00 -3.975067e+00 -4.477646e+00 -5.647733e+00 6.665030e+01 1.027464e-01 -1.204460e-01 7.954101e-02 -1.936678e-01 1.079868e-02 -1.251445e-02 -1.686111e-02 1.018520e-01 4.519557e-02 -4.690346e-02 -1.574956e-02 -5.127640e-02 6.182027e-01 -1.023712e-02 8.459883e-03 -7.065013e-03 2.910163e-03 5.139660e-03 2.918197e-04 7.151930e-03 -8.606344e-03 -4.912005e-04 -3.274340e-03 6.550085e-03 2.330457e-03 -1.495109e-02
<VARIANCE> 39
 8.801954e+01 8.418406e+01 5.331141e+01 1.052728e+02 5.332714e+01 6.579702e+01 8.400090e+01 7.994992e+01 4.318763e+01 3.714518e+01 4.850052e+01 3.373614e+01 3.106299e+02 4.707127e+00 4.101469e+00 3.731204e+00 4.001624e+00 4.097718e+00 4.733676e+00 5.895691e+00 5.849893e+00 4.005180e+00 3.164626e+00 2.897167e+00 2.546931e+00 4.935210e+00 7.040676e-01 6.051009e-01 5.978557e-01 5.551890e-01 6.858061e-01 7.856653e-01 9.332060e-01 9.938461e-01 6.988522e-01 5.967356e-01 5.296705e-01 4.538866e-01 4.940214e-01
<GCONST> 1.393642e+02
<STATE> 3
<MEAN> 39
 -5.247035e+00 -8.980378e+00 -2.025653e+00 -9.896202e+00 -1.032612e+01 1.845926e+00 -1.115553e+01 4.932243e+00 -2.931229e+00 -4.206953e+00 -4.453603e+00 -5.819409e+00 6.886907e+01 6.065957e-02 -8.230395e-02 5.525285e-02 -1.723761e-01 3.219131e-02 -1.096901e-02 8.866169e-03 6.568851e-02 4.152193e-02 -6.124488e-02 1.355989e-02 -4.221981e-02 5.401855e-01 -1.060078e-02 9.879596e-03 -5.707364e-03 6.213360e-03 5.278987e-03 2.932471e-04 6.174153e-03 -9.141332e-03 -1.124182e-03 -3.712593e-03 7.516546e-03 2.236512e-03 -2.104577e-02
<VARIANCE> 39
 8.726426e+01 8.286945e+01 5.337183e+01 9.755594e+01 5.416731e+01 6.720636e+01 8.866384e+01 8.145264e+01 4.486570e+01 3.808226e+01 4.850364e+01 3.387313e+01 2.647161e+02 5.083097e+00 4.289956e+00 3.724427e+00 3.908587e+00 4.188695e+00 4.855125e+00 6.391492e+00 6.051846e+00 4.209204e+00 3.154713e+00 2.909758e+00 2.541935e+00 4.832921e+00 7.453259e-01 6.231412e-01 5.865573e-01 5.369619e-01 6.925653e-01 7.960047e-01 9.994940e-01 1.014801e+00 7.356119e-01 5.926297e-01 5.242507e-01 4.478123e-01 4.745119e-01
<GCONST> 1.396945e+02
<STATE> 4
<MEAN> 39
 -5.201315e+00 -9.195612e+00 -1.726152e+00 -1.074668e+01 -9.946277e+00 1.748969e+00 -1.097757e+01 5.095413e+00 -2.691061e+00 -4.814845e+00 -4.104731e+00 -6.027472e+00 7.166137e+01 5.042191e-04 -1.667490e-02 4.317883e-02 -1.177559e-01 5.725195e-02 -7.225809e-03 2.356096e-02 1.393909e-02 2.607153e-02 -8.890669e-02 6.795066e-02 -3.495765e-02 3.724241e-01 -7.617748e-03 9.018787e-03 -1.097306e-03 7.793628e-03 2.856962e-03 6.905926e-04 1.333574e-03 -6.981516e-03 -2.486255e-03 -3.700604e-03 7.440779e-03 7.111932e-04 -2.386842e-02
<VARIANCE> 39
 8.997513e+01 8.026044e+01 5.467300e+01 8.287820e+01 5.502567e+01 6.920911e+01 9.749035e+01 8.176771e+01 4.741435e+01 4.060928e+01 4.818527e+01 3.398469e+01 1.886339e+02 5.730193e+00 4.507830e+00 3.615448e+00 3.696743e+00 4.274364e+00 4.968435e+00 7.061858e+00 6.162929e+00 4.432684e+00 3.134268e+00 2.914394e+00 2.486103e+00 4.298560e+00 8.158642e-01 6.407503e-01 5.549255e-01 5.099469e-01 6.923627e-01 8.012905e-01 1.078117e+00 1.011978e+00 7.743604e-01 5.809040e-01 5.084282e-01 4.264657e-01 4.134837e-01
<GCONST> 1.395326e+02
<TRANSP> 5
 0.000000e+00 1.000000e+00 0.000000e+00 0.000000e+00 0.000000e+00
 0.000000e+00 7.478714e-01 2.521285e-01 0.000000e+00 0.000000e+00
 0.000000e+00 0.000000e+00 7.478720e-01 2.521280e-01 0.000000e+00
 0.000000e+00 0.000000e+00 0.000000e+00 8.717647e-01 1.282353e-01
 0.000000e+00 0.000000e+00 0.000000e+00 0.000000e+00 0.000000e+00
<ENDHMM>
~h "ao"
<BEGINHMM>
<NUMSTATES> 5
<STATE> 2
<MEAN> 39
 -3.079082e+00 -5.701200e+00 -1.338676e+00 -1.204915e+01 -1.010552e+01 6.864424e+00 -1.252476e+01 6.237525e-02 -5.813351e+00 -5.285163e+00 1.329337e+00 -7.783323e+00 6.418869e+01 6.671579e-02 -3.646979e-02 -8.388276e-03 -2.782178e-02 -8.488470e-04 8.867114e-03 -2.334847e-02 7.598588e-03 3.727825e-02 1.251335e-02 -1.033422e-02 2.011245e-02 1.089603e-01 6.021664e-05 -2.729918e-03 -2.449765e-03 5.609165e-05 9.021119e-04 6.847865e-04 -2.196020e-03 2.204227e-03 2.558636e-03 -1.638293e-03 -3.063991e-04 -9.925829e-04 3.183086e-03
<VARIANCE> 39
 1.090345e+02 6.219099e+01 1.182844e+02 1.148972e+02 8.490325e+01 1.336720e+02 8.766642e+01 5.665609e+01 7.297300e+01 4.222656e+01 5.984747e+01 5.189345e+01 1.930464e+02 6.050373e+00 2.914064e+00 3.959577e+00 5.367999e+00 5.456196e+00 7.529453e+00 5.093802e+00 4.241529e+00 3.888059e+00 2.962522e+00 3.313302e+00 3.029453e+00 3.640358e+00 8.925703e-01 4.609748e-01 5.840273e-01 8.246275e-01 9.211095e-01 1.122876e+00 9.059920e-01 8.080178e-01 6.507708e-01 5.296038e-01 5.442876e-01 5.166481e-01 4.953761e-01
<GCONST> 1.430247e+02
<STATE> 3
<MEAN> 39
 -2.813422e+00 -5.877089e+00 -1.395067e+00 -1.216030e+01 -1.010085e+01 6.901424e+00 -1.264113e+01 1.178080e-01 -5.637043e+00 -5.245657e+00 1.286062e+00 -7.715013e+00 6.466553e+01 6.705008e-02 -4.743448e-02 -1.838371e-02 -2.779363e-02 2.433877e-03 1.179718e-02 -3.257565e-02 1.666840e-02 4.741785e-02 5.547154e-03 -1.128053e-02 1.482361e-02 1.207016e-01 -1.089069e-04 -2.642304e-03 -2.398155e-03 1.479833e-04 8.921588e-04 6.820852e-04 -1.996768e-03 2.236377e-03 2.278679e-03 -1.835710e-03 -2.323872e-04 -1.328488e-03 2.432893e-03
<VARIANCE> 39
 1.070936e+02 6.222338e+01 1.141629e+02 1.150135e+02 8.582426e+01 1.345657e+02 8.792890e+01 5.747234e+01 7.185905e+01 4.231396e+01 6.011607e+01 5.106863e+01 1.862655e+02 6.071602e+00 2.971675e+00 4.018610e+00 5.476930e+00 5.588754e+00 7.768076e+00 5.208313e+00 4.392319e+00 3.932982e+00 3.004708e+00 3.364649e+00 3.096998e+00 3.787225e+00 9.007843e-01 4.727566e-01 6.006743e-01 8.423790e-01 9.501316e-01 1.163657e+00 9.304198e-01 8.397294e-01 6.615453e-01 5.412868e-01 5.539895e-01 5.292277e-01 5.195106e-01
<GCONST> 1.435630e+02
<STATE> 4
<MEAN> 39
 -2.377513e+00 -6.275265e+00 -1.526870e+00 -1.238104e+01 -1.007600e+01 6.968709e+00 -1.287320e+01 2.766429e-01 -5.283782e+00 -5.234974e+00 1.229831e+00 -7.672511e+00 6.563879e+01 6.643827e-02 -6.350735e-02 -3.395196e-02 -2.959338e-02 8.377173e-03 1.552431e-02 -4.413170e-02 2.844522e-02 6.148788e-02 -5.306961e-03 -1.337362e-02 4.627455e-03 1.362585e-01 -3.568895e-04 -2.060660e-03 -2.195630e-03 6.179939e-05 1.029082e-03 6.385463e-04 -1.156142e-03 1.592969e-03 1.604792e-03 -1.944053e-03 -3.453256e-04 -1.385163e-03 1.107657e-03
<VARIANCE> 39
 1.026946e+02 6.207186e+01 1.073916e+02 1.140550e+02 8.705501e+01 1.359987e+02 8.876437e+01 5.978078e+01 7.007554e+01 4.300304e+01 6.087812e+01 4.968470e+01 1.732355e+02 6.031831e+00 3.051837e+00 4.160269e+00 5.565506e+00 5.806049e+00 8.091329e+00 5.387686e+00 4.656026e+00 4.033484e+00 3.081579e+00 3.480872e+00 3.193297e+00 4.083186e+00 9.004056e-01 4.891188e-01 6.345555e-01 8.585761e-01 9.977915e-01 1.218598e+00 9.642391e-01 8.906379e-01 6.828257e-01 5.613955e-01 5.751579e-01 5.481303e-01 5.626377e-01
<GCONST> 1.443761e+02
<TRANSP> 5
 0.000000e+00 1.000000e+00 0.000000e+00 0.000000e+00 0.000000e+00
 0.000000e+00 7.517509e-01 2.482491e-01 0.000000e+00 0.000000e+00
 0.000000e+00 0.000000e+00 7.517503e-01 2.482497e-01 0.000000e+00
 0.000000e+00 0.000000e+00 0.000000e+00 8.761213e-01 1.238787e-01
 0.000000e+00 0.000000e+00 0.000000e+00 0.000000e+00 0.000000e+00
<ENDHMM>
~h "ch"
<BEGINHMM>
<NUMSTATES> 5
<STATE> 2
<MEAN> 39
 -1.467037e-01 -5.904450e+00 -3.450004e+00 -1.031192e+01 -7.479097e+00 7.668994e+00 -1.021455e+01 -2.319866e+00 -5.439618e+00 -6.707567e+00 1.030974e+00 -6.543381e+00 6.453460e+01 -6.727751e-02 6.557131e-02 -1.328093e-01 6.536110e-02 7.740679e-02 -9.869089e-03 3.644351e-02 -1.583323e-04 8.331008e-02 -3.960314e-02 -2.230260e-02 7.741677e-02 -1.786016e-01 -8.921537e-03 2.056419e-03 5.056678e-03 8.783318e-03 -4.327456e-03 -9.558411e-03 1.383952e-03 2.569407e-03 -2.765581e-03 4.161244e-03 -1.193434e-03 -2.410511e-03 -9.206800e-03
<VARIANCE> 39
 9.626862e+01 6.041123e+01 9.639893e+01 8.633834e+01 8.559426e+01 1.419651e+02 6.671075e+01 4.601442e+01 5.972630e+01 5.704131e+01 5.123173e+01 4.178012e+01 1.453077e+02 5.865932e+00 3.092225e+00 3.045282e+00 5.117694e+00 4.992763e+00 7.578167e+00 4.146782e+00 4.163610e+00 3.591130e+00 3.699718e+00 3.614586e+00 2.745532e+00 4.315557e+00 8.670574e-01 5.431246e-01 4.946779e-01 8.311990e-01 8.909378e-01 1.135290e+00 7.004063e-01 7.588750e-01 6.296280e-01 6.314963e-01 6.541386e-01 4.981645e-01 6.347029e-01
<GCONST> 1.412977e+02
<STATE> 3
<MEAN> 39
 -4.579816e-01 -5.627552e+00 -3.958713e+00 -1.000100e+01 -7.192074e+00 7.588994e+00 -1.007946e+01 -2.301397e+00 -5.114101e+00 -6.862164e+00 9.468394e-01 -6.256689e+00 6.376599e+01 -1.039620e-01 7.326575e-02 -1.088507e-01 1.009776e-01 5.733025e-02 -4.885375e-02 4.155105e-02 9.608075e-03 7.022228e-02 -2.186695e-02 -2.713463e-02 6.648027e-02 -2.150430e-01 -8.980649e-03 1.808454e-04 6.631618e-03 7.928730e-03 -5.834816e-03 -9.526365e-03 1.123040e-04 1.797561e-03 -2.843799e-03 4.408644e-03 -1.196999e-03 -2.982934e-03 -7.243646e-03
<VARIANCE> 39
 9.702950e+01 5.945577e+01 9.080882e+01 8.589157e+01 8.492685e+01 1.393022e+02 6.920730e+01 4.586305e+01 5.639505e+01 5.665428e+01 5.013108e+01 3.990743e+01 1.622181e+02 5.459071e+00 3.001897e+00 3.020335e+00 4.951678e+00 4.993475e+00 7.339231e+00 4.191543e+00 4.159292e+00 3.533493e+00 3.626264e+00 3.488573e+00 2.644134e+00 4.255038e+00 7.972184e-01 5.315804e-01 4.970004e-01 8.150263e-01 8.985735e-01 1.112674e+00 7.049558e-01 7.539591e-01 6.240106e-01 6.187203e-01 6.305218e-01 4.801367e-01 6.243765e-01
<GCONST> 1.406698e+02
<STATE> 4
<MEAN> 39
 -1.050047e+00 -5.325005e+00 -4.538790e+00 -9.340471e+00 -6.958845e+00 7.202340e+00 -9.960914e+00 -2.231796e+00 -4.655418e+00 -7.021940e+00 8.132074e-01 -5.963058e+00 6.262436e+01 -1.448370e-01 7.339940e-02 -6.778984e-02 1.380164e-01 2.127497e-02 -9.047420e-02 3.503708e-02 2.067556e-02 5.145021e-02 -4.319049e-03 -2.882186e-02 4.470389e-02 -2.461534e-01 -7.366775e-03 -2.052935e-03 7.413317e-03 5.406487e-03 -7.276921e-03 -7.730893e-03 -2.280117e-03 1.166634e-03 -2.442651e-03 3.173497e-03 -4.138173e-04 -3.491835e-03 -3.677272e-03
<VARIANCE> 39
 9.795978e+01 5.751870e+01 8.201143e+01 8.443420e+01 8.337569e+01 1.336030e+02 7.316570e+01 4.673415e+01 5.136326e+01 5.514837e+01 4.990343e+01 3.768192e+01 1.873290e+02 4.865498e+00 2.859153e+00 3.042652e+00 4.699206e+00 4.982049e+00 7.017935e+00 4.240775e+00 4.210248e+00 3.470676e+00 3.528118e+00 3.403593e+00 2.529438e+00 4.200588e+00 7.020966e-01 5.133571e-01 5.099735e-01 7.930748e-01 9.069664e-01 1.086286e+00 7.130129e-01 7.549055e-01 6.203671e-01 6.081025e-01 6.165932e-01 4.620323e-01 6.172501e-01
<GCONST> 1.398828e+02
<TRANSP> 5
 0.000000e+00 1.000000e+00 0.000000e+00 0.000000e+00 0.000000e+00
 0.000000e+00 7.558079e-01 2.441921e-01 0.000000e+00 0.000000e+00
 0.000000e+00 0.000000e+00 7.558076e-01 2.441923e-01 0.000000e+00
 0.000000e+00 0.000000e+00 0.000000e+00 8.805740e-01 1.194260e-01
 0.000000e+00 0.000000e+00 0.000000e+00 0.000000e+00 0.000000e+00
<ENDHMM>
~h "er"
<BEGINHMM>
<NUMSTATES> 5
<STATE> 2
<MEAN> 39
 -6.504533e+00 -6.736800e+00 -3.944649e+00 -9.037111e+00 -1.104086e+01 4.132191e+00 -1.221212e+01 2.140368e+00 -4.266885e+00 -3.408582e+00 -2.427672e+00 -5.896677e+00 5.739757e+01 2.105229e-01 -2.855890e-01 1.366403e-01 -1.842484e-01 -2.066748e-02 6.763338e-02 -1.128778e-01 1.751051e-01 8.953538e-03 7.408074e-03 -1.865662e-02 -1.023834e-01 7.114781e-01 3.677412e-04 -6.243043e-03 -7.497399e-03 -3.097453e-03 2.400516e-03 -1.715024e-03 -6.399832e-04 2.840200e-03 2.708935e-03 -1.948392e-03 -2.187384e-03 -3.754978e-03 1.191227e-02
<VARIANCE> 39
 1.068639e+02 9.893488e+01 7.460461e+01 1.281436e+02 5.305515e+01 9.036393e+01 6.768401e+01 6.599751e+01 3.665196e+01 3.293305e+01 5.178213e+01 3.989639e+01 4.284889e+02 2.580247e+00 2.532862e+00 3.984241e+00 3.222088e+00 3.209363e+00 4.110728e+00 3.336025e+00 3.906960e+00 2.754267e+00 2.494174e+00 2.434681e+00 2.787975e+00 3.529661e+00 4.251842e-01 4.098577e-01 5.954192e-01 4.151720e-01 5.454975e-01 6.141216e-01 5.483868e-01 6.795205e-01 4.664775e-01 4.266702e-01 4.500301e-01 5.317592e-01 3.832208e-01
<GCONST> 1.332291e+02
<STATE> 3
<MEAN> 39
 -5.639201e+00 -7.965419e+00 -3.514174e+00 -9.848793e+00 -1.109425e+01 4.413474e+00 -1.266734e+01 2.864045e+00 -4.196217e+00 -3.398961e+00 -2.532467e+00 -6.354450e+00 6.041451e+01 2.116941e-01 -3.070051e-01 9.546875e-02 -2.028422e-01 -7.029545e-03 6.831051e-02 -1.103274e-01 1.802532e-01 1.891321e-02 -8.895327e-04 -2.561506e-02 -1.150585e-01 7.501737e-01 -5.505997e-05 -4.546617e-03 -1.071826e-02 -4.566341e-03 3.643340e-03 4.244415e-04 1.051175e-03 7.113597e-04 2.400024e-03 -2.049276e-03 -1.492669e-03 -2.817977e-03 8.114628e-03
<VARIANCE> 39
 1.027117e+02 1.029882e+02 7.923882e+01 1.217973e+02 5.510812e+01 9.850214e+01 7.169044e+01 7.239278e+01 4.041099e+01 3.456141e+01 5.719532e+01 4.219974e+01 4.295014e+02 2.681625e+00 2.664606e+00 4.458355e+00 3.062980e+00 3.482474e+00 4.429321e+00 3.670388e+00 4.249289e+00 2.949342e+00 2.564441e+00 2.618659e+00 2.909400e+00 3.862636e+00 4.277772e-01 4.293424e-01 6.578935e-01 3.935958e-01 5.882140e-01 6.478126e-01 5.877114e-01 7.248629e-01 4.903673e-01 4.350654e-01 4.800367e-01 5.511897e-01 4.096569e-01
<GCONST> 1.352039e+02
<STATE> 4
<MEAN> 39
 -4.154024e+00 -1.025905e+01 -3.427990e+00 -1.146868e+01 -1.096983e+01 5.028742e+00 -1.331651e+01 4.082972e+00 -4.008162e+00 -3.475009e+00 -2.769124e+00 -7.230967e+00 6.591557e+01 1.969347e-01 -3.111480e-01 -5.186418e-03 -2.234127e-01 3.239140e-02 8.377130e-02 -8.646308e-02 1.673959e-01 2.552206e-02 -1.615139e-02 -2.095772e-02 -1.209553e-01 7.360939e-01 -3.173127e-03 1.340850e-03 -1.330730e-02 -1.347360e-03 5.724427e-03 1.349321e-03 3.647291e-03 -2.269195e-03 6.423804e-04 -2.156936e-03 1.286556e-03 -1.826952e-05 -5.653455e-03
<VARIANCE> 39
 9.274792e+01 1.028124e+02 8.510446e+01 1.059091e+02 5.734377e+01 1.166478e+02 7.777721e+01 8.217097e+01 4.521283e+01 3.542508e+01 6.377575e+01 4.480223e+01 3.898372e+02 2.877431e+00 2.813558e+00 4.883407e+00 2.705034e+00 3.809566e+00 4.941261e+00 4.329983e+00 4.823266e+00 3.195889e+00 2.561775e+00 2.831698e+00 3.032493e+00 4.184519e+00 4.316662e-01 4.475007e-01 7.040260e-01 3.452815e-01 6.355453e-01 6.885324e-01 6.644705e-01 7.880154e-01 5.192835e-01 4.319412e-01 5.133632e-01 5.669538e-01 4.237515e-01
<GCONST> 1.370306e+02
<TRANSP> 5
 0.000000e+00 1.000000e+00 0.000000e+00 0.000000e+00 0.000000e+00
 0.000000e+00 7.520926e-01 2.479074e-01 0.000000e+00 0.000000e+00
 0.000000e+00 0.000000e+00 7.520919e-01 2.479081e-01 0.000000e+00
 0.000000e+00 0.000000e+00 0.000000e+00 8.762944e-01 1.237056e-01
 0.000000e+00 0.000000e+00 0.000000e+00 0.000000e+00 0.000000e+00
<ENDHMM>
~h "iu"
<BEGINHMM>
<NUMSTATES> 5
<STATE> 2
<MEAN> 39
 -2.429619e-01 -8.515341e+00 -1.788478e+00 -9.390766e+00 -1.150707e+01 5.473794e+00 -1.576143e+01 2.762700e+00 -3.138737e+00 -7.796232e+00 6.202918e-01 -8.717371e+00 6.778438e+01 -3.945054e-02 -8.317217e-02 1.489944e-02 9.565355e-02 -4.605460e-02 -7.621510e-02 3.711998e-02 1.103035e-01 1.616356e-03 -4.265950e-02 -6.049085e-02 -3.042311e-02 -2.438344e-02 -5.490929e-03 1.248061e-03 -3.956114e-03 1.695579e-04 4.296721e-03 -9.906786e-04 7.087951e-03 -1.868661e-03 -9.768486e-04 2.066036e-03 -1.986365e-03 3.811985e-03 -8.598493e-03
<VARIANCE> 39
 5.699532e+01 6.050850e+01 6.806126e+01 8.235826e+01 7.094046e+01 9.698553e+01 1.088645e+02 8.417434e+01 4.737233e+01 4.674407e+01 1.019398e+02 4.621952e+01 1.359757e+02 3.574188e+00 2.857555e+00 5.303166e+00 5.158214e+00 5.725633e+00 7.624890e+00 6.362314e+00 6.348158e+00 4.296089e+00 3.418255e+00 4.993895e+00 3.141896e+00 4.612041e+00 6.208387e-01 4.544819e-01 8.666278e-01 9.197736e-01 1.092587e+00 1.279116e+00 1.176549e+00 1.179103e+00 8.002905e-01 6.601071e-01 7.801709e-01 5.552195e-01 6.526182e-01
<GCONST> 1.448313e+02
<STATE> 3
<MEAN> 39
 -4.551454e-01 -8.830801e+00 -1.767366e+00 -8.998276e+00 -1.165313e+01 5.161021e+00 -1.555156e+01 3.184188e+00 -3.143704e+00 -7.954214e+00 3.647094e-01 -8.808063e+00 6.759081e+01 -6.187452e-02 -7.528939e-02 -1.287694e-03 9.762893e-02 -2.757875e-02 -8.013701e-02 6.579807e-02 1.001170e-01 -2.847743e-03 -3.333020e-02 -6.724005e-02 -1.389609e-02 -6.249928e-02 -5.242690e-03 2.583213e-03 -3.758698e-03 5.829309e-04 4.436338e-03 -9.646780e-04 6.831057e-03 -3.131209e-03 -1.272426e-03 2.512385e-03 -1.034588e-03 4.036341e-03 -9.285428e-03
<VARIANCE> 39
 5.733066e+01 6.266922e+01 6.692962e+01 7.908548e+01 6.684354e+01 9.385712e+01 1.129186e+02 8.555859e+01 4.662325e+01 4.663705e+01 1.042130e+02 4.544909e+01 1.388501e+02 3.498109e+00 2.870009e+00 5.243646e+00 5.053232e+00 5.474245e+00 7.394354e+00 6.260380e+00 6.306574e+00 4.246592e+00 3.418385e+00 5.012886e+00 3.079151e+00 4.550493e+00 6.050697e-01 4.509197e-01 8.537560e-01 9.067951e-01 1.052646e+00 1.242246e+00 1.153809e+00 1.167090e+00 7.952686e-01 6.629335e-01 7.789516e-01 5.458132e-01 6.410530e-01
<GCONST> 1.443973e+02
<STATE> 4
<MEAN> 39
 -9.180524e-01 -9.197420e+00 -1.853896e+00 -8.382148e+00 -1.172724e+01 4.661666e+00 -1.502207e+01 3.658782e+00 -3.198750e+00 -8.138403e+00 -6.123871e-03 -8.841790e+00 6.704842e+01 -9.330625e-02 -5.284255e-02 -2.474845e-02 1.042976e-01 1.607831e-03 -8.410844e-02 1.048280e-01 7.515217e-02 -1.123020e-02 -1.673217e-02 -7.156164e-02 1.162813e-02 -1.271085e-01 -4.102003e-03 4.091325e-03 -3.074930e-03 6.905553e-04 4.231892e-03 -6.765113e-04 5.619092e-03 -4.679151e-03 -1.430383e-03 3.147664e-03 1.415245e-04 3.863475e-03 -8.655559e-03
<VARIANCE> 39
 6.026190e+01 6.537991e+01 6.508090e+01 7.460175e+01 6.127113e+01 9.008544e+01 1.189505e+02 8.672260e+01 4.547918e+01 4.635323e+01 1.054331e+02 4.441475e+01 1.459990e+02 3.463341e+00 2.886034e+00 5.061661e+00 4.875228e+00 5.091242e+00 7.047253e+00 6.080455e+00 6.158594e+00 4.146991e+00 3.410148e+00 4.992890e+00 2.973173e+00 4.409966e+00 5.906975e-01 4.465498e-01 8.221793e-01 8.827525e-01 9.895345e-01 1.184449e+00 1.113978e+00 1.133078e+00 7.823168e-01 6.651993e-01 7.739210e-01 5.290020e-01 6.235682e-01
<GCONST> 1.436519e+02
<TRANSP> 5
 0.000000e+00 1.000000e+00 0.000000e+00 0.000000e+00 0.000000e+00
 0.000000e+00 7.518582e-01 2.481418e-01 0.000000e+00 0.000000e+00
 0.000000e+00 0.000000e+00 7.518582e-01 2.481418e-01 0.000000e+00
 0.000000e+00 0.000000e+00 0.000000e+00 8.763285e-01 1.236715e-01
 0.000000e+00 0.000000e+00 0.000000e+00 0.000000e+00 0.000000e+00
<ENDHMM>
~h "sh"
<BEGINHMM>
<NUMSTATES> 5
<STATE> 2
<MEAN> 39
 -4.104745e+00 -1.295004e+01 -3.029887e+00 -5.243963e+00 -1.065033e+01 1.719241e-01 -9.683801e+00 6.899188e+00 -2.413642e+00 -7.992966e+00 -2.854187e+00 -7.723317e+00 6.510439e+01 -7.737736e-02 -2.558891e-02 -3.518417e-02 -9.847775e-03 7.347530e-02 -9.267684e-02 1.023205e-01 -3.236296e-02 2.033599e-02 1.267416e-01 -4.512053e-02 6.365820e-02 1.367142e-03 7.412460e-03 4.016553e-03 -3.950481e-04 -8.750550e-03 7.409534e-04 9.528263e-03 -1.260952e-02 -6.412846e-03 2.148864e-03 3.032384e-03 4.128024e-03 -2.989438e-03 9.211934e-03
<VARIANCE> 39
 1.103360e+02 6.342403e+01 5.270217e+01 9.619653e+01 4.012885e+01 1.562284e+02 1.438525e+02 6.742336e+01 3.912259e+01 5.067376e+01 7.074586e+01 4.139058e+01 1.093545e+02 7.124422e+00 3.828316e+00 4.270593e+00 5.417727e+00 3.850833e+00 9.153812e+00 5.982309e+00 5.011003e+00 3.245938e+00 3.237908e+00 3.465559e+00 3.002057e+00 4.085024e+00 1.016073e+00 6.338277e-01 6.764213e-01 7.919577e-01 7.361501e-01 1.214918e+00 1.042125e+00 9.348502e-01 6.145060e-01 6.416820e-01 5.523189e-01 5.434433e-01 5.898379e-01
<GCONST> 1.429018e+02
<STATE> 3
<MEAN> 39
 -4.372375e+00 -1.302555e+01 -3.171520e+00 -5.334081e+00 -1.035141e+01 -1.467099e-01 -9.346686e+00 6.729471e+00 -2.321707e+00 -7.464727e+00 -3.007307e+00 -7.484857e+00 6.516348e+01 -4.616042e-02 -1.044169e-02 -3.780267e-02 -4.556852e-02 7.621479e-02 -5.180530e-02 5.013138e-02 -5.707351e-02 2.961428e-02 1.367987e-01 -2.967190e-02 5.071616e-02 3.827823e-02 8.177581e-03 3.324158e-03 -1.291838e-03 -8.893631e-03 6.726705e-04 1.117439e-02 -1.308994e-02 -5.702369e-03 2.537461e-03 1.416034e-03 3.227538e-03 -3.431017e-03 8.669097e-03
<VARIANCE> 39
 1.156281e+02 6.170756e+01 5.225842e+01 1.014208e+02 4.122155e+01 1.641370e+02 1.406019e+02 6.491864e+01 3.819762e+01 5.282803e+01 6.474272e+01 4.122285e+01 1.097052e+02 7.611636e+00 3.960116e+00 4.132632e+00 5.581487e+00 3.996336e+00 9.763675e+00 6.186537e+00 4.991982e+00 3.120546e+00 3.298691e+00 3.308128e+00 3.129181e+00 4.170671e+00 1.079871e+00 6.590735e-01 6.540963e-01 7.933238e-01 7.569945e-01 1.270947e+00 1.076617e+00 9.480515e-01 5.910119e-01 6.559684e-01 5.395884e-01 5.682878e-01 6.065663e-01
<GCONST> 1.433527e+02
<STATE> 4
<MEAN> 39
 -4.551126e+00 -1.304131e+01 -3.399901e+00 -5.664910e+00 -9.941122e+00 -3.137708e-01 -9.189113e+00 6.363294e+00 -2.160065e+00 -6.720262e+00 -3.135271e+00 -7.255430e+00 6.542369e+01 -2.233865e-03 5.548140e-03 -4.679672e-02 -9.170348e-02 7.986989e-02 9.758502e-03 -1.800505e-02 -8.480891e-02 4.295001e-02 1.402971e-01 -1.487657e-02 3.237862e-02 8.121334e-02 8.338484e-03 2.379484e-03 -2.621608e-03 -8.181868e-03 7.883421e-04 1.245895e-02 -1.206608e-02 -4.506470e-03 2.645463e-03 -9.894629e-04 1.909685e-03 -3.424878e-03 6.775866e-03
<VARIANCE> 39
 1.210478e+02 5.963057e+01 5.213445e+01 1.077174e+02 4.340164e+01 1.750531e+02 1.361222e+02 6.234985e+01 3.707150e+01 5.503572e+01 5.820541e+01 4.102832e+01 1.100813e+02 8.136910e+00 4.114305e+00 3.959222e+00 5.775291e+00 4.247042e+00 1.063405e+01 6.478748e+00 5.029293e+00 2.974112e+00 3.390543e+00 3.153150e+00 3.320674e+00 4.306598e+00 1.154143e+00 6.878455e-01 6.277913e-01 7.971619e-01 7.957025e-01 1.360618e+00 1.131818e+00 9.785123e-01 5.649132e-01 6.756536e-01 5.309088e-01 6.060659e-01 6.354004e-01
<GCONST> 1.440392e+02
<TRANSP> 5
 0.000000e+00 1.000000e+00 0.000000e+00 0.000000e+00 0.000000e+00
 0.000000e+00 7.507594e-01 2.492407e-01 0.000000e+00 0.000000e+00
 0.000000e+00 0.000000e+00 7.507599e-01 2.492401e-01 0.000000e+00
 0.000000e+00 0.000000e+00 0.000000e+00 8.748045e-01 1.251955e-01
 0.000000e+00 0.000000e+00 0.000000e+00 0.000000e+00 0.000000e+00
<ENDHMM>
~h "si"
<BEGINHMM>
<NUMSTATES> 5
<STATE> 2
<MEAN> 39
 -7.433340e+00 -6.049571e+00 -4.125360e+00 -8.344923e+00 -1.084484e+01 2.963203e+00 -1.064529e+01 2.022767e+00 -3.890538e+00 -3.072239e+00 -3.266466e+00 -4.650705e+00 5.949464e+01 5.165008e-02 -1.389947e-01 1.073266e-01 -7.618248e-02 4.273337e-02 -3.362107e-02 -3.527132e-02 8.519637e-02 2.660240e-02 3.848165e-02 -1.796490e-02 -4.013907e-02 5.136998e-01 -6.760783e-03 5.236232e-03 -6.913594e-04 5.892440e-03 5.767592e-03 -7.047194e-03 1.176726e-03 -1.910745e-03 1.520685e-03 -1.818399e-03 -2.601487e-03 -4.816139e-04 -4.102116e-03
<VARIANCE> 39
 1.121469e+02 8.019599e+01 5.455055e+01 1.242408e+02 6.346378e+01 7.391613e+01 7.924565e+01 7.421988e+01 3.260251e+01 3.722588e+01 3.774363e+01 3.215065e+01 3.850275e+02 3.540612e+00 2.971632e+00 2.828516e+00 4.277572e+00 3.439202e+00 3.922844e+00 4.065995e+00 4.231109e+00 2.796359e+00 2.742189e+00 2.423789e+00 2.652866e+00 3.173178e+00 5.241072e-01 4.671211e-01 4.457419e-01 5.719438e-01 6.017093e-01 6.043956e-01 6.863824e-01 7.287164e-01 5.140936e-01 4.881559e-01 4.512435e-01 5.020986e-01 3.281792e-01
<GCONST> 1.337787e+02
<STATE> 3
<MEAN> 39
 -7.295695e+00 -6.541672e+00 -3.702159e+00 -8.598659e+00 -1.060091e+01 2.730529e+00 -1.077347e+01 2.332322e+00 -3.767884e+00 -2.954108e+00 -3.362562e+00 -4.815443e+00 6.155692e+01 2.833376e-02 -1.146464e-01 1.031373e-01 -6.102112e-02 6.532565e-02 -6.209183e-02 -2.970829e-02 7.221784e-02 3.085681e-02 2.756475e-02 -2.523838e-02 -4.089455e-02 5.003887e-01 -5.248910e-03 6.056026e-03 -1.090305e-03 3.101719e-03 5.286570e-03 -6.828503e-03 1.473461e-03 -3.312335e-03 9.365197e-04 -2.848646e-03 -1.591519e-03 -7.612514e-06 -2.880935e-03
<VARIANCE> 39
 1.131636e+02 8.150218e+01 5.543328e+01 1.198747e+02 6.738778e+01 7.619836e+01 8.502889e+01 8.024871e+01 3.460796e+01 3.751817e+01 3.939111e+01 3.331844e+01 3.657751e+02 3.873819e+00 3.158195e+00 3.059887e+00 4.196255e+00 3.628316e+00 3.966867e+00 4.452842e+00 4.607217e+00 2.954812e+00 2.783463e+00 2.498601e+00 2.723416e+00 3.316099e+00 5.611436e-01 4.934460e-01 4.799651e-01 5.591751e-01 6.293269e-01 6.115956e-01 7.346299e-01 7.842547e-01 5.412110e-01 4.979272e-01 4.673704e-01 5.109328e-01 3.384294e-01
<GCONST> 1.352666e+02
<STATE> 4
<MEAN> 39
 -7.349083e+00 -7.125695e+00 -3.045959e+00 -8.950803e+00 -9.917891e+00 1.928119e+00 -1.083096e+01 2.691918e+00 -3.487098e+00 -3.004928e+00 -3.525688e+00 -5.038787e+00 6.528832e+01 -9.866919e-03 -6.052610e-02 8.116252e-02 -5.666452e-02 9.961914e-02 -9.902520e-02 -1.228352e-02 2.875776e-02 3.156993e-02 1.515716e-03 -1.372062e-02 -3.297502e-02 4.565586e-01 -4.358657e-03 6.740381e-03 -2.736612e-03 -8.447401e-06 3.926153e-03 -4.128897e-03 2.258733e-03 -5.327920e-03 -8.504678e-05 -3.286550e-03 1.531442e-03 1.198497e-03 -5.672503e-03
<VARIANCE> 39
 1.147770e+02 8.143126e+01 5.593981e+01 1.077019e+02 7.293035e+01 8.039333e+01 9.584107e+01 8.993221e+01 3.731538e+01 3.698412e+01 4.044297e+01 3.522448e+01 3.058621e+02 4.508701e+00 3.389803e+00 3.384781e+00 3.936078e+00 3.882906e+00 3.964751e+00 5.302376e+00 5.154648e+00 3.170857e+00 2.749412e+00 2.561701e+00 2.790771e+00 3.511442e+00 6.273182e-01 5.226610e-01 5.199598e-01 5.267866e-01 6.622776e-01 6.095198e-01 8.321086e-01 8.653217e-01 5.754133e-01 4.955308e-01 4.830109e-01 5.112729e-01 3.515956e-01
<GCONST> 1.368788e+02
<TRANSP> 5
 0.000000e+00 1.000000e+00 0.000000e+00 0.000000e+00 0.000000e+00
 0.000000e+00 7.554575e-01 2.445425e-01 0.000000e+00 0.000000e+00
 0.000000e+00 0.000000e+00 7.554578e-01 2.445421e-01 0.000000e+00
 0.000000e+00 0.000000e+00 0.000000e+00 8.808512e-01 1.191488e-01
 0.000000e+00 0.000000e+00 0.000000e+00 0.000000e+00 0.000000e+00
<ENDHMM>
~h "un"
<BEGINHMM>
<NUMSTATES> 5
<STATE> 2
<MEAN> 39
 8.317995e-02 -7.153767e+00 -1.221881e+00 -1.136523e+01 -1.007501e+01 5.036895e+00 -1.257042e+01 -2.144463e+00 -4.129655e+00 -6.614264e+00 2.399868e+00 -7.151388e+00 6.992955e+01 2.704781e-02 -5.997303e-02 -4.580170e-02 1.014830e-01 -3.842485e-03 -5.263824e-02 -8.636937e-02 4.273864e-02 1.126220e-01 -1.014752e-01 8.103805e-03 -1.292132e-02 1.811106e-02 -9.217181e-04 1.613951e-03 6.439476e-03 1.335184e-03 -4.656531e-03 1.960608e-03 -2.000368e-03 3.711912e-03 -4.786642e-03 -2.100504e-03 1.852599e-03 -4.640369e-03 -1.891498e-03
<VARIANCE> 39
 7.618710e+01 4.347683e+01 8.374504e+01 8.795363e+01 9.825957e+01 1.408854e+02 7.709043e+01 6.710014e+01 6.245582e+01 4.791894e+01 5.970730e+01 4.620910e+01 7.580385e+01 5.976902e+00 3.335545e+00 4.334587e+00 6.369738e+00 7.483231e+00 9.370136e+00 5.290134e+00 5.871896e+00 4.364646e+00 3.631413e+00 4.130915e+00 3.083691e+00 5.971323e+00 8.695766e-01 6.344673e-01 7.245957e-01 1.112175e+00 1.393126e+00 1.529343e+00 9.536291e-01 1.005140e+00 7.919714e-01 6.879165e-01 7.518717e-01 5.466339e-01 9.277830e-01
<GCONST> 1.464525e+02
<STATE> 3
<MEAN> 39
 1.845746e-01 -7.383002e+00 -1.345884e+00 -1.093815e+01 -1.013429e+01 4.839323e+00 -1.294301e+01 -1.936816e+00 -3.715743e+00 -7.045353e+00 2.449526e+00 -7.250557e+00 6.998602e+01 2.250909e-02 -5.361835e-02 -2.095664e-02 1.053614e-01 -2.216142e-02 -4.379357e-02 -9.208243e-02 5.833178e-02 9.211200e-02 -1.083501e-01 1.369932e-02 -3.013237e-02 9.124689e-03 -1.344238e-03 1.529012e-03 5.399483e-03 5.316575e-04 -4.082101e-03 2.269271e-03 -8.954495e-04 3.730060e-03 -5.034940e-03 -1.158325e-03 9.355313e-04 -3.769141e-03 -2.558965e-03
<VARIANCE> 39
 7.111673e+01 4.220896e+01 7.949013e+01 8.504465e+01 9.737485e+01 1.360708e+02 8.034843e+01 7.093134e+01 5.927505e+01 4.847673e+01 6.331409e+01 4.548430e+01 7.624188e+01 5.596251e+00 3.246276e+00 4.476521e+00 6.229657e+00 7.480340e+00 9.244530e+00 5.404342e+00 6.063556e+00 4.392564e+00 3.658278e+00 4.312262e+00 3.084544e+00 5.963023e+00 8.235019e-01 6.212448e-01 7.536158e-01 1.108133e+00 1.399726e+00 1.523908e+00 9.766508e-01 1.029768e+00 8.025653e-01 6.974226e-01 7.864634e-01 5.524782e-01 9.294966e-01
<GCONST> 1.464353e+02
<STATE> 4
<MEAN> 39
 2.889967e-01 -7.691634e+00 -1.389728e+00 -1.024304e+01 -1.036570e+01 4.604142e+00 -1.354089e+01 -1.497468e+00 -3.220572e+00 -7.742126e+00 2.534954e+00 -7.550398e+00 6.999911e+01 1.172121e-02 -4.653298e-02 6.983631e-03 1.051762e-01 -4.356541e-02 -2.878360e-02 -9.127861e-02 8.322550e-02 6.000168e-02 -1.105993e-01 1.259667e-02 -4.915005e-02 -1.105273e-02 -2.104260e-03 1.018843e-03 2.978379e-03 -6.064323e-04 -2.371717e-03 2.302522e-03 1.019869e-03 3.631672e-03 -4.696469e-03 4.136744e-04 -8.816511e-04 -2.034914e-03 -3.766251e-03
<VARIANCE> 39
 6.355476e+01 4.163795e+01 7.499935e+01 7.954266e+01 9.507184e+01 1.265068e+02 8.560433e+01 7.733173e+01 5.519040e+01 4.829580e+01 7.064147e+01 4.460748e+01 7.755222e+01 5.030940e+00 3.095098e+00 4.716337e+00 6.016078e+00 7.382313e+00 8.950560e+00 5.535171e+00 6.308435e+00 4.457323e+00 3.679155e+00 4.608214e+00 3.070197e+00 5.827185e+00 7.560822e-01 5.920561e-01 7.974268e-01 1.102254e+00 1.391993e+00 1.501256e+00 1.003195e+00 1.061942e+00 8.231481e-01 7.088500e-01 8.368112e-01 5.578980e-01 9.095423e-01
<GCONST> 1.462556e+02
<TRANSP> 5
 0.000000e+00 1.000000e+00 0.000000e+00 0.000000e+00 0.000000e+00
 0.000000e+00 7.551466e-01 2.448535e-01 0.000000e+00 0.000000e+00
 0.000000e+00 0.000000e+00 7.551461e-01 2.448539e-01 0.000000e+00
 0.000000e+00 0.000000e+00 0.000000e+00 8.798304e-01 1.201696e-01
 0.000000e+00 0.000000e+00 0.000000e+00 0.000000e+00 0.000000e+00
<ENDHMM>
~h "wu"
<BEGINHMM>
<NUMSTATES> 5
<STATE> 2
<MEAN> 39
 -7.337927e+00 -5.209731e+00 -4.436138e+00 -7.813926e+00 -1.113401e+01 2.699565e+00 -1.076739e+01 9.586661e-01 -3.634474e+00 -2.985917e+00 -2.938244e+00 -5.022044e+00 5.526525e+01 2.139000e-01 -1.425841e-01 1.562098e-01 -1.638366e-01 -5.816869e-02 1.691816e-03 -5.707448e-02 9.176151e-02 4.109113e-02 2.692764e-03 -1.174636e-02 -6.363767e-02 5.944954e-01 8.402821e-04 4.501969e-04 -2.513960e-03 -5.157826e-03 1.446380e-04 -3.884889e-03 5.021257e-04 -1.516354e-03 2.048594e-03 -1.844992e-03 2.292249e-04 -1.344634e-03 8.132938e-03
<VARIANCE> 39
