~o
<STREAMINFO> 1 39
<VECSIZE> 39<NULLD><MFCC_D_A_0><DIAGC>
~h "a"
<BEGINHMM>
<NUMSTATES> 5
<STATE> 2
<MEAN> 39
 -3.329299e+00 -1.411645e+01 -1.410713e+01 -1.298472e+01 4.825103e+00 1.319027e+01 -1.126345e+01 -4.749630e+00 2.863538e+00 -3.680651e+00 -4.216163e+00 -1.762557e+00 6.832599e+01 1.926670e+00 2.200450e-01 -8.377160e-02 4.175840e-02 -3.584297e-01 3.208473e+00 -1.945478e+00 -8.208726e-02 -3.763795e-01 -5.360331e-01 6.098522e-01 -3.318407e-01 5.578017e-02 5.626297e-02 2.720466e-01 5.330708e-02 4.986380e-02 -6.714989e-01 -2.767006e-01 8.514956e-03 1.792798e-01 -2.208161e-01 -3.943624e-01 2.954578e-01 -3.151890e-01 2.272325e-03
<VARIANCE> 39
 3.660957e+01 2.716806e+01 1.938340e+01 4.273645e+01 3.683121e+01 6.709061e+01 4.069413e+01 2.975778e+01 2.124749e+01 2.112925e+01 2.886381e+01 2.001483e+01 4.274638e+01 3.108713e+00 4.057899e+00 2.102965e+00 2.607685e+00 5.720985e+00 5.267735e+00 3.581384e+00 3.294052e+00 2.539649e+00 3.270525e+00 2.219063e+00 2.320562e+00 1.469565e+00 6.195617e-01 6.896080e-01 5.098727e-01 6.407161e-01 6.408788e-01 1.025750e+00 7.238284e-01 6.915830e-01 4.532935e-01 5.618274e-01 4.754672e-01 3.950987e-01 5.214882e-01
<GCONST> 1.239114e+02
<STATE> 3
<MEAN> 39
 4.897698e+00 -1.152380e+01 -1.482080e+01 -1.307362e+01 -3.935865e+00 2.403618e+01 -1.940503e+01 -1.874790e+00 -7.329997e-01 -1.211292e+01 2.386128e+00 -7.272745e+00 7.198388e+01 4.763731e-01 -1.687716e-01 -4.152557e-01 -7.998915e-01 -1.251773e+00 1.193350e+00 -5.799133e-01 5.683423e-01 -2.427051e-01 -2.550327e+00 2.042562e+00 -1.099460e+00 6.514717e-01 -3.657516e-01 2.633277e-02 7.693866e-02 2.469193e-03 5.248972e-01 -5.413937e-01 5.492359e-01 -1.590753e-01 2.480105e-01 1.214116e-01 -1.032777e-01 2.739326e-01 -2.797897e-01
<VARIANCE> 39
 9.350484e+00 1.663472e+01 1.098395e+01 2.625131e+01 1.583090e+01 1.973236e+01 3.187578e+01 3.051254e+01 1.976971e+01 4.649564e+01 3.443642e+01 1.773266e+01 2.215247e+01 9.608334e-01 1.032115e+00 9.983807e-01 1.085514e+00 2.085357e+00 1.696774e+00 2.181323e+00 1.527645e+00 1.524652e+00 1.947803e+00 1.680876e+00 1.604204e+00 8.833201e-01 2.276770e-01 3.745304e-01 2.028024e-01 2.849393e-01 2.945054e-01 2.242501e-01 3.286840e-01 3.090010e-01 2.532860e-01 4.284167e-01 4.254183e-01 3.423052e-01 1.831265e-01
<GCONST> 9.968159e+01
<STATE> 4
<MEAN> 39
 7.353035e+00 -6.373974e+00 -1.683973e+01 -1.381671e+01 -3.004020e+00 2.084076e+01 -1.449667e+01 -5.249375e-01 -2.617651e+00 -1.953564e+01 7.576930e+00 -7.797889e+00 6.742231e+01 3.646428e-01 6.974961e-01 -2.821592e-01 2.557144e-01 4.176424e-01 -1.051739e+00 1.075709e+00 2.111571e-01 -8.716720e-01 4.845572e-01 -2.950342e-01 8.400819e-02 -8.717964e-01 -6.650046e-03 3.790462e-02 5.214833e-03 1.110690e-01 5.141693e-02 -1.315307e-01 1.151410e-01 4.913155e-04 -1.308028e-01 3.676239e-01 -2.633003e-01 1.656779e-02 -1.106518e-01
<VARIANCE> 39
 9.685073e+00 2.873788e+01 8.958591e+00 1.620888e+01 1.298381e+01 3.361254e+01 3.295565e+01 2.653176e+01 4.517973e+01 3.852492e+01 2.503600e+01 1.557501e+01 2.673684e+01 5.180012e-01 9.823565e-01 5.641454e-01 9.988138e-01 8.107559e-01 1.324893e+00 1.966779e+00 1.298342e+00 2.072851e+00 2.511060e+00 1.741010e+00 1.237893e+00 6.227662e-01 1.122611e-01 2.014771e-01 1.136717e-01 1.990253e-01 1.699209e-01 2.567437e-01 3.453307e-01 2.616000e-01 2.875946e-01 2.850713e-01 3.445506e-01 2.545401e-01 1.374688e-01
<GCONST> 9.352056e+01
<TRANSP> 5
 0.000000e+00 1.000000e+00 0.000000e+00 0.000000e+00 0.000000e+00
 0.000000e+00 8.145909e-01 1.854091e-01 0.000000e+00 0.000000e+00
 0.000000e+00 0.000000e+00 7.564203e-01 2.435797e-01 0.000000e+00
 0.000000e+00 0.000000e+00 0.000000e+00 8.932036e-01 1.067965e-01
 0.000000e+00 0.000000e+00 0.000000e+00 0.000000e+00 0.000000e+00
<ENDHMM>
~h "b"
<BEGINHMM>
<NUMSTATES> 5
<STATE> 2
<MEAN> 39
 -1.186164e+00 -8.498275e+00 -8.466617e+00 -2.030919e+01 -8.823521e+00 1.211629e+01 -7.290308e+00 -3.046195e+00 -2.656025e+00 -2.292318e+00 -1.306355e+00 -5.123363e+00 6.952000e+01 -2.445545e-01 3.569990e-01 -4.162532e-01 1.373833e-01 5.423622e-02 -5.754851e-02 5.774925e-01 -1.294334e-01 -5.497686e-02 1.301527e-01 3.284467e-01 6.287160e-01 -1.256823e+00 1.092057e-01 -8.333983e-02 1.004572e-01 -2.371128e-02 -1.107447e-01 -2.076692e-01 -2.882721e-01 1.937397e-01 8.379158e-02 1.071567e-02 -2.378242e-02 -8.897352e-02 1.575125e-01
<VARIANCE> 39
 2.981536e+01 5.475270e+01 2.507218e+01 1.073904e+02 1.231233e+01 5.570956e+01 5.599707e+01 1.893088e+01 2.412857e+01 1.071619e+01 1.850089e+01 1.939253e+01 2.992520e+02 2.397507e+00 1.242851e+00 2.270530e+00 4.949287e+00 1.598406e+00 2.479392e+00 3.468086e+00 1.937728e+00 3.110299e+00 2.222477e+00 1.421960e+00 1.865767e+00 3.357005e+00 2.381609e-01 2.629241e-01 3.013282e-01 9.116807e-01 2.641147e-01 6.989077e-01 4.948840e-01 4.597386e-01 4.993301e-01 2.554752e-01 3.272144e-01 3.382894e-01 4.553010e-01
<GCONST> 1.162428e+02
<STATE> 3
<MEAN> 39
 -2.852862e+00 1.107035e+00 -5.317317e+00 -9.061296e+00 -9.659575e+00 3.588050e+00 -6.843463e+00 -2.711571e+00 -1.986716e+00 -8.569825e-02 -3.158408e+00 -2.474379e+00 5.165758e+01 1.614508e+00 -1.180971e+00 1.643811e+00 -8.555782e-01 -3.620180e-01 -6.762814e-01 -1.394048e+00 -2.882462e-01 1.010117e+00 -1.467062e-01 -8.173912e-01 -1.283419e-01 3.164881e+00 6.328258e-01 -8.696264e-01 3.524236e-01 -5.578603e-01 -3.013382e-01 3.233482e-01 -5.214973e-01 1.476801e-01 2.034296e-01 -4.816885e-01 -1.240718e-01 -1.112285e-01 1.416406e+00
<VARIANCE> 39
 4.974593e+01 7.542968e+01 1.497700e+02 1.598873e+02 2.286120e+01 9.396939e+01 2.985970e+01 1.803296e+01 2.536540e+01 2.810827e+01 4.726716e+01 1.568699e+01 1.458984e+02 5.879004e+00 5.368363e+00 5.748393e+00 1.062380e+01 3.131766e+00 9.110769e+00 5.719375e+00 1.754547e+00 3.419592e+00 5.041324e+00 2.695461e+00 2.171204e+00 1.046460e+01 9.281005e-01 9.568958e-01 1.692884e+00 2.273968e+00 5.806522e-01 1.393132e+00 5.354320e-01 5.448785e-01 4.841814e-01 7.245262e-01 4.293040e-01 5.010871e-01 1.508010e+00
<GCONST> 1.399082e+02
<STATE> 4
<MEAN> 39
 8.302349e-01 -1.411571e+01 -1.678202e+00 -1.289675e+01 -1.470726e+01 4.071753e+00 -1.067969e+01 5.493260e+00 1.464779e+00 -4.017335e+00 -6.277788e+00 -6.711217e+00 7.173563e+01 -1.550485e-02 -5.145009e-01 -3.427348e-01 -3.966433e-01 1.989587e-01 3.860579e-01 8.640513e-02 -1.459304e-01 2.993256e-03 3.301669e-02 6.613481e-02 -2.216714e-01 7.494633e-01 -7.825662e-02 2.381651e-02 -9.688372e-02 -1.193218e-02 5.549646e-02 1.499814e-01 4.715586e-02 -5.309248e-02 -2.588829e-02 1.616873e-02 -1.049546e-02 6.440475e-03 -4.518832e-02
<VARIANCE> 39
 2.804954e+01 4.973654e+01 4.461338e+01 8.611716e+01 4.323729e+01 8.521218e+01 7.456700e+01 9.664730e+01 3.206123e+01 5.400608e+01 5.620977e+01 2.909391e+01 1.532440e+02 2.271932e+00 3.703633e+00 3.089114e+00 7.274779e+00 2.975882e+00 6.580884e+00 4.857454e+00 6.722386e+00 2.746301e+00 4.122733e+00 3.041925e+00 3.158046e+00 1.463976e+01 4.401753e-01 4.306558e-01 4.589904e-01 9.437309e-01 4.725716e-01 1.214358e+00 8.591520e-01 1.121648e+00 5.062789e-01 6.918367e-01 5.679262e-01 6.664936e-01 1.487683e+00
<GCONST> 1.385151e+02
<TRANSP> 5
 0.000000e+00 1.000000e+00 0.000000e+00 0.000000e+00 0.000000e+00
 0.000000e+00 8.294302e-01 1.705698e-01 0.000000e+00 0.000000e+00
 0.000000e+00 0.000000e+00 6.180808e-01 3.819192e-01 0.000000e+00
 0.000000e+00 0.000000e+00 0.000000e+00 9.596374e-01 4.036255e-02
 0.000000e+00 0.000000e+00 0.000000e+00 0.000000e+00 0.000000e+00
<ENDHMM>
~h "d"
<BEGINHMM>
<NUMSTATES> 5
<STATE> 2
<MEAN> 39
 1.041645e+00 -2.339083e+01 -1.765458e+00 -1.037971e+01 -1.430373e+01 9.728434e+00 -1.555268e+01 1.643623e+01 -2.764265e+00 -1.424168e+01 -7.172535e+00 -1.226358e+01 6.959061e+01 -3.368271e-01 1.223896e-01 2.403334e-02 3.890019e-01 -2.874241e-01 -7.913461e-01 1.501859e+00 -4.618422e-02 -3.115872e-01 2.579640e-02 -4.051033e-02 4.788445e-01 -1.283974e+00 -2.971252e-01 3.895107e-01 -2.245244e-01 2.160169e-01 2.114847e-01 -2.655277e-01 3.191567e-01 -1.942521e-02 1.209842e-01 2.426345e-01 -1.173992e-01 1.853152e-01 -3.513595e-01
<VARIANCE> 39
 1.140188e+01 1.494163e+01 1.147877e+01 1.109115e+01 1.815838e+01 1.795517e+01 3.428267e+01 1.393089e+01 1.569786e+01 1.702071e+01 1.551758e+01 1.093852e+01 1.760724e+01 1.250719e+00 1.678783e+00 9.340525e-01 1.010172e+00 1.643545e+00 1.145412e+00 1.600203e+00 1.381934e+00 1.740496e+00 1.534254e+00 1.202812e+00 9.354637e-01 1.578175e+00 2.905802e-01 2.506185e-01 2.434966e-01 2.271204e-01 3.273149e-01 2.178501e-01 2.520559e-01 2.795870e-01 3.382150e-01 3.190022e-01 2.109165e-01 1.646500e-01 3.416548e-01
<GCONST> 9.340568e+01
<STATE> 3
<MEAN> 39
 -3.176958e+00 -1.812433e+01 -3.969377e+00 -6.518624e+00 -1.283302e+01 3.548708e+00 -5.256300e+00 1.622313e+01 -4.116530e+00 -1.134138e+01 -8.712068e+00 -8.493545e+00 6.015891e+01 -1.873414e+00 1.325745e+00 -1.208330e+00 1.782325e+00 6.564732e-01 -1.344226e+00 2.943208e+00 -5.265464e-01 6.557295e-02 1.478765e+00 -3.204470e-01 1.198384e+00 -3.021291e+00 -9.540594e-02 -1.903592e-01 -1.536121e-01 2.833082e-01 -7.593885e-02 -4.415949e-02 2.171281e-01 -1.894737e-01 1.190516e-01 1.169760e-01 4.041091e-02 1.482135e-01 -6.175236e-02
<VARIANCE> 39
 1.700301e+01 2.144576e+01 1.253262e+01 1.594370e+01 1.925991e+01 1.751162e+01 2.291925e+01 1.736829e+01 3.588459e+01 2.418913e+01 2.078804e+01 1.463347e+01 2.923751e+01 2.929498e+00 1.901884e+00 1.704538e+00 1.904703e+00 3.223462e+00 1.321273e+00 1.942233e+00 1.557028e+00 3.973455e+00 2.201410e+00 1.930013e+00 1.362575e+00 3.183187e+00 5.275524e-01 2.918614e-01 3.376838e-01 3.629442e-01 4.375251e-01 2.117721e-01 4.164751e-01 3.460442e-01 8.795297e-01 4.755830e-01 3.317901e-01 2.439096e-01 4.927530e-01
<GCONST> 1.079052e+02
<STATE> 4
<MEAN> 39
 -7.608478e+00 -1.731077e+01 -6.946175e+00 -7.045243e-01 -1.218771e+01 1.512851e+00 2.396011e+00 1.367845e+01 -1.779999e+00 -8.072663e+00 -8.526264e+00 -5.238370e+00 5.287392e+01 -1.037944e+00 2.740941e-01 -8.332759e-01 1.510410e+00 -3.868757e-01 -1.544918e+00 2.425728e+00 -4.715098e-01 -2.480169e-01 6.116444e-01 -2.436294e-01 9.425759e-01 -1.735054e+00 4.347534e-01 -7.467021e-02 2.507334e-01 -2.855177e-01 -2.625118e-01 -1.218031e-01 -5.903590e-01 3.723046e-02 -3.714568e-01 -4.482997e-01 1.558317e-02 -6.166061e-02 5.949515e-01
<VARIANCE> 39
 6.270109e+00 1.550285e+01 1.315036e+01 1.862380e+01 2.394940e+01 1.995439e+01 3.557758e+01 1.657915e+01 2.836568e+01 1.817087e+01 1.926912e+01 1.178418e+01 1.116987e+01 1.400896e+00 1.894644e+00 2.136747e+00 1.713608e+00 2.324358e+00 1.335284e+00 2.647957e+00 2.625094e+00 3.710671e+00 1.973559e+00 1.954155e+00 1.683994e+00 2.217483e+00 2.272898e-01 4.186553e-01 3.358448e-01 3.033812e-01 5.165643e-01 3.108276e-01 4.684434e-01 4.520816e-01 6.659314e-01 3.696379e-01 5.377690e-01 3.422802e-01 3.418899e-01
<GCONST> 1.055268e+02
<TRANSP> 5
 0.000000e+00 1.000000e+00 0.000000e+00 0.000000e+00 0.000000e+00
 0.000000e+00 8.298571e-01 1.701429e-01 0.000000e+00 0.000000e+00
 0.000000e+00 0.000000e+00 5.357704e-01 4.642296e-01 0.000000e+00
 0.000000e+00 0.000000e+00 0.000000e+00 6.874065e-01 3.125935e-01
 0.000000e+00 0.000000e+00 0.000000e+00 0.000000e+00 0.000000e+00
<ENDHMM>
~h "e"
<BEGINHMM>
<NUMSTATES> 5
<STATE> 2
<MEAN> 39
 7.649698e+00 -9.822845e+00 -8.395980e+00 -2.450468e+01 -9.138319e+00 2.491090e+01 -1.392346e+01 2.256722e+00 -6.041121e+00 -6.684536e+00 2.172114e-01 -3.077131e+00 7.109758e+01 -8.462074e-01 2.152398e+00 -8.400601e-02 9.742303e-01 2.928351e+00 -1.177661e+00 1.876888e+00 -1.046946e+00 1.584967e+00 -2.519273e-01 -1.012708e+00 2.250263e+00 -2.115992e+00 -8.604676e-01 2.027255e-01 3.849293e-02 1.828541e-02 7.454951e-01 -6.113026e-01 1.627671e-01 -4.858593e-01 6.521420e-01 -2.719173e-01 8.426301e-02 5.368688e-02 -1.302942e-01
<VARIANCE> 39
 8.759291e+00 1.600181e+01 1.109434e+01 2.102956e+01 3.117550e+01 5.019089e+01 2.747130e+01 1.438615e+01 1.524267e+01 1.511470e+01 1.789328e+01 2.313882e+01 1.768209e+01 2.142958e+00 1.115187e+00 9.232463e-01 1.295989e+00 3.560579e+00 3.886421e+00 2.638555e+00 1.824757e+00 2.682842e+00 1.487890e+00 1.398082e+00 1.860040e+00 7.830353e-01 2.738160e-01 3.647674e-01 2.219026e-01 3.184297e-01 4.972684e-01 7.427951e-01 5.940564e-01 3.014261e-01 3.292481e-01 3.146553e-01 2.639362e-01 4.961240e-01 1.775935e-01
<GCONST> 1.033925e+02
<STATE> 3
<MEAN> 39
 -9.371828e+00 -5.196746e+00 -1.466322e+01 -2.570379e+01 7.542482e+00 1.452666e+01 -5.574127e+00 -3.521556e+00 2.718909e+00 -1.234399e+01 1.960702e+00 1.249190e+00 6.108672e+01 -1.097749e+00 9.793162e-03 -6.229868e-01 -2.885586e-01 7.479595e-01 -5.827034e-01 5.467522e-01 -2.301399e-01 1.012380e-01 -3.521717e-01 4.769352e-01 6.775630e-02 -6.616740e-01 3.157033e-01 -9.275079e-02 9.169751e-02 2.733540e-02 -4.124752e-01 1.922186e-01 -1.455441e-01 1.153346e-01 -2.251143e-01 1.345197e-01 6.045064e-02 -1.019300e-01 8.106950e-02
<VARIANCE> 39
 3.806018e+01 1.730248e+01 3.158542e+01 2.610675e+01 3.134586e+01 3.469395e+01 3.218671e+01 2.390594e+01 2.912224e+01 2.489690e+01 2.835412e+01 1.780875e+01 2.193517e+01 3.170102e+00 1.566184e+00 2.015437e+00 2.020537e+00 3.816254e+00 4.322633e+00 2.517262e+00 2.886405e+00 3.606045e+00 2.845765e+00 2.015612e+00 2.001571e+00 7.464827e-01 2.758268e-01 3.293243e-01 3.796443e-01 4.170878e-01 5.572237e-01 6.681594e-01 5.292078e-01 5.229699e-01 5.623782e-01 5.493151e-01 3.951502e-01 4.691395e-01 1.462710e-01
<GCONST> 1.143455e+02
<STATE> 4
<MEAN> 39
 -7.300684e-01 -6.182248e+00 -4.585443e+00 -1.790619e+01 -5.235592e+00 9.557379e+00 -1.681993e+01 -4.473805e-02 -2.147437e+00 -8.703868e-01 1.745097e+00 -5.314666e+00 6.933249e+01 5.948619e-01 -7.999245e-02 4.725014e-01 4.190515e-01 -3.416285e-01 -4.880439e-02 -7.434050e-01 4.765573e-01 -5.480543e-02 5.882130e-01 -6.377708e-01 -2.730479e-01 8.961617e-01 -2.252563e-02 -9.531607e-02 -1.038935e-01 -1.333228e-01 3.879443e-02 1.557496e-01 -6.776689e-02 -1.889397e-03 -2.432941e-02 -5.649868e-02 2.985162e-02 -5.108309e-02 9.118876e-02
<VARIANCE> 39
 5.007860e+01 2.071424e+01 3.401457e+01 7.706126e+01 1.155799e+02 1.474201e+02 1.478722e+02 3.669429e+01 2.532323e+01 5.199430e+01 6.255962e+01 4.698859e+01 7.662315e+01 7.879545e+00 2.984849e+00 4.086341e+00 6.523618e+00 1.303466e+01 1.466715e+01 1.796500e+01 3.686992e+00 3.267035e+00 3.983066e+00 4.160645e+00 4.350005e+00 9.006872e+00 1.374193e+00 5.663146e-01 6.482854e-01 1.057461e+00 1.726924e+00 2.049564e+00 2.940177e+00 8.421890e-01 6.785522e-01 5.868328e-01 8.302372e-01 6.544551e-01 1.760234e+00
<GCONST> 1.484672e+02
<TRANSP> 5
 0.000000e+00 1.000000e+00 0.000000e+00 0.000000e+00 0.000000e+00
 0.000000e+00 7.071086e-01 2.928914e-01 0.000000e+00 0.000000e+00
 0.000000e+00 0.000000e+00 9.303017e-01 6.969827e-02 0.000000e+00
 0.000000e+00 0.000000e+00 0.000000e+00 9.508730e-01 4.912696e-02
 0.000000e+00 0.000000e+00 0.000000e+00 0.000000e+00 0.000000e+00
<ENDHMM>
~h "h"
<BEGINHMM>
<NUMSTATES> 5
<STATE> 2
<MEAN> 39
 4.422709e+00 -1.472596e+01 -8.893616e+00 -1.620053e+01 -6.488107e+00 1.090834e+01 -1.568835e+01 4.439569e+00 -6.074192e+00 3.774834e+00 -5.611450e+00 -1.497469e+01 7.722825e+01 6.923907e-01 -1.532086e+00 7.775113e-02 -3.508518e+00 -1.215283e+00 4.765939e+00 -1.225477e+00 -1.307681e+00 -1.415067e+00 2.241991e-01 2.403352e+00 -9.648503e-01 4.036273e-01 -5.437235e-01 3.617290e-01 5.194019e-01 5.987470e-01 -5.220044e-01 -4.161625e-01 7.027900e-01 -2.459686e-01 1.536153e-01 -9.904332e-01 2.430953e-01 1.206694e+00 -3.148210e-01
<VARIANCE> 39
 2.065737e+01 1.281790e+01 1.263213e+01 1.256377e+01 1.856918e+01 2.383197e+01 1.567474e+01 1.470786e+01 1.506848e+01 1.184960e+01 1.991513e+01 1.576808e+01 8.137688e+00 6.817824e-01 5.700427e-01 1.190353e+00 1.110223e+00 1.114596e+00 1.540520e+00 1.642185e+00 1.349322e+00 1.211918e+00 1.456128e+00 1.228974e+00 1.490803e+00 3.740429e-01 2.955199e-01 1.796986e-01 1.977644e-01 2.646813e-01 2.836838e-01 2.847002e-01 2.234907e-01 3.459832e-01 3.425082e-01 2.234381e-01 3.008620e-01 2.154852e-01 7.207032e-02
<GCONST> 8.884956e+01
<STATE> 3
<MEAN> 39
 3.600942e+00 -1.572932e+01 -7.014703e+00 -2.039365e+01 -8.378148e+00 1.532335e+01 -1.577931e+01 2.219300e+00 -7.057928e+00 2.625743e+00 -2.719081e+00 -1.353132e+01 7.740505e+01 4.283609e-01 -5.966955e-01 3.836631e-01 -2.478501e+00 -1.572486e+00 3.624779e+00 -5.413607e-01 -9.691217e-01 -8.274410e-01 -8.594961e-01 1.913499e+00 5.229371e-01 1.190667e-01 -2.497996e-01 5.991002e-01 5.095779e-02 7.947477e-01 -1.176755e-01 -7.356490e-01 4.532365e-01 2.271965e-01 4.183717e-01 -6.815528e-01 -2.631654e-01 7.999939e-01 -2.409782e-01
<VARIANCE> 39
 3.721747e+01 1.086735e+01 1.167858e+01 1.567185e+01 1.329297e+01 3.889898e+01 2.699780e+01 2.147229e+01 1.596359e+01 1.346919e+01 1.939922e+01 2.260314e+01 8.731316e+00 1.742438e+00 7.796251e-01 7.378721e-01 1.383954e+00 1.107773e+00 3.210698e+00 1.672908e+00 8.723561e-01 1.040543e+00 1.067689e+00 1.320713e+00 9.884815e-01 3.193536e-01 3.318798e-01 9.240732e-02 1.892432e-01 1.823257e-01 2.089078e-01 2.879727e-01 2.592782e-01 2.405804e-01 2.465045e-01 2.042552e-01 2.327608e-01 3.103102e-01 4.507250e-02
<GCONST> 8.917287e+01
<STATE> 4
<MEAN> 39
 5.812787e+00 -1.436030e+01 -7.853344e+00 -2.528485e+01 -1.326927e+01 2.494447e+01 -1.731883e+01 2.599112e+00 -7.430701e+00 -3.044351e+00 1.772884e+00 -9.958453e+00 7.650391e+01 3.088488e-01 3.151628e-01 -5.205020e-02 -6.037629e-01 -5.855838e-01 1.193088e+00 -4.193303e-02 5.479995e-02 6.576500e-02 -1.054233e+00 5.897215e-01 7.050358e-01 -3.529456e-01 5.727336e-04 1.502218e-01 -3.067567e-02 3.016672e-01 2.663517e-01 -4.354075e-01 1.771639e-01 7.555579e-02 1.238229e-01 4.162377e-02 -2.786971e-01 8.476219e-02 -1.381987e-01
<VARIANCE> 39
 5.250978e+00 5.367556e+00 5.220236e+00 1.557046e+01 1.945960e+01 3.736551e+01 2.335248e+01 1.379788e+01 1.379025e+01 2.285245e+01 1.820758e+01 1.656218e+01 6.953919e+00 2.950225e-01 3.858333e-01 3.681144e-01 1.020089e+00 1.211625e+00 2.234756e+00 1.217628e+00 8.656403e-01 7.137055e-01 7.401984e-01 1.072628e+00 8.689611e-01 2.740930e-01 6.867074e-02 1.350628e-01 8.161652e-02 1.564160e-01 1.634998e-01 2.690414e-01 2.743189e-01 1.884257e-01 1.749221e-01 1.400423e-01 1.422498e-01 2.021795e-01 5.432092e-02
<GCONST> 7.577435e+01
<TRANSP> 5
 0.000000e+00 1.000000e+00 0.000000e+00 0.000000e+00 0.000000e+00
 0.000000e+00 1.597106e-01 8.402894e-01 0.000000e+00 0.000000e+00
 0.000000e+00 0.000000e+00 1.564821e-01 8.435180e-01 0.000000e+00
 0.000000e+00 0.000000e+00 0.000000e+00 8.785025e-01 1.214975e-01
 0.000000e+00 0.000000e+00 0.000000e+00 0.000000e+00 0.000000e+00
<ENDHMM>
~h "i"
<BEGINHMM>
<NUMSTATES> 5
<STATE> 2
<MEAN> 39
 1.463632e+00 -7.361434e+00 3.263078e+00 -7.898979e+00 -1.296375e+01 -5.077171e-01 -1.449766e+01 1.524559e+00 -1.155399e+01 -3.725148e+00 3.713191e+00 -8.235675e+00 6.973952e+01 -2.943139e-01 1.246436e+00 -5.045066e-01 8.733253e-01 1.014702e+00 -1.010796e+00 1.502279e+00 -1.092793e+00 -1.065315e-01 -3.053867e-01 -4.681096e-01 9.683100e-01 -1.090596e+00 -5.110369e-01 2.429167e-01 8.260524e-03 -4.085628e-01 1.912147e-01 2.496312e-01 3.199110e-01 -1.437550e-01 5.159223e-01 1.719106e-02 -1.222392e-01 -1.313443e-01 1.755013e-01
<VARIANCE> 39
 5.258184e+01 3.388121e+01 7.523784e+01 6.751608e+01 5.516214e+01 6.671460e+01 8.971584e+01 1.053682e+02 7.409232e+01 6.663025e+01 5.733992e+01 4.252071e+01 6.438879e+01 5.045106e+00 3.473351e+00 4.867035e+00 5.546735e+00 4.321170e+00 8.659189e+00 7.274407e+00 5.506179e+00 4.477499e+00 4.688322e+00 4.388543e+00 3.452067e+00 4.119454e+00 8.134525e-01 6.167638e-01 8.265031e-01 9.975773e-01 1.045650e+00 1.544201e+00 1.372500e+00 1.233827e+00 8.695269e-01 9.775295e-01 8.218272e-01 7.267407e-01 5.900309e-01
<GCONST> 1.450958e+02
<STATE> 3
<MEAN> 39
 3.586793e-01 -3.438013e+00 1.648361e+00 -6.111681e+00 -9.672725e+00 -1.730038e+00 -8.476517e+00 -3.325542e+00 -1.086554e+01 -4.753023e+00 2.819489e+00 -6.902276e+00 6.600969e+01 -1.368334e+00 1.524040e+00 -4.626594e-01 7.588633e-02 1.459600e+00 -5.389171e-01 1.798414e+00 -1.084233e+00 7.637818e-01 -3.132481e-01 -6.721639e-01 7.160017e-01 -4.951954e-01 -6.417951e-01 -7.629089e-03 1.486147e-01 -5.086049e-01 2.332138e-01 4.327483e-01 -2.538553e-01 2.986723e-01 3.932943e-01 1.676823e-01 -1.121335e-01 -1.753108e-01 2.449996e-01
<VARIANCE> 39
 9.128568e+01 3.622283e+01 6.353324e+01 5.412381e+01 5.516699e+01 5.716747e+01 6.393137e+01 6.972126e+01 9.694009e+01 3.705727e+01 4.759206e+01 4.358187e+01 5.712331e+01 7.381740e+00 4.232340e+00 2.744843e+00 4.084218e+00 4.894099e+00 6.483908e+00 6.793678e+00 5.475889e+00 3.797837e+00 3.066418e+00 3.302410e+00 2.735575e+00 4.505310e+00 1.387243e+00 6.413215e-01 7.238945e-01 8.152412e-01 8.908290e-01 1.523642e+00 9.928531e-01 8.290621e-01 7.352765e-01 5.458203e-01 5.078527e-01 5.631343e-01 5.234838e-01
<GCONST> 1.399996e+02
<STATE> 4
<MEAN> 39
 -3.552779e+00 -8.839484e-01 2.832013e+00 -8.407957e+00 -7.060254e+00 -2.282792e+00 -7.002558e+00 -4.929863e+00 -9.032062e+00 -5.570800e+00 1.514414e+00 -6.741424e+00 6.795108e+01 -1.894697e+00 1.036020e+00 -1.572388e-01 -2.912692e-01 1.490181e+00 4.384582e-02 9.056706e-01 -2.124238e-01 9.198843e-01 1.080118e-01 -7.580977e-01 4.775826e-01 -1.591789e-01 -3.105085e-01 -3.144504e-01 -1.614816e-03 -1.718636e-01 6.193511e-02 2.661185e-01 -4.198435e-01 4.230202e-01 1.602068e-01 2.786742e-01 2.104578e-02 -6.867445e-02 1.706177e-02
<VARIANCE> 39
 1.276773e+02 4.823949e+01 1.069945e+02 5.344236e+01 7.035264e+01 6.047950e+01 7.365172e+01 4.112422e+01 9.293013e+01 2.866353e+01 4.312670e+01 3.655899e+01 5.007762e+01 9.599850e+00 3.612706e+00 2.991405e+00 3.444698e+00 5.162616e+00 5.286109e+00 6.336492e+00 4.187280e+00 4.539667e+00 3.087810e+00 3.105764e+00 2.553298e+00 3.065640e+00 1.604116e+00 6.045441e-01 5.032115e-01 6.532251e-01 1.046625e+00 1.361471e+00 1.184811e+00 7.798809e-01 9.290176e-01 5.531011e-01 5.358168e-01 4.499379e-01 4.167124e-01
<GCONST> 1.390531e+02
<TRANSP> 5
 0.000000e+00 1.000000e+00 0.000000e+00 0.000000e+00 0.000000e+00
 0.000000e+00 5.370020e-01 4.629980e-01 0.000000e+00 0.000000e+00
 0.000000e+00 0.000000e+00 3.946444e-01 6.053556e-01 0.000000e+00
 0.000000e+00 0.000000e+00 0.000000e+00 5.634292e-01 4.365708e-01
 0.000000e+00 0.000000e+00 0.000000e+00 0.000000e+00 0.000000e+00
<ENDHMM>
~h "j"
<BEGINHMM>
<NUMSTATES> 5
<STATE> 2
<MEAN> 39
 -1.140278e+00 -7.749112e+00 -4.252212e-01 -1.197752e+01 -9.051602e+00 2.402665e+00 -1.804537e+01 8.228782e-01 -2.798333e+00 1.202487e-01 5.137925e-01 -6.869885e+00 6.834901e+01 4.579238e-01 6.335646e-01 6.695347e-01 -4.264010e-01 3.755738e-01 -1.047101e+00 -3.109814e-01 4.105073e-02 -5.802988e-01 -5.362981e-01 9.544651e-02 5.914629e-01 7.085421e-01 -3.638843e-02 1.254189e-02 -1.708630e-01 -2.546994e-01 -1.172830e-01 2.965626e-01 3.122074e-01 -5.563528e-02 -1.762878e-01 -1.589093e-01 5.554780e-02 1.326607e-01 -3.690015e-01
<VARIANCE> 39
 7.793843e+01 3.652184e+01 2.620040e+01 7.770463e+01 4.769861e+01 8.475610e+01 9.056357e+01 5.682544e+01 4.826122e+01 5.106895e+01 5.402592e+01 4.926564e+01 5.855302e+01 1.034475e+01 4.793233e+00 3.820852e+00 1.113475e+01 6.553840e+00 1.381939e+01 1.111527e+01 6.412122e+00 5.957104e+00 4.711245e+00 6.137323e+00 5.625518e+00 1.371758e+01 1.292494e+00 1.115582e+00 7.891327e-01 1.200463e+00 9.657380e-01 1.770075e+00 1.866288e+00 1.382718e+00 1.391709e+00 1.177217e+00 7.558595e-01 1.236366e+00 2.060457e+00
<GCONST> 1.527335e+02
<STATE> 3
<MEAN> 39
 -4.658079e-01 -8.593902e+00 3.627951e+00 -1.431472e+01 -1.122901e+01 -1.206985e+00 -2.017289e+01 3.887180e+00 -2.044775e+00 -3.641555e+00 4.207647e-01 -4.131279e+00 7.181690e+01 1.520107e-01 -1.288227e+00 -2.615407e-02 -1.374300e-01 -7.237808e-01 -1.259654e-01 -2.389725e-01 1.235934e+00 9.472092e-01 -4.089752e-01 -6.627930e-01 -2.541669e-01 1.121606e+00 4.282883e-02 -2.496219e-01 -3.102492e-01 1.687039e-02 1.022640e-01 4.201246e-01 -9.161230e-03 -3.606755e-02 8.853473e-02 1.085900e-01 -1.152069e-01 -4.359400e-01 8.161256e-02
<VARIANCE> 39
 4.420679e+01 4.919934e+01 3.124158e+01 5.417137e+01 9.262679e+01 1.242606e+02 9.536488e+01 7.433276e+01 3.516973e+01 3.465137e+01 7.820669e+01 5.541144e+01 4.911256e+01 6.199411e+00 8.568733e+00 4.357198e+00 5.344646e+00 1.363660e+01 1.110962e+01 1.461536e+01 1.149915e+01 2.842325e+00 5.392944e+00 5.013196e+00 9.816938e+00 7.781456e+00 1.198699e+00 1.394425e+00 8.729921e-01 8.824129e-01 3.151353e+00 1.683539e+00 3.196344e+00 3.164790e+00 6.986573e-01 1.244289e+00 1.057757e+00 1.642803e+00 1.391582e+00
<GCONST> 1.553085e+02
<STATE> 4
<MEAN> 39
 1.855356e+00 -1.800012e+01 -6.841343e+00 -1.583415e+01 -9.512486e+00 1.089995e+01 -1.790375e+01 3.814167e+00 3.273624e+00 -1.542063e+00 -7.707749e+00 -1.085904e+01 7.467310e+01 -4.537926e-01 5.030682e-01 -6.741800e-01 4.339114e-01 8.490829e-01 5.464278e-03 8.478534e-01 -9.980680e-01 -2.528553e-01 3.054875e-01 4.385009e-03 9.069599e-02 -1.037920e+00 -2.262567e-01 1.878832e-01 9.349880e-02 6.405680e-02 7.649812e-02 -3.646552e-01 1.460049e-01 -5.088427e-02 -6.673522e-02 -8.805709e-02 1.548037e-01 3.003825e-01 -6.738366e-02
<VARIANCE> 39
 2.606482e+01 4.119333e+01 1.905549e+01 3.400405e+01 2.441792e+01 9.806480e+01 6.996631e+01 5.228218e+01 2.805844e+01 3.071153e+01 2.320665e+01 2.835340e+01 7.788219e+01 3.562773e+00 3.447694e+00 2.290198e+00 3.651416e+00 1.746997e+00 1.394280e+01 7.642967e+00 5.876439e+00 2.178643e+00 3.249887e+00 2.591765e+00 4.048538e+00 6.012910e+00 5.571257e-01 5.585086e-01 3.438887e-01 6.392544e-01 4.160076e-01 1.640199e+00 1.348046e+00 1.439146e+00 4.708409e-01 6.187047e-01 5.083504e-01 6.429423e-01 1.364709e+00
<GCONST> 1.320078e+02
<TRANSP> 5
 0.000000e+00 1.000000e+00 0.000000e+00 0.000000e+00 0.000000e+00
 0.000000e+00 8.521293e-01 1.478708e-01 0.000000e+00 0.000000e+00
 0.000000e+00 0.000000e+00 8.868823e-01 1.131177e-01 0.000000e+00
 0.000000e+00 0.000000e+00 0.000000e+00 9.217858e-01 7.821423e-02
 0.000000e+00 0.000000e+00 0.000000e+00 0.000000e+00 0.000000e+00
<ENDHMM>
~h "l"
<BEGINHMM>
<NUMSTATES> 5
<STATE> 2
<MEAN> 39
 -1.313063e+01 9.407465e-02 -8.375182e+00 -9.898918e-01 -7.286644e+00 7.438454e-01 -6.804709e+00 -6.448429e-01 -3.695975e+00 -4.785093e+00 -4.456547e+00 -3.288708e+00 3.983559e+01 1.456335e-01 -9.360307e-02 1.078808e-01 1.535840e-01 -1.489334e-02 -1.239197e-01 -1.112876e-02 1.515313e-01 1.258054e-01 -1.091541e-01 -1.512649e-01 1.906425e-01 1.788022e-01 -5.102034e-02 -3.295685e-02 7.609465e-02 9.001806e-02 3.174197e-03 -8.998794e-02 -4.332703e-02 -1.854474e-02 1.467752e-03 2.762901e-02 5.175513e-02 4.237203e-02 -4.902406e-03
<VARIANCE> 39
 5.628247e+01 3.470566e+01 2.962580e+01 4.754076e+01 3.012328e+01 3.805067e+01 3.860447e+01 2.500800e+01 2.304972e+01 1.707723e+01 1.898296e+01 1.526149e+01 3.537643e+01 2.219791e+00 2.219703e+00 2.167775e+00 1.911227e+00 2.568517e+00 2.573899e+00 3.444847e+00 2.677492e+00 2.483192e+00 2.184421e+00 2.084155e+00 1.514297e+00 1.115597e+00 4.101758e-01 4.309183e-01 3.991279e-01 4.145578e-01 5.522462e-01 5.861184e-01 7.018887e-01 5.196163e-01 4.743133e-01 4.488662e-01 4.060218e-01 3.350716e-01 2.200380e-01
<GCONST> 1.149839e+02
<STATE> 3
<MEAN> 39
 -1.044306e+01 1.705035e+00 -6.421291e+00 -7.720544e-01 -8.464160e+00 1.267824e+00 -6.050157e+00 -6.633957e-02 -3.445678e+00 -5.505999e+00 -5.125535e+00 -1.761546e+00 4.138914e+01 3.546062e-01 -4.466457e-02 6.324224e-01 4.636314e-01 -1.021503e-01 -3.269845e-01 6.374519e-03 2.629196e-01 2.222356e-01 4.803906e-02 1.231991e-03 3.477841e-01 4.735971e-01 2.411406e-01 5.034660e-02 2.087483e-01 7.825717e-02 -9.808840e-02 -2.589559e-02 -8.638360e-02 -8.439259e-02 -3.387030e-02 9.857285e-02 -3.730470e-03 1.378766e-02 2.044421e-01
<VARIANCE> 39
 6.733272e+01 3.232004e+01 2.479891e+01 9.321397e+01 4.464260e+01 4.304648e+01 2.333135e+01 2.098752e+01 1.553638e+01 1.625601e+01 2.048398e+01 1.492894e+01 6.726509e+01 4.207855e+00 3.208730e+00 2.161845e+00 2.438958e+00 3.714344e+00 2.685325e+00 1.480372e+00 2.061361e+00 1.815763e+00 2.220394e+00 2.103764e+00 1.352011e+00 1.449055e+00 5.995620e-01 5.406990e-01 4.113549e-01 5.300501e-01 6.729349e-01 5.373278e-01 3.802688e-01 3.929966e-01 3.338897e-01 4.528746e-01 3.437145e-01 3.381115e-01 2.778899e-01
<GCONST> 1.159281e+02
<STATE> 4
<MEAN> 39
 -8.306921e+00 2.842633e+00 -4.700400e+00 1.745917e-01 -9.145544e+00 -1.377089e-01 -6.707404e+00 -4.865780e-01 -3.317418e+00 -4.837772e+00 -4.563352e+00 -8.990029e-01 4.293746e+01 1.190919e+00 2.435830e-02 9.083842e-01 4.140747e-01 -5.412803e-01 -2.637519e-01 -2.033000e-01 2.194065e-01 1.383646e-01 1.166049e-02 -3.568159e-01 3.344778e-01 1.126970e+00 2.644093e-01 -9.435534e-02 1.709389e-01 -9.896513e-02 -1.191665e-01 8.843537e-02 -1.556130e-01 -4.482125e-02 -2.320442e-03 3.414309e-02 -1.465701e-01 -3.115877e-02 3.213435e-01
<VARIANCE> 39
 7.702381e+01 3.891130e+01 2.552670e+01 9.113013e+01 4.312921e+01 4.845519e+01 2.149822e+01 2.305251e+01 1.907668e+01 1.998826e+01 2.622173e+01 1.173044e+01 6.919083e+01 6.175065e+00 3.867448e+00 2.690540e+00 3.085583e+00 3.365051e+00 3.125754e+00 2.579022e+00 2.711274e+00 2.108175e+00 2.935507e+00 2.185702e+00 2.184591e+00 2.939932e+00 1.450074e+00 1.006256e+00 5.440618e-01 7.583676e-01 6.609604e-01 5.979074e-01 4.589690e-01 4.906907e-01 4.251998e-01 4.694235e-01 4.626619e-01 3.085450e-01 7.316148e-01
<GCONST> 1.244493e+02
<TRANSP> 5
 0.000000e+00 1.000000e+00 0.000000e+00 0.000000e+00 0.000000e+00
 0.000000e+00 6.886623e-01 3.113377e-01 0.000000e+00 0.000000e+00
 0.000000e+00 0.000000e+00 2.889152e-01 7.110848e-01 0.000000e+00
 0.000000e+00 0.000000e+00 0.000000e+00 3.647956e-01 6.352044e-01
 0.000000e+00 0.000000e+00 0.000000e+00 0.000000e+00 0.000000e+00
<ENDHMM>
~h "n"
<BEGINHMM>
<NUMSTATES> 5
<STATE> 2
<MEAN> 39
 3.099408e+00 -1.007544e+01 -2.503649e+00 -1.450168e+01 -9.995212e+00 8.717549e+00 -2.449083e+01 4.589945e+00 7.333726e-01 -3.847701e+00 -2.680866e+00 -1.330989e+01 7.411440e+01 -7.909482e-01 2.009265e-02 -2.434916e-01 -1.390523e-01 3.999814e-01 -1.739054e+00 -1.043409e+00 2.804894e+00 1.651088e+00 -4.265236e-01 -7.250406e-01 -3.322523e-01 6.148810e-01 5.123895e-02 8.645389e-03 1.833397e-01 1.199787e-01 -1.728759e-01 3.069633e-01 3.563799e-01 -2.942011e-02 -4.152414e-01 -5.809797e-01 2.654098e-01 3.950051e-01 -1.958942e-01
<VARIANCE> 39
 1.189876e+01 1.777475e+01 4.021173e+01 6.242707e+01 2.316673e+01 1.900541e+02 3.323515e+01 4.573415e+01 3.456479e+01 2.549973e+01 4.631164e+01 2.933191e+01 2.329282e+01 1.904765e+00 2.151305e+00 6.444750e+00 1.032225e+01 2.763818e+00 1.158206e+01 3.191517e+00 9.064778e+00 4.725605e+00 2.851305e+00 2.252227e+00 3.300798e+00 5.128231e+00 2.293797e-01 4.387987e-01 4.132569e-01 6.005555e-01 5.792149e-01 2.036959e+00 9.045262e-01 1.192362e+00 1.058143e+00 5.391757e-01 5.287346e-01 1.040673e+00 3.785098e-01
<GCONST> 1.308216e+02
<STATE> 3
<MEAN> 39
 1.003015e+00 -1.074950e+01 7.254015e-01 -1.223892e+01 -1.122388e+01 2.333901e+00 -2.520769e+01 1.289641e+01 3.796725e+00 -1.008432e+01 -4.600171e+00 -1.078731e+01 7.480606e+01 1.449059e-01 -8.856314e-02 -2.881865e-02 2.751890e-01 -3.489295e-01 1.185371e+00 9.307864e-01 6.534418e-01 -1.044278e+00 -1.937067e+00 3.980957e-01 6.891745e-01 -6.382378e-01 5.378429e-01 1.218878e-01 -1.130944e-02 6.085644e-01 -1.838182e-02 6.889783e-01 7.107182e-01 -1.479642e+00 -1.000688e+00 1.268789e-01 2.764337e-01 4.806336e-02 -7.437190e-01
<VARIANCE> 39
 9.137598e+00 2.226933e+01 2.445939e+01 2.081391e+01 1.678938e+01 2.531714e+01 2.054780e+01 4.979517e+01 4.451335e+01 3.168192e+01 4.621143e+01 2.070859e+01 2.521940e+01 1.579787e+00 6.352718e+00 4.733186e+00 4.733868e+00 2.383015e+00 9.006786e+00 3.601109e+00 1.608316e+01 8.057690e+00 2.491566e+00 1.732642e+00 4.901814e+00 5.426204e+00 1.812532e-01 2.535328e-01 8.567477e-01 6.628432e-01 4.738848e-01 9.084977e-01 4.103876e-01 9.217588e-01 7.690826e-01 5.628323e-01 3.582246e-01 4.219238e-01 3.383668e-01
<GCONST> 1.236509e+02
<STATE> 4
<MEAN> 39
 4.506192e+00 -9.485449e+00 -1.462994e-01 -7.279504e+00 -1.094515e+01 5.988906e+00 -1.892111e+01 4.900743e+00 -3.349357e+00 -1.206519e+01 -3.442938e+00 -8.805011e+00 6.862965e+01 5.929980e-01 5.325164e-02 -3.987772e-01 9.555489e-01 1.003923e-01 6.506761e-01 1.117685e+00 -1.150556e+00 -1.552361e+00 -5.092199e-01 5.049106e-01 4.426121e-01 -1.213623e+00 -3.685488e-01 -1.326165e-01 3.584124e-01 -3.350184e-01 -2.026450e-01 -9.688310e-02 -2.775958e-01 3.299021e-01 1.647902e-01 2.677246e-01 1.541626e-01 -1.154472e-01 2.784047e-01
<VARIANCE> 39
 2.394098e+01 9.462984e+01 2.275724e+01 4.119187e+01 1.947026e+01 2.755422e+01 2.869065e+01 1.505198e+02 6.038099e+01 2.315162e+01 4.200816e+01 3.667684e+01 5.918846e+01 1.270562e+00 2.777892e+00 1.589130e+00 2.122458e+00 1.573690e+00 3.326880e+00 2.688302e+00 6.649153e+00 2.150052e+00 2.457476e+00 1.857406e+00 1.696085e+00 1.583653e+00 4.343730e-01 4.618626e-01 6.679239e-01 7.650950e-01 6.918353e-01 7.476476e-01 6.465768e-01 1.834150e+00 6.627818e-01 4.830662e-01 4.267761e-01 4.169879e-01 7.204905e-01
<GCONST> 1.238934e+02
<TRANSP> 5
 0.000000e+00 1.000000e+00 0.000000e+00 0.000000e+00 0.000000e+00
 0.000000e+00 6.316095e-01 3.683906e-01 0.000000e+00 0.000000e+00
 0.000000e+00 0.000000e+00 5.784594e-01 4.215406e-01 0.000000e+00
 0.000000e+00 0.000000e+00 0.000000e+00 6.581570e-01 3.418430e-01
 0.000000e+00 0.000000e+00 0.000000e+00 0.000000e+00 0.000000e+00
<ENDHMM>
~h "o"
<BEGINHMM>
<NUMSTATES> 5
<STATE> 2
<MEAN> 39
 -1.309624e+01 -1.304181e+00 -7.449661e+00 6.343471e-01 -5.539866e+00 5.843798e-01 -3.613582e+00 4.998586e-01 -6.201014e+00 -4.861716e+00 -4.458928e+00 -3.536655e+00 4.049187e+01 -4.304428e-01 2.579663e-01 -2.217152e-01 -1.336792e-01 2.011205e-01 6.237879e-01 -7.990703e-03 -5.323474e-01 1.527489e-01 4.205764e-01 3.385613e-01 -1.939587e-01 -4.991107e-01 1.891523e-01 -9.870336e-02 4.782791e-02 -9.382252e-02 -2.492716e-01 -2.066090e-01 -3.471805e-02 6.382899e-02 7.023521e-02 -8.476774e-02 -6.551677e-02 1.348839e-01 2.778354e-01
<VARIANCE> 39
 1.342628e+01 1.794050e+01 1.443962e+01 1.657842e+01 1.846395e+01 1.501398e+01 2.062058e+01 2.665148e+01 1.948658e+01 1.755369e+01 1.805160e+01 1.361058e+01 9.026875e+00 2.036645e+00 2.190737e+00 1.680363e+00 1.875254e+00 2.120227e+00 2.403771e+00 2.329562e+00 2.443137e+00 2.160620e+00 1.953101e+00 1.835085e+00 1.695962e+00 9.710728e-01 3.249916e-01 4.801725e-01 3.357150e-01 3.940667e-01 4.347325e-01 3.945257e-01 4.506590e-01 4.697940e-01 4.046877e-01 3.598935e-01 3.570689e-01 3.399557e-01 1.973381e-01
<GCONST> 1.038153e+02
<STATE> 3
<MEAN> 39
 -1.420513e+01 4.242530e-01 -8.145657e+00 -5.066210e-02 -6.047866e+00 1.010033e+00 -4.948596e+00 -1.966228e+00 -5.166831e+00 -3.758332e+00 -2.870772e+00 -3.068191e+00 3.889375e+01 1.116176e+00 5.444967e-01 5.901465e-01 -6.834031e-01 -5.762588e-01 9.343693e-02 -1.016086e-01 -2.051922e-01 7.746755e-01 1.527049e-01 2.843132e-01 3.201001e-01 1.623869e+00 5.490508e-01 -2.374575e-01 3.762191e-01 -3.677737e-01 -2.184510e-01 -1.058089e-01 -3.536508e-01 -4.124852e-02 2.584748e-01 -8.810068e-02 7.116470e-02 -1.749457e-02 1.436509e+00
<VARIANCE> 39
 2.271627e+01 2.021528e+01 1.227586e+01 1.335969e+01 1.390405e+01 1.718985e+01 1.819134e+01 1.520181e+01 1.836445e+01 1.633269e+01 1.429430e+01 1.352885e+01 8.554909e+00 7.368632e+00 7.247994e+00 2.935851e+00 3.059772e+00 2.703006e+00 2.858826e+00 2.690287e+00 2.164229e+00 2.143701e+00 1.905721e+00 1.645221e+00 1.745037e+00 5.145286e+00 7.984670e-01 5.836660e-01 5.991470e-01 4.614802e-01 4.239027e-01 5.057545e-01 4.677266e-01 3.990559e-01 6.330998e-01 4.134522e-01 3.642070e-01 3.542244e-01 1.857487e+00
<GCONST> 1.131636e+02
<STATE> 4
<MEAN> 39
 -4.586392e+00 6.559191e+00 -5.142044e+00 -3.655990e+00 -9.318101e+00 4.143442e-01 -6.851312e+00 -2.792069e+00 -4.230185e+00 -4.081299e+00 -2.503599e+00 -2.455923e+00 4.549996e+01 1.487818e+00 -3.613790e-01 9.898292e-01 -1.177204e+00 -7.532443e-01 1.051780e-01 -1.032826e+00 -2.979893e-01 4.335793e-01 -3.758087e-01 1.452243e-01 8.158958e-02 3.128849e+00 -4.398697e-01 -5.281801e-01 -1.099199e-01 4.738873e-02 1.787138e-01 1.003700e-01 -1.604756e-01 -1.877022e-02 -1.363291e-01 -3.517953e-02 9.493484e-02 -1.202330e-01 4.063915e-02
<VARIANCE> 39
 1.281105e+02 9.052821e+01 4.237624e+01 6.791779e+01 4.739806e+01 5.940415e+01 4.115088e+01 2.393750e+01 2.337407e+01 2.373336e+01 1.770596e+01 1.203285e+01 4.941540e+01 1.052664e+01 8.720411e+00 4.187477e+00 6.084443e+00 3.926414e+00 5.011642e+00 3.942559e+00 2.219894e+00 3.801113e+00 2.245676e+00 1.997563e+00 1.681700e+00 1.680686e+01 2.487409e+00 1.353780e+00 7.237197e-01 1.136583e+00 7.954435e-01 8.923346e-01 8.576666e-01 4.779744e-01 4.347549e-01 4.548367e-01 4.532154e-01 3.455116e-01 1.907014e+00
<GCONST> 1.354556e+02
<TRANSP> 5
 0.000000e+00 1.000000e+00 0.000000e+00 0.000000e+00 0.000000e+00
 0.000000e+00 7.231484e-01 2.768516e-01 0.000000e+00 0.000000e+00
 0.000000e+00 0.000000e+00 4.371685e-01 5.628315e-01 0.000000e+00
 0.000000e+00 0.000000e+00 0.000000e+00 5.910265e-01 4.089735e-01
 0.000000e+00 0.000000e+00 0.000000e+00 0.000000e+00 0.000000e+00
<ENDHMM>
~h "q"
<BEGINHMM>
<NUMSTATES> 5
<STATE> 2
<MEAN> 39
 5.751823e+00 -6.838599e+00 -3.715352e+00 -8.873263e+00 -7.615481e+00 4.805217e+00 -1.942985e+01 2.298919e+00 -8.593313e+00 -5.904547e+00 1.717107e+00 -1.532907e+01 6.391013e+01 -7.017034e-01 1.509634e+00 1.221486e+00 2.340574e-01 -5.473178e-02 -1.229289e+00 7.762743e-01 -1.188478e+00 -6.089603e-01 1.660135e+00 -2.044671e+00 9.096849e-01 -1.953632e+00 -2.461025e-01 1.449377e-01 8.547246e-02 -2.951357e-01 -1.524327e-01 5.982155e-01 3.340907e-01 -3.249303e-01 -3.512947e-01 3.847378e-02 5.190815e-01 -1.832565e-01 2.123909e-02
<VARIANCE> 39
 1.370792e+01 3.545134e+01 3.820867e+01 2.120784e+01 2.672799e+01 3.029497e+01 5.353808e+01 4.103088e+01 3.728870e+01 2.912247e+01 3.056455e+01 3.221785e+01 4.849735e+01 9.198772e-01 2.069040e+00 5.368654e+00 1.843964e+00 3.603795e+00 2.952954e+00 4.341584e+00 4.006636e+00 4.373291e+00 2.363314e+00 3.368532e+00 2.129492e+00 1.332892e+00 1.380834e-01 3.717757e-01 6.693925e-01 3.490947e-01 5.537058e-01 5.116206e-01 8.702533e-01 8.884245e-01 7.007678e-01 4.546998e-01 6.788775e-01 4.328724e-01 1.485883e-01
<GCONST> 1.192500e+02
<STATE> 3
<MEAN> 39
 -4.330161e-01 4.535415e-01 4.236556e+00 -1.054063e+01 -8.647831e+00 4.948569e+00 -1.338654e+01 -5.385779e+00 -1.549501e+01 2.109422e+00 -1.094672e+00 -1.489323e+01 5.577265e+01 -7.533988e-01 9.439675e-01 3.102341e+00 -1.319991e+00 -7.322881e-01 1.009498e+00 6.271832e-01 -9.258503e-01 -2.121690e+00 8.837067e-01 9.973953e-01 -7.193201e-01 -3.874516e-02 7.460022e-02 -1.358357e-01 2.871957e-01 -3.044629e-01 -1.656795e-01 1.764793e-01 -3.754009e-01 4.943876e-01 4.921643e-02 -5.026968e-01 5.187190e-01 -9.329563e-02 5.176783e-01
<VARIANCE> 39
 3.543491e+01 3.946006e+01 1.266755e+02 4.208188e+01 5.242483e+01 3.811837e+01 3.970595e+01 4.849224e+01 7.238649e+01 4.336847e+01 3.232790e+01 4.889723e+01 6.885094e+01 2.013614e+00 2.259613e+00 8.390049e+00 3.788110e+00 4.831358e+00 4.362111e+00 4.731879e+00 6.673650e+00 5.367761e+00 4.379134e+00 4.062174e+00 2.684073e+00 2.844022e+00 3.866992e-01 4.538012e-01 1.473672e+00 6.313111e-01 1.114133e+00 8.284885e-01 7.663316e-01 1.007998e+00 1.065514e+00 7.443337e-01 6.487867e-01 5.927395e-01 2.814741e-01
<GCONST> 1.357740e+02
<STATE> 4
<MEAN> 39
 -2.863378e+00 2.806785e-01 2.095796e+01 -1.802951e+01 -2.267812e+01 1.168921e+01 -1.339828e+01 -2.698391e+00 -1.804468e+01 -4.670708e+00 1.100444e+01 -1.565701e+01 6.897313e+01 4.261912e-01 -2.580303e-01 -5.527284e-01 7.378777e-01 -8.087233e-02 -2.134665e-01 2.357334e-01 -1.495403e-01 2.096045e-01 -5.947737e-01 2.390704e-01 3.729528e-01 2.292070e-01 1.580198e-01 -1.344606e-03 -3.588697e-01 3.171822e-01 1.545509e-01 -2.333302e-01 9.230950e-02 -6.388097e-02 4.013073e-02 1.433147e-02 -2.018746e-01 1.258256e-01 -1.896542e-01
<VARIANCE> 39
 1.812214e+01 1.764732e+01 3.623664e+01 4.323024e+01 5.694382e+01 3.808844e+01 1.722381e+01 3.840374e+01 3.937593e+01 3.481428e+01 2.342801e+01 2.349718e+01 2.388088e+01 2.330100e+00 1.598190e+00 4.240468e+00 5.770813e+00 6.001440e+00 5.009645e+00 1.493331e+00 3.000488e+00 2.606868e+00 1.770667e+00 2.448801e+00 2.399114e+00 2.355002e+00 2.344269e-01 2.991066e-01 4.406705e-01 7.173253e-01 5.674816e-01 7.493001e-01 3.204761e-01 4.259841e-01 4.642430e-01 3.119955e-01 3.302600e-01 4.493580e-01 1.101603e-01
<GCONST> 1.165558e+02
<TRANSP> 5
 0.000000e+00 1.000000e+00 0.000000e+00 0.000000e+00 0.000000e+00
 0.000000e+00 7.477378e-01 2.522623e-01 0.000000e+00 0.000000e+00
 0.000000e+00 0.000000e+00 8.115481e-01 1.884519e-01 0.000000e+00
 0.000000e+00 0.000000e+00 0.000000e+00 9.375284e-01 6.247162e-02
 0.000000e+00 0.000000e+00 0.000000e+00 0.000000e+00 0.000000e+00
<ENDHMM>
~h "s"
<BEGINHMM>
<NUMSTATES> 5
<STATE> 2
<MEAN> 39
 -6.107976e+00 -2.002062e+00 -4.398003e+00 -9.391815e+00 -8.801299e+00 1.163816e+00 -4.339210e+00 -3.584747e+00 -1.908042e-01 -5.400791e+00 -5.164569e+00 -1.383130e+00 6.479163e+01 1.104570e+00 -7.980014e-01 1.508717e+00 -2.013858e+00 -9.762215e-01 1.462700e+00 -1.027284e+00 1.358300e-01 6.459602e-01 -1.094522e-01 2.376262e-01 1.018904e-01 2.033369e+00 3.281870e-01 -4.387328e-01 -5.591521e-03 -2.711213e-01 -2.097234e-02 2.501679e-01 -7.086946e-01 3.873835e-01 -9.406487e-02 4.020090e-01 4.506038e-02 -2.595108e-01 1.789223e-01
<VARIANCE> 39
 1.199060e+02 4.908958e+01 6.936765e+01 1.743171e+02 8.520322e+01 1.286847e+02 8.264054e+01 5.411118e+01 3.032023e+01 3.085896e+01 5.026595e+01 1.663494e+01 2.531021e+02 1.176695e+01 5.370014e+00 5.536192e+00 1.029250e+01 4.049995e+00 5.446751e+00 7.405734e+00 2.575755e+00 2.225197e+00 3.446058e+00 3.766868e+00 1.190678e+00 1.071091e+01 1.500785e+00 9.245118e-01 7.246785e-01 1.260081e+00 7.835115e-01 1.436738e+00 1.282675e+00 9.553537e-01 5.482174e-01 7.126898e-01 6.587065e-01 3.102314e-01 1.332614e+00
<GCONST> 1.450275e+02
<STATE> 3
<MEAN> 39
 9.492409e-01 -1.743598e+00 3.731927e+00 -1.112183e+01 -1.520071e+01 7.522321e+00 -1.174615e+01 -9.170592e-01 -4.112475e-01 -5.198955e+00 -3.680960e+00 -1.110868e+00 6.050490e+01 2.806798e+00 -1.856168e+00 2.069371e+00 -2.316621e+00 -1.339111e+00 1.410616e+00 -2.899503e+00 -6.064627e-02 5.024949e-01 1.239048e+00 -4.007953e-01 -4.675230e-01 3.926306e+00 -2.704815e-01 -5.937645e-01 -7.965530e-01 2.046365e-01 3.818808e-01 -6.538506e-01 -1.492648e-01 5.114269e-01 -2.569192e-01 4.112917e-01 -2.954987e-01 -3.142548e-01 1.785125e-01
<VARIANCE> 39
 9.163982e+01 1.081460e+02 7.952259e+01 2.774539e+02 6.774103e+01 9.366768e+01 6.763075e+01 2.597890e+01 2.683915e+01 3.742133e+01 6.019141e+01 1.512172e+01 1.490427e+02 9.491259e+00 4.818698e+00 4.271076e+00 7.937575e+00 3.093222e+00 6.991041e+00 6.390206e+00 3.266373e+00 3.069154e+00 3.526320e+00 4.789538e+00 1.890691e+00 1.050443e+01 1.511618e+00 1.895658e+00 1.004312e+00 2.375718e+00 1.002848e+00 1.108016e+00 1.440917e+00 6.684932e-01 2.413965e-01 4.363481e-01 5.304564e-01 3.934378e-01 1.548776e+00
<GCONST> 1.448428e+02
<STATE> 4
<MEAN> 39
 8.138123e+00 -4.601179e+00 5.183227e+00 -2.133119e+01 -1.955261e+01 1.127129e+01 -1.717379e+01 -1.321450e+00 -7.192760e-01 -3.998770e+00 -4.422841e+00 -1.315642e+00 6.794830e+01 1.172523e+00 -2.758762e+00 1.913963e-01 -1.892661e+00 -3.107305e-01 5.618808e-02 -1.938116e+00 9.027596e-01 -6.091278e-01 1.474898e+00 -3.432011e-01 -6.259332e-01 3.426047e+00 -7.906257e-01 -1.736102e-01 -7.596493e-01 3.267998e-01 5.505751e-01 -2.389939e-01 3.523246e-01 6.567924e-01 -1.825306e-01 -3.345368e-02 1.479591e-01 -3.706056e-01 -3.401160e-01
<VARIANCE> 39
 1.934599e+01 4.168306e+01 3.355421e+01 3.271373e+02 2.770293e+01 1.298924e+02 2.826548e+01 2.244150e+01 3.250585e+01 4.410001e+01 8.427751e+01 1.657889e+01 4.280314e+01 6.098371e+00 4.123472e+00 2.670246e+00 8.104695e+00 3.086838e+00 4.639404e+00 6.982461e+00 3.660859e+00 2.417249e+00 1.764301e+00 1.922434e+00 2.534882e+00 8.754833e+00 7.591513e-01 6.637427e-01 4.183771e-01 1.779077e+00 2.488087e-01 7.308061e-01 9.500805e-01 1.035253e+00 3.985568e-01 5.527291e-01 7.164361e-01 4.464193e-01 6.130883e-01
<GCONST> 1.321428e+02
<TRANSP> 5
 0.000000e+00 1.000000e+00 0.000000e+00 0.000000e+00 0.000000e+00
 0.000000e+00 5.176628e-01 4.823372e-01 0.000000e+00 0.000000e+00
 0.000000e+00 0.000000e+00 1.620788e-01 8.379212e-01 0.000000e+00
 0.000000e+00 0.000000e+00 0.000000e+00 5.521678e-01 4.478322e-01
 0.000000e+00 0.000000e+00 0.000000e+00 0.000000e+00 0.000000e+00
<ENDHMM>
~h "t"
<BEGINHMM>
<NUMSTATES> 5
<STATE> 2
<MEAN> 39
 5.781704e+00 -6.109014e+00 -1.320715e+01 -1.589518e+01 -8.129954e-02 1.505913e+01 -1.308921e+01 3.453591e+00 -7.471455e+00 -6.282873e+00 -1.284930e+00 -6.406074e+00 6.941080e+01 2.757857e-01 -3.415672e-01 -5.040001e-01 -1.574309e-01 -4.115770e-01 6.988105e-01 5.890978e-01 -7.957063e-01 -1.090847e+00 4.544333e-01 9.250239e-03 -2.886770e-01 -3.375479e-01 -3.399723e-01 8.221455e-02 2.007334e-01 2.596588e-01 -1.448383e-01 -2.234842e-01 3.453688e-01 -2.632762e-01 3.131792e-01 -1.360666e-01 -2.343723e-02 1.119270e-01 -2.033904e-01
<VARIANCE> 39
 2.299993e+01 2.222330e+01 4.030637e+01 3.788026e+01 1.576649e+01 2.936917e+01 7.509141e+01 2.838465e+01 4.065695e+01 5.145847e+01 4.964485e+01 2.583228e+01 7.928334e+01 1.100894e+00 2.706093e+00 1.045832e+00 2.222227e+00 2.079334e+00 4.759527e+00 4.792478e+00 2.389633e+00 1.583477e+00 3.430126e+00 3.809367e+00 1.747895e+00 2.142185e+00 1.614488e-01 2.633824e-01 2.056270e-01 2.944936e-01 2.573940e-01 6.326319e-01 5.976729e-01 4.398923e-01 3.801160e-01 2.944550e-01 4.544490e-01 3.267371e-01 1.843175e-01
<GCONST> 1.143368e+02
<STATE> 3
<MEAN> 39
 7.893813e+00 -2.742971e+00 -1.677349e+01 -1.193563e+01 -5.746335e-01 1.351639e+01 -5.566458e+00 -3.869834e-01 -1.079879e+01 -7.179204e+00 -5.825035e-01 -6.217553e+00 6.232241e+01 -6.992969e-01 6.827588e-01 6.839694e-01 7.724091e-01 -3.507930e-01 3.324257e-01 1.275205e+00 -7.507670e-01 3.922381e-02 6.356646e-01 -9.750332e-01 4.430262e-01 -1.275308e+00 -4.512492e-01 2.441148e-02 4.432555e-01 1.452140e-01 3.556444e-02 2.116895e-01 -1.437124e-01 2.147809e-01 4.647917e-01 -2.080775e-01 6.799832e-02 -6.697245e-03 -1.583282e-01
<VARIANCE> 39
 1.890159e+01 4.263860e+01 2.407671e+01 3.969647e+01 1.579563e+01 2.748240e+01 7.945085e+01 2.008920e+01 2.816078e+01 1.952192e+01 1.931881e+01 1.440549e+01 9.452370e+01 1.717453e+00 3.239118e+00 1.554649e+00 1.973779e+00 2.135323e+00 2.035712e+00 3.036260e+00 1.730411e+00 2.250897e+00 2.348140e+00 3.687484e+00 1.945521e+00 2.319542e+00 1.779686e-01 3.358028e-01 1.915422e-01 2.439847e-01 2.672532e-01 2.963200e-01 3.128154e-01 3.195182e-01 2.267529e-01 2.961319e-01 3.349726e-01 2.247622e-01 1.408780e-01
<GCONST> 1.076432e+02
<STATE> 4
<MEAN> 39
 -3.177863e-02 2.215743e-01 -1.308687e+01 -5.820029e+00 9.415181e-01 1.452130e+01 6.568224e-01 -4.393485e-01 -8.497583e+00 -6.730811e+00 -4.164825e+00 -4.332658e+00 5.229765e+01 -1.921831e+00 -3.374431e-01 8.182859e-01 6.272296e-01 -1.740541e-01 2.746548e-01 4.716660e-01 3.858809e-01 7.123035e-01 1.228478e-01 -3.094174e-01 1.134518e-01 -1.364978e+00 -1.086243e-02 -2.320047e-01 -5.773332e-02 -2.012157e-01 -1.997545e-01 -2.850175e-01 -4.771471e-01 1.842746e-01 6.068047e-02 -2.281154e-02 2.451893e-01 -1.732196e-01 1.720410e-01
<VARIANCE> 39
 3.523349e+01 5.189790e+01 1.854048e+01 5.699680e+01 2.400132e+01 2.989700e+01 8.527747e+01 1.945100e+01 1.951694e+01 1.555387e+01 1.734504e+01 1.394759e+01 1.238615e+02 2.475082e+00 2.417592e+00 1.826534e+00 2.350872e+00 2.317268e+00 2.642061e+00 3.152528e+00 1.749009e+00 1.834718e+00 1.602980e+00 2.029618e+00 1.660304e+00 1.367939e+00 3.094743e-01 5.529380e-01 4.092774e-01 3.548422e-01 3.601343e-01 4.618735e-01 4.920813e-01 4.153639e-01 4.107541e-01 3.795615e-01 3.538057e-01 2.821698e-01 1.235825e-01
<GCONST> 1.122069e+02
<TRANSP> 5
 0.000000e+00 1.000000e+00 0.000000e+00 0.000000e+00 0.000000e+00
 0.000000e+00 5.287257e-01 4.712742e-01 0.000000e+00 0.000000e+00
 0.000000e+00 0.000000e+00 5.202015e-01 4.797985e-01 0.000000e+00
 0.000000e+00 0.000000e+00 0.000000e+00 7.212869e-01 2.787131e-01
 0.000000e+00 0.000000e+00 0.000000e+00 0.000000e+00 0.000000e+00
<ENDHMM>
~h "u"
<BEGINHMM>
<NUMSTATES> 5
<STATE> 2
<MEAN> 39
 -8.743101e+00 -1.656050e+01 -8.806311e+00 1.716932e+00 -1.514435e+01 -4.631939e+00 6.483941e+00 1.226236e+01 -5.959557e+00 -9.492450e+00 -9.506636e+00 -2.423941e+00 5.058830e+01 2.257969e-01 1.617045e+00 1.851461e-01 2.129626e-01 2.510048e-01 -1.340590e+00 -6.915861e-01 -9.481673e-01 -7.248702e-01 -6.993816e-01 -1.469081e-02 1.238662e+00 -5.706732e-01 3.283186e-01 8.089318e-01 4.094903e-01 -3.028068e-01 5.502667e-01 2.685663e-01 -1.026678e+00 -3.774419e-01 1.101579e-01 2.453038e-02 1.519633e-01 -7.780917e-02 1.083072e-01
<VARIANCE> 39
 6.375498e+00 1.573837e+01 1.519147e+01 1.348894e+01 2.556796e+01 2.169088e+01 3.362401e+01 2.657609e+01 2.519103e+01 1.935534e+01 1.577001e+01 1.800532e+01 1.021594e+01 1.116325e+00 3.106228e+00 1.622977e+00 2.057622e+00 2.784133e+00 2.935773e+00 4.060820e+00 2.842824e+00 2.709404e+00 2.128691e+00 2.372920e+00 2.019635e+00 1.146276e+00 2.156083e-01 4.738674e-01 3.455620e-01 3.446864e-01 4.720639e-01 5.941908e-01 7.371114e-01 7.119267e-01 5.174808e-01 5.451568e-01 4.024329e-01 4.556280e-01 2.748806e-01
<GCONST> 1.087582e+02
<STATE> 3
<MEAN> 39
 -5.706807e+00 -7.139506e+00 -5.261384e+00 1.556875e+00 -1.128174e+01 -7.500514e+00 1.717142e-01 7.950999e+00 -6.871208e+00 -1.025353e+01 -9.178883e+00 1.246794e+00 4.987226e+01 8.432874e-01 4.072590e+00 1.318348e+00 1.531957e-02 1.838250e+00 -4.612125e-01 -2.759223e+00 -2.449907e+00 -5.190017e-01 4.438170e-01 6.969689e-01 1.815856e-01 -7.212003e-01 -2.770644e-01 -1.319531e-01 -1.534483e-01 -6.197339e-02 1.924516e-01 7.675468e-01 1.190532e-01 -7.484873e-02 7.895298e-02 4.382393e-01 3.428691e-01 -7.163352e-01 -2.122648e-01
<VARIANCE> 39
 2.309530e+01 4.472329e+01 2.452595e+01 1.899039e+01 2.776220e+01 2.636707e+01 3.377092e+01 3.592368e+01 2.682023e+01 2.153619e+01 1.861807e+01 2.148767e+01 1.225561e+01 3.104677e+00 3.244021e+00 2.062057e+00 3.038248e+00 3.246283e+00 4.488622e+00 4.230159e+00 3.806982e+00 2.062268e+00 2.747379e+00 2.533483e+00 3.513777e+00 1.647802e+00 5.601184e-01 8.840781e-01 4.757340e-01 4.371769e-01 6.716628e-01 9.078884e-01 8.149336e-01 6.895036e-01 5.111095e-01 5.158836e-01 4.929336e-01 6.278390e-01 2.779488e-01
<GCONST> 1.202069e+02
<STATE> 4
<MEAN> 39
 -2.430815e+00 1.945812e+00 -2.720060e+00 5.023103e-01 -8.012398e+00 -7.577266e+00 -6.870995e+00 1.692042e+00 -7.606961e+00 -7.217459e+00 -6.164425e+00 -1.630933e+00 4.927312e+01 -7.209445e-01 1.649594e+00 -1.562982e-01 2.089285e-01 1.501389e+00 1.900450e+00 -5.632451e-01 -1.344044e+00 9.705676e-02 1.021560e+00 1.123499e+00 -9.559239e-01 -1.548081e+00 -7.953963e-01 -1.107618e+00 -5.130222e-01 6.598879e-02 -2.470303e-01 7.154024e-01 9.670892e-01 5.316201e-01 3.121140e-01 1.138304e-01 -3.600644e-02 -1.378069e-01 -3.004781e-01
<VARIANCE> 39
 4.396958e+01 5.554637e+01 4.041692e+01 3.310640e+01 2.684922e+01 3.410059e+01 4.734791e+01 4.070174e+01 2.651641e+01 2.369516e+01 2.183645e+01 2.452090e+01 1.743564e+01 4.609409e+00 3.634289e+00 3.468294e+00 2.636983e+00 3.016395e+00 3.848859e+00 4.449682e+00 3.540228e+00 2.518087e+00 3.229528e+00 1.856973e+00 3.207665e+00 1.929529e+00 5.871375e-01 7.807297e-01 7.111638e-01 7.291719e-01 6.869104e-01 8.998531e-01 9.253739e-01 6.950573e-01 3.847928e-01 7.379369e-01 5.029010e-01 7.086522e-01 2.390376e-01
<GCONST> 1.253422e+02
<TRANSP> 5
 0.000000e+00 1.000000e+00 0.000000e+00 0.000000e+00 0.000000e+00
 0.000000e+00 6.731377e-01 3.268623e-01 0.000000e+00 0.000000e+00
 0.000000e+00 0.000000e+00 5.275719e-01 4.724280e-01 0.000000e+00
 0.000000e+00 0.000000e+00 0.000000e+00 3.649758e-01 6.350242e-01
 0.000000e+00 0.000000e+00 0.000000e+00 0.000000e+00 0.000000e+00
<ENDHMM>
~h "w"
<BEGINHMM>
<NUMSTATES> 5
<STATE> 2
<MEAN> 39
 -1.737628e+01 -3.986298e-01 -1.106650e+01 1.985783e-01 -8.430076e+00 6.842705e-01 -7.643600e+00 -2.295290e+00 -4.479612e+00 -3.937175e+00 -3.281630e+00 -3.741360e+00 3.467224e+01 4.461813e-02 -4.198176e-02 2.452368e-02 -2.855098e-02 2.509492e-02 -3.333110e-02 -6.014645e-03 -4.858924e-03 -1.159721e-02 1.231475e-02 -2.310452e-02 2.330153e-02 8.113214e-02 3.347951e-04 -1.592688e-03 2.962479e-03 -3.603697e-03 1.982188e-03 -7.531063e-04 3.231850e-03 -2.767947e-03 -3.318873e-03 4.420967e-04 -1.575817e-03 -1.972401e-03 3.866058e-03
<VARIANCE> 39
 2.185138e+00 2.643773e+00 5.946262e+00 6.638305e+00 8.920832e+00 1.096733e+01 1.088922e+01 1.201836e+01 1.357178e+01 1.156091e+01 1.202938e+01 1.094073e+01 2.688735e+00 1.372479e-01 2.582812e-01 4.740370e-01 6.397468e-01 8.058229e-01 1.055080e+00 1.139274e+00 1.213956e+00 1.287490e+00 1.336098e+00 1.361553e+00 1.210323e+00 4.983537e-02 2.675788e-02 5.276366e-02 9.659316e-02 1.325877e-01 1.680674e-01 2.216584e-01 2.271354e-01 2.494273e-01 2.687523e-01 2.798093e-01 2.838024e-01 2.503262e-01 8.856650e-03
<GCONST> 6.412080e+01
<STATE> 3
<MEAN> 39
 -1.509483e+01 -2.256421e+00 -1.204219e+01 -1.011973e+00 -8.576262e+00 -1.483851e+00 -8.514503e+00 -1.554501e+00 -3.331866e+00 -3.606578e+00 -4.478868e+00 -3.886125e+00 3.754285e+01 -5.625373e-02 2.459549e-02 9.780093e-02 3.897645e-02 5.996259e-02 7.658976e-02 8.078731e-02 -3.645460e-02 -1.002995e-01 -8.178192e-03 3.500413e-02 2.917762e-02 -1.700684e-02 2.194131e-03 2.796651e-02 1.962365e-02 8.629452e-03 1.777048e-02 2.207427e-02 1.330514e-02 6.626691e-03 6.295995e-03 -3.645763e-03 1.614657e-02 -2.151643e-03 -2.892721e-03
<VARIANCE> 39
 4.315573e+00 4.600755e+00 8.825547e+00 8.181110e+00 1.024859e+01 1.386890e+01 1.479235e+01 1.496308e+01 1.667414e+01 1.208691e+01 1.053836e+01 1.159210e+01 2.846353e+00 1.849295e-01 2.782829e-01 4.899924e-01 7.288634e-01 8.656085e-01 1.049213e+00 1.268708e+00 1.319772e+00 1.395586e+00 1.257404e+00 1.015278e+00 1.229659e+00 8.776249e-02 4.198011e-02 5.653732e-02 9.781370e-02 1.547034e-01 1.698504e-01 2.107789e-01 2.703209e-01 2.723706e-01 2.814624e-01 2.587834e-01 2.028620e-01 2.636782e-01 1.616336e-02
<GCONST> 6.938712e+01
<STATE> 4
<MEAN> 39
 -1.731561e+01 -7.494607e-01 -9.323969e+00 1.561510e-01 -6.932890e+00 1.121589e+00 -6.637691e+00 -2.241313e+00 -5.388559e+00 -4.086704e+00 -2.885847e+00 -3.338928e+00 3.606045e+01 6.091123e-01 5.629811e-01 3.271359e-01 5.203469e-02 2.357915e-01 1.067339e-01 1.344030e-01 2.175219e-01 -1.531852e-02 -5.764897e-02 -1.024676e-01 -1.211630e-01 3.190491e-01 4.618599e-01 4.407848e-01 2.078141e-01 -7.060935e-02 3.461348e-02 4.335711e-02 5.793247e-02 -4.064955e-03 2.214740e-02 6.051734e-05 9.510814e-03 8.211268e-02 2.493996e-01
<VARIANCE> 39
 3.449946e+00 5.422523e+00 7.543075e+00 8.889866e+00 9.688246e+00 8.982724e+00 1.118322e+01 1.447681e+01 1.373792e+01 1.466657e+01 1.329380e+01 1.226211e+01 2.688735e+00 1.129253e+00 1.051941e+00 8.601900e-01 1.225900e+00 1.314792e+00 1.116593e+00 1.512113e+00 1.544446e+00 1.389523e+00 1.581032e+00 1.433791e+00 1.605274e+00 2.929676e-01 2.819794e-01 2.388272e-01 2.341026e-01 3.041431e-01 2.589847e-01 3.865037e-01 3.085533e-01 3.568588e-01 3.111124e-01 3.463615e-01 3.452781e-01 3.493720e-01 9.324329e-02
<GCONST> 8.504031e+01
<TRANSP> 5
 0.000000e+00 1.000000e+00 0.000000e+00 0.000000e+00 0.000000e+00
 0.000000e+00 9.634452e-01 3.655478e-02 0.000000e+00 0.000000e+00
 0.000000e+00 0.000000e+00 9.227915e-01 7.720853e-02 0.000000e+00
 0.000000e+00 0.000000e+00 0.000000e+00 5.961297e-01 4.038703e-01
 0.000000e+00 0.000000e+00 0.000000e+00 0.000000e+00 0.000000e+00
<ENDHMM>
~h "x"
<BEGINHMM>
<NUMSTATES> 5
<STATE> 2
<MEAN> 39
 3.239075e+00 -1.417412e+01 -1.636137e+00 -1.742149e+01 -1.314888e+01 6.948959e+00 -1.912068e+01 1.701200e+00 2.082239e-01 6.408232e-01 -4.349325e+00 -8.303999e+00 7.799066e+01 -2.660933e-01 -8.361577e-01 -4.996932e-01 -3.882006e-02 4.131477e-01 -4.339839e-01 -4.547943e-01 1.890367e+00 1.733451e-01 1.320753e-01 -5.050932e-01 -1.210780e+00 9.819452e-01 -1.926067e-01 1.934301e-01 1.259533e-02 3.597106e-01 -4.588363e-02 -1.597463e-01 3.748175e-01 2.302416e-01 -2.270164e-01 -3.743376e-01 -2.922902e-02 1.400195e-01 -2.600130e-01
<VARIANCE> 39
 2.192624e+01 4.227971e+01 7.247135e+01 7.125775e+01 4.981793e+01 1.034356e+02 5.916858e+01 1.001004e+02 3.901869e+01 6.455354e+01 7.495546e+01 3.983915e+01 2.900526e+01 1.962564e+00 2.659141e+00 3.423171e+00 6.817607e+00 2.975339e+00 7.058651e+00 8.255661e+00 8.563832e+00 3.578439e+00 4.911618e+00 3.024290e+00 4.450370e+00 3.271644e+00 4.295516e-01 3.607964e-01 5.134926e-01 5.820667e-01 4.550076e-01 9.536182e-01 1.111411e+00 1.535689e+00 5.575892e-01 8.045426e-01 4.907082e-01 8.199313e-01 2.648606e-01
<GCONST> 1.358372e+02
<STATE> 3
<MEAN> 39
 1.424571e+00 -1.711409e+01 -3.554924e+00 -1.557580e+01 -1.155752e+01 5.257393e+00 -1.847777e+01 8.228979e+00 -3.794184e-01 -1.200997e+00 -7.254569e+00 -1.116773e+01 8.058923e+01 -3.986520e-01 -1.086774e-02 1.039569e-01 7.823759e-01 1.237503e-01 -1.181679e+00 6.316501e-01 1.005713e+00 -6.417533e-01 -8.808517e-01 -2.229397e-01 4.217491e-01 1.719149e-01 -3.698191e-02 2.381365e-01 3.514568e-01 7.942839e-02 -1.674980e-01 -1.517240e-01 1.953859e-01 -2.927693e-01 -2.273301e-01 -7.682691e-02 2.414588e-01 4.457001e-01 -2.080318e-01
<VARIANCE> 39
 1.679175e+01 3.162611e+01 4.599224e+01 3.335950e+01 2.970549e+01 6.835820e+01 6.783952e+01 8.557405e+01 4.144790e+01 7.292967e+01 7.038692e+01 2.788486e+01 1.778557e+01 1.175325e+00 1.481649e+00 3.562923e+00 3.459526e+00 2.661351e+00 7.591081e+00 5.286750e+00 9.094208e+00 3.021617e+00 4.622528e+00 2.217315e+00 3.352175e+00 1.030598e+00 1.795453e-01 2.880086e-01 3.125720e-01 4.442191e-01 3.548277e-01 8.711253e-01 7.449650e-01 1.459912e+00 5.483149e-01 8.516554e-01 4.058881e-01 7.361059e-01 1.004797e-01
<GCONST> 1.243689e+02
<STATE> 4
<MEAN> 39
 -1.302444e+00 -1.509153e+01 -6.098738e-01 -1.367304e+01 -1.503203e+01 2.420388e-02 -1.310247e+01 9.283316e+00 -3.828718e+00 -5.930957e+00 -1.833967e+00 -8.550239e+00 8.165822e+01 3.923196e-02 4.663120e-01 7.794189e-01 8.833729e-02 -3.925742e-01 -2.336858e-01 -9.704357e-02 -3.405327e-02 -7.438277e-01 2.083807e-01 8.107706e-01 2.206464e-01 -3.793492e-01 -2.997341e-02 1.632156e-01 3.141696e-02 -2.208013e-02 1.446939e-01 8.189553e-02 3.086493e-03 -2.332749e-01 3.247550e-02 8.761533e-02 -4.601957e-02 1.282390e-02 -1.308644e-01
<VARIANCE> 39
 2.359092e+01 3.264156e+01 9.631761e+01 3.774247e+01 6.461230e+01 7.204221e+01 1.102321e+02 1.102627e+02 5.540504e+01 4.614998e+01 8.218884e+01 2.442555e+01 2.227403e+01 1.203279e+00 1.536721e+00 3.631518e+00 1.622168e+00 3.386589e+00 3.758691e+00 5.515622e+00 5.855670e+00 3.628156e+00 3.082133e+00 3.915871e+00 2.807605e+00 9.148612e-01 2.317934e-01 2.490785e-01 3.536054e-01 2.945859e-01 5.868678e-01 6.111396e-01 8.918818e-01 1.070025e+00 5.704890e-01 5.007479e-01 6.434233e-01 4.370205e-01 9.481673e-02
<GCONST> 1.249943e+02
<TRANSP> 5
 0.000000e+00 1.000000e+00 0.000000e+00 0.000000e+00 0.000000e+00
 0.000000e+00 5.587060e-01 4.412941e-01 0.000000e+00 0.000000e+00
 0.000000e+00 0.000000e+00 7.257807e-01 2.742192e-01 0.000000e+00
 0.000000e+00 0.000000e+00 0.000000e+00 8.871490e-01 1.128510e-01
 0.000000e+00 0.000000e+00 0.000000e+00 0.000000e+00 0.000000e+00
<ENDHMM>
~h "y"
<BEGINHMM>
<NUMSTATES> 5
<STATE> 2
<MEAN> 39
 -1.469643e+01 8.131183e-01 -7.322832e+00 -9.965387e-01 -8.109346e+00 -1.668664e-01 -7.233732e+00 -1.949334e+00 -4.516109e+00 -3.682778e+00 -3.003300e+00 -3.201491e+00 3.835206e+01 -1.457925e-01 -1.779470e-02 2.876671e-01 -5.857058e-03 1.444978e-01 1.565150e-01 -6.925736e-02 4.184793e-02 -1.128611e-01 -3.801341e-02 1.010494e-01 1.264663e-02 -1.845136e-02 -1.629118e-02 -1.600626e-02 1.083302e-01 -1.555962e-02 8.554267e-03 3.382607e-02 4.086689e-02 8.013651e-02 -6.077830e-02 -1.749578e-02 2.440068e-02 -2.047122e-02 2.513910e-02
<VARIANCE> 39
 3.085284e+01 2.718555e+01 2.463662e+01 2.921525e+01 2.519185e+01 2.737020e+01 1.577921e+01 1.990227e+01 1.951414e+01 1.734891e+01 1.468823e+01 1.197393e+01 1.151244e+01 1.340878e+00 1.295454e+00 1.730820e+00 2.604164e+00 1.804122e+00 2.624233e+00 1.723219e+00 2.052074e+00 1.855238e+00 1.958219e+00 1.866265e+00 1.426600e+00 7.219178e-01 2.723140e-01 3.097931e-01 3.892996e-01 5.200968e-01 3.538319e-01 5.319936e-01 3.796466e-01 4.330283e-01 4.254959e-01 4.406196e-01 3.385384e-01 2.527766e-01 1.293528e-01
<GCONST> 1.038077e+02
<STATE> 3
<MEAN> 39
 -1.364264e+01 2.703354e+00 -4.946162e+00 -3.415849e-01 -6.638766e+00 2.216241e+00 -7.464139e+00 -1.185221e+00 -6.463404e+00 -4.223447e+00 -1.746803e+00 -3.651316e+00 3.835300e+01 -2.561323e-01 -1.506256e-01 7.292501e-01 -5.149926e-01 9.941544e-02 1.415904e-01 -2.150963e-01 7.124205e-01 -5.074312e-01 -1.307828e-01 4.062315e-01 -4.177404e-01 2.011372e-01 5.936235e-01 3.199674e-01 4.468226e-01 -2.213796e-01 -2.483248e-01 -4.732025e-03 5.547550e-03 1.314476e-01 -5.712399e-02 -4.879320e-02 -4.728347e-02 -1.292784e-01 5.250193e-01
<VARIANCE> 39
 3.479403e+01 2.781895e+01 2.185197e+01 1.798023e+01 1.563295e+01 1.724692e+01 1.467592e+01 1.701293e+01 1.239824e+01 1.301343e+01 1.203270e+01 1.627568e+01 1.043799e+01 2.304351e+00 2.898208e+00 2.258177e+00 3.141376e+00 2.365541e+00 2.140782e+00 2.002397e+00 2.151908e+00 2.275228e+00 1.569005e+00 1.577846e+00 1.776226e+00 7.425275e-01 6.349912e-01 5.729430e-01 6.326014e-01 6.069821e-01 4.505472e-01 5.228034e-01 3.961011e-01 3.720216e-01 5.005991e-01 2.909634e-01 3.461534e-01 3.295140e-01 2.590662e-01
<GCONST> 1.065186e+02
<STATE> 4
<MEAN> 39
 -1.398014e+01 1.233046e+00 -4.219451e+00 -3.742941e-01 -5.569820e+00 7.944268e-01 -8.236269e+00 -1.247273e-01 -6.725353e+00 -4.370889e+00 -1.227909e+00 -4.332694e+00 3.974475e+01 6.033260e-01 4.892387e-01 9.563219e-01 -5.712771e-01 1.477492e-02 1.563425e-01 -3.409440e-01 4.600264e-01 -3.597538e-01 -6.500740e-03 2.284121e-01 -4.592315e-01 6.861808e-01 4.461639e-01 3.239631e-02 3.387666e-01 -3.123643e-01 -4.354958e-01 9.038579e-02 -1.497821e-01 -3.724263e-02 -6.703198e-03 -1.157651e-01 3.496758e-02 2.622180e-02 5.850596e-01
<VARIANCE> 39
 3.927961e+01 5.057315e+01 4.238460e+01 3.569890e+01 3.306835e+01 2.899525e+01 3.952029e+01 2.749838e+01 2.485354e+01 1.699714e+01 1.997832e+01 2.166775e+01 1.366003e+01 4.743609e+00 5.032965e+00 5.100833e+00 4.647703e+00 3.345694e+00 3.700063e+00 4.102416e+00 2.949828e+00 2.874060e+00 1.930891e+00 2.183351e+00 2.340445e+00 2.263521e+00 1.259483e+00 9.101827e-01 1.128162e+00 1.155252e+00 1.022302e+00 8.487546e-01 7.955614e-01 5.838491e-01 5.009567e-01 4.238191e-01 4.872108e-01 4.597450e-01 1.025409e+00
<GCONST> 1.271627e+02
<TRANSP> 5
 0.000000e+00 1.000000e+00 0.000000e+00 0.000000e+00 0.000000e+00
 0.000000e+00 7.314156e-01 2.685843e-01 0.000000e+00 0.000000e+00
 0.000000e+00 0.000000e+00 3.690691e-01 6.309308e-01 0.000000e+00
 0.000000e+00 0.000000e+00 0.000000e+00 7.565777e-01 2.434223e-01
 0.000000e+00 0.000000e+00 0.000000e+00 0.000000e+00 0.000000e+00
<ENDHMM>
~h "z"
<BEGINHMM>
<NUMSTATES> 5
<STATE> 2
<MEAN> 39
 7.088257e+00 -8.169436e+00 4.339337e+00 -9.468273e+00 -6.586693e+00 5.460375e+00 -1.611226e+01 -4.521543e+00 -1.380995e+01 -6.706794e+00 3.113452e+00 -5.967628e+00 6.802625e+01 2.010575e-01 -4.204468e-01 1.094599e+00 8.297907e-01 4.000862e-01 -6.237523e-02 -9.036442e-01 -9.348000e-01 -5.529692e-01 2.448743e-01 -4.108763e-01 1.266423e-01 3.417898e-01 -2.432750e-01 2.127948e-01 -2.445398e-01 -4.642247e-02 -7.241236e-02 -6.115856e-02 2.640628e-01 -4.075401e-02 4.667242e-01 -1.175248e-01 -1.641229e-01 4.043885e-03 -2.387137e-01
<VARIANCE> 39
 9.992410e+00 2.118064e+01 3.587275e+01 2.794205e+01 3.408485e+01 3.350482e+01 4.493705e+01 4.427999e+01 5.313540e+01 2.862543e+01 1.947016e+01 1.102625e+01 2.200748e+01 2.240551e+00 2.237728e+00 2.214279e+00 1.866892e+00 2.939928e+00 3.884389e+00 4.518950e+00 2.700536e+00 6.569535e+00 3.926661e+00 3.350682e+00 1.563848e+00 4.240597e+00 5.864948e-01 3.766799e-01 2.994075e-01 4.598139e-01 5.917092e-01 7.228871e-01 9.819678e-01 5.880796e-01 9.591901e-01 8.320570e-01 7.318625e-01 3.116889e-01 4.728377e-01
<GCONST> 1.213424e+02
<STATE> 3
<MEAN> 39
 5.166920e+00 -7.607588e+00 5.253366e+00 -6.355810e+00 -5.001034e+00 3.096252e+00 -1.615582e+01 -9.184201e+00 -1.100222e+01 -6.287266e+00 6.375618e-01 -4.949288e+00 6.876864e+01 -1.709266e-01 8.681518e-01 -5.005322e-03 1.094761e+00 1.416776e-01 -4.613616e-01 5.581061e-01 -6.425595e-01 4.530148e-01 -1.496979e-01 -1.026534e+00 -1.845017e-03 -8.822315e-01 -2.442401e-01 2.759032e-01 -1.565479e-01 -1.040091e-01 1.296358e-01 -3.959284e-02 3.050913e-01 3.343026e-01 -2.724673e-02 -8.468512e-02 7.347532e-02 -4.256433e-02 -2.253821e-01
<VARIANCE> 39
 2.426446e+01 1.117611e+01 2.597552e+01 3.644346e+01 2.369166e+01 4.121809e+01 6.660159e+01 3.959518e+01 5.446766e+01 2.161699e+01 1.965526e+01 8.664051e+00 5.411033e+01 3.081970e+00 2.802440e+00 2.419143e+00 3.107576e+00 4.135375e+00 5.604789e+00 7.478857e+00 3.626562e+00 7.525710e+00 3.332071e+00 3.200141e+00 1.300826e+00 4.308683e+00 7.294422e-01 3.157476e-01 4.761985e-01 5.815296e-01 7.661242e-01 1.026016e+00 1.424565e+00 7.997689e-01 1.454042e+00 8.200507e-01 6.900787e-01 2.749480e-01 7.006060e-01
<GCONST> 1.271150e+02
<STATE> 4
<MEAN> 39
 4.513725e+00 -4.758008e+00 3.474162e+00 -8.641579e+00 -5.090333e+00 5.851024e+00 -1.825344e+01 -7.996481e+00 -6.535967e+00 -5.843544e+00 -1.217613e+00 -6.457643e+00 6.653450e+01 -8.356566e-01 1.211602e+00 -1.044181e+00 1.617747e-01 2.417357e-01 -5.529628e-01 1.610638e+00 8.932928e-01 5.115537e-01 7.060416e-03 -5.414920e-01 -1.292401e-01 -6.498975e-01 -6.076217e-01 -2.336008e-01 -6.186324e-03 -3.490449e-01 4.108275e-01 5.725712e-03 1.590158e-01 2.543626e-01 -5.217517e-02 1.587094e-01 3.660423e-01 5.164578e-02 1.580559e-01
<VARIANCE> 39
 2.952628e+01 2.559862e+01 4.677898e+01 1.392075e+02 4.413369e+01 6.167022e+01 6.688690e+01 5.091751e+01 6.665187e+01 2.246114e+01 2.245070e+01 1.921041e+01 5.216143e+01 4.143569e+00 4.476272e+00 2.260472e+00 5.748003e+00 5.343448e+00 6.457142e+00 8.192017e+00 3.454886e+00 2.924044e+00 3.688436e+00 2.408608e+00 1.930212e+00 3.573672e+00 1.053792e+00 4.419900e-01 6.606753e-01 7.865165e-01 1.408213e+00 9.509959e-01 1.657660e+00 9.297373e-01 7.235426e-01 7.219530e-01 4.896537e-01 4.418683e-01 4.877144e-01
<GCONST> 1.344260e+02
<TRANSP> 5
 0.000000e+00 1.000000e+00 0.000000e+00 0.000000e+00 0.000000e+00
 0.000000e+00 8.790255e-01 1.209744e-01 0.000000e+00 0.000000e+00
 0.000000e+00 0.000000e+00 7.218408e-01 2.781592e-01 0.000000e+00
 0.000000e+00 0.000000e+00 0.000000e+00 5.541627e-01 4.458372e-01
 0.000000e+00 0.000000e+00 0.000000e+00 0.000000e+00 0.000000e+00
<ENDHMM>
~h "ai"
<BEGINHMM>
<NUMSTATES> 5
<STATE> 2
<MEAN> 39
 -1.503276e+00 -1.956730e+01 -3.992322e+00 -7.893450e+00 -1.188422e+01 8.452323e+00 -1.335318e+01 1.423438e+01 -1.365874e+00 -1.250550e+01 -8.180821e+00 -1.024268e+01 6.563424e+01 -3.659779e-01 5.799037e-02 -2.140576e-01 8.776498e-01 4.998463e-02 -5.247406e-01 1.731877e+00 -3.257220e-01 -3.444028e-01 3.309920e-01 -1.219763e-01 7.087297e-01 -1.530030e+00 -4.571120e-02 1.539950e-01 -1.690062e-02 2.962429e-02 -1.520267e-02 -2.347507e-01 9.648837e-02 -5.378403e-02 1.249758e-01 5.630284e-02 -3.312555e-02 7.941586e-02 -1.639054e-02
<VARIANCE> 39
 2.348920e+01 5.367742e+01 1.517244e+01 3.090430e+01 2.256127e+01 2.698542e+01 6.689523e+01 2.986996e+01 1.992237e+01 2.415244e+01 1.843912e+01 2.641044e+01 9.360748e+01 2.087054e+00 2.423046e+00 1.597252e+00 1.559215e+00 1.567020e+00 2.035464e+00 2.501186e+00 1.556105e+00 1.864531e+00 1.737494e+00 1.371016e+00 1.162631e+00 2.279943e+00 4.792473e-01 3.957364e-01 3.120231e-01 3.364901e-01 3.305764e-01 3.554898e-01 4.012137e-01 3.292261e-01 3.478900e-01 3.434708e-01 2.677473e-01 2.231733e-01 4.687841e-01
<GCONST> 1.096186e+02
<STATE> 3
<MEAN> 39
 -6.733757e+00 -1.503331e+01 -8.033441e+00 1.562231e-01 -1.158791e+01 7.296839e-01 7.749348e-01 1.082258e+01 -2.934336e+00 -9.587128e+00 -9.383453e+00 -4.156203e+00 5.253836e+01 -3.082964e-02 5.860733e-01 -2.738371e-01 7.805070e-01 -2.662937e-01 -1.078346e+00 1.052908e+00 -5.929720e-01 -6.284887e-01 2.925762e-02 -1.234071e-01 6.375649e-01 -7.361714e-01 2.527918e-01 1.114510e-01 1.884863e-01 -3.419127e-01 -3.847079e-02 7.970507e-02 -5.348659e-01 -8.874264e-02 -8.429717e-02 -1.869387e-01 9.540584e-02 -6.564095e-02 3.013683e-01
<VARIANCE> 39
 2.122904e+01 6.695506e+01 2.860857e+01 3.960900e+01 2.806563e+01 3.278027e+01 6.852185e+01 4.006945e+01 2.406840e+01 2.721928e+01 2.248682e+01 2.318023e+01 5.876221e+01 3.395521e+00 3.110197e+00 2.829934e+00 3.103351e+00 2.661842e+00 2.573891e+00 4.652756e+00 2.471533e+00 2.893627e+00 2.513535e+00 2.164031e+00 1.578768e+00 3.249265e+00 5.065061e-01 6.027846e-01 4.515454e-01 5.905760e-01 6.113586e-01 4.896504e-01 7.234365e-01 4.726392e-01 5.521552e-01 5.294895e-01 4.386864e-01 3.274402e-01 5.474125e-01
<GCONST> 1.222537e+02
<STATE> 4
<MEAN> 39
 -6.123641e+00 -3.480951e+00 -5.999332e+00 9.830191e-01 -9.597860e+00 -2.435941e+00 -2.023668e+00 3.922147e+00 -5.734637e+00 -8.389986e+00 -6.742398e+00 -2.416790e+00 4.782074e+01 1.854166e-01 9.675716e-01 4.633062e-01 -2.858385e-01 2.229605e-01 1.684182e-01 -8.509227e-01 -7.313198e-01 7.229237e-02 3.179382e-01 3.896273e-01 -4.424170e-03 -1.505340e-01 -4.289829e-02 -2.964621e-01 3.516316e-02 -1.264046e-01 -4.500452e-02 7.090433e-02 -8.750557e-02 1.104358e-01 9.858053e-02 7.011926e-02 6.093287e-02 -8.444490e-02 2.268559e-01
<VARIANCE> 39
 5.991395e+01 1.005099e+02 4.265319e+01 3.591816e+01 3.196654e+01 3.508750e+01 6.216919e+01 4.916936e+01 2.972624e+01 3.688293e+01 2.678326e+01 1.908035e+01 5.438276e+01 4.441863e+00 5.473777e+00 3.722414e+00 3.750916e+00 3.842832e+00 3.389831e+00 4.432522e+00 3.166140e+00 2.819080e+00 3.336396e+00 2.396623e+00 1.901406e+00 4.237955e+00 6.206822e-01 8.344545e-01 6.761680e-01 6.491193e-01 6.506054e-01 6.885409e-01 8.755134e-01 5.928736e-01 5.502171e-01 6.162000e-01 4.894490e-01 3.774748e-01 4.706883e-01
<GCONST> 1.297685e+02
<TRANSP> 5
 0.000000e+00 1.000000e+00 0.000000e+00 0.000000e+00 0.000000e+00
 0.000000e+00 8.264393e-01 1.735607e-01 0.000000e+00 0.000000e+00
 0.000000e+00 0.000000e+00 6.612800e-01 3.387200e-01 0.000000e+00
 0.000000e+00 0.000000e+00 0.000000e+00 8.240328e-01 1.759672e-01
 0.000000e+00 0.000000e+00 0.000000e+00 0.000000e+00 0.000000e+00
<ENDHMM>
~h "an"
<BEGINHMM>
<NUMSTATES> 5
<STATE> 2
<MEAN> 39
 6.291646e+00 -1.313575e+01 3.128711e+00 -2.180260e+01 -1.668943e+01 9.834509e+00 -2.062012e+01 2.926080e+00 -3.270019e+00 1.355160e+00 -3.212200e+00 -4.172029e+00 7.511606e+01 -6.282103e-01 -2.096534e+00 -1.286562e+00 -5.213401e-01 7.205975e-01 2.150119e-01 -1.249223e+00 2.239170e+00 2.063447e-01 9.530835e-01 3.007885e-01 -2.432595e+00 2.248390e+00 -4.952754e-01 5.168663e-01 -2.831008e-01 6.549789e-01 1.722216e-01 -9.671515e-02 6.613378e-01 1.346406e-01 1.650341e-01 -3.782247e-01 -1.391055e-01 -3.121156e-01 -6.523813e-01
<VARIANCE> 39
 9.351826e+00 9.590810e+00 3.437758e+01 1.294311e+02 1.926233e+01 1.282363e+02 1.949271e+01 3.980214e+01 3.685278e+01 2.854451e+01 8.688691e+01 3.853915e+01 1.076644e+01 1.036113e+00 2.804221e+00 1.905584e+00 1.224284e+01 1.958272e+00 3.414309e+00 2.924517e+00 8.760978e+00 2.816047e+00 3.603773e+00 3.038369e+00 3.906870e+00 4.677013e+00 6.357872e-01 2.480701e-01 4.661855e-01 4.319054e-01 4.487810e-01 9.871861e-01 1.381172e+00 1.094401e+00 4.887437e-01 6.187900e-01 5.305223e-01 8.025745e-01 4.594301e-01
<GCONST> 1.255070e+02
<STATE> 3
<MEAN> 39
 2.900311e+00 -1.934511e+01 -1.319351e-01 -1.712626e+01 -1.470435e+01 7.194442e+00 -1.980455e+01 1.117215e+01 -2.262312e+00 4.234769e-01 -6.594637e+00 -1.079110e+01 7.969193e+01 -3.160729e-01 -6.936878e-02 -3.952238e-01 1.921323e-01 4.134194e-01 -3.525656e-01 7.324806e-01 2.996972e-01 -9.855452e-02 -3.183202e-01 -3.953910e-01 3.129023e-02 2.474070e-01 -6.354573e-02 3.065859e-01 3.364221e-02 1.593557e-01 2.854749e-02 -1.880139e-01 2.805382e-01 -3.778322e-01 7.593993e-02 -1.079993e-01 7.036397e-02 2.793742e-01 -1.775622e-01
<VARIANCE> 39
 7.914287e+00 1.895364e+01 2.310721e+01 4.439590e+01 3.722992e+01 7.222960e+01 2.380297e+01 7.281031e+01 3.308997e+01 3.550681e+01 6.164052e+01 1.918092e+01 1.003256e+01 7.806584e-01 1.830920e+00 2.501957e+00 3.760984e+00 2.612620e+00 5.800090e+00 2.954566e+00 6.875984e+00 3.537278e+00 3.312266e+00 2.284169e+00 2.946297e+00 1.039167e+00 1.794386e-01 2.511293e-01 2.934637e-01 4.887480e-01 3.603829e-01 7.546695e-01 5.804490e-01 1.212627e+00 6.334801e-01 6.318514e-01 3.881182e-01 5.567305e-01 1.415065e-01
<GCONST> 1.170624e+02
<STATE> 4
<MEAN> 39
 -8.456890e+00 -7.722365e+00 -4.301662e+00 -7.603030e+00 -8.608397e+00 -2.185349e+00 -5.464001e+00 3.497786e+00 -1.718438e+00 -4.283260e+00 -4.396853e+00 -4.128299e+00 7.405782e+01 -3.313201e-02 1.058286e-01 -1.332882e-01 1.914702e-01 8.749187e-02 -8.977294e-03 -1.257229e-01 -1.819047e-01 2.707881e-01 -2.730492e-01 5.228029e-02 -5.896679e-02 -7.517043e-02 1.720341e-01 -2.313573e-01 7.223359e-02 -1.736532e-01 -9.428132e-02 2.149869e-01 -3.189213e-01 2.235157e-01 6.969567e-03 1.458009e-02 -6.795127e-02 -1.228921e-01 1.276125e-01
<VARIANCE> 39
 7.705360e+01 5.117351e+01 3.425724e+01 4.948692e+01 4.723165e+01 2.989178e+01 5.973853e+01 8.547841e+01 3.993796e+01 2.255189e+01 2.611356e+01 2.163754e+01 5.200544e+01 8.661957e+00 5.506966e+00 2.685441e+00 4.390382e+00 3.286791e+00 4.452323e+00 9.809282e+00 7.475110e+00 5.217669e+00 3.208837e+00 2.419038e+00 2.441168e+00 2.744335e+00 1.058768e+00 7.630456e-01 4.605338e-01 5.142493e-01 5.339910e-01 6.651597e-01 1.436424e+00 1.116201e+00 1.007616e+00 7.018873e-01 3.779128e-01 3.618484e-01 2.629404e-01
<GCONST> 1.333000e+02
<TRANSP> 5
 0.000000e+00 1.000000e+00 0.000000e+00 0.000000e+00 0.000000e+00
 0.000000e+00 5.824008e-01 4.175991e-01 0.000000e+00 0.000000e+00
 0.000000e+00 0.000000e+00 9.090803e-01 9.091973e-02 0.000000e+00
 0.000000e+00 0.000000e+00 0.000000e+00 9.488671e-01 5.113294e-02
 0.000000e+00 0.000000e+00 0.000000e+00 0.000000e+00 0.000000e+00
<ENDHMM>
~h "ao"
<BEGINHMM>
<NUMSTATES> 5
<STATE> 2
<MEAN> 39
 -5.007413e+00 3.918896e+00 3.196072e+00 -5.807510e+00 -4.488874e+00 1.399856e+00 -5.935505e+00 -4.212492e+00 -9.874942e+00 -4.513484e+00 -1.632845e-01 -5.761645e+00 5.817236e+01 -4.302705e+00 -2.017307e-01 3.873955e-01 -2.381552e+00 1.708748e+00 -5.758197e-01 -1.283711e-01 1.174001e+00 2.434961e+00 9.024995e-01 -4.793156e-01 7.963737e-01 1.409907e+00 -1.791533e-01 -7.471960e-01 -2.738661e-02 -3.667111e-01 -4.722229e-01 6.010479e-02 -4.076710e-01 -6.285182e-02 1.617360e-01 -4.496825e-02 3.082028e-01 2.080796e-02 8.334211e-01
<VARIANCE> 39
 1.521819e+02 7.510928e+01 4.132875e+01 8.438419e+01 6.589133e+01 8.178033e+01 5.100954e+01 3.405801e+01 5.117178e+01 2.281926e+01 1.869293e+01 2.010035e+01 9.749832e+01 1.898730e+01 4.240169e+00 4.141252e+00 4.930568e+00 1.150513e+01 8.445224e+00 4.095439e+00 2.939863e+00 5.481633e+00 2.911168e+00 2.987080e+00 2.487255e+00 4.923394e+00 3.137514e+00 7.205455e-01 5.358422e-01 1.225976e+00 2.066872e+00 1.413088e+00 7.040846e-01 6.581604e-01 8.764346e-01 6.101348e-01 4.566813e-01 3.420885e-01 7.877657e-01
<GCONST> 1.416179e+02
<STATE> 3
<MEAN> 39
 -1.597672e+01 -2.197435e+00 3.407526e+00 -1.350108e+01 -5.952940e+00 3.781013e-01 -5.930991e+00 -3.283112e+00 -2.692991e+00 -3.375672e+00 -3.980527e-01 -2.204913e+00 6.744331e+01 1.496839e+00 -1.811341e+00 -2.982179e-01 -3.557568e-01 -1.905998e+00 1.117602e-01 -1.813595e-01 1.206159e-01 3.005168e-01 -2.243032e-01 -3.433153e-03 -7.843852e-02 2.174678e+00 1.074184e+00 -4.997423e-02 -2.719251e-01 6.002622e-01 -1.376755e-01 -8.074387e-02 -1.901280e-01 2.263328e-01 -3.473143e-01 -2.984106e-02 -1.538977e-01 -2.856228e-01 -1.453206e-01
<VARIANCE> 39
 1.441692e+02 6.131601e+01 4.257888e+01 5.560908e+01 6.481764e+01 8.005440e+01 5.636426e+01 3.008334e+01 3.048522e+01 2.253751e+01 1.887524e+01 2.519121e+01 6.540569e+01 1.635741e+01 3.132065e+00 5.519984e+00 1.113888e+01 6.278659e+00 7.399008e+00 5.443825e+00 3.952899e+00 4.719620e+00 2.739651e+00 3.063553e+00 2.354981e+00 5.760264e+00 2.546437e+00 8.212522e-01 6.928225e-01 1.271379e+00 1.704438e+00 1.832026e+00 1.289974e+00 9.725475e-01 8.901566e-01 5.986094e-01 6.076248e-01 4.005886e-01 5.770473e-01
<GCONST> 1.420346e+02
<STATE> 4
<MEAN> 39
 7.757715e-01 -1.115115e+01 -2.822878e+00 -1.532032e+01 -1.209806e+01 5.453702e+00 -1.398867e+01 3.271163e+00 -3.478534e+00 -1.712116e+00 -1.585245e+00 -8.210640e+00 7.651746e+01 1.249816e+00 -8.949226e-01 -1.146430e+00 -8.114747e-01 1.966006e-01 1.455563e+00 -1.545908e+00 1.031177e+00 2.634615e-01 9.549192e-01 -3.873708e-01 -1.333559e+00 8.666314e-01 -3.718942e-01 1.380904e-01 9.613541e-02 -1.483268e-01 2.107257e-01 1.711787e-01 5.089485e-02 -2.288596e-01 -6.925800e-02 8.103275e-02 1.189304e-01 -4.468153e-02 -3.322132e-01
<VARIANCE> 39
 2.898793e+01 2.285951e+01 6.322456e+01 1.123278e+02 6.051327e+01 1.588177e+02 7.576591e+01 4.791773e+01 3.704885e+01 3.289043e+01 5.672757e+01 3.731060e+01 3.024433e+01 3.453733e+00 2.505622e+00 3.543736e+00 8.419558e+00 4.772234e+00 1.174072e+01 5.844921e+00 5.502239e+00 4.220891e+00 3.424302e+00 4.490901e+00 4.010301e+00 4.334672e+00 4.066105e-01 3.157338e-01 7.503261e-01 1.506045e+00 9.592058e-01 1.997790e+00 9.979354e-01 1.086787e+00 8.196697e-01 7.507256e-01 9.810752e-01 8.023469e-01 4.383430e-01
<GCONST> 1.399118e+02
<TRANSP> 5
 0.000000e+00 1.000000e+00 0.000000e+00 0.000000e+00 0.000000e+00
 0.000000e+00 5.952812e-01 4.047187e-01 0.000000e+00 0.000000e+00
 0.000000e+00 0.000000e+00 7.330855e-01 2.669145e-01 0.000000e+00
 0.000000e+00 0.000000e+00 0.000000e+00 8.187284e-01 1.812716e-01
 0.000000e+00 0.000000e+00 0.000000e+00 0.000000e+00 0.000000e+00
<ENDHMM>
~h "ch"
<BEGINHMM>
<NUMSTATES> 5
<STATE> 2
<MEAN> 39
 6.681242e+00 -1.294076e+01 -8.296399e+00 -2.142280e+01 -8.940302e+00 1.943886e+01 -1.584775e+01 2.763119e+00 -7.780770e+00 -2.011687e+00 5.675483e-01 -1.080419e+01 7.393960e+01 3.948139e-01 3.106261e-01 1.731663e-01 -1.515883e+00 -1.165877e+00 2.059098e+00 2.418350e-01 -5.864958e-01 -3.747768e-01 -8.844110e-01 1.163809e+00 8.217348e-01 -6.141360e-01 -1.867242e-01 3.187743e-01 1.439237e-01 4.989771e-01 -9.224406e-02 -5.788444e-01 2.797054e-01 9.057296e-02 3.479432e-01 -2.767698e-01 -2.509049e-01 4.037015e-01 -1.660763e-01
<VARIANCE> 39
 4.036579e+00 2.384386e+01 1.618938e+01 3.179210e+01 4.420033e+01 3.841366e+01 1.879768e+01 1.282626e+01 1.525261e+01 5.081638e+01 3.174045e+01 2.464103e+01 3.310531e+01 6.040748e-01 1.544557e+00 8.481002e-01 3.314396e+00 1.444442e+00 4.238181e+00 2.221376e+00 1.403744e+00 1.812119e+00 3.116725e+00 2.492672e+00 1.689866e+00 7.454855e-01 1.188320e-01 1.591752e-01 2.328303e-01 1.893169e-01 2.216832e-01 3.365093e-01 3.038210e-01 2.846485e-01 2.591384e-01 5.094435e-01 2.523193e-01 5.182693e-01 8.349417e-02
<GCONST> 1.003385e+02
<STATE> 3
<MEAN> 39
 8.715687e+00 -9.128525e+00 -7.467737e+00 -2.588150e+01 -1.455408e+01 2.317838e+01 -1.590378e+01 1.705103e+00 -5.090011e+00 -8.383663e+00 3.833549e+00 -4.888237e+00 7.049358e+01 2.284557e-03 8.714063e-01 3.105180e-01 4.111627e-01 -4.415658e-01 -4.786149e-01 1.497847e-02 -5.648016e-01 3.516198e-01 2.550356e-02 2.227422e-02 7.061324e-01 -7.571335e-01 -1.601792e-01 -1.300730e-01 9.103539e-02 5.119937e-01 3.323460e-01 -4.346270e-01 4.853175e-02 -2.325699e-01 -3.187561e-02 3.316216e-01 -1.186224e-01 -7.782235e-02 -2.295440e-02
<VARIANCE> 39
 4.425067e+00 2.428564e+01 1.944496e+01 5.055191e+01 6.933096e+01 3.256274e+01 3.207732e+01 1.570422e+01 2.224609e+01 1.976546e+01 1.700374e+01 1.675739e+01 3.858137e+01 7.363276e-01 1.043755e+00 5.667124e-01 3.097918e+00 1.937169e+00 2.340074e+00 3.443755e+00 1.873678e+00 1.469442e+00 3.041030e+00 1.637609e+00 8.221746e-01 1.141463e+00 1.086409e-01 1.654780e-01 1.517992e-01 3.592211e-01 3.055203e-01 5.474021e-01 4.553166e-01 3.545323e-01 3.058774e-01 2.569119e-01 1.759370e-01 1.896050e-01 8.751183e-02
<GCONST> 9.926283e+01
<STATE> 4
<MEAN> 39
 4.575142e+00 -6.977460e-01 -9.936387e+00 -1.247261e+01 -5.551064e+00 1.435222e+01 -8.309382e+00 -3.013472e+00 -6.244555e+00 -6.275452e+00 1.043923e+00 -2.487463e+00 5.763349e+01 -1.378082e+00 4.591050e-01 3.027183e-01 2.195890e+00 7.365723e-01 -1.205445e+00 1.795600e+00 -7.001119e-01 -2.057920e-01 1.467085e+00 -8.077821e-01 1.596687e-01 -1.767362e+00 -1.927084e-01 -5.572442e-01 -1.458330e-01 -1.110791e-01 2.335881e-01 -3.633579e-01 1.121225e-01 1.439591e-01 1.642110e-01 -2.210171e-01 1.373342e-01 -7.199831e-02 2.447142e-01
<VARIANCE> 39
 2.675519e+01 4.513251e+01 2.248835e+01 1.126370e+02 1.156449e+02 6.075526e+01 8.757979e+01 2.559409e+01 3.182462e+01 2.531493e+01 2.712736e+01 2.182651e+01 1.069098e+02 2.033148e+00 2.482174e+00 1.879387e+00 3.046743e+00 3.153306e+00 4.479930e+00 3.551261e+00 3.918375e+00 2.587740e+00 2.928665e+00 2.061668e+00 1.929350e+00 2.047235e+00 2.701418e-01 4.473459e-01 2.733085e-01 1.061129e+00 1.254701e+00 1.403499e+00 1.029932e+00 6.726381e-01 5.466650e-01 6.177883e-01 4.449776e-01 3.400913e-01 4.095346e-01
<GCONST> 1.266788e+02
<TRANSP> 5
 0.000000e+00 1.000000e+00 0.000000e+00 0.000000e+00 0.000000e+00
 0.000000e+00 7.387672e-01 2.612328e-01 0.000000e+00 0.000000e+00
 0.000000e+00 0.000000e+00 7.373948e-01 2.626053e-01 0.000000e+00
 0.000000e+00 0.000000e+00 0.000000e+00 5.228752e-01 4.771248e-01
 0.000000e+00 0.000000e+00 0.000000e+00 0.000000e+00 0.000000e+00
<ENDHMM>
~h "er"
<BEGINHMM>
<NUMSTATES> 5
<STATE> 2
<MEAN> 39
 1.109897e+00 -8.546624e+00 -3.285867e+00 -2.603549e+01 -1.419167e+01 1.128926e+01 -9.770819e+00 -2.662180e+00 -1.727399e-01 -3.848854e+00 -3.320566e+00 -6.260529e+00 7.999189e+01 -2.601359e-01 -7.625838e-01 -5.239648e-01 -8.580005e-01 3.632956e-01 1.186603e+00 3.772494e-01 -5.043634e-01 -5.818091e-01 3.460743e-01 4.173860e-01 2.952284e-01 7.105591e-01 -6.030781e-02 3.861737e-02 -1.002011e-01 3.814819e-01 6.245196e-02 -1.838591e-01 4.481042e-02 1.862709e-01 -1.842320e-01 4.315860e-02 1.652066e-01 1.340135e-02 -2.431707e-01
<VARIANCE> 39
 6.308657e+01 3.965045e+01 8.063582e+01 5.858973e+01 7.809624e+01 5.636684e+01 9.707778e+01 3.641078e+01 2.403754e+01 3.447220e+01 2.444930e+01 4.723561e+01 9.639304e+01 6.203624e-01 1.995846e+00 1.771963e+00 2.274324e+00 1.978129e+00 3.911123e+00 2.277852e+00 3.089744e+00 1.595588e+00 1.923840e+00 1.413439e+00 1.706641e+00 1.479373e+00 2.530542e-01 1.725296e-01 4.300723e-01 4.242689e-01 5.016971e-01 7.082766e-01 6.452956e-01 4.429721e-01 3.936549e-01 2.974967e-01 3.205875e-01 4.750269e-01 1.389500e-01
<GCONST> 1.177411e+02
<STATE> 3
<MEAN> 39
 2.983747e+00 -1.337148e+01 3.436621e+00 -1.880975e+01 -1.831980e+01 7.345147e+00 -2.046781e+01 4.587133e+00 -4.442920e+00 1.115321e-01 2.177112e+00 -7.804677e+00 7.701633e+01 -2.966265e-01 -8.382726e-01 -4.599551e-01 5.364090e-01 2.373615e-01 -8.278239e-02 -4.190730e-01 6.645400e-01 1.545527e-01 6.347507e-01 -1.951750e-01 -8.982008e-01 5.729940e-01 2.824662e-02 7.876125e-02 -6.120877e-02 8.758377e-02 -6.839948e-02 7.663187e-02 2.857365e-02 1.033468e-01 7.570471e-02 -1.459965e-01 -1.310400e-01 -1.193117e-01 -7.670456e-02
<VARIANCE> 39
 1.991040e+01 2.137637e+01 6.289101e+01 1.014244e+02 3.532574e+01 9.909650e+01 5.392664e+01 9.720365e+01 5.099467e+01 4.739259e+01 6.481326e+01 4.853317e+01 2.176884e+01 9.453999e-01 1.831212e+00 4.236741e+00 4.968061e+00 2.362555e+00 6.126662e+00 4.257613e+00 7.098966e+00 3.184531e+00 3.865465e+00 2.334762e+00 6.037405e+00 1.713967e+00 8.636241e-02 2.040397e-01 4.728508e-01 4.796663e-01 3.547667e-01 7.240855e-01 7.051627e-01 1.117955e+00 4.530975e-01 5.702692e-01 3.691086e-01 1.090785e+00 1.274652e-01
<GCONST> 1.260706e+02
<STATE> 4
<MEAN> 39
 3.270187e+00 -2.091787e+01 -8.351645e+00 -1.817342e+01 -1.051471e+01 1.557843e+01 -1.680659e+01 7.180535e+00 -5.186151e+00 -3.099873e+00 -2.654382e+00 -1.292577e+01 7.959315e+01 5.276299e-02 -1.092316e-01 -4.587922e-01 3.461112e-01 2.736540e-01 -3.376641e-01 5.315558e-02 3.114982e-01 -1.622024e-01 -2.571993e-01 3.150580e-01 -6.854484e-02 5.418837e-03 -1.295015e-02 6.149617e-02 6.314081e-02 6.823057e-02 7.647404e-03 -2.230614e-01 -8.862685e-03 4.268283e-02 4.442436e-02 -2.792029e-02 1.854010e-02 7.882386e-02 -1.959716e-02
<VARIANCE> 39
 1.500305e+01 2.242369e+01 3.362230e+01 4.160789e+01 2.301134e+01 1.171833e+02 5.094571e+01 7.843238e+01 3.629923e+01 2.188823e+01 5.573306e+01 2.052991e+01 1.675289e+01 7.154461e-01 1.253228e+00 1.346784e+00 1.267612e+00 1.714093e+00 6.266528e+00 3.615955e+00 3.815268e+00 1.596260e+00 1.255534e+00 1.267125e+00 1.484478e+00 9.557942e-01 1.231467e-01 2.070078e-01 2.231357e-01 1.477104e-01 2.613616e-01 5.324559e-01 5.224018e-01 5.488864e-01 2.236436e-01 2.187006e-01 2.125099e-01 2.576944e-01 1.196646e-01
<GCONST> 1.058279e+02
<TRANSP> 5
 0.000000e+00 1.000000e+00 0.000000e+00 0.000000e+00 0.000000e+00
 0.000000e+00 7.955497e-01 2.044503e-01 0.000000e+00 0.000000e+00
 0.000000e+00 0.000000e+00 8.399743e-01 1.600256e-01 0.000000e+00
 0.000000e+00 0.000000e+00 0.000000e+00 9.528189e-01 4.718102e-02
 0.000000e+00 0.000000e+00 0.000000e+00 0.000000e+00 0.000000e+00
<ENDHMM>
~h "iu"
<BEGINHMM>
<NUMSTATES> 5
<STATE> 2
<MEAN> 39
 1.235965e+00 -2.520185e+00 9.427607e+00 -5.441193e+00 -2.152950e+01 4.379428e+00 -1.602846e+01 1.710702e+00 -1.017322e+01 -1.163693e+01 8.153264e+00 -7.293199e+00 6.863953e+01 -1.023103e+00 -6.685960e-01 -1.264451e-01 -1.196486e-01 -1.621557e+00 1.200216e-01 -6.655555e-01 1.314185e+00 1.326849e+00 2.999027e-01 9.588444e-01 -1.642171e+00 1.574937e+00 2.532299e-01 -4.657600e-03 -7.503868e-01 -3.538817e-03 6.094745e-01 9.392326e-02 -3.357388e-01 -2.654524e-01 4.669761e-01 2.564660e-01 -1.593661e-01 -2.912745e-01 -5.425178e-02
<VARIANCE> 39
 2.823822e+01 2.127730e+01 5.747790e+01 4.697236e+01 1.056053e+02 6.973734e+01 4.030772e+01 5.104939e+01 4.701330e+01 2.261357e+01 4.196106e+01 3.801600e+01 3.575394e+01 4.032399e+00 1.727898e+00 1.554201e+01 8.237054e+00 1.812500e+01 1.211678e+01 8.216779e+00 4.884659e+00 5.872150e+00 2.814936e+00 4.894098e+00 3.180487e+00 1.563110e+00 7.480600e-01 4.378306e-01 2.086959e+00 2.086964e+00 3.638003e+00 3.296843e+00 1.619007e+00 1.369765e+00 8.242487e-01 4.956115e-01 1.026018e+00 5.990442e-01 4.419532e-01
<GCONST> 1.437427e+02
<STATE> 3
<MEAN> 39
 3.634500e+00 -3.396014e+00 -6.374635e+00 -1.079290e+01 -1.432551e+01 1.195865e+01 -2.557931e+01 -2.765536e-03 -1.382244e+00 -1.040478e+01 1.705810e+01 -1.741687e+01 7.259225e+01 4.701896e-01 -2.371365e-01 2.500459e-01 -3.174492e-01 9.839246e-01 3.579945e-01 -6.066713e-01 -6.774600e-01 -2.924036e-01 2.030873e-01 -2.452218e-01 -4.937808e-03 -4.024692e-01 -2.661650e-02 -1.193193e-01 6.793791e-01 3.595253e-01 -3.374964e-01 -4.265034e-01 4.796528e-01 -5.845964e-02 -2.813334e-01 -2.155097e-02 -5.871462e-01 3.632852e-01 -1.684110e-01
<VARIANCE> 39
 5.998054e+00 1.104084e+01 2.446053e+01 2.870665e+01 2.368944e+01 3.581650e+01 3.770833e+01 2.977999e+01 2.584349e+01 3.676548e+01 5.634157e+01 1.818142e+01 1.001697e+01 5.236326e-01 1.435419e+00 7.600761e+00 4.525050e+00 3.157159e+00 7.128720e+00 5.430810e+00 4.074701e+00 2.801869e+00 5.043801e+00 1.178525e+01 2.368169e+00 9.435517e-01 1.109094e-01 1.746113e-01 3.181798e-01 4.862339e-01 7.433511e-01 7.197136e-01 1.409230e+00 8.429548e-01 7.693788e-01 1.085954e+00 1.242101e+00 5.252172e-01 1.308710e-01
<GCONST> 1.187626e+02
<STATE> 4
<MEAN> 39
 6.835004e+00 -8.939358e+00 7.240697e+00 -3.177898e+00 -1.365007e+01 2.787977e+00 -2.215355e+01 -5.415434e+00 -4.961372e+00 -6.528379e+00 -1.497493e+00 -1.080747e+01 6.725671e+01 -1.437898e-01 -2.992277e-01 7.129933e-01 3.772297e-01 3.570007e-02 -2.181655e+00 1.440960e+00 1.507649e-01 2.063114e-01 2.074936e-01 -3.203652e+00 1.283668e+00 -3.738955e-02 -5.941410e-01 8.654485e-02 -1.135086e+00 -1.147821e+00 3.885762e-01 2.581185e-01 -5.601359e-01 1.362115e+00 6.815096e-01 -2.043588e-01 7.167672e-01 -4.050477e-01 8.624796e-01
<VARIANCE> 39
 5.817044e+00 1.110547e+01 1.671713e+01 2.897564e+01 2.109617e+01 2.860389e+01 2.323664e+01 4.272025e+01 1.370624e+01 2.073745e+01 4.466865e+01 1.904946e+01 1.889340e+01 1.977002e+00 7.742613e-01 5.054528e+00 7.224524e+00 3.102977e+00 2.418911e+00 4.730204e+00 8.550409e+00 2.915458e+00 1.738180e+00 4.699999e+00 2.267245e+00 3.427669e+00 2.451227e-01 2.139646e-01 4.382305e-01 8.474382e-01 5.091213e-01 4.553428e-01 1.038161e+00 1.249903e+00 5.699816e-01 3.925207e-01 5.717646e-01 3.927243e-01 4.408833e-01
<GCONST> 1.166766e+02
<TRANSP> 5
 0.000000e+00 1.000000e+00 0.000000e+00 0.000000e+00 0.000000e+00
 0.000000e+00 8.358163e-01 1.641838e-01 0.000000e+00 0.000000e+00
 0.000000e+00 0.000000e+00 8.875346e-01 1.124654e-01 0.000000e+00
 0.000000e+00 0.000000e+00 0.000000e+00 7.539496e-01 2.460504e-01
 0.000000e+00 0.000000e+00 0.000000e+00 0.000000e+00 0.000000e+00
<ENDHMM>
~h "sh"
<BEGINHMM>
<NUMSTATES> 5
<STATE> 2
<MEAN> 39
 -2.322650e+00 -1.080451e+01 -3.889902e+00 1.850198e+00 -1.254721e+01 -9.204100e+00 1.440010e+00 7.184522e+00 -1.084015e+01 -9.849946e+00 -3.445197e+00 -1.505460e+00 5.564139e+01 -1.765125e+00 -1.304611e+00 2.735713e+00 9.137368e-02 -1.942686e-01 -2.432538e+00 6.976452e-01 6.574581e-01 2.291752e-01 2.605835e-01 1.033736e+00 -7.362997e-01 2.361180e+00 -1.162758e+00 -6.808344e-02 2.228597e-01 9.659646e-02 3.205957e-01 -1.645012e-01 1.846791e-01 5.310559e-02 5.879584e-01 1.436338e-02 -2.711905e-02 -1.870862e-01 3.003867e-01
<VARIANCE> 39
 5.146744e+01 3.973738e+01 4.461389e+01 2.920349e+01 1.999682e+01 3.764382e+01 5.112227e+01 4.930949e+01 2.626970e+01 2.968342e+01 2.142445e+01 2.302289e+01 4.359870e+01 6.601292e+00 6.016266e+00 4.512964e+00 1.935030e+00 2.323566e+00 3.638760e+00 3.247972e+00 3.190101e+00 3.553363e+00 3.867958e+00 1.917653e+00 2.581720e+00 4.222183e+00 8.804225e-01 1.034795e+00 8.121370e-01 4.131895e-01 5.431420e-01 7.893811e-01 5.997108e-01 6.450621e-01 4.648320e-01 7.559819e-01 3.813984e-01 5.722886e-01 6.084310e-01
<GCONST> 1.274997e+02
<STATE> 3
<MEAN> 39
 -2.136397e+01 -1.293504e+01 6.005044e+00 6.438427e+00 -8.106904e+00 -1.812768e+01 2.404445e+00 8.143972e+00 -3.691985e+00 -8.289669e+00 1.388617e+00 -4.469279e+00 6.640271e+01 -2.714694e+00 -2.856061e-01 2.344814e-01 1.134085e+00 1.102934e+00 -6.001345e-01 -2.108539e-01 1.652397e-02 1.043404e+00 2.590272e-01 5.367813e-01 -7.568344e-03 1.031377e+00 6.364118e-01 6.038342e-02 -5.554727e-01 -1.543651e-01 -1.708100e-02 3.531068e-01 -2.335593e-01 -1.232748e-01 -1.127192e-01 5.236322e-03 -1.568022e-01 1.282932e-01 -3.102123e-01
<VARIANCE> 39
 7.619916e+01 2.134381e+01 1.614526e+01 3.020880e+01 2.211388e+01 1.390222e+01 2.401280e+01 2.640014e+01 2.689461e+01 1.820889e+01 1.507826e+01 1.263491e+01 2.208385e+01 4.703135e+00 1.475519e+00 2.515800e+00 2.287047e+00 1.636387e+00 2.007343e+00 1.909681e+00 2.163975e+00 2.348911e+00 1.950264e+00 1.416757e+00 1.780770e+00 2.057860e+00 6.105126e-01 3.801801e-01 3.596830e-01 6.250931e-01 3.403978e-01 3.500332e-01 4.043542e-01 4.074707e-01 4.623336e-01 4.347347e-01 2.549207e-01 3.915426e-01 3.462832e-01
<GCONST> 1.095910e+02
<STATE> 4
<MEAN> 39
 -1.504555e+01 -1.421535e+01 -2.014449e+00 2.222775e+00 -4.982192e+00 -1.335933e+01 -3.850034e+00 5.046949e+00 -6.615014e-01 -5.119612e+00 8.843616e-01 -6.122450e+00 6.961949e+01 5.097867e+00 6.385225e-02 -1.820343e+00 -3.698011e+00 -7.692381e-01 3.628674e+00 -1.720202e+00 -1.468823e+00 -1.999270e-01 1.259412e+00 -3.277397e-01 -1.210907e+00 6.565090e-01 4.940265e-01 -6.295820e-02 1.222673e-01 -7.394785e-01 -4.189006e-01 1.032702e+00 -1.802658e-01 -2.117101e-01 -1.216999e-01 1.527765e-01 1.520988e-01 -1.878597e-01 1.162151e-01
<VARIANCE> 39
 1.926537e+02 1.956414e+01 3.200349e+01 8.106905e+01 2.062085e+01 7.310668e+01 2.997950e+01 2.871600e+01 2.099113e+01 2.864809e+01 1.569196e+01 1.963318e+01 1.599940e+01 1.108075e+01 2.681965e+00 1.868288e+00 5.284680e+00 2.351358e+00 1.123982e+01 2.512965e+00 3.313398e+00 2.423359e+00 3.043555e+00 1.820533e+00 2.145971e+00 1.608751e+00 3.359150e+00 6.468560e-01 4.964211e-01 6.404896e-01 3.871428e-01 9.743041e-01 4.651178e-01 6.848954e-01 4.866389e-01 6.827764e-01 4.521226e-01 4.747603e-01 3.288047e-01
<GCONST> 1.254215e+02
<TRANSP> 5
 0.000000e+00 1.000000e+00 0.000000e+00 0.000000e+00 0.000000e+00
 0.000000e+00 7.201217e-01 2.798783e-01 0.000000e+00 0.000000e+00
 0.000000e+00 0.000000e+00 8.593715e-01 1.406285e-01 0.000000e+00
 0.000000e+00 0.000000e+00 0.000000e+00 8.430445e-01 1.569554e-01
 0.000000e+00 0.000000e+00 0.000000e+00 0.000000e+00 0.000000e+00
<ENDHMM>
~h "si"
<BEGINHMM>
<NUMSTATES> 5
<STATE> 2
<MEAN> 39
 7.473642e+00 -8.069304e+00 1.249035e+00 -2.803954e+01 -1.957407e+01 1.794148e+01 -1.788198e+01 8.947576e-01 -3.065367e+00 -3.311523e+00 -1.024250e+00 -3.193106e+00 7.304387e+01 1.489650e-01 -1.689697e+00 2.510941e-03 -6.944018e-01 -5.292387e-02 5.598160e-01 -6.567496e-01 -7.805421e-02 -2.521053e-01 1.176571e+00 2.543821e-02 -3.292578e-01 1.848982e+00 -3.661557e-01 6.051376e-02 -1.889453e-01 6.176051e-01 3.111960e-01 -4.537190e-01 1.554951e-01 1.743639e-01 -1.015118e-01 2.068384e-01 6.849244e-04 -1.689114e-01 -4.202526e-01
<VARIANCE> 39
 1.854907e+01 4.561367e+01 2.926811e+01 1.255186e+02 3.356308e+01 6.797424e+01 2.214149e+01 2.831506e+01 3.839450e+01 4.444341e+01 3.045659e+01 3.044291e+01 4.959695e+01 3.420494e+00 3.167985e+00 2.602982e+00 1.026789e+01 3.520486e+00 4.696615e+00 3.345944e+00 2.558089e+00 3.358022e+00 2.946159e+00 1.725424e+00 2.491620e+00 5.570556e+00 5.652804e-01 4.875389e-01 4.408907e-01 9.404176e-01 6.449465e-01 5.274020e-01 5.558015e-01 5.431193e-01 6.429697e-01 5.311645e-01 3.157773e-01 4.100049e-01 2.615595e-01
<GCONST> 1.261621e+02
<STATE> 3
<MEAN> 39
 3.349140e+00 -1.602685e+01 -8.212888e-02 -1.574026e+01 -1.633625e+01 8.420128e+00 -1.787101e+01 9.336897e-01 1.381376e-01 4.712820e+00 -7.966079e+00 -7.778664e+00 7.785102e+01 -9.105254e-02 -1.121811e+00 -1.516170e-01 -3.276004e-01 4.257906e-01 -3.382104e-01 3.483209e-02 8.507332e-01 -2.731428e-01 -7.300317e-02 -3.388637e-01 -2.139176e-01 1.043075e+00 -2.328483e-01 3.016309e-01 -1.501659e-01 4.258581e-02 2.345258e-01 -3.840975e-02 9.849089e-02 3.044963e-01 -1.620360e-01 -2.694569e-01 1.789925e-01 -8.590968e-02 -3.421654e-01
<VARIANCE> 39
 2.338004e+01 2.000136e+01 4.623822e+01 1.003473e+02 3.708592e+01 4.839641e+01 6.738992e+01 9.154063e+01 3.180012e+01 4.498379e+01 3.727527e+01 3.447626e+01 4.317534e+01 1.625691e+00 4.137313e+00 2.080664e+00 8.528948e+00 2.364890e+00 4.624167e+00 4.495457e+00 6.678999e+00 3.099169e+00 3.890340e+00 2.524309e+00 3.790848e+00 4.887043e+00 6.270621e-01 3.911321e-01 6.320169e-01 9.869499e-01 6.755714e-01 5.203212e-01 7.354916e-01 1.737849e+00 7.657194e-01 4.839474e-01 4.476663e-01 8.965671e-01 3.207023e-01
<GCONST> 1.318676e+02
<STATE> 4
<MEAN> 39
 -7.215219e+00 -7.788006e+00 -3.695427e+00 -7.790452e+00 -8.636950e+00 -9.897648e-01 -6.850379e+00 3.685238e+00 -2.992390e+00 -4.824283e+00 -4.700069e+00 -5.255121e+00 7.476214e+01 -1.796107e-01 4.703924e-01 1.191258e-02 9.907820e-02 3.798771e-01 -4.472626e-01 -2.206288e-01 -5.290922e-01 9.540388e-02 3.880456e-03 2.688370e-01 9.503081e-03 -1.592958e-01 6.904843e-02 -1.664829e-03 6.723845e-02 -8.504653e-02 -5.075457e-02 6.284713e-02 -2.126327e-01 8.942084e-02 -1.253924e-02 3.903838e-02 2.256698e-02 -5.470584e-02 -4.937575e-03
<VARIANCE> 39
 9.041694e+01 1.060596e+02 3.243045e+01 7.108270e+01 6.080988e+01 5.089507e+01 8.968566e+01 1.353944e+02 3.327030e+01 2.763717e+01 3.024786e+01 2.299412e+01 4.414724e+01 4.836518e+00 3.012909e+00 2.143296e+00 3.074764e+00 2.447954e+00 2.572958e+00 7.265839e+00 5.232564e+00 2.966698e+00 2.282982e+00 1.742092e+00 1.838468e+00 1.794512e+00 7.380620e-01 4.363513e-01 3.494300e-01 3.031920e-01 4.633954e-01 3.929548e-01 8.223813e-01 8.382071e-01 4.864312e-01 3.666472e-01 3.347942e-01 2.937594e-01 2.767270e-01
<GCONST> 1.261102e+02
<TRANSP> 5
 0.000000e+00 1.000000e+00 0.000000e+00 0.000000e+00 0.000000e+00
 0.000000e+00 7.941275e-01 2.058725e-01 0.000000e+00 0.000000e+00
 0.000000e+00 0.000000e+00 7.241982e-01 2.758019e-01 0.000000e+00
 0.000000e+00 0.000000e+00 0.000000e+00 9.128542e-01 8.714582e-02
 0.000000e+00 0.000000e+00 0.000000e+00 0.000000e+00 0.000000e+00
<ENDHMM>
~h "un"
<BEGINHMM>
<NUMSTATES> 5
<STATE> 2
<MEAN> 39
 4.593244e-01 -7.090887e+00 -9.193298e+00 -1.234957e+01 -4.156889e+00 1.815158e+00 -7.531671e+00 -6.314917e+00 -3.440444e+00 -2.543067e+00 2.307210e+00 8.235562e-02 6.126465e+01 -1.835410e+00 -5.103509e-01 -6.386343e-01 7.508497e-01 2.341907e+00 -2.829368e+00 1.262474e+00 -5.487756e-01 5.580034e-01 5.107208e-01 -6.042718e-01 2.917462e-01 2.212203e-02 -1.489393e-01 2.186313e-02 2.408012e-01 -1.385404e-01 -7.901943e-02 7.548989e-02 -5.778138e-02 -1.654696e-02 1.602861e-01 -1.108237e-01 -9.925666e-02 -2.250010e-01 5.202162e-01
<VARIANCE> 39
 4.576323e+01 5.397981e+01 3.907745e+01 4.712293e+01 8.649298e+01 9.922759e+01 5.291191e+01 3.400098e+01 2.676092e+01 2.415348e+01 2.757814e+01 2.616559e+01 1.195726e+02 1.781812e+00 8.740868e+00 3.710967e+00 8.348485e+00 1.014347e+01 1.505673e+01 6.410420e+00 5.619032e+00 3.667689e+00 2.506356e+00 3.301890e+00 2.750692e+00 2.187350e+01 3.947951e-01 1.867042e+00 9.362680e-01 1.451969e+00 2.660189e+00 3.154538e+00 1.274165e+00 1.187045e+00 7.330039e-01 5.665072e-01 6.757918e-01 5.563949e-01 3.012544e+00
<GCONST> 1.454874e+02
<STATE> 3
<MEAN> 39
 -7.272896e+00 -8.961291e+00 -5.679713e+00 -6.733190e+00 2.263623e+00 -1.150394e+01 -4.288792e+00 -1.071374e+01 1.783419e+00 -4.154621e+00 -2.282825e+00 -5.872530e+00 7.608806e+01 1.713142e+00 7.487375e-01 8.789493e-01 9.675159e-01 -1.340496e+00 1.235350e+00 -8.062165e-01 4.971887e-01 2.495430e-01 -9.389009e-01 -8.296271e-02 -9.743282e-01 4.103668e-01 4.081791e-01 -3.469814e-02 -1.747695e-01 -1.675382e-01 -4.853243e-01 7.855504e-01 -5.291219e-01 6.598130e-01 -3.080487e-02 -1.624292e-01 1.816049e-01 7.332946e-02 -6.506267e-01
<VARIANCE> 39
 5.158174e+01 1.505459e+01 1.719468e+01 2.229419e+01 3.638077e+01 4.062906e+01 1.962001e+01 2.473424e+01 2.474555e+01 2.593308e+01 1.605544e+01 1.538343e+01 5.145835e+01 3.830320e+00 2.493346e+00 4.058306e+00 4.082356e+00 3.365753e+00 6.714364e+00 3.769769e+00 6.036309e+00 3.417703e+00 2.637823e+00 2.385891e+00 2.470800e+00 7.242758e+00 1.008508e+00 7.740365e-01 8.157769e-01 7.301638e-01 1.196457e+00 9.100199e-01 5.647278e-01 5.535434e-01 8.020859e-01 7.060534e-01 5.522429e-01 4.786199e-01 1.069839e+00
<GCONST> 1.272631e+02
<STATE> 4
<MEAN> 39
 1.545948e+00 -6.990874e+00 5.521753e+00 -4.450574e+00 -1.716375e+01 3.855858e+00 -1.471806e+01 -1.032174e+00 -1.831184e+00 -1.391866e+01 5.443109e+00 -9.217526e+00 7.248186e+01 -1.014929e-02 1.099193e-01 3.921808e-01 6.955363e-02 -8.841076e-01 4.103306e-01 -5.947239e-01 2.274818e-01 -9.653359e-02 -1.851947e-01 5.137073e-01 -2.659193e-01 3.993448e-02 -3.654318e-02 3.267242e-02 -2.231302e-01 -3.261877e-02 2.691396e-01 -1.390604e-01 6.163259e-02 -2.575303e-01 -2.488030e-02 1.444498e-01 -4.913518e-03 1.012184e-02 3.082912e-02
<VARIANCE> 39
 3.037136e+01 1.492668e+01 4.228145e+01 2.433274e+01 7.334167e+01 2.612100e+01 3.042673e+01 6.777037e+01 6.045623e+01 3.070577e+01 4.320313e+01 1.946701e+01 2.786429e+01 4.122745e+00 1.602071e+00 6.670194e+00 4.234649e+00 1.049510e+01 5.165997e+00 6.828984e+00 9.028334e+00 6.127048e+00 5.528618e+00 5.195598e+00 2.971449e+00 3.089101e+00 8.387234e-01 3.326370e-01 1.000960e+00 1.015808e+00 1.695444e+00 1.211933e+00 1.047451e+00 1.133683e+00 8.573611e-01 9.075354e-01 1.164044e+00 5.254772e-01 4.484692e-01
<GCONST> 1.363261e+02
<TRANSP> 5
 0.000000e+00 1.000000e+00 0.000000e+00 0.000000e+00 0.000000e+00
 0.000000e+00 9.035128e-01 9.648721e-02 0.000000e+00 0.000000e+00
 0.000000e+00 0.000000e+00 8.810008e-01 1.189992e-01 0.000000e+00
 0.000000e+00 0.000000e+00 0.000000e+00 9.080185e-01 9.198143e-02
 0.000000e+00 0.000000e+00 0.000000e+00 0.000000e+00 0.000000e+00
<ENDHMM>
~h "wu"
<BEGINHMM>
<NUMSTATES> 5
<STATE> 2
<MEAN> 39
 3.485384e-01 -8.689106e+00 -5.160521e+00 -2.192116e+01 -1.168740e+01 1.110631e+01 -9.202748e+00 -3.630344e+00 1.109841e-01 -2.084506e+00 -2.411579e+00 -6.901355e+00 7.735578e+01 5.041447e-01 -2.746287e-01 4.082689e-01 -2.215637e+00 -7.248858e-01 1.521784e+00 5.603984e-01 -6.309734e-01 -5.104932e-01 -6.958938e-01 1.844584e-01 1.239043e+00 1.562976e+00 -1.885800e-01 -5.623818e-02 1.024299e-01 1.772462e-01 -7.037931e-02 -5.497872e-01 -1.803991e-01 5.082906e-01 -6.470450e-02 -3.124586e-02 -3.008775e-02 -2.827642e-02 -2.103472e-01
<VARIANCE> 39
