~o
<STREAMINFO> 1 39
<VECSIZE> 39<NULLD><MFCC_D_A_0><DIAGC>
~s "silst"
<MEAN> 39
 -1.694051e+01 -9.838296e-01 -9.126440e+00 2.308089e-01 -6.570301e+00 1.520532e+00 -5.706885e+00 -2.029946e+00 -5.243741e+00 -3.970763e+00 -3.423991e+00 -3.095084e+00 3.657040e+01 -1.272329e-01 6.077115e-02 -8.234097e-03 3.322078e-02 -7.954751e-02 -1.074848e-01 -9.663700e-02 -5.727569e-02 1.191456e-01 -4.181782e-02 1.606651e-01 -4.081269e-02 -3.095867e-03 3.274256e-02 9.808099e-02 9.534219e-04 1.654215e-02 -7.590915e-03 -3.489231e-02 4.605687e-03 2.599344e-02 8.866283e-02 -1.175360e-01 8.443175e-02 -6.626749e-02 1.244025e-01
<VARIANCE> 39
 3.615009e+00 4.177860e+00 7.321148e+00 7.398548e+00 1.035012e+01 1.106633e+01 1.353796e+01 1.533005e+01 1.405422e+01 1.296627e+01 1.322856e+01 1.118372e+01 4.128279e+00 4.283296e-01 6.248021e-01 7.931432e-01 8.964809e-01 1.128994e+00 1.321821e+00 1.489476e+00 1.777665e+00 1.800643e+00 1.714890e+00 1.678438e+00 1.392709e+00 1.954084e-01 1.092322e-01 1.579243e-01 1.805034e-01 1.963035e-01 2.290648e-01 2.657269e-01 3.107817e-01 3.832674e-01 3.797514e-01 3.716290e-01 3.897938e-01 3.134987e-01 3.791662e-02
<GCONST> 8.047986e+01
~h "a"
<BEGINHMM>
<NUMSTATES> 5
<STATE> 2
<MEAN> 39
 -4.912279e+00 -1.396489e+01 -1.435632e+01 -1.181287e+01 5.405645e+00 1.047463e+01 -9.958354e+00 -4.380281e+00 3.153484e+00 -3.489294e+00 -4.840520e+00 -1.223822e+00 6.806344e+01 2.015417e+00 -1.054744e-01 -2.354857e-01 -6.173288e-03 3.959814e-02 3.601155e+00 -2.165268e+00 -2.046131e-01 -1.902701e-01 -3.107356e-01 5.363854e-01 -1.866594e-01 -1.795428e-01 2.138201e-01 2.719284e-01 1.519949e-01 -2.891603e-02 -7.129987e-01 -2.447090e-02 -1.150756e-01 9.290505e-02 -1.966168e-01 -3.115054e-01 2.847706e-01 -4.074444e-01 -3.726292e-02
<VARIANCE> 39
 3.170962e+01 2.469079e+01 1.853415e+01 3.593602e+01 2.904869e+01 8.145673e+01 4.036608e+01 3.173911e+01 2.081081e+01 1.732298e+01 2.792121e+01 1.700320e+01 3.364473e+01 2.394391e+00 4.349269e+00 2.597931e+00 2.436948e+00 6.042992e+00 4.443157e+00 2.973868e+00 3.488216e+00 2.679242e+00 2.966348e+00 2.295707e+00 2.292569e+00 9.757833e-01 5.856340e-01 6.611732e-01 5.596948e-01 5.181353e-01 5.823700e-01 1.459973e+00 7.794626e-01 7.587405e-01 4.739885e-01 5.975097e-01 4.708563e-01 3.524578e-01 4.692133e-01
<GCONST> 1.221711e+02
<STATE> 3
<MEAN> 39
 5.454168e+00 -1.102949e+01 -1.510267e+01 -1.272452e+01 -3.896900e+00 2.436107e+01 -2.021912e+01 -1.318954e+00 -1.018820e+00 -1.265595e+01 2.761449e+00 -7.472200e+00 7.122018e+01 5.282359e-01 -1.515684e-01 -3.890429e-01 -8.612980e-01 -1.360268e+00 1.164427e+00 -5.754444e-01 6.871359e-01 -2.970644e-01 -2.739790e+00 2.225646e+00 -1.284681e+00 7.899964e-01 -4.380932e-01 -1.877997e-02 8.241125e-02 -9.586134e-03 5.659989e-01 -5.402243e-01 6.056062e-01 -2.062711e-01 2.970709e-01 1.260925e-01 -9.620491e-02 3.312553e-01 -2.938135e-01
<VARIANCE> 39
 6.766216e+00 1.431757e+01 1.105043e+01 2.274000e+01 1.408790e+01 1.717866e+01 2.613314e+01 2.877087e+01 2.158357e+01 4.097592e+01 3.114408e+01 1.611949e+01 1.624360e+01 1.080617e+00 1.100167e+00 1.069402e+00 1.025802e+00 2.181891e+00 1.684186e+00 2.251436e+00 1.579264e+00 1.548545e+00 1.668278e+00 1.331667e+00 1.316648e+00 9.311879e-01 2.498184e-01 4.318721e-01 2.115389e-01 3.110418e-01 2.667058e-01 2.044332e-01 2.991350e-01 3.003394e-01 2.440202e-01 4.073095e-01 4.391823e-01 3.092507e-01 1.830408e-01
<GCONST> 9.768510e+01
<STATE> 4
<MEAN> 39
 7.032270e+00 -6.336393e+00 -1.666704e+01 -1.394337e+01 -3.259123e+00 2.179533e+01 -1.523985e+01 -7.673084e-01 -1.395229e+00 -2.087467e+01 8.231875e+00 -7.718642e+00 6.776572e+01 4.170531e-01 7.790332e-01 -2.859936e-01 2.131218e-01 4.709781e-01 -1.062227e+00 1.067892e+00 1.980542e-01 -8.007022e-01 3.310662e-01 -2.436871e-01 2.033700e-01 -9.162512e-01 4.206891e-02 6.441596e-03 -3.305910e-02 1.024317e-01 6.795287e-02 -1.689591e-01 1.075083e-01 3.100562e-02 -2.295548e-01 4.264525e-01 -2.478467e-01 -1.518911e-02 -9.313424e-02
<VARIANCE> 39
 7.802434e+00 2.292865e+01 7.692828e+00 1.552872e+01 1.315499e+01 3.102767e+01 2.952581e+01 2.560663e+01 3.685788e+01 2.815006e+01 2.227699e+01 1.504617e+01 1.957501e+01 5.209972e-01 9.434006e-01 5.358515e-01 1.031111e+00 8.505927e-01 1.421340e+00 1.891333e+00 1.266470e+00 2.166779e+00 2.356750e+00 1.538421e+00 1.219952e+00 5.672935e-01 1.032425e-01 1.836775e-01 1.012696e-01 2.046167e-01 1.830897e-01 2.667286e-01 3.517302e-01 2.303853e-01 2.458366e-01 2.766396e-01 3.456470e-01 2.431113e-01 1.327553e-01
<GCONST> 9.091534e+01
<TRANSP> 5
 0.000000e+00 1.000000e+00 0.000000e+00 0.000000e+00 0.000000e+00
 0.000000e+00 8.395430e-01 1.604570e-01 0.000000e+00 0.000000e+00
 0.000000e+00 0.000000e+00 7.481728e-01 2.518272e-01 0.000000e+00
 0.000000e+00 0.000000e+00 0.000000e+00 8.733885e-01 1.266116e-01
 0.000000e+00 0.000000e+00 0.000000e+00 0.000000e+00 0.000000e+00
<ENDHMM>
~h "b"
<BEGINHMM>
<NUMSTATES> 5
<STATE> 2
<MEAN> 39
 -5.662872e-02 -1.013365e+01 -8.223077e+00 -2.128264e+01 -8.871794e+00 1.373910e+01 -9.243340e+00 -1.818632e+00 -2.803552e+00 -1.823188e+00 -7.236795e-01 -6.780547e+00 6.950735e+01 -1.355593e-01 5.588389e-01 -3.390782e-01 3.050687e-01 2.005382e-03 1.150975e-01 4.279298e-01 -2.789331e-01 -9.602666e-03 5.404103e-02 2.942469e-01 5.923091e-01 -1.612273e+00 6.307743e-02 -8.714689e-03 6.093635e-02 6.598689e-02 -7.923458e-02 -2.938329e-01 -7.425465e-02 1.419559e-01 5.496948e-02 -1.417356e-02 -5.730310e-02 -2.952632e-02 1.509242e-01
<VARIANCE> 39
 3.156330e+01 4.788223e+01 2.165935e+01 8.205810e+01 1.361680e+01 6.431315e+01 6.662577e+01 2.714417e+01 3.246987e+01 1.273286e+01 1.995749e+01 2.357281e+01 2.516854e+02 1.876735e+00 1.304388e+00 1.925666e+00 4.510806e+00 1.788099e+00 4.804028e+00 3.953553e+00 2.356876e+00 3.133806e+00 1.779388e+00 1.388143e+00 1.716083e+00 3.967061e+00 3.288869e-01 2.417755e-01 3.254620e-01 9.638469e-01 4.311295e-01 8.851631e-01 7.160239e-01 5.044054e-01 5.289204e-01 2.762600e-01 3.037715e-01 3.479357e-01 8.018395e-01
<GCONST> 1.198024e+02
<STATE> 3
<MEAN> 39
 -5.023896e-01 1.546214e+00 -3.846111e+00 -7.742827e+00 -1.048710e+01 1.133454e+00 -7.504567e+00 -2.423369e+00 -2.784975e-01 -1.133214e+00 -4.220497e+00 -2.379988e+00 5.352896e+01 2.464649e+00 -2.040389e+00 1.466472e+00 -2.531052e+00 -9.139696e-01 1.106545e-02 -1.607712e+00 -3.908535e-01 9.103293e-01 -8.131057e-01 -6.891921e-01 -1.860527e-01 5.546271e+00 1.206645e-01 -9.464774e-01 5.240157e-03 -8.428447e-01 -1.894256e-01 8.874773e-01 -3.723549e-01 1.454462e-01 2.439053e-02 -2.553884e-01 -4.703887e-02 -1.513121e-01 1.090219e+00
<VARIANCE> 39
 5.500232e+01 7.845525e+01 1.155191e+02 1.139764e+02 4.355379e+01 7.850916e+01 3.989121e+01 2.818640e+01 4.165162e+01 4.181084e+01 6.054358e+01 2.190499e+01 9.327562e+01 4.882342e+00 7.647158e+00 5.099539e+00 1.534244e+01 4.580748e+00 1.149864e+01 6.333808e+00 3.817349e+00 4.365741e+00 5.977426e+00 3.139811e+00 2.601830e+00 7.634683e+00 1.369441e+00 8.771889e-01 1.412783e+00 2.038407e+00 6.229632e-01 1.796564e+00 7.513192e-01 7.919592e-01 6.495797e-01 9.310698e-01 5.274366e-01 5.096933e-01 2.267853e+00
<GCONST> 1.462439e+02
<STATE> 4
<MEAN> 39
 1.185490e+00 -1.498448e+01 -2.035656e+00 -1.421151e+01 -1.485957e+01 5.367587e+00 -1.107521e+01 5.093246e+00 1.375257e+00 -4.129092e+00 -6.354236e+00 -6.732197e+00 7.397449e+01 -2.153994e-01 -4.981724e-01 -4.855579e-01 -3.303308e-01 3.250083e-01 5.800332e-01 1.478488e-01 -2.201521e-01 -4.582220e-02 6.105619e-02 2.076884e-02 -1.411395e-01 7.286208e-01 -8.629660e-02 1.152772e-01 -6.374902e-02 1.603160e-01 5.901852e-02 -1.085685e-02 5.045011e-02 -4.356287e-02 -7.397658e-03 1.732769e-03 -1.732076e-03 7.279931e-02 -2.234050e-01
<VARIANCE> 39
 2.996548e+01 4.267141e+01 4.632220e+01 9.768047e+01 4.436074e+01 1.020164e+02 7.460859e+01 1.017818e+02 2.945067e+01 5.595572e+01 5.188230e+01 2.964614e+01 1.348121e+02 1.972661e+00 3.071917e+00 2.858046e+00 6.173851e+00 2.677906e+00 6.965122e+00 4.501258e+00 6.737063e+00 2.340528e+00 4.054364e+00 3.053130e+00 3.344886e+00 1.098682e+01 4.059906e-01 4.018056e-01 4.124474e-01 9.378588e-01 4.285720e-01 1.094929e+00 8.336670e-01 1.129374e+00 4.560461e-01 7.080679e-01 5.678903e-01 7.058817e-01 1.369287e+00
<GCONST> 1.369206e+02
<TRANSP> 5
 0.000000e+00 1.000000e+00 0.000000e+00 0.000000e+00 0.000000e+00
 0.000000e+00 8.971135e-01 1.028865e-01 0.000000e+00 0.000000e+00
 0.000000e+00 0.000000e+00 7.324876e-01 2.675123e-01 0.000000e+00
 0.000000e+00 0.000000e+00 0.000000e+00 9.564144e-01 4.358556e-02
 0.000000e+00 0.000000e+00 0.000000e+00 0.000000e+00 0.000000e+00
<ENDHMM>
~h "d"
<BEGINHMM>
<NUMSTATES> 5
<STATE> 2
<MEAN> 39
 2.191557e+00 -2.357585e+01 -1.055543e+00 -1.024628e+01 -1.537467e+01 8.147194e+00 -1.339751e+01 1.660013e+01 -3.154696e+00 -1.427625e+01 -6.392513e+00 -1.184231e+01 6.904487e+01 -5.248294e-01 6.492411e-02 1.949634e-01 5.675383e-02 -7.892448e-01 -6.610706e-01 1.344316e+00 2.770200e-01 -2.866610e-01 -2.860314e-02 -2.407086e-02 8.109884e-02 -9.524860e-01 -6.196556e-01 4.311862e-01 -4.208390e-01 3.570657e-01 3.948424e-01 -2.578188e-01 4.121144e-01 -1.276825e-01 4.258833e-02 3.822857e-01 -2.533222e-01 2.386229e-01 -6.395023e-01
<VARIANCE> 39
 1.205732e+01 1.800486e+01 1.512181e+01 1.429116e+01 1.928298e+01 1.973620e+01 3.308374e+01 1.672164e+01 1.519549e+01 1.721247e+01 1.684617e+01 7.863527e+00 1.575838e+01 1.203453e+00 1.526447e+00 1.284188e+00 1.061932e+00 1.820154e+00 1.187799e+00 1.549262e+00 1.404882e+00 2.041650e+00 1.836928e+00 1.460731e+00 9.166167e-01 1.552868e+00 3.506465e-01 3.453512e-01 2.910944e-01 2.509289e-01 4.679598e-01 2.498698e-01 2.624006e-01 3.013262e-01 3.320323e-01 3.860675e-01 2.843008e-01 1.529233e-01 3.582829e-01
<GCONST> 9.679428e+01
<STATE> 3
<MEAN> 39
 -3.950702e+00 -1.902835e+01 -3.435226e+00 -7.724787e+00 -1.421425e+01 3.605097e+00 -5.310479e+00 1.648171e+01 -4.928197e+00 -1.123942e+01 -9.367395e+00 -9.004822e+00 6.097855e+01 -2.531011e+00 1.354816e+00 -1.357216e+00 1.898762e+00 1.146489e+00 -1.383485e+00 3.131984e+00 -5.574341e-01 -5.067086e-02 1.590123e+00 -5.494180e-01 1.374261e+00 -3.511661e+00 -7.056728e-02 -6.041787e-02 -2.753157e-01 5.364329e-01 7.404301e-02 -6.414874e-02 3.534008e-01 -3.084666e-01 2.611486e-01 1.354631e-01 1.371022e-01 3.113414e-01 -2.891507e-01
<VARIANCE> 39
 9.454881e+00 2.431893e+01 1.381027e+01 1.625656e+01 1.458267e+01 2.121955e+01 2.572480e+01 2.049890e+01 3.860794e+01 2.707348e+01 1.929557e+01 1.488217e+01 3.219781e+01 1.111412e+00 1.885461e+00 1.643985e+00 1.670517e+00 2.630418e+00 1.314307e+00 1.733799e+00 1.844389e+00 3.914804e+00 2.135388e+00 1.883515e+00 1.169486e+00 2.398046e+00 3.741232e-01 3.635139e-01 3.712347e-01 2.636884e-01 3.621912e-01 2.112863e-01 3.919063e-01 3.774613e-01 8.916817e-01 5.889421e-01 2.881057e-01 2.233074e-01 4.689707e-01
<GCONST> 1.056111e+02
<STATE> 4
<MEAN> 39
 -7.874098e+00 -1.652672e+01 -7.144719e+00 -1.690625e-02 -1.081659e+01 2.131830e+00 2.200024e+00 1.361831e+01 -8.378732e-01 -8.112148e+00 -8.362953e+00 -4.787294e+00 5.203341e+01 -1.035355e+00 2.843440e-01 -7.314467e-01 1.543389e+00 -2.912278e-01 -1.446674e+00 2.347682e+00 -4.129797e-01 -1.397202e-01 5.846362e-01 -2.506122e-01 9.543414e-01 -1.761665e+00 4.546171e-01 -1.777892e-01 2.891814e-01 -3.681304e-01 -4.086920e-01 -1.857875e-01 -6.014383e-01 7.725797e-02 -4.872639e-01 -4.255866e-01 -8.203095e-03 -1.155807e-01 7.104171e-01
<VARIANCE> 39
 6.105807e+00 1.385883e+01 1.422580e+01 1.642137e+01 2.501873e+01 1.880976e+01 3.561168e+01 1.657073e+01 2.303762e+01 1.780202e+01 1.948959e+01 1.020822e+01 8.470163e+00 1.188239e+00 1.760753e+00 2.347443e+00 1.721761e+00 2.544035e+00 1.431846e+00 2.837406e+00 2.868894e+00 3.736149e+00 1.858322e+00 2.147290e+00 1.814503e+00 2.064718e+00 1.904231e-01 2.790148e-01 3.516682e-01 2.586351e-01 4.617293e-01 3.160481e-01 3.739511e-01 4.776253e-01 5.635978e-01 3.388190e-01 5.686582e-01 3.123012e-01 2.022119e-01
<GCONST> 1.031345e+02
<TRANSP> 5
 0.000000e+00 1.000000e+00 0.000000e+00 0.000000e+00 0.000000e+00
 0.000000e+00 5.851278e-01 4.148723e-01 0.000000e+00 0.000000e+00
 0.000000e+00 0.000000e+00 4.955909e-01 5.044091e-01 0.000000e+00
 0.000000e+00 0.000000e+00 0.000000e+00 6.833504e-01 3.166495e-01
 0.000000e+00 0.000000e+00 0.000000e+00 0.000000e+00 0.000000e+00
<ENDHMM>
~h "e"
<BEGINHMM>
<NUMSTATES> 5
<STATE> 2
<MEAN> 39
 7.688782e+00 -9.162910e+00 -8.424583e+00 -2.438857e+01 -8.692259e+00 2.566875e+01 -1.346187e+01 2.211067e+00 -5.403991e+00 -6.416852e+00 4.341299e-02 -2.232290e+00 7.015446e+01 -1.131887e+00 2.165742e+00 -1.758095e-02 1.005894e+00 3.168710e+00 -1.306568e+00 1.788191e+00 -1.202578e+00 1.851337e+00 -4.221112e-01 -9.585879e-01 2.202860e+00 -2.188440e+00 -8.920780e-01 1.148780e-01 1.011160e-02 -3.654301e-02 6.667178e-01 -6.805912e-01 8.997617e-02 -4.747833e-01 5.736684e-01 -3.117331e-01 1.033877e-01 -5.149950e-02 -5.010527e-02
<VARIANCE> 39
 6.323050e+00 1.990514e+01 1.044436e+01 1.843633e+01 3.172368e+01 1.685490e+01 2.932266e+01 1.306786e+01 1.979696e+01 1.368127e+01 1.781131e+01 2.744868e+01 2.015563e+01 2.894073e+00 1.096322e+00 1.092995e+00 1.320044e+00 3.760778e+00 4.100612e+00 2.809153e+00 2.078106e+00 3.176750e+00 1.907430e+00 1.507183e+00 1.580264e+00 5.547718e-01 2.142406e-01 4.627521e-01 2.420043e-01 3.187335e-01 5.352664e-01 5.729853e-01 6.160598e-01 2.777444e-01 3.894399e-01 3.215929e-01 2.586021e-01 5.629700e-01 2.295619e-01
<GCONST> 1.036049e+02
<STATE> 3
<MEAN> 39
 -1.019022e+01 -5.273335e+00 -1.515205e+01 -2.596037e+01 7.995837e+00 1.388077e+01 -5.233541e+00 -3.676230e+00 2.597182e+00 -1.266915e+01 2.465892e+00 1.196479e+00 6.060638e+01 -7.279794e-01 -1.182043e-02 -5.030220e-01 -1.559225e-01 3.462268e-01 -4.076392e-01 4.210863e-01 -1.380424e-01 -1.558868e-01 -1.851394e-01 4.702418e-01 1.385624e-02 -6.395085e-01 4.381765e-01 -5.274884e-02 1.804045e-01 6.347830e-02 -5.032787e-01 2.653615e-01 -1.904308e-01 1.113829e-01 -2.255301e-01 1.800184e-01 4.419727e-02 -9.234703e-02 1.351776e-01
<VARIANCE> 39
 2.695077e+01 1.740233e+01 3.103340e+01 2.790862e+01 2.581217e+01 3.465930e+01 3.272625e+01 2.394794e+01 2.980462e+01 2.405711e+01 2.932992e+01 1.790329e+01 2.357674e+01 3.627967e+00 1.421726e+00 2.306563e+00 2.405575e+00 3.421589e+00 4.074841e+00 2.435518e+00 2.707814e+00 3.089657e+00 2.913527e+00 1.993483e+00 1.865224e+00 6.867554e-01 2.491178e-01 3.191647e-01 4.466741e-01 4.470327e-01 6.329002e-01 6.381317e-01 5.909588e-01 5.359356e-01 5.633144e-01 5.327364e-01 4.064530e-01 4.534328e-01 2.342625e-01
<GCONST> 1.145160e+02
<STATE> 4
<MEAN> 39
 -7.004866e-02 -6.189202e+00 -3.599352e+00 -1.736194e+01 -6.909213e+00 9.256892e+00 -1.791045e+01 -4.620793e-01 -2.494273e+00 -1.507105e-01 2.450208e+00 -6.142644e+00 6.972846e+01 4.301860e-01 -5.966898e-02 5.232723e-01 5.322590e-01 -1.956066e-01 -4.737253e-01 -6.503333e-01 5.637715e-01 6.733589e-02 6.431999e-01 -8.177246e-01 -3.060001e-01 1.035853e+00 -5.910280e-02 -9.089954e-02 -1.868639e-01 -1.850493e-01 1.702549e-01 2.239018e-01 -7.607171e-02 8.348450e-02 3.027237e-02 -6.575821e-02 -3.407218e-02 -1.454802e-03 4.816458e-02
<VARIANCE> 39
 4.794657e+01 2.307553e+01 2.578732e+01 7.697828e+01 1.118152e+02 1.630655e+02 1.521670e+02 3.349348e+01 2.480744e+01 4.775547e+01 5.762368e+01 4.579528e+01 7.258257e+01 8.507107e+00 3.190772e+00 4.418187e+00 6.423227e+00 1.460143e+01 1.448917e+01 1.981810e+01 3.958476e+00 3.233058e+00 4.189131e+00 4.177213e+00 4.751455e+00 9.952742e+00 1.401953e+00 6.327004e-01 6.107630e-01 1.118207e+00 1.782037e+00 2.109107e+00 3.137989e+00 8.333597e-01 6.838268e-01 6.057096e-01 8.446899e-01 6.984420e-01 1.930492e+00
<GCONST> 1.491553e+02
<TRANSP> 5
 0.000000e+00 1.000000e+00 0.000000e+00 0.000000e+00 0.000000e+00
 0.000000e+00 7.639897e-01 2.360103e-01 0.000000e+00 0.000000e+00
 0.000000e+00 0.000000e+00 9.335220e-01 6.647798e-02 0.000000e+00
 0.000000e+00 0.000000e+00 0.000000e+00 9.438589e-01 5.614109e-02
 0.000000e+00 0.000000e+00 0.000000e+00 0.000000e+00 0.000000e+00
<ENDHMM>
~h "h"
<BEGINHMM>
<NUMSTATES> 5
<STATE> 2
<MEAN> 39
 4.546104e+00 -1.339343e+01 -9.417607e+00 -1.401740e+01 -5.657440e+00 7.600673e+00 -1.496950e+01 6.086337e+00 -5.415421e+00 3.731781e+00 -7.718698e+00 -1.401639e+01 7.711177e+01 1.380909e+00 -1.750982e+00 -5.243020e-01 -4.010857e+00 -9.163107e-01 5.149182e+00 -2.016004e+00 -8.526957e-01 -1.700500e+00 1.202266e+00 2.151245e+00 -2.201730e+00 6.248208e-01 -6.294195e-01 9.173851e-02 6.900196e-01 2.099973e-01 -6.922517e-01 1.629966e-02 6.955311e-01 -6.434851e-01 -1.232633e-01 -9.021644e-01 6.875020e-01 9.778749e-01 -3.229107e-01
<VARIANCE> 39
 3.471997e+00 7.377407e+00 7.546015e+00 1.161566e+01 1.420788e+01 2.247718e+01 1.539151e+01 1.347913e+01 1.141355e+01 1.010776e+01 1.689643e+01 1.362481e+01 5.375483e+00 8.357065e-01 5.324656e-01 1.317241e+00 1.768030e+00 1.247829e+00 1.544314e+00 1.852599e+00 1.936518e+00 1.320746e+00 2.080909e+00 1.475144e+00 2.473753e+00 4.054488e-01 1.250833e-01 2.035725e-01 1.779526e-01 3.560227e-01 2.602817e-01 3.866368e-01 3.209348e-01 5.181229e-01 3.648269e-01 2.309031e-01 3.651532e-01 2.687000e-01 9.946451e-02
<GCONST> 8.811234e+01
<STATE> 3
<MEAN> 39
 5.032293e+00 -1.639897e+01 -6.906508e+00 -2.211536e+01 -8.939706e+00 1.804227e+01 -1.735875e+01 3.312707e+00 -8.260778e+00 3.008418e+00 -2.265307e+00 -1.372425e+01 7.755000e+01 7.286347e-02 -2.076884e-01 4.062924e-01 -2.435256e+00 -1.543610e+00 3.797357e+00 -6.431338e-01 -7.937872e-01 -6.206841e-01 -1.065906e+00 1.980695e+00 7.289255e-01 -8.157930e-02 -2.183400e-01 6.143172e-01 -9.909233e-02 8.108664e-01 -5.408927e-02 -7.891075e-01 4.835473e-01 1.845134e-01 5.136719e-01 -6.352289e-01 -3.123680e-01 7.060516e-01 -2.116088e-01
<VARIANCE> 39
 3.744292e+00 4.927564e+00 6.723796e+00 1.071957e+01 1.075318e+01 1.727368e+01 1.468100e+01 1.115163e+01 1.352165e+01 1.228170e+01 1.786149e+01 1.767742e+01 5.673628e+00 2.496451e-01 5.545828e-01 6.084118e-01 9.632012e-01 8.680444e-01 1.375114e+00 1.326311e+00 9.697610e-01 8.983886e-01 8.339645e-01 8.660431e-01 8.469121e-01 1.589935e-01 8.873558e-02 7.358924e-02 1.432217e-01 1.338765e-01 1.316268e-01 1.722747e-01 1.824580e-01 1.862330e-01 1.384698e-01 1.662813e-01 1.918424e-01 3.408992e-01 4.090505e-02
<GCONST> 7.142626e+01
<STATE> 4
<MEAN> 39
 6.108689e+00 -1.410192e+01 -8.088013e+00 -2.589103e+01 -1.434777e+01 2.636195e+01 -1.719276e+01 2.411974e+00 -7.011024e+00 -4.469552e+00 2.788520e+00 -9.557874e+00 7.620940e+01 3.258249e-01 3.098299e-01 -1.942550e-02 -4.348215e-01 -4.540124e-01 7.716078e-01 1.143954e-01 1.027501e-01 1.714747e-01 -1.106239e+00 4.355430e-01 6.729362e-01 -3.754534e-01 4.224260e-02 7.530262e-02 -2.792498e-03 2.489361e-01 2.757408e-01 -3.828070e-01 1.322991e-01 7.735725e-02 4.961315e-02 1.251203e-01 -2.833336e-01 1.303706e-02 -1.342504e-01
<VARIANCE> 39
 4.763910e+00 4.955029e+00 4.667695e+00 1.090678e+01 1.764710e+01 2.293363e+01 2.183845e+01 1.323688e+01 1.293700e+01 1.970271e+01 1.507518e+01 1.507913e+01 7.023762e+00 2.554645e-01 3.123612e-01 2.960806e-01 5.088360e-01 1.047529e+00 1.634477e+00 1.058024e+00 6.742030e-01 5.849233e-01 5.849339e-01 8.218595e-01 7.471939e-01 2.282308e-01 4.668308e-02 1.041911e-01 6.748764e-02 1.078984e-01 1.378805e-01 2.214286e-01 2.461948e-01 1.523185e-01 1.285441e-01 8.941821e-02 1.286053e-01 1.640494e-01 5.578105e-02
<GCONST> 6.786492e+01
<TRANSP> 5
 0.000000e+00 1.000000e+00 0.000000e+00 0.000000e+00 0.000000e+00
 0.000000e+00 5.441061e-01 4.558940e-01 0.000000e+00 0.000000e+00
 0.000000e+00 0.000000e+00 5.396267e-01 4.603733e-01 0.000000e+00
 0.000000e+00 0.000000e+00 0.000000e+00 8.753627e-01 1.246373e-01
 0.000000e+00 0.000000e+00 0.000000e+00 0.000000e+00 0.000000e+00
<ENDHMM>
~h "i"
<BEGINHMM>
<NUMSTATES> 5
<STATE> 2
<MEAN> 39
 1.710780e+00 -7.866980e+00 3.907771e+00 -9.409983e+00 -1.291291e+01 7.855478e-01 -1.765425e+01 3.099866e+00 -1.025778e+01 -2.765195e+00 3.519396e+00 -9.660882e+00 7.091537e+01 -2.177059e-02 7.953385e-01 -4.708335e-01 1.610896e+00 8.900090e-01 -1.368974e+00 1.509031e+00 -8.409819e-01 -2.547519e-01 -4.124521e-01 -3.672512e-01 8.685857e-01 -1.424146e+00 -4.903295e-01 1.807350e-01 -1.527453e-01 -2.932671e-01 6.645667e-02 3.948361e-03 5.737668e-01 -3.126751e-01 3.216953e-01 -8.305506e-02 -4.365560e-03 4.366471e-02 2.016327e-01
<VARIANCE> 39
 3.719743e+01 3.778513e+01 8.739134e+01 4.787347e+01 4.866942e+01 6.915316e+01 7.972760e+01 1.126590e+02 7.136976e+01 6.437919e+01 6.951564e+01 4.389441e+01 5.375385e+01 5.329529e+00 3.080015e+00 6.130865e+00 7.280350e+00 3.996145e+00 7.946742e+00 7.854369e+00 5.748711e+00 4.610423e+00 4.679589e+00 4.802466e+00 4.213222e+00 3.933799e+00 5.519457e-01 6.264329e-01 6.184900e-01 7.831824e-01 1.048384e+00 1.174488e+00 1.276548e+00 1.325652e+00 8.920795e-01 9.440469e-01 8.719403e-01 7.698482e-01 6.486331e-01
<GCONST> 1.441864e+02
<STATE> 3
<MEAN> 39
 5.671823e+00 -3.197269e+00 2.457552e+00 -2.373123e+00 -1.174619e+01 6.382514e-01 -7.980648e+00 -5.603468e+00 -1.417849e+01 -5.999160e+00 3.666225e+00 -8.715534e+00 6.242445e+01 -8.865969e-01 1.787905e+00 -8.251548e-01 4.325909e-01 7.988558e-01 -1.028256e+00 2.162006e+00 -1.075277e+00 1.050260e-01 -4.951005e-01 -6.160811e-01 1.068271e+00 -1.129091e+00 -1.048792e+00 2.831118e-01 4.093892e-01 -9.716254e-01 3.104298e-01 3.702627e-01 -1.540123e-01 3.472620e-01 4.876655e-01 1.777950e-01 -1.284476e-01 -1.002163e-01 4.968087e-01
<VARIANCE> 39
 4.559675e+01 3.278447e+01 4.259162e+01 3.777711e+01 2.545231e+01 3.460925e+01 2.470060e+01 5.232850e+01 9.627944e+01 2.398206e+01 4.195365e+01 2.459286e+01 3.616819e+01 6.437908e+00 2.824732e+00 2.123328e+00 3.675434e+00 2.961111e+00 4.964789e+00 4.205708e+00 3.065719e+00 2.933623e+00 2.153952e+00 2.241876e+00 1.587107e+00 3.203526e+00 5.654336e-01 5.300078e-01 6.454506e-01 5.891635e-01 6.801332e-01 1.024976e+00 4.478607e-01 5.050700e-01 5.636168e-01 3.531182e-01 3.243622e-01 4.190472e-01 6.866139e-01
<GCONST> 1.250594e+02
<STATE> 4
<MEAN> 39
 -5.322653e+00 -1.376561e+00 8.387208e-02 -8.740621e+00 -6.237792e+00 -4.420733e+00 -4.249105e+00 -5.649550e+00 -6.861992e+00 -5.155565e+00 5.612565e-01 -5.267225e+00 6.783517e+01 -2.622051e+00 1.106105e+00 -2.869602e-01 -3.259667e-01 2.004130e+00 -7.128147e-01 1.230561e+00 -5.112241e-02 1.042830e+00 5.274874e-02 -6.431189e-01 7.274958e-01 4.689028e-01 -1.321970e-01 -5.345519e-01 -1.154860e-01 -1.205955e-01 2.314072e-01 5.826622e-01 -7.689992e-01 5.736174e-01 2.528547e-01 3.674690e-01 -9.708571e-02 -1.172418e-01 7.104320e-02
<VARIANCE> 39
 1.182883e+02 5.045561e+01 6.867411e+01 4.480382e+01 5.059437e+01 6.376754e+01 5.482289e+01 4.101769e+01 8.715220e+01 2.602552e+01 4.383636e+01 3.049949e+01 6.227674e+01 8.606368e+00 3.643016e+00 3.554122e+00 3.797719e+00 5.309220e+00 6.525476e+00 6.231067e+00 5.198631e+00 4.536964e+00 3.194104e+00 3.843319e+00 3.164791e+00 5.387200e+00 2.423735e+00 5.348635e-01 4.828748e-01 7.047167e-01 1.087811e+00 2.295850e+00 1.308028e+00 7.266718e-01 9.697839e-01 5.963162e-01 5.884821e-01 5.405249e-01 6.839442e-01
<GCONST> 1.411568e+02
<TRANSP> 5
 0.000000e+00 1.000000e+00 0.000000e+00 0.000000e+00 0.000000e+00
 0.000000e+00 6.642568e-01 3.357432e-01 0.000000e+00 0.000000e+00
 0.000000e+00 0.000000e+00 5.764260e-01 4.235739e-01 0.000000e+00
 0.000000e+00 0.000000e+00 0.000000e+00 5.019007e-01 4.980993e-01
 0.000000e+00 0.000000e+00 0.000000e+00 0.000000e+00 0.000000e+00
<ENDHMM>
~h "j"
<BEGINHMM>
<NUMSTATES> 5
<STATE> 2
<MEAN> 39
 9.492689e-01 -7.626785e+00 -3.334260e-01 -1.430372e+01 -1.059959e+01 4.765927e+00 -1.982877e+01 4.434888e-01 -4.115797e+00 -8.506376e-02 2.607612e+00 -7.594063e+00 6.962595e+01 9.922317e-02 4.642107e-01 4.720131e-01 -1.130064e-01 4.162765e-01 -1.060340e+00 -1.670288e-01 1.777264e-01 -4.745983e-01 -2.662888e-01 -4.841413e-02 3.295374e-01 1.922458e-01 -2.224806e-01 -1.701969e-02 -8.705673e-02 -5.392703e-02 -4.482552e-03 3.587478e-02 3.367126e-01 -1.825091e-02 -2.242521e-02 -1.448442e-01 -7.550672e-02 1.948420e-01 -2.881587e-01
<VARIANCE> 39
 6.169972e+01 3.208662e+01 2.511992e+01 8.911764e+01 4.990382e+01 9.535798e+01 8.278101e+01 5.396044e+01 4.623746e+01 5.302640e+01 6.606551e+01 4.683307e+01 5.695775e+01 8.639647e+00 4.425056e+00 3.733485e+00 1.095713e+01 6.133922e+00 1.397364e+01 1.068984e+01 6.816477e+00 5.325782e+00 5.822959e+00 6.110533e+00 6.111531e+00 8.941989e+00 9.061915e-01 9.099693e-01 8.223962e-01 1.374019e+00 8.860162e-01 1.893193e+00 1.700035e+00 1.360990e+00 1.280788e+00 1.474296e+00 7.921165e-01 1.374303e+00 1.889105e+00
<GCONST> 1.517199e+02
<STATE> 3
<MEAN> 39
 -2.578276e+00 -8.383817e+00 4.060679e+00 -1.236793e+01 -1.013586e+01 -5.020833e+00 -1.787361e+01 4.814124e+00 -4.584340e-01 -4.557724e+00 -1.918636e+00 -2.676407e+00 7.165688e+01 3.671069e-01 -1.358539e+00 -9.500708e-02 -3.973060e-01 -9.098787e-01 3.948861e-02 -1.818359e-01 1.209361e+00 1.075042e+00 -6.634871e-01 -6.330991e-01 -1.184742e-01 1.431297e+00 2.333693e-01 -3.383687e-01 -3.904154e-01 -1.231707e-01 1.004785e-04 7.481229e-01 -1.291832e-01 -5.933757e-02 6.237309e-03 1.736312e-01 -4.567429e-02 -6.107564e-01 1.046637e-01
<VARIANCE> 39
 4.638457e+01 5.187294e+01 3.714840e+01 3.628389e+01 1.030186e+02 7.683537e+01 1.134927e+02 7.002935e+01 3.034003e+01 2.787626e+01 6.229011e+01 4.636092e+01 5.690438e+01 7.318807e+00 9.647242e+00 4.946146e+00 4.111809e+00 1.532230e+01 9.659912e+00 1.596070e+01 1.227189e+01 2.750332e+00 4.353389e+00 5.268974e+00 1.000374e+01 8.692422e+00 1.437082e+00 1.513597e+00 8.604011e-01 6.509961e-01 3.671405e+00 1.267597e+00 3.595526e+00 3.484154e+00 6.764628e-01 9.293046e-01 1.075696e+00 1.282430e+00 1.447600e+00
<GCONST> 1.540211e+02
<STATE> 4
<MEAN> 39
 3.297594e+00 -2.052093e+01 -6.607172e+00 -1.815084e+01 -1.096354e+01 1.376312e+01 -2.064952e+01 5.476024e+00 3.446757e+00 -1.879522e+00 -7.891656e+00 -1.198156e+01 7.842666e+01 2.385733e-01 4.938789e-01 -5.797140e-01 2.692165e-01 7.801973e-01 6.858206e-01 6.125814e-02 -9.148912e-01 -2.215114e-01 8.465728e-01 -2.547952e-01 -7.533449e-02 -1.087372e+00 -2.583555e-01 4.072757e-01 1.995265e-01 3.191635e-01 6.257907e-02 -5.767879e-01 3.480444e-01 -1.841745e-01 -5.864487e-02 -1.104784e-01 1.977019e-01 3.191990e-01 -4.628113e-01
<VARIANCE> 39
 1.015137e+01 2.415579e+01 1.838460e+01 1.475871e+01 1.585528e+01 7.082798e+01 3.652079e+01 5.218349e+01 2.623314e+01 3.097954e+01 2.230589e+01 2.243198e+01 2.551951e+01 9.630623e-01 3.727129e+00 2.245022e+00 2.787612e+00 1.355402e+00 1.352436e+01 4.731467e+00 6.129686e+00 1.759793e+00 2.093678e+00 2.122755e+00 3.989024e+00 3.832647e+00 2.790176e-01 3.826485e-01 2.596863e-01 3.266065e-01 3.662291e-01 1.103128e+00 1.086373e+00 1.622841e+00 3.908367e-01 5.619031e-01 4.874562e-01 5.760096e-01 4.796908e-01
<GCONST> 1.191216e+02
<TRANSP> 5
 0.000000e+00 1.000000e+00 0.000000e+00 0.000000e+00 0.000000e+00
 0.000000e+00 8.803148e-01 1.196852e-01 0.000000e+00 0.000000e+00
 0.000000e+00 0.000000e+00 8.665583e-01 1.334418e-01 0.000000e+00
 0.000000e+00 0.000000e+00 0.000000e+00 8.966200e-01 1.033800e-01
 0.000000e+00 0.000000e+00 0.000000e+00 0.000000e+00 0.000000e+00
<ENDHMM>
~h "l"
<BEGINHMM>
<NUMSTATES> 5
<STATE> 2
<MEAN> 39
 -1.181567e+01 1.698923e+00 -8.134476e+00 -5.741103e-01 -7.397414e+00 1.109366e-01 -5.616668e+00 -9.017432e-01 -3.505094e+00 -4.930212e+00 -5.068322e+00 -2.886749e+00 4.047482e+01 3.412102e-01 -6.940950e-02 1.041264e-01 1.603559e-01 -4.013611e-02 -5.620406e-02 5.026393e-02 2.933635e-01 1.557577e-01 -1.138389e-01 -1.540243e-01 2.234367e-01 2.743836e-01 -1.067544e-01 -1.378375e-01 7.826268e-02 8.351878e-02 -3.182397e-02 -3.326369e-02 -1.098655e-01 -1.030983e-02 -4.902442e-02 2.600368e-02 8.341263e-02 2.793937e-02 -4.021519e-02
<VARIANCE> 39
 5.973751e+01 4.180178e+01 3.307712e+01 3.604408e+01 3.144404e+01 4.170594e+01 3.762182e+01 2.897614e+01 2.450453e+01 1.613700e+01 1.881085e+01 1.564939e+01 2.482857e+01 2.981195e+00 2.259388e+00 2.230836e+00 1.991193e+00 2.593874e+00 2.783396e+00 3.434145e+00 2.574691e+00 2.352899e+00 2.073886e+00 1.964987e+00 1.569849e+00 1.209410e+00 6.642758e-01 5.057292e-01 5.024066e-01 4.532793e-01 5.498704e-01 6.731541e-01 6.614958e-01 4.893110e-01 5.280029e-01 4.489020e-01 4.054363e-01 3.496266e-01 2.573395e-01
<GCONST> 1.166470e+02
<STATE> 3
<MEAN> 39
 -1.240323e+01 1.521093e+00 -7.095912e+00 -6.796598e-01 -6.880898e+00 8.514026e-01 -6.196640e+00 -7.463503e-01 -3.840381e+00 -4.849537e+00 -4.256124e+00 -2.413829e+00 3.995673e+01 5.626981e-01 1.096647e-01 5.773605e-01 3.189914e-01 -2.280510e-01 -1.128764e-01 -1.162615e-01 3.286114e-01 2.338797e-01 -5.584119e-02 -1.449687e-01 3.042114e-01 4.713624e-01 1.773520e-01 6.918633e-03 1.846616e-01 1.302624e-01 -1.589031e-01 -5.343039e-02 -2.065564e-02 -9.363259e-02 -4.540482e-02 -6.659834e-03 -5.525267e-02 8.070885e-02 1.756231e-01
<VARIANCE> 39
 6.289260e+01 2.753058e+01 2.115796e+01 5.309605e+01 4.775201e+01 3.376234e+01 2.146469e+01 2.164202e+01 1.580662e+01 1.794503e+01 1.947820e+01 1.442540e+01 3.837534e+01 4.971066e+00 3.676296e+00 2.575320e+00 3.466140e+00 4.483767e+00 3.150370e+00 1.451484e+00 2.214798e+00 2.321895e+00 2.456497e+00 1.769656e+00 1.354423e+00 1.818939e+00 7.684566e-01 5.464827e-01 4.061255e-01 7.296692e-01 9.281169e-01 7.036824e-01 3.932326e-01 4.027798e-01 3.990975e-01 5.020431e-01 3.847300e-01 3.390842e-01 3.858720e-01
<GCONST> 1.177925e+02
<STATE> 4
<MEAN> 39
 -6.081540e+00 4.111467e+00 -5.070529e+00 5.731425e-02 -1.049427e+01 -9.632065e-01 -7.077131e+00 -6.752346e-01 -3.296657e+00 -5.053802e+00 -5.621242e+00 -1.012035e+00 4.394450e+01 1.703524e+00 -1.235187e-01 8.747953e-01 -5.180271e-02 -8.513883e-01 -3.919771e-01 -4.216050e-01 2.363960e-01 3.148187e-01 -2.941057e-01 -4.710149e-01 4.002298e-01 1.677036e+00 -1.907673e-01 -4.004773e-01 8.217940e-02 -8.191928e-02 2.040236e-02 8.923574e-02 -3.718801e-02 -2.858442e-02 -5.548005e-02 1.090274e-01 4.845239e-03 -4.966564e-02 7.564563e-02
<VARIANCE> 39
 8.179165e+01 5.605883e+01 5.470389e+01 5.725671e+01 3.270597e+01 4.228798e+01 2.744531e+01 2.355641e+01 2.096067e+01 1.950584e+01 2.954366e+01 1.472643e+01 5.474140e+01 9.206186e+00 5.522285e+00 4.634242e+00 5.136661e+00 3.595218e+00 4.653939e+00 3.695728e+00 2.894643e+00 2.465647e+00 2.697283e+00 2.848382e+00 2.062071e+00 5.947977e+00 1.541611e+00 1.153631e+00 8.347049e-01 8.895965e-01 6.825595e-01 7.111595e-01 6.070471e-01 5.478652e-01 4.710416e-01 4.875640e-01 4.783579e-01 3.674490e-01 9.583439e-01
<GCONST> 1.308887e+02
<TRANSP> 5
 0.000000e+00 1.000000e+00 0.000000e+00 0.000000e+00 0.000000e+00
 0.000000e+00 5.442519e-01 4.557482e-01 0.000000e+00 0.000000e+00
 0.000000e+00 0.000000e+00 2.286358e-01 7.713643e-01 0.000000e+00
 0.000000e+00 0.000000e+00 0.000000e+00 4.544957e-01 5.455042e-01
 0.000000e+00 0.000000e+00 0.000000e+00 0.000000e+00 0.000000e+00
<ENDHMM>
~h "n"
<BEGINHMM>
<NUMSTATES> 5
<STATE> 2
<MEAN> 39
 3.079451e+00 -1.125764e+01 -4.134975e+00 -1.829080e+01 -1.018439e+01 1.344040e+01 -2.411333e+01 5.285152e+00 -1.648974e-02 -4.279727e+00 -1.544814e+00 -1.292429e+01 7.528921e+01 -5.746178e-01 1.258191e-02 -1.018071e-01 3.531015e-01 6.317028e-02 -1.520317e+00 -1.006388e+00 2.447012e+00 1.547447e+00 -2.368760e-01 -6.951348e-01 -6.534641e-01 2.773457e-01 7.894923e-02 5.349905e-02 2.425927e-01 3.938664e-01 -7.512043e-02 -1.713282e-01 2.872799e-01 -2.790364e-02 -2.510040e-01 -3.687191e-01 3.444976e-02 3.697369e-01 -2.563588e-01
<VARIANCE> 39
 1.031459e+01 1.805354e+01 3.696847e+01 6.348664e+01 2.377267e+01 2.092671e+02 2.943205e+01 2.334038e+01 3.076111e+01 2.711488e+01 3.988021e+01 2.483785e+01 1.660726e+01 1.741115e+00 1.736441e+00 4.741496e+00 8.643557e+00 2.365693e+00 9.508439e+00 2.169643e+00 8.329710e+00 4.124594e+00 2.774403e+00 1.555185e+00 2.133186e+00 4.523006e+00 1.753391e-01 4.056343e-01 2.682473e-01 3.916939e-01 5.210103e-01 2.071953e+00 5.990776e-01 5.042944e-01 8.011389e-01 6.085439e-01 4.747117e-01 8.739448e-01 1.655720e-01
<GCONST> 1.227034e+02
<STATE> 3
<MEAN> 39
 5.104880e-01 -1.212462e+01 4.724923e-01 -1.264534e+01 -1.203014e+01 2.823860e+00 -2.536499e+01 1.449157e+01 5.032404e+00 -1.059593e+01 -5.142686e+00 -1.167081e+01 7.588411e+01 -2.798003e-02 -3.199680e-01 2.551430e-01 4.102046e-01 -5.004062e-01 1.020378e+00 8.241313e-01 1.138620e+00 -1.020896e+00 -1.865508e+00 2.825647e-01 6.541376e-01 -5.551581e-01 5.975555e-01 2.410310e-01 4.811823e-02 6.615266e-01 1.322661e-01 5.903798e-01 7.751606e-01 -1.701653e+00 -1.170360e+00 2.091900e-01 2.265437e-01 1.899568e-01 -8.836616e-01
<VARIANCE> 39
 6.350677e+00 1.609072e+01 2.032178e+01 1.753242e+01 1.974234e+01 1.972895e+01 2.121589e+01 3.006733e+01 2.990766e+01 4.076344e+01 3.538909e+01 1.589160e+01 1.595286e+01 1.239112e+00 5.463468e+00 5.372442e+00 4.028018e+00 2.523458e+00 1.073988e+01 2.899981e+00 1.126632e+01 6.946240e+00 2.482373e+00 1.779129e+00 5.087711e+00 4.309447e+00 1.132379e-01 2.231269e-01 6.805080e-01 6.020753e-01 5.322233e-01 9.420270e-01 3.846656e-01 5.288207e-01 5.195055e-01 6.633696e-01 3.493593e-01 3.676811e-01 1.911096e-01
<GCONST> 1.174690e+02
<STATE> 4
<MEAN> 39
 6.592679e+00 -5.264996e+00 2.430014e+00 -4.119465e+00 -1.038587e+01 3.461281e+00 -1.705747e+01 -1.098770e+00 -7.012498e+00 -1.071682e+01 -1.397666e+00 -5.781733e+00 6.556632e+01 8.904099e-01 6.101320e-01 -5.323552e-01 1.233701e+00 4.910564e-01 1.154130e-01 1.224870e+00 -1.902500e+00 -1.666425e+00 -3.347834e-01 4.588934e-01 7.452422e-01 -1.359969e+00 -5.211861e-01 -2.794257e-01 3.718797e-01 -6.145127e-01 -4.574860e-01 2.803901e-01 -4.688506e-01 6.716998e-01 3.252473e-01 8.636664e-02 3.672871e-01 -3.788477e-01 5.730433e-01
<VARIANCE> 39
 1.828571e+01 5.101611e+01 2.163190e+01 3.625742e+01 1.959021e+01 1.615113e+01 2.720423e+01 1.181266e+02 4.483952e+01 2.230846e+01 3.016804e+01 2.468098e+01 3.963667e+01 1.546105e+00 2.307744e+00 1.758212e+00 2.420657e+00 1.589828e+00 2.526586e+00 3.052911e+00 8.579456e+00 2.779373e+00 3.511119e+00 2.524215e+00 1.574560e+00 1.954139e+00 4.911177e-01 3.725970e-01 1.003150e+00 7.065843e-01 7.205666e-01 6.853883e-01 4.863102e-01 1.585054e+00 5.668752e-01 6.072940e-01 5.003285e-01 3.655697e-01 4.787009e-01
<GCONST> 1.214073e+02
<TRANSP> 5
 0.000000e+00 1.000000e+00 0.000000e+00 0.000000e+00 0.000000e+00
 0.000000e+00 6.322748e-01 3.677252e-01 0.000000e+00 0.000000e+00
 0.000000e+00 0.000000e+00 6.284026e-01 3.715974e-01 0.000000e+00
 0.000000e+00 0.000000e+00 0.000000e+00 6.457116e-01 3.542884e-01
 0.000000e+00 0.000000e+00 0.000000e+00 0.000000e+00 0.000000e+00
<ENDHMM>
~h "o"
<BEGINHMM>
<NUMSTATES> 5
<STATE> 2
<MEAN> 39
 -1.389395e+01 -1.058359e+00 -7.690554e+00 8.373345e-01 -5.238079e+00 1.537431e+00 -3.540247e+00 -1.908744e-01 -6.033252e+00 -4.078260e+00 -3.738554e+00 -3.591080e+00 3.956362e+01 -4.063329e-01 2.316266e-02 -2.699140e-01 -1.690821e-01 1.110427e-01 5.189057e-01 6.729313e-02 -4.135717e-01 6.214643e-02 2.836386e-01 2.281820e-01 -1.604458e-01 -3.874071e-01 2.548589e-01 -1.304520e-02 1.105666e-01 -1.270250e-01 -2.317910e-01 -2.873674e-01 -1.221397e-01 2.307581e-02 6.567153e-02 -1.233763e-01 -9.162710e-02 1.526363e-01 3.613819e-01
<VARIANCE> 39
 7.697674e+00 9.655500e+00 1.310364e+01 1.412604e+01 1.315529e+01 1.094219e+01 1.665913e+01 1.863501e+01 1.784047e+01 1.447224e+01 1.620076e+01 1.234850e+01 5.379230e+00 1.982115e+00 1.810451e+00 1.441079e+00 1.559785e+00 1.530136e+00 1.977747e+00 2.100884e+00 2.047651e+00 1.937650e+00 1.954762e+00 1.751338e+00 1.403152e+00 6.940343e-01 3.056951e-01 4.146668e-01 2.835842e-01 3.612644e-01 3.487765e-01 3.586445e-01 3.889278e-01 4.178448e-01 4.041753e-01 3.561084e-01 3.449369e-01 2.997704e-01 2.220135e-01
<GCONST> 9.701635e+01
<STATE> 3
<MEAN> 39
 -1.502837e+01 -6.078995e-01 -8.430430e+00 -2.300161e-02 -6.062708e+00 1.620878e+00 -5.030119e+00 -1.618548e+00 -5.107642e+00 -3.705027e+00 -3.258205e+00 -3.104703e+00 3.824903e+01 1.116500e+00 -2.038374e-01 1.054120e+00 -9.287259e-01 -6.634416e-01 1.750192e-01 -4.761640e-01 -2.791341e-01 1.138392e+00 1.109104e-01 3.068287e-01 4.002184e-01 3.146496e+00 7.519469e-01 -8.482005e-02 4.393144e-01 -3.964905e-01 -1.522666e-01 -1.778761e-01 -4.362448e-01 -7.835840e-02 2.550786e-01 -5.114042e-02 1.792557e-01 -9.089608e-02 1.747030e+00
<VARIANCE> 39
 8.035044e+00 1.355323e+01 1.165981e+01 9.270382e+00 1.014875e+01 1.416207e+01 1.655037e+01 1.314509e+01 1.541680e+01 1.482090e+01 1.387736e+01 1.291417e+01 3.358415e+00 6.866428e+00 9.474470e+00 3.399895e+00 2.701188e+00 2.794833e+00 2.751054e+00 3.092748e+00 2.204032e+00 2.968135e+00 2.049417e+00 1.509429e+00 1.858740e+00 1.168835e+01 6.184382e-01 5.678282e-01 5.168135e-01 3.720559e-01 3.995530e-01 4.605207e-01 4.705904e-01 3.778900e-01 5.650367e-01 3.688313e-01 3.548496e-01 3.338472e-01 1.596279e+00
<GCONST> 1.095313e+02
<STATE> 4
<MEAN> 39
 -6.914448e+00 4.070631e+00 -4.797763e+00 -3.257275e+00 -8.699158e+00 -4.490598e-01 -6.835927e+00 -3.252174e+00 -3.441112e+00 -3.728930e+00 -2.105385e+00 -2.346375e+00 4.727073e+01 1.912100e+00 2.504135e-01 8.786387e-01 -9.307180e-01 -5.057282e-01 -4.999322e-01 -1.068520e+00 -3.773560e-01 2.276928e-01 -3.876578e-01 1.629614e-01 -9.462959e-02 3.263628e+00 -4.046242e-01 -2.986996e-01 -2.641339e-01 1.230415e-01 1.806612e-01 1.979399e-01 -1.478351e-01 -2.629406e-02 -3.267146e-01 -6.086770e-02 1.185549e-01 -1.492693e-01 -4.624472e-01
<VARIANCE> 39
 1.219797e+02 1.477546e+02 4.274603e+01 4.680952e+01 4.804989e+01 4.791421e+01 4.434330e+01 3.062551e+01 3.208754e+01 2.461064e+01 2.040968e+01 1.627470e+01 7.429973e+01 8.085920e+00 6.593882e+00 4.283135e+00 4.767585e+00 4.038233e+00 4.087880e+00 4.072252e+00 2.539877e+00 3.772577e+00 1.811315e+00 2.414788e+00 1.634818e+00 1.844398e+01 2.416669e+00 1.874046e+00 7.180868e-01 9.699998e-01 8.774544e-01 8.387793e-01 8.614920e-01 5.807441e-01 6.327555e-01 4.214366e-01 5.872087e-01 4.646713e-01 8.866780e-01
<GCONST> 1.365704e+02
<TRANSP> 5
 0.000000e+00 1.000000e+00 0.000000e+00 0.000000e+00 0.000000e+00
 0.000000e+00 6.657478e-01 3.342523e-01 0.000000e+00 0.000000e+00
 0.000000e+00 0.000000e+00 4.766084e-01 5.233917e-01 0.000000e+00
 0.000000e+00 0.000000e+00 0.000000e+00 4.797710e-01 5.202290e-01
 0.000000e+00 0.000000e+00 0.000000e+00 0.000000e+00 0.000000e+00
<ENDHMM>
~h "q"
<BEGINHMM>
<NUMSTATES> 5
<STATE> 2
<MEAN> 39
 6.230164e+00 -7.871359e+00 -4.406734e+00 -9.236555e+00 -7.859796e+00 5.724127e+00 -2.024674e+01 2.884870e+00 -8.486915e+00 -6.935132e+00 3.688458e+00 -1.660840e+01 6.567767e+01 -4.903724e-01 1.285572e+00 1.359925e+00 3.300061e-01 -6.330048e-02 -1.485086e+00 6.287924e-01 -1.084321e+00 -4.332578e-01 1.706357e+00 -2.310865e+00 8.826777e-01 -1.842376e+00 -2.616551e-01 1.679519e-01 1.792132e-01 -3.106475e-01 -1.493790e-01 5.669634e-01 2.520119e-01 -2.622441e-01 -3.093061e-01 5.312992e-02 3.275793e-01 -1.914626e-02 -8.674387e-03
<VARIANCE> 39
 9.622836e+00 3.342110e+01 3.117825e+01 2.062252e+01 2.289766e+01 3.378439e+01 4.371176e+01 4.102768e+01 3.917733e+01 2.997201e+01 4.359672e+01 3.272970e+01 4.321700e+01 8.974964e-01 2.014132e+00 4.664836e+00 1.835627e+00 3.234492e+00 2.846799e+00 3.970317e+00 3.828658e+00 3.827258e+00 2.341729e+00 3.294230e+00 2.010921e+00 1.101838e+00 1.214361e-01 3.412471e-01 6.215684e-01 3.350918e-01 5.544853e-01 4.997973e-01 8.970634e-01 8.264071e-01 7.422051e-01 4.150333e-01 7.986598e-01 5.326180e-01 1.373484e-01
<GCONST> 1.176666e+02
<STATE> 3
<MEAN> 39
 -1.060716e+00 1.276822e+00 7.543011e+00 -1.198548e+01 -9.463068e+00 6.083852e+00 -1.320538e+01 -5.265024e+00 -1.722489e+01 2.233591e+00 3.836406e-01 -1.550551e+01 5.617964e+01 -6.979548e-01 7.748913e-01 3.217786e+00 -1.515034e+00 -1.006018e+00 1.029482e+00 3.830863e-01 -4.032126e-01 -1.918455e+00 4.201689e-01 1.266364e+00 -6.216460e-01 3.998770e-01 4.735937e-02 -1.830499e-01 1.247125e-02 -1.441861e-01 -2.071482e-01 2.847071e-02 -3.247710e-01 5.000049e-01 2.293711e-01 -5.351397e-01 3.510913e-01 3.350109e-02 4.643353e-01
<VARIANCE> 39
 3.318585e+01 3.747057e+01 1.570359e+02 4.859090e+01 5.345636e+01 3.892849e+01 3.736871e+01 4.461149e+01 7.854731e+01 4.117548e+01 3.873745e+01 4.849651e+01 6.366741e+01 2.356485e+00 2.405381e+00 7.725311e+00 4.003018e+00 5.382567e+00 4.127594e+00 4.472668e+00 7.130417e+00 5.093658e+00 4.745796e+00 3.775593e+00 2.729588e+00 3.414937e+00 3.956370e-01 4.593022e-01 1.614123e+00 7.151763e-01 1.072860e+00 7.649449e-01 7.277984e-01 8.955077e-01 1.062814e+00 6.686537e-01 7.075741e-01 6.067378e-01 2.827800e-01
<GCONST> 1.364138e+02
<STATE> 4
<MEAN> 39
 -3.997781e+00 4.082925e-01 2.228170e+01 -1.962562e+01 -2.452220e+01 1.262051e+01 -1.344887e+01 -2.009523e+00 -1.738759e+01 -5.054089e+00 1.162784e+01 -1.563023e+01 7.027087e+01 2.465829e-01 -3.404965e-01 -6.521629e-01 6.301874e-01 1.403548e-02 1.508860e-02 2.022552e-01 -2.822523e-01 4.829628e-01 -5.449815e-01 2.233569e-01 2.483692e-01 3.218187e-01 2.669523e-01 -5.571079e-02 -3.938596e-01 4.436117e-01 2.926434e-01 -3.225168e-01 5.017860e-02 -8.723902e-02 -4.671660e-02 6.958185e-02 -2.312469e-01 1.038485e-01 -2.526271e-01
<VARIANCE> 39
 7.508146e+00 1.428721e+01 2.062006e+01 2.213801e+01 4.517537e+01 3.521056e+01 1.700189e+01 3.860034e+01 3.848527e+01 3.176887e+01 2.214301e+01 2.415395e+01 1.480801e+01 1.640455e+00 1.485039e+00 2.101092e+00 3.867231e+00 6.004816e+00 4.112651e+00 1.346357e+00 2.844554e+00 2.272644e+00 1.692616e+00 2.112295e+00 2.276956e+00 1.697519e+00 1.448721e-01 2.132628e-01 2.931285e-01 5.698291e-01 4.699039e-01 7.087321e-01 3.022625e-01 3.993278e-01 4.024881e-01 2.820812e-01 3.188282e-01 4.665515e-01 8.410057e-02
<GCONST> 1.083648e+02
<TRANSP> 5
 0.000000e+00 1.000000e+00 0.000000e+00 0.000000e+00 0.000000e+00
 0.000000e+00 8.166891e-01 1.833109e-01 0.000000e+00 0.000000e+00
 0.000000e+00 0.000000e+00 8.440965e-01 1.559035e-01 0.000000e+00
 0.000000e+00 0.000000e+00 0.000000e+00 9.247010e-01 7.529897e-02
 0.000000e+00 0.000000e+00 0.000000e+00 0.000000e+00 0.000000e+00
<ENDHMM>
~h "s"
<BEGINHMM>
<NUMSTATES> 5
<STATE> 2
<MEAN> 39
 -3.953932e+00 -3.587950e+00 -5.150090e+00 -8.145313e+00 -1.190811e+01 2.376685e+00 -5.417315e+00 -2.372591e+00 -7.503778e-02 -3.632505e+00 -6.997202e+00 -6.047850e-01 6.147921e+01 2.017498e+00 -4.293759e-01 1.690274e+00 -1.070062e+00 -8.309643e-01 5.831653e-01 -1.038981e+00 7.552043e-02 6.071473e-01 -2.544993e-02 -4.646907e-01 5.155872e-01 2.176020e+00 2.476047e-01 -4.432537e-01 1.649674e-01 -4.316133e-01 3.393484e-02 1.409140e-01 -8.437620e-01 2.971840e-01 -2.649063e-02 2.679654e-01 2.556158e-02 -3.497843e-01 2.932646e-01
<VARIANCE> 39
 4.841797e+01 4.487550e+01 5.465979e+01 2.419534e+02 4.585851e+01 1.078120e+02 6.054538e+01 4.632710e+01 1.957199e+01 2.713295e+01 6.290837e+01 2.919679e+01 3.975794e+02 6.711272e+00 3.832288e+00 4.854559e+00 7.263411e+00 2.541786e+00 4.788235e+00 5.876843e+00 3.603470e+00 2.171782e+00 4.007050e+00 2.903609e+00 2.235591e+00 7.980333e+00 7.113571e-01 6.918144e-01 3.162542e-01 1.255279e+00 8.161495e-01 1.104465e+00 1.139525e+00 7.821923e-01 2.802922e-01 5.106615e-01 4.938107e-01 4.853061e-01 1.353604e+00
<GCONST> 1.386234e+02
<STATE> 3
<MEAN> 39
 2.851871e+00 -1.967951e+00 4.775229e+00 -1.003828e+01 -1.661397e+01 6.366662e+00 -1.203895e+01 -8.066312e-01 1.009547e+00 -5.816832e+00 -6.027021e+00 -7.087891e-01 6.111116e+01 3.180337e+00 -2.139437e+00 2.058485e+00 -2.950009e+00 -1.667297e+00 1.111213e+00 -3.271314e+00 -2.668071e-01 4.870852e-01 9.318706e-01 -3.864716e-01 -3.108920e-01 4.462089e+00 -4.187444e-01 -5.824844e-01 -9.181805e-01 -1.749197e-01 3.426861e-01 -4.474422e-01 -2.439083e-01 4.800452e-01 -4.788844e-01 3.411511e-01 1.083371e-02 -3.972859e-01 9.336405e-02
<VARIANCE> 39
 6.502436e+01 1.129162e+02 6.681314e+01 2.957116e+02 4.153868e+01 1.099478e+02 3.206700e+01 3.653889e+01 2.482981e+01 5.393980e+01 6.572061e+01 1.712127e+01 1.363918e+02 7.443777e+00 5.807678e+00 5.777728e+00 1.289229e+01 3.764610e+00 1.031432e+01 6.684292e+00 4.562198e+00 2.436634e+00 4.585742e+00 4.375019e+00 1.752302e+00 1.198966e+01 1.416257e+00 1.892621e+00 7.408853e-01 1.876642e+00 5.309370e-01 9.532138e-01 6.478467e-01 8.028533e-01 2.070607e-01 5.647570e-01 6.907399e-01 3.534469e-01 9.016305e-01
<GCONST> 1.435135e+02
<STATE> 4
<MEAN> 39
 8.867702e+00 -6.024614e+00 5.138706e+00 -2.356332e+01 -1.997037e+01 1.221259e+01 -1.808845e+01 -8.410282e-01 -1.196180e+00 -3.868201e+00 -4.251317e+00 -1.400795e+00 6.985434e+01 4.883822e-01 -2.937448e+00 9.573397e-02 -2.414828e+00 -5.056646e-02 3.709245e-01 -1.797203e+00 1.444607e+00 -9.559929e-01 1.209012e+00 1.013879e-01 -8.514202e-01 3.062223e+00 -8.295211e-01 2.612914e-02 -6.892523e-01 5.521142e-01 5.651418e-01 -1.140904e-01 4.947501e-01 6.490977e-01 -2.862236e-01 5.240352e-02 1.563199e-01 -3.612465e-01 -5.522212e-01
<VARIANCE> 39
 1.262114e+01 3.696573e+01 2.933643e+01 2.704740e+02 2.664745e+01 1.301444e+02 1.854712e+01 2.395562e+01 2.978382e+01 4.286877e+01 7.896960e+01 1.590960e+01 2.485746e+01 2.260829e+00 3.649298e+00 1.889848e+00 7.222427e+00 2.671061e+00 3.257347e+00 6.366735e+00 3.481316e+00 2.181540e+00 1.346035e+00 1.468359e+00 2.562205e+00 9.313824e+00 7.930316e-01 3.821224e-01 4.009562e-01 1.536235e+00 1.437348e-01 9.832077e-01 6.491222e-01 1.178045e+00 4.174665e-01 6.783577e-01 5.735409e-01 4.966084e-01 3.976983e-01
<GCONST> 1.258272e+02
<TRANSP> 5
 0.000000e+00 1.000000e+00 0.000000e+00 0.000000e+00 0.000000e+00
 0.000000e+00 5.420828e-01 4.579172e-01 0.000000e+00 0.000000e+00
 0.000000e+00 0.000000e+00 2.740639e-01 7.259361e-01 0.000000e+00
 0.000000e+00 0.000000e+00 0.000000e+00 4.920808e-01 5.079192e-01
 0.000000e+00 0.000000e+00 0.000000e+00 0.000000e+00 0.000000e+00
<ENDHMM>
~h "t"
<BEGINHMM>
<NUMSTATES> 5
<STATE> 2
<MEAN> 39
 4.625000e+00 -6.325524e+00 -1.097543e+01 -1.649260e+01 3.713218e-01 1.486727e+01 -1.561734e+01 5.238261e+00 -4.898098e+00 -5.375542e+00 -2.935905e+00 -5.254524e+00 7.130984e+01 7.752770e-01 -7.234100e-01 -6.679478e-01 -7.796783e-01 -4.778816e-01 1.563519e+00 -3.501171e-01 -3.725796e-01 -1.286110e+00 2.379286e-01 4.762971e-01 -6.226920e-01 1.923820e-01 -4.043659e-01 -2.359847e-02 5.121138e-02 2.913087e-01 -1.611633e-01 -5.474259e-01 6.118660e-01 -5.684006e-01 2.691573e-02 -1.395768e-01 2.035467e-01 -1.236305e-02 -2.048033e-01
<VARIANCE> 39
 1.897986e+01 1.423088e+01 3.956213e+01 2.889500e+01 1.581151e+01 3.044758e+01 5.427194e+01 2.881961e+01 3.923269e+01 7.333025e+01 6.546358e+01 2.865760e+01 5.349194e+01 1.001951e+00 1.715029e+00 9.366649e-01 2.719439e+00 2.046144e+00 7.793458e+00 6.258310e+00 2.695875e+00 1.781401e+00 3.143550e+00 3.025949e+00 1.539470e+00 1.801201e+00 1.850884e-01 2.790602e-01 2.259937e-01 3.286186e-01 3.222985e-01 7.692193e-01 7.518779e-01 5.772355e-01 4.890883e-01 3.722290e-01 6.386622e-01 3.864367e-01 2.185894e-01
<GCONST> 1.158355e+02
<STATE> 3
<MEAN> 39
 8.991351e+00 -1.913923e+00 -1.780903e+01 -1.107294e+01 -1.445954e-01 1.243928e+01 -4.847239e+00 -1.921760e-01 -1.155902e+01 -8.760462e+00 8.248953e-01 -6.766537e+00 6.081655e+01 -6.835564e-01 8.825543e-01 5.017474e-01 9.143379e-01 9.662934e-03 -6.748232e-02 1.547776e+00 -7.515098e-01 -2.253597e-01 9.902557e-01 -1.187577e+00 5.081128e-01 -1.413598e+00 -4.696604e-01 6.551938e-02 3.992419e-01 1.858066e-01 2.669910e-02 2.842438e-01 -2.650435e-02 5.370458e-02 4.803585e-01 -2.079089e-01 -1.062646e-02 1.058270e-01 -2.035912e-01
<VARIANCE> 39
 1.250041e+01 2.865987e+01 1.928317e+01 2.543816e+01 1.153148e+01 2.015813e+01 5.168972e+01 1.913046e+01 2.549074e+01 2.170206e+01 2.230399e+01 1.786105e+01 5.464324e+01 1.582618e+00 2.691247e+00 1.727674e+00 1.615143e+00 1.795110e+00 2.178143e+00 2.871982e+00 1.813234e+00 2.303809e+00 2.456655e+00 3.153851e+00 1.839360e+00 2.083313e+00 1.578569e-01 3.414759e-01 1.783480e-01 2.236416e-01 2.492813e-01 2.955219e-01 3.127516e-01 3.212326e-01 2.371295e-01 2.722747e-01 3.776600e-01 2.690204e-01 1.649768e-01
<GCONST> 1.042403e+02
<STATE> 4
<MEAN> 39
 -1.390083e+00 6.691417e-01 -1.263912e+01 -4.647018e+00 1.641282e+00 1.429159e+01 1.679541e+00 -3.096833e-01 -8.130444e+00 -6.488163e+00 -4.564362e+00 -4.064001e+00 5.057224e+01 -1.999956e+00 -5.290086e-01 6.242467e-01 5.906620e-01 -2.989777e-01 -2.074495e-03 4.241241e-01 3.107441e-01 6.848548e-01 1.166121e-01 -2.254918e-01 1.642875e-01 -1.355674e+00 8.309250e-02 -1.961777e-01 -5.949395e-02 -2.502012e-01 -2.778605e-01 -3.322583e-01 -4.967751e-01 1.306767e-01 8.944397e-03 -4.330564e-02 2.373535e-01 -1.499656e-01 2.275278e-01
<VARIANCE> 39
 3.177457e+01 4.098198e+01 1.719658e+01 4.176020e+01 1.849589e+01 2.261221e+01 6.960233e+01 1.788232e+01 1.797511e+01 1.597627e+01 1.560725e+01 1.277910e+01 1.065354e+02 2.311814e+00 2.129352e+00 1.761608e+00 2.133352e+00 2.384530e+00 3.092845e+00 3.393936e+00 1.939082e+00 1.858000e+00 1.705839e+00 1.946764e+00 1.457975e+00 1.223254e+00 2.732901e-01 5.388243e-01 4.081144e-01 3.376297e-01 3.144307e-01 4.088962e-01 4.805102e-01 4.451490e-01 4.114346e-01 3.565218e-01 3.326640e-01 2.578809e-01 1.079196e-01
<GCONST> 1.093179e+02
<TRANSP> 5
 0.000000e+00 1.000000e+00 0.000000e+00 0.000000e+00 0.000000e+00
 0.000000e+00 5.577068e-01 4.422933e-01 0.000000e+00 0.000000e+00
 0.000000e+00 0.000000e+00 6.848702e-01 3.151298e-01 0.000000e+00
 0.000000e+00 0.000000e+00 0.000000e+00 7.369465e-01 2.630536e-01
 0.000000e+00 0.000000e+00 0.000000e+00 0.000000e+00 0.000000e+00
<ENDHMM>
~h "u"
<BEGINHMM>
<NUMSTATES> 5
<STATE> 2
<MEAN> 39
 -8.981295e+00 -1.658871e+01 -8.924489e+00 1.521967e+00 -1.558172e+01 -5.099625e+00 6.135873e+00 1.196734e+01 -6.559297e+00 -9.613622e+00 -9.343213e+00 -2.559776e+00 5.026000e+01 1.505343e-01 1.477208e+00 5.552791e-02 1.628792e-01 1.512040e-01 -1.269998e+00 -6.024778e-01 -9.097273e-01 -6.994977e-01 -6.698332e-01 1.152962e-01 1.146813e+00 -5.550178e-01 2.848966e-01 8.396335e-01 3.547992e-01 -2.837306e-01 6.169062e-01 3.680114e-01 -9.353474e-01 -3.577984e-01 2.484447e-01 4.183906e-02 1.169802e-01 -5.796854e-02 3.832420e-02
<VARIANCE> 39
 6.235278e+00 1.583727e+01 1.360873e+01 1.250763e+01 2.536970e+01 1.772329e+01 3.545421e+01 2.866510e+01 2.225035e+01 1.890914e+01 1.677653e+01 1.924217e+01 1.097830e+01 8.003382e-01 2.202662e+00 1.404125e+00 1.853983e+00 2.658910e+00 3.080309e+00 3.475896e+00 2.432626e+00 2.772290e+00 2.195091e+00 2.124465e+00 1.873590e+00 8.825877e-01 2.065028e-01 3.600143e-01 3.320865e-01 2.899464e-01 3.795953e-01 5.195373e-01 7.734188e-01 6.105915e-01 4.498519e-01 5.293708e-01 4.464872e-01 4.922293e-01 2.236541e-01
<GCONST> 1.057171e+02
<STATE> 3
<MEAN> 39
 -6.792998e+00 -7.605382e+00 -6.064614e+00 1.018263e+00 -1.116452e+01 -6.267406e+00 6.464196e-01 8.223704e+00 -6.517189e+00 -1.049661e+01 -9.365379e+00 7.858242e-01 4.899524e+01 8.939824e-01 4.111830e+00 1.270412e+00 -1.832846e-01 1.817583e+00 -2.517676e-01 -2.672281e+00 -2.393752e+00 -2.849481e-01 6.117385e-01 4.320533e-01 1.426757e-01 -7.079787e-01 -1.189000e-01 1.315777e-02 -8.326280e-02 9.731724e-03 1.495384e-01 4.817663e-01 -5.044382e-02 -2.251890e-01 -2.876807e-02 4.825903e-01 3.778455e-01 -6.380755e-01 -1.472137e-01
<VARIANCE> 39
 1.926332e+01 2.792532e+01 2.070031e+01 1.892207e+01 1.925006e+01 2.332657e+01 2.866895e+01 2.880837e+01 2.583948e+01 1.985849e+01 1.600983e+01 2.014762e+01 1.552797e+01 3.104012e+00 2.573269e+00 1.953399e+00 2.811616e+00 3.239217e+00 4.358552e+00 4.573005e+00 3.772413e+00 1.944613e+00 2.421592e+00 2.608350e+00 3.501276e+00 1.721752e+00 4.286232e-01 4.671655e-01 4.041066e-01 4.140982e-01 6.422800e-01 8.564964e-01 6.867851e-01 6.152467e-01 4.803791e-01 4.687713e-01 3.992587e-01 5.680017e-01 2.762801e-01
<GCONST> 1.159837e+02
<STATE> 4
<MEAN> 39
 -2.107036e+00 4.531398e+00 -2.423693e+00 6.825605e-01 -7.406799e+00 -6.065333e+00 -7.276445e+00 -2.365586e-02 -7.571864e+00 -5.981202e+00 -5.229974e+00 -1.937195e+00 4.830072e+01 -9.650556e-01 1.246153e+00 6.015057e-02 3.587639e-01 1.131910e+00 1.606760e+00 -3.941660e-01 -1.100514e+00 2.029029e-01 9.392948e-01 1.035285e+00 -8.106207e-01 -1.464701e+00 -7.062106e-01 -1.156332e+00 -4.946407e-01 -5.733412e-03 -2.759434e-01 4.769633e-01 8.144722e-01 4.755843e-01 1.866351e-01 -1.463035e-02 -6.332971e-02 -7.380825e-02 -1.816561e-01
<VARIANCE> 39
 4.692177e+01 3.613826e+01 2.925319e+01 2.945752e+01 2.092380e+01 3.542574e+01 2.929728e+01 2.910788e+01 2.208793e+01 2.153641e+01 1.720258e+01 2.042022e+01 1.979210e+01 4.247803e+00 4.907891e+00 3.493727e+00 2.479373e+00 3.159708e+00 3.566789e+00 4.531422e+00 3.517286e+00 2.263675e+00 2.621301e+00 1.711481e+00 2.613707e+00 1.636870e+00 5.317004e-01 5.643141e-01 6.317306e-01 6.576254e-01 6.065680e-01 9.568823e-01 8.649517e-01 6.220936e-01 3.738610e-01 5.460905e-01 4.052823e-01 6.266440e-01 2.761785e-01
<GCONST> 1.209070e+02
<TRANSP> 5
 0.000000e+00 1.000000e+00 0.000000e+00 0.000000e+00 0.000000e+00
 0.000000e+00 7.138146e-01 2.861854e-01 0.000000e+00 0.000000e+00
 0.000000e+00 0.000000e+00 5.563653e-01 4.436347e-01 0.000000e+00
 0.000000e+00 0.000000e+00 0.000000e+00 6.589479e-01 3.410521e-01
 0.000000e+00 0.000000e+00 0.000000e+00 0.000000e+00 0.000000e+00
<ENDHMM>
~h "w"
<BEGINHMM>
<NUMSTATES> 5
<STATE> 2
<MEAN> 39
 -1.765816e+01 -3.561777e-01 -1.087917e+01 4.171315e-01 -8.370265e+00 9.143115e-01 -7.569158e+00 -2.531256e+00 -4.792737e+00 -4.107177e+00 -3.228343e+00 -3.657877e+00 3.442361e+01 5.033513e-02 -4.352712e-02 2.098899e-02 -4.254900e-02 9.211466e-03 -4.766806e-02 -1.704149e-02 4.520573e-03 -4.573464e-03 2.171014e-02 -1.555593e-02 3.205600e-02 8.219231e-02 -5.074964e-04 -2.683756e-03 -1.923830e-03 -1.107286e-02 -5.484416e-03 -4.295851e-03 6.325694e-03 3.945716e-03 4.011676e-03 -5.753817e-04 -4.840204e-03 -4.750304e-03 3.301826e-03
<VARIANCE> 39
 1.843601e+00 2.638030e+00 5.496795e+00 6.506225e+00 8.697840e+00 1.003730e+01 1.023614e+01 1.109219e+01 1.314286e+01 1.125635e+01 1.169346e+01 1.116060e+01 2.688735e+00 1.303914e-01 2.560066e-01 4.709966e-01 6.861478e-01 8.470870e-01 1.024909e+00 1.106123e+00 1.152409e+00 1.316096e+00 1.343162e+00 1.377468e+00 1.276478e+00 4.434189e-02 2.536026e-02 5.090858e-02 9.681325e-02 1.427585e-01 1.773263e-01 2.164452e-01 2.237267e-01 2.315056e-01 2.723441e-01 2.806563e-01 2.866432e-01 2.621844e-01 7.831456e-03
<GCONST> 6.332131e+01
<STATE> 3
<MEAN> 39
 -1.502975e+01 -2.165362e+00 -1.238510e+01 -1.308294e+00 -8.944959e+00 -1.854118e+00 -8.810514e+00 -1.396172e+00 -3.024780e+00 -3.531089e+00 -4.517706e+00 -4.070019e+00 3.744683e+01 -4.159729e-02 2.139587e-03 9.014864e-02 2.476663e-02 6.370281e-02 5.036929e-02 5.796781e-02 -4.060687e-02 -8.044760e-02 -3.045397e-04 1.723161e-02 2.093306e-02 4.705922e-03 -9.772625e-03 1.951114e-02 2.606272e-02 2.040714e-02 2.857950e-02 3.144176e-02 1.711247e-02 7.253159e-04 -5.736104e-03 -2.093958e-03 1.356465e-02 3.044981e-03 -8.801831e-03
<VARIANCE> 39
 3.447742e+00 4.237471e+00 7.902926e+00 7.159345e+00 9.873329e+00 1.241776e+01 1.355890e+01 1.467625e+01 1.584057e+01 1.193506e+01 1.055469e+01 1.108011e+01 2.688735e+00 1.671988e-01 2.877895e-01 4.889204e-01 6.563422e-01 8.108475e-01 1.055146e+00 1.226550e+00 1.344705e+00 1.344717e+00 1.223464e+00 1.054652e+00 1.150434e+00 8.324878e-02 2.927661e-02 5.644746e-02 9.294672e-02 1.339759e-01 1.568754e-01 2.087859e-01 2.555588e-01 2.766139e-01 2.727948e-01 2.580603e-01 2.076487e-01 2.379092e-01 1.091889e-02
<GCONST> 6.683051e+01
<STATE> 4
<MEAN> 39
 -1.760689e+01 -9.617997e-01 -9.394499e+00 6.399414e-01 -6.477170e+00 1.386086e+00 -6.498681e+00 -2.391088e+00 -5.492191e+00 -4.100883e+00 -3.025548e+00 -3.330989e+00 3.578397e+01 4.310855e-01 4.089994e-01 2.504607e-01 1.667907e-01 2.891580e-01 2.127369e-01 2.247429e-01 2.231763e-01 1.102599e-02 -5.750058e-02 -2.349790e-02 -3.022657e-02 2.018166e-01 4.784454e-01 4.356646e-01 1.898996e-01 -7.701202e-02 5.779394e-03 4.998817e-02 7.547720e-02 1.831654e-03 3.143447e-02 1.156279e-02 4.745359e-03 5.881753e-02 2.502013e-01
<VARIANCE> 39
 2.125878e+00 3.753556e+00 7.239734e+00 6.633662e+00 8.121493e+00 8.271774e+00 9.337124e+00 1.360881e+01 1.300314e+01 1.355663e+01 1.238823e+01 1.354120e+01 2.688735e+00 7.068805e-01 6.574318e-01 7.725218e-01 1.082458e+00 1.118266e+00 9.866350e-01 1.419497e+00 1.498584e+00 1.473737e+00 1.568481e+00 1.214203e+00 1.712103e+00 1.795689e-01 2.057990e-01 1.870302e-01 2.121059e-01 2.394999e-01 2.489715e-01 3.010662e-01 2.478007e-01 3.131760e-01 2.951272e-01 3.379240e-01 2.786262e-01 4.182622e-01 5.277354e-02
<GCONST> 7.894130e+01
<TRANSP> 5
 0.000000e+00 1.000000e+00 0.000000e+00 0.000000e+00 0.000000e+00
 0.000000e+00 9.562697e-01 4.373030e-02 0.000000e+00 0.000000e+00
 0.000000e+00 0.000000e+00 9.313771e-01 6.862293e-02 0.000000e+00
 0.000000e+00 0.000000e+00 0.000000e+00 5.768756e-01 4.231244e-01
 0.000000e+00 0.000000e+00 0.000000e+00 0.000000e+00 0.000000e+00
<ENDHMM>
~h "x"
<BEGINHMM>
<NUMSTATES> 5
<STATE> 2
<MEAN> 39
 3.541885e+00 -1.414139e+01 -1.359447e+00 -1.755243e+01 -1.339607e+01 7.957716e+00 -1.877087e+01 4.940228e-01 -5.962628e-01 9.555177e-01 -2.737822e+00 -8.848938e+00 7.760390e+01 -3.227629e-01 -7.965667e-01 -3.878180e-01 9.177617e-02 4.055414e-01 -6.024965e-01 -4.374349e-01 1.435721e+00 3.834740e-01 2.285765e-01 -4.745346e-01 -1.083042e+00 9.499027e-01 -2.291867e-01 2.024291e-01 -4.906150e-02 2.807980e-01 -3.387078e-02 -1.338028e-01 2.803125e-01 2.793840e-01 -1.407882e-01 -3.518027e-01 -1.041623e-01 8.802933e-02 -1.981735e-01
<VARIANCE> 39
 2.408167e+01 4.399237e+01 7.130436e+01 6.957299e+01 5.957848e+01 1.092058e+02 6.274314e+01 9.754648e+01 4.305215e+01 6.066746e+01 6.953209e+01 4.120039e+01 2.377097e+01 2.089773e+00 2.921458e+00 3.065560e+00 6.389258e+00 2.905050e+00 7.535487e+00 8.367622e+00 8.027851e+00 3.134854e+00 4.644603e+00 2.569849e+00 4.721718e+00 2.775098e+00 4.533402e-01 3.297209e-01 4.149781e-01 6.227933e-01 4.567620e-01 1.030976e+00 1.047499e+00 1.330597e+00 5.187771e-01 7.298033e-01 4.676518e-01 8.386627e-01 2.704212e-01
<GCONST> 1.350310e+02
<STATE> 3
<MEAN> 39
 1.440554e+00 -1.888722e+01 -2.991039e+00 -1.600109e+01 -1.124972e+01 7.131060e+00 -1.840040e+01 1.032929e+01 -1.666942e+00 -3.218039e+00 -7.495206e+00 -1.165401e+01 8.076532e+01 -4.184209e-01 4.982326e-02 1.143207e-01 6.112035e-01 -2.993546e-02 -1.122185e+00 8.063350e-01 7.312570e-01 -5.121395e-01 -8.119641e-01 -6.068601e-02 3.493038e-01 2.439763e-01 -2.178837e-02 2.932160e-01 3.412633e-01 1.269194e-01 -2.120187e-01 -3.227248e-01 2.223774e-01 -2.740301e-01 -1.898044e-01 3.186285e-02 1.976602e-01 4.362585e-01 -2.118252e-01
<VARIANCE> 39
 1.306689e+01 3.815126e+01 4.394318e+01 2.338635e+01 2.342962e+01 5.806378e+01 5.446645e+01 8.066106e+01 3.822526e+01 5.238766e+01 6.305500e+01 2.327010e+01 1.240030e+01 7.268416e-01 1.404250e+00 2.743423e+00 2.511668e+00 2.305375e+00 6.245389e+00 3.594809e+00 6.932599e+00 2.435797e+00 3.233549e+00 1.998218e+00 2.333084e+00 5.756721e-01 1.087681e-01 1.911143e-01 2.088384e-01 2.913485e-01 2.419050e-01 5.146199e-01 5.276330e-01 1.037006e+00 4.595871e-01 5.537214e-01 3.155837e-01 5.514590e-01 6.182034e-02
<GCONST> 1.134629e+02
<STATE> 4
<MEAN> 39
 -2.034678e+00 -1.398458e+01 -5.804374e-01 -1.450190e+01 -1.490409e+01 3.961471e-02 -1.233558e+01 7.732392e+00 -3.383710e+00 -6.270546e+00 -1.417070e+00 -8.894444e+00 8.204670e+01 1.219761e-01 4.486969e-01 7.716724e-01 5.753797e-02 -3.967698e-01 -2.068849e-01 -2.430711e-01 1.348243e-01 -7.957864e-01 2.648403e-01 7.426748e-01 1.361421e-01 -3.892115e-01 6.886088e-02 7.233645e-02 5.637370e-02 1.941121e-02 1.327595e-01 1.379796e-01 -1.580302e-01 -1.098206e-01 -4.948016e-02 1.113097e-01 -3.200127e-02 1.148387e-03 -1.616454e-01
<VARIANCE> 39
 1.644917e+01 3.128578e+01 1.339075e+02 3.617120e+01 7.559740e+01 7.027582e+01 9.858759e+01 9.764098e+01 6.205163e+01 4.013386e+01 8.401840e+01 2.399776e+01 2.461527e+01 1.111771e+00 1.479345e+00 3.533900e+00 1.711452e+00 3.420824e+00 3.881097e+00 5.340059e+00 6.525792e+00 3.760469e+00 2.763637e+00 3.895851e+00 2.408879e+00 7.427663e-01 1.562546e-01 2.206711e-01 3.584622e-01 2.839504e-01 5.655967e-01 6.110161e-01 7.147574e-01 9.777981e-01 5.269963e-01 4.230764e-01 6.110331e-01 4.018884e-01 6.587744e-02
<GCONST> 1.228079e+02
<TRANSP> 5
 0.000000e+00 1.000000e+00 0.000000e+00 0.000000e+00 0.000000e+00
 0.000000e+00 6.710678e-01 3.289322e-01 0.000000e+00 0.000000e+00
 0.000000e+00 0.000000e+00 7.436247e-01 2.563753e-01 0.000000e+00
 0.000000e+00 0.000000e+00 0.000000e+00 8.653281e-01 1.346719e-01
 0.000000e+00 0.000000e+00 0.000000e+00 0.000000e+00 0.000000e+00
<ENDHMM>
~h "y"
<BEGINHMM>
<NUMSTATES> 5
<STATE> 2
<MEAN> 39
 -1.187155e+01 4.180075e+00 -4.759610e+00 -2.974900e-01 -8.310912e+00 7.240074e-01 -7.088563e+00 -1.862506e+00 -5.269122e+00 -3.503222e+00 -2.513809e+00 -2.947237e+00 3.916457e+01 -1.544074e-01 1.988771e-02 5.254762e-01 -1.537852e-02 3.759943e-01 3.709414e-01 -1.871241e-01 2.292541e-01 -1.392583e-01 -1.103882e-01 1.596393e-01 -1.824975e-01 -1.263324e-03 -1.478798e-01 -1.704372e-01 1.189809e-02 -9.323540e-02 1.847043e-02 5.341203e-02 3.223589e-02 1.552071e-01 -8.602403e-02 -4.245677e-02 7.778911e-02 -1.158157e-01 -4.595367e-03
<VARIANCE> 39
 3.696341e+01 3.301748e+01 2.379574e+01 3.540967e+01 3.020004e+01 2.417719e+01 1.553904e+01 1.817458e+01 1.682587e+01 1.378600e+01 1.191134e+01 1.152121e+01 1.256617e+01 2.482678e+00 2.771709e+00 2.000336e+00 2.678299e+00 2.388315e+00 2.297791e+00 2.085929e+00 2.033430e+00 1.694311e+00 1.570673e+00 1.761501e+00 1.329627e+00 8.159902e-01 4.988956e-01 5.578873e-01 4.928620e-01 5.738539e-01 5.119237e-01 4.745719e-01 4.236691e-01 4.411087e-01 4.156407e-01 3.420856e-01 3.521648e-01 2.288257e-01 1.724486e-01
<GCONST> 1.071771e+02
<STATE> 3
<MEAN> 39
 -1.431414e+01 2.319177e+00 -4.492548e+00 -8.160818e-01 -5.637900e+00 2.888800e+00 -7.814319e+00 -1.778573e-01 -7.343946e+00 -4.812459e+00 -1.049004e+00 -4.671227e+00 3.828988e+01 -2.130662e-01 -1.562029e-01 8.583157e-01 -9.294636e-01 1.381014e-01 8.650351e-02 -4.536082e-01 1.085040e+00 -7.665399e-01 1.316058e-02 5.719396e-01 -8.093729e-01 3.299170e-01 9.837003e-01 4.608904e-01 6.584507e-01 -3.704657e-01 -5.313147e-01 8.817557e-03 -9.774882e-02 5.576144e-02 -3.962365e-02 -6.234482e-02 -4.468859e-02 -4.129419e-02 8.878123e-01
<VARIANCE> 39
 2.885950e+01 2.037233e+01 2.210109e+01 1.545519e+01 1.490151e+01 1.654083e+01 1.589074e+01 1.842485e+01 1.124435e+01 1.334096e+01 1.362411e+01 1.619270e+01 8.823260e+00 2.266145e+00 2.848005e+00 2.406013e+00 3.300944e+00 2.170212e+00 2.046384e+00 2.874386e+00 2.723013e+00 2.777706e+00 1.761847e+00 1.729764e+00 1.678657e+00 7.393550e-01 6.110052e-01 4.618785e-01 6.153533e-01 6.613709e-01 4.452278e-01 7.304319e-01 4.792505e-01 4.320511e-01 5.044464e-01 3.507182e-01 3.350113e-01 3.645661e-01 3.017555e-01
<GCONST> 1.076010e+02
<STATE> 4
<MEAN> 39
 -1.383199e+01 1.624593e+00 -3.053272e-01 -2.062455e+00 -5.839092e+00 1.697886e+00 -8.926207e+00 1.695407e+00 -9.139647e+00 -3.638961e+00 2.959955e-01 -6.160547e+00 4.125040e+01 1.838348e+00 7.298636e-01 2.021784e+00 -1.126138e+00 -1.251399e+00 2.801087e-01 -6.877297e-01 3.561507e-01 -5.559141e-01 -4.191436e-01 2.870397e-01 -3.612056e-01 2.270622e+00 6.102057e-01 -2.468157e-01 3.371719e-01 -3.696767e-01 -8.584388e-01 4.831646e-02 -2.699434e-01 -1.354826e-01 9.437307e-02 -2.681214e-01 1.223573e-01 2.308494e-01 1.080303e+00
<VARIANCE> 39
 4.081774e+01 4.970909e+01 6.297742e+01 5.184020e+01 3.778560e+01 3.531718e+01 4.377525e+01 3.993187e+01 3.706235e+01 1.970714e+01 2.527875e+01 3.562532e+01 1.494807e+01 7.972988e+00 5.327449e+00 1.053771e+01 5.808215e+00 8.915331e+00 4.605959e+00 3.755706e+00 3.091501e+00 3.381417e+00 2.817502e+00 2.688009e+00 2.778003e+00 7.861849e+00 1.093615e+00 1.127702e+00 1.577563e+00 1.551443e+00 1.633419e+00 1.125000e+00 8.063123e-01 6.891693e-01 6.021746e-01 5.267625e-01 6.182079e-01 5.908214e-01 1.480754e+00
<GCONST> 1.378669e+02
<TRANSP> 5
 0.000000e+00 1.000000e+00 0.000000e+00 0.000000e+00 0.000000e+00
 0.000000e+00 6.855889e-01 3.144111e-01 0.000000e+00 0.000000e+00
 0.000000e+00 0.000000e+00 4.283595e-01 5.716404e-01 0.000000e+00
 0.000000e+00 0.000000e+00 0.000000e+00 7.499594e-01 2.500406e-01
 0.000000e+00 0.000000e+00 0.000000e+00 0.000000e+00 0.000000e+00
<ENDHMM>
~h "z"
<BEGINHMM>
<NUMSTATES> 5
<STATE> 2
<MEAN> 39
 7.218794e+00 -8.839901e+00 4.940970e+00 -1.130659e+01 -7.771524e+00 6.878161e+00 -1.661776e+01 -2.088349e+00 -1.446574e+01 -8.267427e+00 4.396816e+00 -7.508144e+00 6.850745e+01 -2.406653e-01 -5.764029e-01 9.600581e-01 7.827592e-01 1.064942e+00 4.297546e-01 -8.456029e-01 -1.302320e+00 -7.761424e-01 -7.830346e-02 -2.517468e-01 2.502945e-01 -1.073614e-01 -3.084767e-02 2.469908e-01 -2.840369e-01 1.827987e-01 -6.638441e-02 -1.235053e-01 2.109904e-01 -1.636799e-01 4.368491e-01 8.992174e-02 -1.273134e-01 1.006950e-01 -2.757606e-01
<VARIANCE> 39
 3.525906e+00 1.042443e+01 1.474666e+01 2.185456e+01 3.591966e+01 2.374294e+01 2.268912e+01 3.285954e+01 3.957777e+01 2.833225e+01 2.198647e+01 1.376709e+01 5.571851e+00 8.086553e-01 1.032295e+00 1.149766e+00 1.238380e+00 2.083090e+00 3.064676e+00 2.998184e+00 1.986955e+00 3.784836e+00 3.401592e+00 2.728212e+00 1.629804e+00 1.149474e+00 2.018535e-01 2.096284e-01 2.457855e-01 2.279190e-01 4.704128e-01 5.396278e-01 8.161225e-01 4.402291e-01 7.771308e-01 6.677696e-01 7.236928e-01 3.452334e-01 3.135318e-01
<GCONST> 1.052281e+02
<STATE> 3
<MEAN> 39
 5.214200e+00 -8.579012e+00 5.792565e+00 -6.080747e+00 -4.011868e+00 3.451616e+00 -1.670082e+01 -1.019250e+01 -1.229559e+01 -5.927315e+00 1.541541e+00 -4.737392e+00 6.925188e+01 2.685085e-01 8.119684e-01 -4.700352e-03 1.334217e+00 -3.879037e-01 -2.066058e-01 2.943588e-01 -9.914868e-01 6.298560e-01 -5.987033e-02 -1.230025e+00 4.900592e-02 -1.057582e+00 -4.794990e-02 4.018849e-01 -1.522594e-01 -6.348406e-02 -9.755779e-02 1.878710e-02 2.776172e-01 4.473534e-01 -2.133872e-02 -2.905404e-01 -1.000579e-01 -1.044499e-01 -3.213407e-01
<VARIANCE> 39
 2.046633e+01 6.328224e+00 2.580498e+01 2.038960e+01 1.563023e+01 4.089930e+01 6.758810e+01 2.191780e+01 5.266571e+01 2.162471e+01 1.617431e+01 7.710093e+00 4.741545e+01 1.874674e+00 1.820876e+00 2.069026e+00 2.151990e+00 3.206048e+00 4.619722e+00 6.921145e+00 2.618642e+00 7.889086e+00 3.446832e+00 3.311591e+00 1.150176e+00 3.029846e+00 4.411632e-01 2.332942e-01 3.600304e-01 4.182145e-01 5.194456e-01 9.114060e-01 1.357517e+00 5.554912e-01 1.308392e+00 7.596071e-01 6.245400e-01 2.622184e-01 5.561475e-01
<GCONST> 1.187537e+02
<STATE> 4
<MEAN> 39
 7.367797e+00 -2.164424e+00 5.841593e+00 5.345598e-01 -7.515889e+00 3.328484e+00 -1.639481e+01 -1.175973e+01 -9.526316e+00 -7.615888e+00 -4.068457e+00 -4.458193e+00 6.079840e+01 -2.234184e+00 2.141341e+00 -3.962165e-01 4.606062e-01 1.432647e+00 -1.472264e+00 2.048865e+00 1.374535e+00 8.777223e-01 -1.752366e-01 -5.786357e-01 -1.630056e-01 -1.411513e+00 -1.353666e+00 -5.574360e-01 5.092019e-02 -1.003243e+00 1.097787e+00 -2.059854e-01 1.648183e-01 5.557401e-01 -1.745298e-01 5.713563e-01 7.427172e-01 -1.809115e-02 5.859577e-01
<VARIANCE> 39
 8.326380e+00 1.720338e+01 2.081431e+01 3.594725e+01 2.501300e+01 2.468835e+01 5.580844e+01 2.427091e+01 3.033450e+01 1.716742e+01 1.135761e+01 1.345104e+01 9.811170e+00 3.564276e+00 2.416356e+00 2.473638e+00 4.488894e+00 4.851574e+00 2.467915e+00 4.424928e+00 2.561007e+00 2.379627e+00 2.843265e+00 2.613420e+00 1.431046e+00 1.376970e+00 3.721789e-01 5.557914e-01 7.031116e-01 7.159758e-01 7.116736e-01 4.662147e-01 8.860629e-01 7.154416e-01 6.926296e-01 6.195869e-01 3.172883e-01 3.544375e-01 4.094014e-01
<GCONST> 1.157405e+02
<TRANSP> 5
 0.000000e+00 1.000000e+00 0.000000e+00 0.000000e+00 0.000000e+00
 0.000000e+00 8.797473e-01 1.202527e-01 0.000000e+00 0.000000e+00
 0.000000e+00 0.000000e+00 7.852140e-01 2.147861e-01 0.000000e+00
 0.000000e+00 0.000000e+00 0.000000e+00 6.472802e-01 3.527198e-01
 0.000000e+00 0.000000e+00 0.000000e+00 0.000000e+00 0.000000e+00
<ENDHMM>
~h "ai"
<BEGINHMM>
<NUMSTATES> 5
<STATE> 2
<MEAN> 39
 -2.859133e-01 -2.036897e+01 -3.174041e+00 -9.372282e+00 -1.246220e+01 9.555628e+00 -1.636544e+01 1.488915e+01 -1.304899e+00 -1.323842e+01 -7.925793e+00 -1.172812e+01 6.860764e+01 -2.560397e-01 -2.310798e-01 -7.745191e-02 6.822407e-01 -2.135166e-02 -3.111410e-01 1.381617e+00 -2.816356e-01 -5.599908e-01 1.815763e-01 -5.345923e-02 5.479174e-01 -1.407099e+00 -1.520040e-01 2.619357e-01 -6.292576e-02 5.898608e-02 8.497125e-02 -3.107067e-01 1.982143e-01 -6.972086e-02 2.064557e-01 1.257824e-01 -4.575810e-02 1.581737e-01 -1.515273e-01
<VARIANCE> 39
 1.882185e+01 5.092754e+01 1.304338e+01 2.312534e+01 2.012945e+01 2.583530e+01 4.566443e+01 2.848232e+01 1.962614e+01 2.276522e+01 1.781479e+01 2.271613e+01 7.360738e+01 1.685442e+00 2.465191e+00 1.281102e+00 1.394294e+00 1.461376e+00 2.308250e+00 2.356535e+00 1.538516e+00 1.659989e+00 1.640791e+00 1.258485e+00 1.204269e+00 1.913547e+00 3.559621e-01 3.544885e-01 2.722647e-01 3.073503e-01 2.696894e-01 3.637678e-01 3.548343e-01 3.248028e-01 2.969162e-01 3.173284e-01 2.379507e-01 2.148032e-01 3.421328e-01
<GCONST> 1.052138e+02
<STATE> 3
<MEAN> 39
 -6.987316e+00 -1.576751e+01 -8.624027e+00 1.046166e-01 -1.149803e+01 4.261706e-01 1.683731e+00 1.094068e+01 -3.242400e+00 -1.007941e+01 -9.474586e+00 -4.027695e+00 5.245700e+01 -2.454669e-01 8.370264e-01 -3.620364e-01 8.506281e-01 -5.350131e-02 -9.973806e-01 1.131171e+00 -6.420153e-01 -5.849854e-01 5.002294e-02 6.124601e-04 7.096440e-01 -1.082816e+00 2.707425e-01 1.785457e-01 2.446261e-01 -2.204817e-01 -2.647765e-02 7.296316e-02 -5.019311e-01 -5.455220e-02 -7.001763e-02 -1.159946e-01 1.096016e-01 -9.723982e-02 2.796710e-01
<VARIANCE> 39
 1.739157e+01 4.635812e+01 2.602566e+01 2.881671e+01 2.949565e+01 3.261254e+01 5.163744e+01 3.568480e+01 3.053167e+01 2.778242e+01 2.174549e+01 2.003718e+01 3.842938e+01 2.404708e+00 3.162806e+00 2.688629e+00 2.888775e+00 2.805347e+00 2.469440e+00 4.983946e+00 2.751256e+00 3.018751e+00 2.834134e+00 2.193298e+00 1.733303e+00 2.418551e+00 4.638810e-01 5.983092e-01 4.841727e-01 5.014890e-01 6.506290e-01 5.154294e-01 7.034534e-01 5.465783e-01 5.918429e-01 5.359465e-01 4.858543e-01 3.410829e-01 4.432351e-01
<GCONST> 1.203392e+02
<STATE> 4
<MEAN> 39
 -5.683670e+00 -4.014070e-01 -4.783982e+00 1.312979e+00 -8.986311e+00 -2.401193e+00 -3.427855e+00 2.719806e+00 -5.706106e+00 -7.896315e+00 -5.972581e+00 -2.075812e+00 4.682387e+01 2.575408e-01 1.021221e+00 6.175958e-01 -4.065016e-01 3.099114e-01 4.128341e-01 -1.031339e+00 -7.011467e-01 4.646682e-01 5.749179e-01 4.011150e-01 -5.925754e-02 -3.389759e-02 -2.544863e-02 -5.117857e-01 -5.723549e-02 -2.096553e-01 -1.554242e-01 9.135918e-02 -2.074383e-03 1.360410e-01 1.155597e-01 6.542990e-02 -1.145829e-02 -9.038422e-02 3.344816e-01
<VARIANCE> 39
 6.388589e+01 7.921626e+01 4.148125e+01 3.573812e+01 2.941212e+01 3.455368e+01 4.878120e+01 4.051217e+01 2.895115e+01 3.580671e+01 2.422233e+01 1.723840e+01 4.712150e+01 5.466907e+00 5.957931e+00 3.995042e+00 3.869091e+00 3.882819e+00 3.420240e+00 4.433986e+00 2.992930e+00 2.406295e+00 3.044774e+00 2.424819e+00 1.794257e+00 4.786507e+00 7.494721e-01 7.319922e-01 6.843188e-01 7.305757e-01 6.269423e-01 7.008936e-01 8.130752e-01 5.228006e-01 5.110014e-01 6.154801e-01 4.455192e-01 3.682133e-01 5.765147e-01
<GCONST> 1.287862e+02
<TRANSP> 5
 0.000000e+00 1.000000e+00 0.000000e+00 0.000000e+00 0.000000e+00
 0.000000e+00 8.399886e-01 1.600113e-01 0.000000e+00 0.000000e+00
 0.000000e+00 0.000000e+00 7.994100e-01 2.005900e-01 0.000000e+00
 0.000000e+00 0.000000e+00 0.000000e+00 7.638189e-01 2.361811e-01
 0.000000e+00 0.000000e+00 0.000000e+00 0.000000e+00 0.000000e+00
<ENDHMM>
~h "an"
<BEGINHMM>
<NUMSTATES> 5
<STATE> 2
<MEAN> 39
 5.983404e+00 -1.351388e+01 1.661342e+00 -2.322011e+01 -1.604924e+01 1.195508e+01 -2.116540e+01 4.094283e+00 -3.729362e+00 1.911618e+00 -2.348233e+00 -5.982686e+00 7.580625e+01 -6.100731e-01 -1.497057e+00 -1.214268e+00 3.692695e-01 6.750971e-01 5.309378e-02 -1.061631e+00 2.061608e+00 -8.590657e-02 1.131051e+00 4.619204e-02 -2.393595e+00 1.503129e+00 -3.019587e-01 5.258282e-01 -1.673749e-01 7.725896e-01 1.162874e-01 -3.554886e-01 7.561417e-01 -1.251841e-01 2.084399e-01 -3.609427e-01 -2.563441e-01 8.666217e-03 -5.550132e-01
<VARIANCE> 39
 6.315850e+00 1.023576e+01 3.359054e+01 1.032130e+02 1.700863e+01 1.156428e+02 1.916865e+01 4.392466e+01 3.057212e+01 2.796485e+01 6.565107e+01 3.930479e+01 7.750471e+00 7.987044e-01 2.202068e+00 1.723829e+00 1.023725e+01 1.916139e+00 4.101814e+00 2.536320e+00 8.065420e+00 3.127287e+00 3.956942e+00 2.891415e+00 4.024747e+00 4.284198e+00 3.589088e-01 2.057717e-01 4.635277e-01 4.132849e-01 4.969333e-01 9.236177e-01 1.379373e+00 1.285892e+00 5.219046e-01 6.511880e-01 3.538129e-01 9.156956e-01 4.636579e-01
<GCONST> 1.224730e+02
<STATE> 3
<MEAN> 39
 1.771144e+00 -1.891124e+01 -1.529965e-02 -1.559904e+01 -1.522354e+01 4.216333e+00 -1.703839e+01 1.240719e+01 -2.979624e+00 -1.081471e+00 -7.159103e+00 -9.842308e+00 8.074095e+01 -1.564727e-01 3.002030e-01 -3.986640e-02 2.352098e-01 9.591052e-02 -4.549488e-01 5.718061e-01 1.465623e-01 -4.044955e-01 -1.252740e-01 4.607439e-05 4.411094e-01 -5.724085e-02 -6.772190e-02 2.839601e-01 -1.440766e-03 1.370324e-01 8.831373e-02 -8.064456e-02 1.834506e-01 -3.274392e-01 1.240604e-01 -3.390060e-02 5.126342e-02 1.826006e-01 -1.840095e-01
<VARIANCE> 39
 1.117190e+01 1.823640e+01 3.144310e+01 3.785899e+01 3.566146e+01 7.232984e+01 4.182690e+01 7.055273e+01 4.119752e+01 3.469815e+01 5.171113e+01 1.770866e+01 1.118809e+01 8.005129e-01 2.172071e+00 2.944828e+00 2.757562e+00 2.576444e+00 4.578669e+00 3.221033e+00 6.669574e+00 3.518906e+00 2.821386e+00 2.245718e+00 1.843479e+00 9.785330e-01 2.251635e-01 3.016734e-01 4.432326e-01 4.023271e-01 4.024111e-01 6.158205e-01 7.587695e-01 1.327877e+00 8.269987e-01 5.753673e-01 3.439500e-01 4.212179e-01 8.831853e-02
<GCONST> 1.173955e+02
<STATE> 4
<MEAN> 39
 -1.131819e+01 -4.328958e+00 -5.637982e+00 -6.117569e+00 -5.987098e+00 -2.667150e+00 -3.039326e+00 -2.804570e-01 -1.282229e+00 -4.031583e+00 -3.085324e+00 -2.711204e+00 7.116770e+01 -2.330114e-01 1.055492e-01 -3.915200e-01 3.044930e-01 3.316398e-01 -7.099330e-02 1.528457e-01 -5.257257e-01 5.974674e-01 -4.742007e-01 -8.698715e-02 -1.964757e-01 -7.291493e-02 3.465033e-01 -4.287193e-01 8.921692e-02 -3.227108e-01 -2.011872e-01 2.957842e-01 -4.950516e-01 3.940557e-01 -2.607310e-02 2.706618e-02 -1.211279e-01 -2.175667e-01 2.839465e-01
<VARIANCE> 39
 7.132409e+01 2.599358e+01 2.412193e+01 5.197430e+01 3.452395e+01 3.449512e+01 4.942339e+01 5.261670e+01 3.340724e+01 2.488818e+01 2.027254e+01 1.721356e+01 3.228708e+01 1.135756e+01 5.299399e+00 2.161441e+00 5.057886e+00 3.596808e+00 5.451676e+00 1.124390e+01 6.964071e+00 5.210236e+00 3.573049e+00 2.606642e+00 2.541104e+00 2.917868e+00 1.120054e+00 7.174436e-01 3.753534e-01 5.204201e-01 4.991490e-01 8.180600e-01 1.420075e+00 9.372971e-01 9.563484e-01 8.158699e-01 4.390716e-01 3.935059e-01 2.645854e-01
<GCONST> 1.312513e+02
<TRANSP> 5
 0.000000e+00 1.000000e+00 0.000000e+00 0.000000e+00 0.000000e+00
 0.000000e+00 6.901888e-01 3.098112e-01 0.000000e+00 0.000000e+00
 0.000000e+00 0.000000e+00 9.289836e-01 7.101640e-02 0.000000e+00
 0.000000e+00 0.000000e+00 0.000000e+00 9.355192e-01 6.448084e-02
 0.000000e+00 0.000000e+00 0.000000e+00 0.000000e+00 0.000000e+00
<ENDHMM>
~h "ao"
<BEGINHMM>
<NUMSTATES> 5
<STATE> 2
<MEAN> 39
 -4.903957e+00 4.344621e+00 4.046718e+00 -5.796876e+00 -3.338545e+00 -5.698019e-02 -5.726859e+00 -3.153342e+00 -9.559772e+00 -4.449217e+00 -8.968456e-01 -5.447780e+00 5.887940e+01 -4.787060e+00 -6.675084e-01 4.781501e-02 -3.039757e+00 2.017717e+00 -1.040203e+00 -2.448438e-01 1.126370e+00 2.774442e+00 1.172491e+00 -4.752003e-01 1.015247e+00 2.287941e+00 -1.796550e-01 -8.399715e-01 -2.215333e-01 -4.944240e-01 -7.125369e-01 3.357802e-01 -5.464469e-01 -2.336056e-01 1.707582e-01 -3.309232e-02 4.364663e-01 -1.536951e-02 8.795485e-01
<VARIANCE> 39
 1.080095e+02 7.239595e+01 5.696395e+01 6.414338e+01 8.317910e+01 8.108968e+01 5.755907e+01 2.912157e+01 4.377988e+01 2.453870e+01 1.934256e+01 1.860307e+01 7.293942e+01 2.419537e+01 3.140050e+00 4.888790e+00 5.264460e+00 1.342343e+01 1.006958e+01 5.043612e+00 3.563421e+00 5.759271e+00 3.534303e+00 3.323530e+00 2.528456e+00 6.548014e+00 2.596875e+00 7.471527e-01 7.431983e-01 8.584705e-01 1.760108e+00 1.409431e+00 7.469999e-01 6.806716e-01 8.374423e-01 5.823289e-01 4.924205e-01 3.611400e-01 5.458395e-01
<GCONST> 1.420306e+02
<STATE> 3
<MEAN> 39
 -1.686020e+01 -2.568073e+00 3.640334e+00 -1.448674e+01 -6.448924e+00 -1.823938e-01 -5.924236e+00 -3.963099e+00 -2.166385e+00 -3.440603e+00 -1.599150e-01 -1.918925e+00 6.970928e+01 1.834704e+00 -2.126841e+00 -6.047322e-01 -1.807336e-01 -2.206545e+00 3.091194e-01 -1.535711e-01 -9.167472e-03 2.104925e-01 -1.564622e-01 1.236228e-01 -1.164132e-01 2.118832e+00 1.106672e+00 -9.730494e-03 -2.916065e-01 7.383762e-01 2.475788e-02 -5.360506e-02 -1.254969e-01 3.591286e-01 -3.713255e-01 -3.912279e-02 -2.386497e-01 -3.168115e-01 -3.571147e-01
<VARIANCE> 39
 1.407413e+02 5.125713e+01 5.190352e+01 3.153449e+01 7.082601e+01 6.217076e+01 5.335161e+01 2.887096e+01 3.073545e+01 2.392201e+01 2.021732e+01 2.132662e+01 2.929269e+01 1.286954e+01 2.784982e+00 3.622605e+00 1.066750e+01 3.597872e+00 8.623793e+00 5.526145e+00 3.748888e+00 4.405826e+00 2.374559e+00 3.157801e+00 2.187503e+00 4.804276e+00 2.874460e+00 6.433984e-01 8.127801e-01 8.404493e-01 1.765574e+00 1.618254e+00 1.317542e+00 9.300960e-01 1.006652e+00 6.532446e-01 5.473813e-01 3.701093e-01 3.611110e-01
<GCONST> 1.377371e+02
<STATE> 4
<MEAN> 39
 5.601528e-01 -1.164943e+01 -3.569449e+00 -1.483237e+01 -1.169953e+01 4.793835e+00 -1.311419e+01 2.855636e+00 -2.699124e+00 -1.411960e+00 -1.787248e+00 -8.030680e+00 7.709544e+01 1.178444e+00 -7.713944e-01 -1.207008e+00 -9.024023e-01 4.481415e-01 1.702863e+00 -1.658377e+00 1.223682e+00 4.075476e-01 9.349834e-01 -6.424971e-01 -1.342595e+00 6.805893e-01 -3.733402e-01 1.726677e-01 1.626566e-01 -2.258851e-01 1.886506e-01 2.217380e-01 -4.682820e-03 -2.337008e-01 -1.276346e-01 1.032424e-01 1.209390e-01 -1.091757e-01 -3.018920e-01
<VARIANCE> 39
 2.636176e+01 1.901474e+01 4.315730e+01 1.193224e+02 5.412767e+01 1.537337e+02 8.205711e+01 4.883681e+01 3.191442e+01 3.096482e+01 5.547846e+01 3.625556e+01 3.126707e+01 3.064755e+00 2.028942e+00 3.543549e+00 7.541677e+00 4.277564e+00 1.017953e+01 5.833945e+00 5.700793e+00 3.955648e+00 3.481772e+00 4.263329e+00 3.778711e+00 2.448607e+00 4.179044e-01 3.067751e-01 4.649262e-01 1.797453e+00 8.090703e-01 2.173539e+00 1.036487e+00 1.067818e+00 7.456905e-01 7.553728e-01 9.839028e-01 7.778608e-01 4.394316e-01
<GCONST> 1.371659e+02
<TRANSP> 5
 0.000000e+00 1.000000e+00 0.000000e+00 0.000000e+00 0.000000e+00
 0.000000e+00 5.598341e-01 4.401658e-01 0.000000e+00 0.000000e+00
 0.000000e+00 0.000000e+00 7.298898e-01 2.701101e-01 0.000000e+00
 0.000000e+00 0.000000e+00 0.000000e+00 7.889692e-01 2.110308e-01
 0.000000e+00 0.000000e+00 0.000000e+00 0.000000e+00 0.000000e+00
<ENDHMM>
~h "ch"
<BEGINHMM>
<NUMSTATES> 5
<STATE> 2
<MEAN> 39
 6.534919e+00 -1.362367e+01 -7.979432e+00 -2.106416e+01 -8.195977e+00 1.905852e+01 -1.663972e+01 2.931670e+00 -7.684053e+00 -1.688846e+00 1.289046e-02 -1.100305e+01 7.440540e+01 4.791710e-01 5.288075e-02 1.565076e-01 -1.913512e+00 -1.190091e+00 2.342398e+00 1.398470e-01 -5.636782e-01 -4.993759e-01 -1.072362e+00 1.501295e+00 8.614880e-01 -4.531202e-01 -1.798111e-01 4.158045e-01 7.132226e-02 5.312785e-01 -1.249437e-01 -6.618398e-01 4.057989e-01 9.962576e-02 3.648988e-01 -3.605181e-01 -2.565135e-01 4.688999e-01 -2.042886e-01
<VARIANCE> 39
 3.461168e+00 1.611212e+01 1.162764e+01 2.662166e+01 2.607413e+01 2.636722e+01 1.232525e+01 1.332722e+01 1.838317e+01 7.074658e+01 2.997851e+01 2.868061e+01 2.444426e+01 3.932512e-01 1.147335e+00 9.729503e-01 2.196120e+00 1.521136e+00 4.055093e+00 1.416869e+00 1.410574e+00 1.670717e+00 2.415874e+00 1.681149e+00 1.700421e+00 3.372155e-01 1.025350e-01 1.339551e-01 2.353738e-01 1.584356e-01 1.800423e-01 2.280579e-01 3.070511e-01 3.020521e-01 2.558477e-01 5.167658e-01 2.720266e-01 5.656149e-01 7.470125e-02
<GCONST> 9.438887e+01
<STATE> 3
<MEAN> 39
 8.702955e+00 -1.038342e+01 -6.820942e+00 -2.685770e+01 -1.597380e+01 2.445769e+01 -1.747390e+01 2.085016e+00 -4.417081e+00 -8.972460e+00 4.780980e+00 -5.350577e+00 7.211700e+01 2.150475e-01 5.771375e-01 2.241582e-01 2.391723e-01 -4.849404e-01 -5.955378e-01 -1.680600e-01 -5.228899e-01 2.027041e-01 -7.468224e-02 2.775848e-01 6.674798e-01 -4.980312e-01 -1.206342e-01 -5.196326e-02 2.155504e-02 6.149480e-01 4.584850e-01 -7.081379e-01 2.328317e-01 -3.446531e-01 -9.654905e-02 4.239091e-01 -1.958911e-01 -7.577913e-02 -4.672814e-02
<VARIANCE> 39
 3.246914e+00 1.178110e+01 1.339411e+01 2.713431e+01 5.541896e+01 2.071988e+01 1.940588e+01 1.337183e+01 1.699824e+01 2.533008e+01 1.741686e+01 2.006437e+01 1.784166e+01 3.230576e-01 9.024649e-01 5.703729e-01 2.364428e+00 1.765229e+00 2.720913e+00 2.446241e+00 2.038253e+00 1.692599e+00 2.713119e+00 1.043871e+00 1.054646e+00 4.972996e-01 6.833853e-02 1.825364e-01 1.245108e-01 3.670437e-01 4.050933e-01 6.646169e-01 6.263573e-01 3.279866e-01 2.256785e-01 2.191386e-01 2.136679e-01 1.975886e-01 1.056021e-01
<GCONST> 9.300496e+01
<STATE> 4
<MEAN> 39
 6.432275e+00 -4.506365e-01 -1.168753e+01 -1.091411e+01 -2.077516e+00 1.417682e+01 -7.614929e+00 -2.337276e+00 -7.988514e+00 -8.709261e+00 9.676992e-01 -3.533297e+00 5.788883e+01 -1.235789e+00 9.935773e-01 2.790404e-01 2.514845e+00 1.183403e+00 -1.754397e+00 2.463114e+00 -1.002977e+00 -4.190795e-01 1.700647e+00 -1.220850e+00 1.564256e-01 -1.855192e+00 -3.754307e-01 -2.253122e-01 2.681734e-02 1.313672e-02 1.349279e-01 -1.408550e-02 1.428046e-01 1.789559e-01 3.534463e-01 -2.155938e-01 2.656236e-02 3.309896e-03 -6.272934e-02
<VARIANCE> 39
 1.882186e+01 4.712655e+01 3.046883e+01 6.945229e+01 8.671668e+01 3.674406e+01 7.202722e+01 2.560581e+01 2.671647e+01 3.603301e+01 2.421426e+01 1.777750e+01 7.060439e+01 1.646613e+00 2.638986e+00 1.704711e+00 3.283555e+00 3.064630e+00 8.260432e+00 3.216662e+00 3.248427e+00 2.788983e+00 2.961796e+00 2.353511e+00 1.874057e+00 1.694376e+00 2.408895e-01 5.604612e-01 3.678832e-01 5.983220e-01 6.576336e-01 7.557996e-01 8.551372e-01 5.330006e-01 4.846552e-01 5.554003e-01 4.364333e-01 3.117558e-01 2.856709e-01
<GCONST> 1.222320e+02
<TRANSP> 5
 0.000000e+00 1.000000e+00 0.000000e+00 0.000000e+00 0.000000e+00
 0.000000e+00 6.922986e-01 3.077014e-01 0.000000e+00 0.000000e+00
 0.000000e+00 0.000000e+00 7.841620e-01 2.158379e-01 0.000000e+00
 0.000000e+00 0.000000e+00 0.000000e+00 7.033243e-01 2.966757e-01
 0.000000e+00 0.000000e+00 0.000000e+00 0.000000e+00 0.000000e+00
<ENDHMM>
~h "er"
<BEGINHMM>
<NUMSTATES> 5
<STATE> 2
<MEAN> 39
 1.398730e+00 -8.958441e+00 -3.896572e+00 -2.717920e+01 -1.392930e+01 1.282756e+01 -9.884536e+00 -3.331991e+00 -7.876966e-01 -3.808029e+00 -2.302443e+00 -6.048634e+00 8.003812e+01 -1.765914e-01 -8.777789e-01 -4.646437e-01 -5.870704e-01 3.021421e-01 9.839854e-01 1.719763e-01 -2.859520e-01 -4.737260e-01 2.865362e-01 5.467603e-01 1.612014e-01 6.254165e-01 -1.924515e-03 -6.456495e-03 -6.478684e-02 4.260146e-01 1.523831e-02 -1.811522e-01 -8.257070e-02 2.384866e-01 -7.069287e-02 8.064732e-02 7.752559e-02 -1.188867e-01 -2.343263e-01
<VARIANCE> 39
 5.803596e+01 3.575341e+01 7.778349e+01 4.653995e+01 7.127811e+01 4.481350e+01 8.910271e+01 3.424904e+01 2.331545e+01 3.162688e+01 2.383357e+01 4.500087e+01 8.108210e+01 7.570618e-01 1.825789e+00 1.409595e+00 2.297218e+00 1.714973e+00 3.384279e+00 2.457141e+00 3.283324e+00 1.496571e+00 1.752627e+00 1.124360e+00 1.616922e+00 1.671873e+00 2.394067e-01 1.636188e-01 3.359497e-01 3.993591e-01 4.459522e-01 6.525149e-01 6.834246e-01 3.988349e-01 3.498650e-01 3.280163e-01 2.457995e-01 4.540319e-01 1.188082e-01
<GCONST> 1.147284e+02
<STATE> 3
<MEAN> 39
 1.710404e+00 -1.480852e+01 3.030594e+00 -1.588095e+01 -1.832509e+01 4.247699e+00 -2.145914e+01 7.096590e+00 -3.544460e+00 9.374081e-01 1.296001e+00 -1.004521e+01 7.881490e+01 -3.861012e-01 -5.541261e-01 -6.511737e-01 3.950194e-01 2.948328e-01 -8.628763e-02 1.845499e-01 5.591711e-01 3.446539e-01 8.590782e-02 -6.160064e-01 -7.985346e-01 5.651512e-01 1.050863e-02 1.039466e-01 2.570608e-02 -3.007528e-02 2.879258e-04 7.718308e-02 1.793270e-01 -1.208423e-01 -8.819768e-02 -1.680177e-01 -7.286623e-02 1.667079e-01 -6.830154e-02
<VARIANCE> 39
 1.795812e+01 1.470745e+01 6.909466e+01 5.754990e+01 3.919655e+01 8.953198e+01 4.736674e+01 9.219627e+01 7.676311e+01 4.635165e+01 8.224261e+01 3.922023e+01 1.722298e+01 7.969618e-01 1.539488e+00 5.382488e+00 4.612187e+00 3.281693e+00 6.901742e+00 5.385679e+00 9.341749e+00 5.180760e+00 4.504182e+00 2.776560e+00 6.164881e+00 1.440964e+00 7.025792e-02 1.974334e-01 5.274854e-01 4.138868e-01 4.023564e-01 7.890553e-01 6.375130e-01 1.319597e+00 7.009537e-01 6.477813e-01 5.181630e-01 1.063571e+00 1.167200e-01
<GCONST> 1.273457e+02
<STATE> 4
<MEAN> 39
 3.705606e+00 -2.166307e+01 -7.675533e+00 -1.869918e+01 -1.124383e+01 1.797309e+01 -1.733845e+01 7.683636e+00 -6.048648e+00 -3.469970e+00 -3.116995e+00 -1.286764e+01 7.907479e+01 2.077778e-01 -2.075223e-01 -3.079145e-01 4.260314e-01 1.981546e-02 1.109494e-01 -1.931114e-01 3.892943e-01 -4.660174e-01 -2.013354e-01 5.771313e-01 -1.648174e-01 -1.254212e-01 -5.985915e-02 8.973882e-02 -6.734956e-03 6.493174e-02 5.033644e-02 -3.026483e-01 5.200426e-02 1.456017e-02 1.081969e-01 -1.655084e-02 1.232351e-02 2.816303e-02 3.227612e-02
<VARIANCE> 39
 1.441187e+01 2.121689e+01 2.406926e+01 4.396853e+01 1.495024e+01 1.043994e+02 4.422898e+01 6.683878e+01 3.452884e+01 1.668854e+01 5.729178e+01 2.036769e+01 1.751465e+01 4.901806e-01 9.391021e-01 8.449349e-01 1.051738e+00 1.176868e+00 4.585048e+00 2.586099e+00 2.482924e+00 1.301564e+00 9.977741e-01 9.379909e-01 1.082812e+00 9.033642e-01 1.047181e-01 1.881326e-01 1.865586e-01 1.186641e-01 2.403272e-01 4.414697e-01 4.338962e-01 3.818692e-01 2.069294e-01 1.752950e-01 1.425103e-01 1.701877e-01 1.264399e-01
<GCONST> 9.793495e+01
<TRANSP> 5
 0.000000e+00 1.000000e+00 0.000000e+00 0.000000e+00 0.000000e+00
 0.000000e+00 8.501763e-01 1.498236e-01 0.000000e+00 0.000000e+00
 0.000000e+00 0.000000e+00 8.756974e-01 1.243025e-01 0.000000e+00
 0.000000e+00 0.000000e+00 0.000000e+00 9.410233e-01 5.897665e-02
 0.000000e+00 0.000000e+00 0.000000e+00 0.000000e+00 0.000000e+00
<ENDHMM>
~h "iu"
<BEGINHMM>
<NUMSTATES> 5
<STATE> 2
<MEAN> 39
 3.896183e-01 -2.769323e+00 9.667354e+00 -5.388515e+00 -2.220401e+01 4.205236e+00 -1.574164e+01 1.520156e+00 -9.419170e+00 -1.179375e+01 8.388993e+00 -8.057077e+00 6.967107e+01 -1.046120e+00 -5.877232e-01 -4.210638e-01 -2.265591e-01 -1.394797e+00 1.760417e-01 -8.470110e-01 1.207717e+00 1.633087e+00 4.595455e-01 8.324668e-01 -1.776945e+00 1.621067e+00 3.278913e-01 4.202256e-02 -8.183676e-01 -6.297968e-03 6.708905e-01 1.473771e-01 -2.987092e-01 -3.648168e-01 3.867224e-01 2.444141e-01 -9.641303e-02 -2.215222e-01 -1.285205e-01
<VARIANCE> 39
 2.973321e+01 1.901354e+01 4.883038e+01 4.557787e+01 9.580266e+01 6.697797e+01 4.127866e+01 5.223056e+01 5.118401e+01 2.109049e+01 3.725970e+01 3.792318e+01 3.685069e+01 4.421969e+00 1.870939e+00 1.612049e+01 8.285564e+00 1.938851e+01 1.226653e+01 8.640978e+00 5.110861e+00 5.672756e+00 2.802277e+00 5.052492e+00 2.933475e+00 1.435610e+00 7.212550e-01 4.418849e-01 1.823056e+00 2.100813e+00 3.453486e+00 3.409415e+00 1.614439e+00 1.267124e+00 9.426807e-01 4.934483e-01 1.176409e+00 6.171530e-01 4.097101e-01
<GCONST> 1.435036e+02
<STATE> 3
<MEAN> 39
 3.468383e+00 -3.097227e+00 -6.921489e+00 -1.145584e+01 -1.398891e+01 1.252033e+01 -2.580917e+01 -3.616770e-01 -1.019992e+00 -1.050791e+01 1.755197e+01 -1.751022e+01 7.290807e+01 4.836663e-01 -2.139175e-01 3.238527e-01 -4.022583e-01 9.208285e-01 4.463884e-01 -5.411472e-01 -6.416513e-01 -4.665053e-01 1.304180e-01 -1.330120e-01 8.375792e-02 -4.390683e-01 -3.131837e-02 -1.439454e-01 7.283932e-01 4.349021e-01 -3.758550e-01 -5.142799e-01 5.147505e-01 -2.303096e-02 -2.853067e-01 -3.828675e-02 -6.461781e-01 3.784492e-01 -1.710405e-01
<VARIANCE> 39
 6.311983e+00 9.492421e+00 1.858616e+01 2.565820e+01 2.114785e+01 2.913184e+01 3.841693e+01 2.708014e+01 2.585104e+01 3.528650e+01 4.803809e+01 1.833488e+01 1.042045e+01 5.088781e-01 1.467759e+00 7.108562e+00 4.594522e+00 2.749042e+00 7.366156e+00 4.896491e+00 3.826756e+00 2.299089e+00 5.015671e+00 1.196944e+01 2.127685e+00 8.953822e-01 1.088434e-01 1.559159e-01 2.485004e-01 3.662938e-01 7.423084e-01 5.657101e-01 1.453468e+00 7.904080e-01 7.826578e-01 1.110747e+00 1.099852e+00 5.524628e-01 1.206404e-01
<GCONST> 1.159985e+02
<STATE> 4
<MEAN> 39
 7.271887e+00 -8.368568e+00 8.215925e+00 -2.250977e+00 -1.295842e+01 1.714159e+00 -2.103162e+01 -7.028692e+00 -5.455680e+00 -6.545865e+00 -3.405831e+00 -9.968078e+00 6.604516e+01 -3.460341e-01 -3.066888e-01 4.720755e-01 3.764704e-03 1.432840e-01 -2.328167e+00 1.343283e+00 6.217675e-01 4.100006e-01 1.895502e-01 -3.246274e+00 1.310432e+00 2.538537e-01 -6.533633e-01 2.994467e-02 -1.262015e+00 -1.276522e+00 3.933162e-01 3.884164e-01 -7.175639e-01 1.594243e+00 8.037864e-01 -2.682899e-01 8.716599e-01 -5.103860e-01 9.819679e-01
<VARIANCE> 39
 3.024266e+00 5.754505e+00 6.267508e+00 2.040513e+01 1.507562e+01 1.879487e+01 1.497495e+01 1.569548e+01 9.858860e+00 1.728104e+01 2.612772e+01 1.600970e+01 6.239134e+00 2.459284e+00 7.589634e-01 5.246025e+00 8.410721e+00 3.455760e+00 1.555373e+00 5.318435e+00 1.049141e+01 3.562281e+00 1.477929e+00 4.023873e+00 2.340479e+00 4.250121e+00 1.876413e-01 2.541178e-01 2.442982e-01 6.003463e-01 4.746166e-01 4.453511e-01 8.010932e-01 7.787847e-01 4.444714e-01 3.693731e-01 3.170750e-01 3.247485e-01 3.044960e-01
<GCONST> 1.067036e+02
<TRANSP> 5
 0.000000e+00 1.000000e+00 0.000000e+00 0.000000e+00 0.000000e+00
 0.000000e+00 8.515415e-01 1.484585e-01 0.000000e+00 0.000000e+00
 0.000000e+00 0.000000e+00 8.904308e-01 1.095692e-01 0.000000e+00
 0.000000e+00 0.000000e+00 0.000000e+00 7.561198e-01 2.438802e-01
 0.000000e+00 0.000000e+00 0.000000e+00 0.000000e+00 0.000000e+00
<ENDHMM>
~h "sh"
<BEGINHMM>
<NUMSTATES> 5
<STATE> 2
<MEAN> 39
 -2.347237e+00 -9.065250e+00 -2.023487e+00 1.131326e+00 -1.161829e+01 -1.004586e+01 5.035137e-02 5.644786e+00 -9.743592e+00 -9.327435e+00 -2.701761e+00 -1.872007e+00 5.706398e+01 -2.189861e+00 -1.347474e+00 2.778577e+00 1.843355e-01 -8.319870e-02 -2.332103e+00 6.680740e-01 7.181392e-01 5.383338e-01 2.829685e-01 9.725389e-01 -8.426195e-01 2.564955e+00 -1.130552e+00 -1.443332e-01 7.357681e-02 2.174091e-01 2.904748e-01 -1.255375e-01 2.032251e-01 1.007971e-01 4.765586e-01 -2.438356e-02 -2.934645e-02 -1.657604e-01 2.312410e-01
<VARIANCE> 39
 6.169855e+01 4.206380e+01 4.505268e+01 3.316602e+01 2.428059e+01 4.290404e+01 4.753679e+01 5.502459e+01 2.551020e+01 2.869704e+01 1.998303e+01 2.372446e+01 7.560121e+01 7.922625e+00 5.143456e+00 3.256317e+00 2.586999e+00 2.684037e+00 3.675701e+00 2.894948e+00 3.320879e+00 2.998734e+00 4.095796e+00 1.692724e+00 2.253889e+00 3.294463e+00 8.418384e-01 1.087827e+00 7.815188e-01 4.614423e-01 5.631763e-01 8.733577e-01 6.191582e-01 7.010301e-01 4.647585e-01 7.692343e-01 3.596229e-01 6.037847e-01 6.545562e-01
<GCONST> 1.285471e+02
<STATE> 3
<MEAN> 39
 -2.414397e+01 -1.341058e+01 5.928607e+00 8.003296e+00 -6.852212e+00 -1.851731e+01 1.927062e+00 8.200538e+00 -2.529426e+00 -8.013347e+00 1.727592e+00 -4.443925e+00 6.693264e+01 -2.046771e+00 -3.410681e-01 -2.374585e-01 9.011621e-01 1.009957e+00 -3.178991e-01 -4.102179e-01 -1.335677e-01 9.036388e-01 2.715427e-01 3.728846e-01 1.146764e-01 8.036915e-01 9.225350e-01 4.556077e-02 -5.309848e-01 -3.824045e-01 -1.505298e-01 3.317058e-01 -2.071832e-01 -1.138381e-01 -1.813821e-01 2.542499e-03 -1.605887e-01 6.797057e-02 -2.528706e-01
<VARIANCE> 39
 3.954465e+01 2.023742e+01 1.367251e+01 2.492890e+01 2.429267e+01 1.183281e+01 2.310670e+01 2.152752e+01 2.323550e+01 1.752110e+01 1.344415e+01 1.107381e+01 1.675729e+01 4.935163e+00 1.323943e+00 1.950532e+00 2.560546e+00 1.603880e+00 1.629926e+00 1.687360e+00 1.986456e+00 2.381672e+00 1.730467e+00 1.425113e+00 1.568431e+00 1.451569e+00 3.898712e-01 3.301625e-01 3.120900e-01 6.490422e-01 3.521070e-01 3.303623e-01 3.973868e-01 3.821742e-01 4.414062e-01 4.049647e-01 2.409567e-01 3.709062e-01 3.315459e-01
<GCONST> 1.052205e+02
<STATE> 4
<MEAN> 39
 -1.730633e+01 -1.474655e+01 -1.982684e+00 3.151862e+00 -5.088794e+00 -1.569131e+01 -2.955895e+00 6.167500e+00 -4.421031e-01 -6.316850e+00 1.017783e+00 -5.245329e+00 6.933247e+01 6.410147e+00 6.483992e-01 -2.177809e+00 -3.815199e+00 -6.526574e-01 3.449890e+00 -1.758136e+00 -1.477382e+00 -4.196239e-01 1.274208e+00 -6.597562e-01 -1.432494e+00 2.861676e-01 9.600191e-01 4.769005e-02 1.082759e-01 -8.659356e-01 -3.157093e-01 1.494581e+00 -3.341025e-01 -4.837986e-01 -1.661641e-01 4.744460e-01 9.468774e-02 -3.694065e-01 1.272246e-01
<VARIANCE> 39
 1.136101e+02 2.136650e+01 2.301013e+01 3.556963e+01 2.002509e+01 3.429363e+01 2.411123e+01 2.289991e+01 2.589728e+01 2.181454e+01 1.709991e+01 1.583861e+01 1.626410e+01 7.287814e+00 2.355254e+00 1.651831e+00 3.152648e+00 1.924595e+00 8.473535e+00 2.502645e+00 3.461006e+00 2.464695e+00 3.079554e+00 1.689529e+00 1.756547e+00 1.465546e+00 2.335689e+00 7.222584e-01 4.617027e-01 4.673083e-01 4.026250e-01 6.260744e-01 4.206608e-01 5.377327e-01 5.565003e-01 4.551570e-01 4.680491e-01 3.882968e-01 3.650430e-01
<GCONST> 1.187315e+02
<TRANSP> 5
 0.000000e+00 1.000000e+00 0.000000e+00 0.000000e+00 0.000000e+00
 0.000000e+00 7.821902e-01 2.178098e-01 0.000000e+00 0.000000e+00
 0.000000e+00 0.000000e+00 8.647814e-01 1.352185e-01 0.000000e+00
 0.000000e+00 0.000000e+00 0.000000e+00 7.606238e-01 2.393762e-01
 0.000000e+00 0.000000e+00 0.000000e+00 0.000000e+00 0.000000e+00
<ENDHMM>
~h "si"
<BEGINHMM>
<NUMSTATES> 5
<STATE> 2
<MEAN> 39
 8.549801e+00 -7.386951e+00 2.206522e+00 -2.877190e+01 -1.969649e+01 1.797887e+01 -1.795280e+01 4.581839e-01 -3.397549e+00 -4.479404e+00 -9.094000e-01 -1.768328e+00 7.207360e+01 1.544718e-01 -1.857810e+00 1.155895e-01 -7.712929e-01 1.865623e-02 4.042775e-01 -1.177830e+00 3.905410e-01 -4.761251e-01 1.528208e+00 -8.016927e-04 -5.036773e-01 1.979409e+00 -5.272227e-01 1.047015e-01 -3.368182e-01 6.931447e-01 4.405366e-01 -4.667831e-01 2.712927e-01 1.868614e-01 -8.702122e-02 3.262524e-01 5.136263e-03 -3.138743e-01 -4.597667e-01
<VARIANCE> 39
 8.345085e+00 3.945741e+01 2.494178e+01 1.463153e+02 3.798742e+01 6.489610e+01 1.372202e+01 2.628710e+01 4.160269e+01 3.435749e+01 3.959631e+01 1.748129e+01 3.266985e+01 2.873578e+00 3.631393e+00 2.400522e+00 1.075260e+01 3.422220e+00 4.324638e+00 3.112752e+00 1.802669e+00 2.496073e+00 2.614969e+00 1.667938e+00 2.295030e+00 6.062487e+00 7.024032e-01 4.776695e-01 4.885982e-01 1.226420e+00 6.463253e-01 6.247633e-01 6.481478e-01 7.061504e-01 7.472402e-01 4.637036e-01 3.884048e-01 3.466197e-01 2.682303e-01
<GCONST> 1.240281e+02
<STATE> 3
<MEAN> 39
 3.452910e+00 -1.775454e+01 4.035151e-01 -1.676387e+01 -1.509373e+01 8.212352e+00 -2.098324e+01 1.003277e+01 -4.759226e+00 3.215243e+00 -6.991946e+00 -8.446382e+00 7.766391e+01 -3.748727e-01 -1.632570e-01 -4.064058e-01 3.373865e-01 5.379832e-01 -5.508946e-01 5.795109e-01 6.689196e-01 -1.568197e-01 -2.442569e-01 -2.841296e-01 -1.305692e-01 3.684710e-01 -1.992039e-01 3.104103e-01 -6.403764e-02 1.807720e-01 8.803789e-02 -1.290658e-01 4.028588e-01 -2.499230e-01 1.349916e-01 -3.010786e-01 1.289893e-01 1.112803e-01 -1.883950e-01
<VARIANCE> 39
 7.613055e+00 2.286873e+01 3.602332e+01 6.390672e+01 4.066648e+01 9.053938e+01 2.602865e+01 9.009923e+01 5.065242e+01 4.632238e+01 4.800538e+01 3.474684e+01 1.587823e+01 8.846607e-01 3.052766e+00 2.355573e+00 7.580298e+00 2.438401e+00 6.733908e+00 4.591223e+00 9.202110e+00 4.214304e+00 4.348198e+00 2.240129e+00 4.258070e+00 2.375898e+00 3.429571e-01 3.027330e-01 4.527017e-01 6.144567e-01 4.228063e-01 8.185830e-01 7.830347e-01 1.517394e+00 8.392733e-01 8.462919e-01 3.932438e-01 8.188000e-01 2.464549e-01
<GCONST> 1.276325e+02
<STATE> 4
<MEAN> 39
 -1.294079e+01 -3.330854e+00 -5.885808e+00 -5.194438e+00 -3.712611e+00 -4.619863e+00 -2.815712e+00 -1.160956e+00 -1.470990e+00 -5.183065e+00 -3.352773e+00 -3.794865e+00 7.203844e+01 -2.347511e-01 4.929815e-01 8.357823e-02 7.839215e-02 3.553476e-01 -4.597634e-01 -3.700850e-01 -9.400993e-01 3.201244e-01 -1.426143e-02 2.519084e-01 -1.531094e-01 -1.624195e-01 2.023933e-01 -1.673435e-01 9.649499e-02 -2.240637e-01 -8.659691e-02 1.744138e-01 -3.845667e-01 8.959350e-02 -8.861091e-02 1.009024e-01 -1.877300e-03 -6.700259e-02 8.984774e-02
<VARIANCE> 39
 8.947477e+01 5.457108e+01 2.764044e+01 3.070161e+01 7.278906e+01 2.794505e+01 5.422467e+01 8.710473e+01 2.493053e+01 2.271809e+01 1.916332e+01 1.639291e+01 3.068787e+01 7.222082e+00 3.129141e+00 2.565305e+00 3.355134e+00 2.376786e+00 3.527165e+00 8.830362e+00 3.903989e+00 2.792397e+00 2.523951e+00 1.806380e+00 1.745860e+00 1.578542e+00 7.226986e-01 5.337722e-01 3.595649e-01 3.819899e-01 4.444185e-01 5.172835e-01 8.708600e-01 7.646853e-01 4.711351e-01 3.860983e-01 3.278174e-01 3.046973e-01 2.637973e-01
<GCONST> 1.228449e+02
<TRANSP> 5
 0.000000e+00 1.000000e+00 0.000000e+00 0.000000e+00 0.000000e+00
 0.000000e+00 7.915078e-01 2.084922e-01 0.000000e+00 0.000000e+00
 0.000000e+00 0.000000e+00 9.072196e-01 9.278037e-02 0.000000e+00
 0.000000e+00 0.000000e+00 0.000000e+00 9.355668e-01 6.443322e-02
 0.000000e+00 0.000000e+00 0.000000e+00 0.000000e+00 0.000000e+00
<ENDHMM>
~h "sp"
<BEGINHMM>
<NUMSTATES> 3
<STATE> 2
~s "silst"
<TRANSP> 3
 0.000000e+00 8.916078e-02 9.108392e-01
 0.000000e+00 8.019548e-01 1.980452e-01
 0.000000e+00 0.000000e+00 0.000000e+00
<ENDHMM>
~h "un"
<BEGINHMM>
<NUMSTATES> 5
<STATE> 2
<MEAN> 39
 -6.861810e-01 -6.675844e+00 -1.006084e+01 -1.152089e+01 -2.605487e+00 3.686482e-02 -6.196283e+00 -6.776223e+00 -3.104568e+00 -2.127852e+00 2.012697e+00 3.559601e-01 6.018138e+01 -2.010962e+00 -4.203565e-01 -5.937224e-01 4.378596e-01 2.099049e+00 -2.430458e+00 1.126395e+00 -3.365773e-01 6.028579e-01 4.270453e-01 -6.492060e-01 2.159002e-01 1.105360e-01 -6.946386e-02 -1.619784e-03 3.087103e-01 -1.806551e-01 -2.685625e-01 2.293752e-01 -2.065507e-01 3.643117e-03 1.139272e-01 -1.229288e-01 -7.714057e-02 -2.422104e-01 5.562444e-01
<VARIANCE> 39
 4.532430e+01 5.818457e+01 3.770584e+01 3.763562e+01 7.017858e+01 7.369512e+01 3.857922e+01 3.430753e+01 2.787747e+01 2.220059e+01 2.616188e+01 2.488515e+01 1.190669e+02 1.645580e+00 8.930982e+00 4.146955e+00 6.989876e+00 1.057618e+01 1.353759e+01 6.033058e+00 5.434632e+00 3.842839e+00 2.488404e+00 3.164373e+00 2.765846e+00 2.382933e+01 4.453575e-01 2.006546e+00 9.393537e-01 1.511287e+00 2.680045e+00 2.987266e+00 1.043076e+00 1.197155e+00 7.548420e-01 5.488402e-01 6.716866e-01 5.650047e-01 3.071702e+00
<GCONST> 1.441568e+02
<STATE> 3
<MEAN> 39
 -6.355925e+00 -8.591605e+00 -5.128072e+00 -6.257701e+00 1.633004e+00 -1.099969e+01 -4.694463e+00 -1.037808e+01 1.625459e+00 -4.495545e+00 -2.371283e+00 -6.182713e+00 7.604529e+01 1.890593e+00 7.102051e-01 7.705865e-01 9.225730e-01 -1.510500e+00 1.612677e+00 -1.089641e+00 8.189468e-01 2.622326e-01 -9.494734e-01 1.179896e-02 -9.465777e-01 1.012354e-01 3.045142e-01 -1.258668e-01 -2.026511e-01 -2.147690e-01 -4.294718e-01 7.222498e-01 -5.530180e-01 6.681477e-01 3.536470e-02 -1.741736e-01 1.941836e-01 6.057516e-02 -5.542300e-01
<VARIANCE> 39
 5.643307e+01 1.298733e+01 1.255242e+01 1.833281e+01 3.715016e+01 4.328161e+01 2.105230e+01 2.593323e+01 2.396462e+01 2.563724e+01 1.615173e+01 1.427488e+01 5.078893e+01 2.935059e+00 2.474870e+00 3.708581e+00 4.072433e+00 2.943949e+00 5.375459e+00 4.199749e+00 5.892867e+00 3.390078e+00 2.583864e+00 2.305612e+00 2.418981e+00 5.428373e+00 1.058709e+00 6.052961e-01 7.380208e-01 6.253139e-01 1.090061e+00 9.038306e-01 5.557278e-01 5.341703e-01 8.101280e-01 7.174414e-01 5.454386e-01 4.771408e-01 1.107961e+00
<GCONST> 1.252017e+02
<STATE> 4
<MEAN> 39
 1.818320e+00 -9.742352e+00 2.896704e+00 -5.345522e+00 -1.639565e+01 4.639110e+00 -1.747805e+01 4.707250e+00 4.666875e+00 -1.531636e+01 3.732882e+00 -1.125658e+01 7.454674e+01 -3.031420e-01 -1.023699e-01 1.927171e+00 -3.148295e-01 -2.520843e+00 1.242282e+00 -1.215417e+00 1.169000e+00 -2.395461e-01 -1.521997e+00 1.507671e+00 -5.830948e-01 2.143457e-01 -1.806333e-01 1.776918e-01 -6.912687e-02 -3.809944e-03 5.245814e-01 -5.421296e-01 5.918972e-01 -7.553684e-01 -5.475658e-01 3.148296e-01 -1.066385e-01 3.115785e-01 -7.320845e-02
<VARIANCE> 39
 1.179902e+01 9.114772e+00 5.174170e+01 8.345714e+00 8.719001e+01 9.716787e+00 2.285020e+01 2.841393e+01 2.734760e+01 3.143731e+01 4.697378e+01 1.312284e+01 1.087148e+01 1.152071e+00 2.167492e+00 1.787076e+00 1.303482e+00 7.095769e+00 2.282214e+00 8.354724e+00 9.309100e+00 5.247945e+00 4.784005e+00 3.311412e+00 2.373600e+00 2.133347e+00 5.802630e-01 2.759189e-01 6.866410e-01 4.674880e-01 1.188883e+00 3.766544e-01 7.504846e-01 5.721864e-01 4.698961e-01 8.059458e-01 1.089589e+00 3.749208e-01 4.573535e-01
<GCONST> 1.188839e+02
<TRANSP> 5
