~o
<STREAMINFO> 1 39
<VECSIZE> 39<NULLD><MFCC_D_A_0><DIAGC>
~s "silst"
<MEAN> 39
 -1.653505e+01 -1.000065e+00 -8.937756e+00 2.406723e-01 -6.163601e+00 1.749262e+00 -5.283891e+00 -1.736379e+00 -5.092268e+00 -3.874002e+00 -3.469839e+00 -3.040937e+00 3.703764e+01 -1.859620e-01 7.224219e-02 -4.779189e-03 2.843908e-02 -1.263981e-01 -1.682928e-01 -1.535531e-01 -9.386837e-02 1.148918e-01 -3.313370e-02 1.910454e-01 -4.137330e-02 -3.349443e-02 4.214199e-02 9.310067e-02 -1.131663e-02 5.833609e-03 -1.034332e-02 -2.351593e-02 6.021124e-03 9.813054e-03 6.788339e-02 -1.188015e-01 8.214790e-02 -6.384341e-02 1.254507e-01
<VARIANCE> 39
 4.186468e+00 4.399050e+00 7.536618e+00 7.486581e+00 1.125280e+01 1.206798e+01 1.466515e+01 1.597871e+01 1.427069e+01 1.324463e+01 1.379761e+01 1.143052e+01 4.296770e+00 4.582891e-01 6.624063e-01 8.169446e-01 8.929582e-01 1.112839e+00 1.321754e+00 1.482638e+00 1.744973e+00 1.819596e+00 1.770914e+00 1.732710e+00 1.447288e+00 2.143873e-01 1.095050e-01 1.612316e-01 1.802000e-01 1.938437e-01 2.215858e-01 2.678500e-01 3.063679e-01 3.668066e-01 3.827272e-01 3.741623e-01 3.943906e-01 3.151152e-01 3.874438e-02
<GCONST> 8.144938e+01
~h "a"
<BEGINHMM>
<NUMSTATES> 5
<STATE> 2
<MEAN> 39
 -5.010450e+00 -1.400835e+01 -1.434645e+01 -1.166649e+01 5.616965e+00 1.022614e+01 -9.991681e+00 -4.213677e+00 3.186125e+00 -3.504898e+00 -4.810904e+00 -1.186015e+00 6.777362e+01 2.047995e+00 -1.267736e-01 -2.345909e-01 -1.289913e-02 7.652281e-02 3.658547e+00 -2.184930e+00 -2.047790e-01 -1.862562e-01 -2.629505e-01 5.287553e-01 -1.906897e-01 -2.014332e-01 2.231319e-01 2.843572e-01 1.553929e-01 -2.773479e-02 -7.282579e-01 -8.730879e-03 -1.202349e-01 8.596154e-02 -1.975410e-01 -3.110411e-01 2.790070e-01 -4.110404e-01 -3.671300e-02
<VARIANCE> 39
 3.146546e+01 2.481571e+01 1.888071e+01 3.530119e+01 2.761432e+01 8.200474e+01 3.939311e+01 3.047668e+01 2.100652e+01 1.728959e+01 2.802549e+01 1.713760e+01 2.848932e+01 2.326427e+00 4.406199e+00 2.649900e+00 2.468232e+00 6.034554e+00 4.393739e+00 2.946470e+00 3.474671e+00 2.690512e+00 2.899207e+00 2.303117e+00 2.243429e+00 9.545410e-01 5.890781e-01 6.593101e-01 5.668805e-01 5.204132e-01 5.828097e-01 1.498440e+00 7.937076e-01 7.702184e-01 4.812841e-01 6.070802e-01 4.758653e-01 3.572929e-01 4.739422e-01
<GCONST> 1.219903e+02
<STATE> 3
<MEAN> 39
 5.457148e+00 -1.095511e+01 -1.509260e+01 -1.264257e+01 -3.825994e+00 2.429954e+01 -2.018813e+01 -1.358638e+00 -9.934956e-01 -1.248406e+01 2.617310e+00 -7.384467e+00 7.110215e+01 5.723857e-01 -1.350381e-01 -3.940027e-01 -8.582581e-01 -1.415482e+00 1.204000e+00 -6.313092e-01 7.117444e-01 -3.255679e-01 -2.770445e+00 2.241710e+00 -1.313802e+00 8.175618e-01 -4.511713e-01 -3.867304e-02 7.855916e-02 -2.091066e-02 5.624853e-01 -5.393353e-01 6.074564e-01 -2.033596e-01 2.967403e-01 1.089583e-01 -7.488759e-02 3.245740e-01 -2.824238e-01
<VARIANCE> 39
 6.782255e+00 1.411872e+01 1.101498e+01 2.255951e+01 1.431932e+01 1.730286e+01 2.635115e+01 2.887892e+01 2.184463e+01 4.074327e+01 3.128018e+01 1.646102e+01 1.624563e+01 1.172004e+00 1.171422e+00 1.088450e+00 1.044636e+00 2.250234e+00 1.695807e+00 2.325976e+00 1.617925e+00 1.572359e+00 1.648102e+00 1.315464e+00 1.328581e+00 9.327729e-01 2.497279e-01 4.473523e-01 2.164644e-01 3.143173e-01 2.699225e-01 2.089484e-01 2.995255e-01 3.064758e-01 2.469077e-01 4.113952e-01 4.444946e-01 3.116957e-01 1.872341e-01
<GCONST> 9.819353e+01
<STATE> 4
<MEAN> 39
 6.817605e+00 -6.553388e+00 -1.656945e+01 -1.398770e+01 -3.549047e+00 2.230723e+01 -1.564688e+01 -8.686936e-01 -8.968092e-01 -2.121243e+01 8.423026e+00 -7.761492e+00 6.814526e+01 4.045742e-01 8.078501e-01 -2.675997e-01 1.877407e-01 4.745363e-01 -1.031852e+00 1.049041e+00 1.680061e-01 -7.160325e-01 2.355428e-01 -2.192194e-01 2.497031e-01 -9.215153e-01 5.731311e-02 1.073730e-02 -3.905839e-02 9.929037e-02 8.342171e-02 -1.947950e-01 1.149076e-01 4.111871e-02 -2.576346e-01 4.524629e-01 -2.638874e-01 -1.075715e-02 -1.027879e-01
<VARIANCE> 39
 7.252510e+00 2.289845e+01 7.730007e+00 1.577203e+01 1.227473e+01 2.831633e+01 2.808680e+01 2.553494e+01 3.353283e+01 2.720829e+01 2.173473e+01 1.445639e+01 1.858949e+01 5.129332e-01 9.304014e-01 5.346927e-01 1.028925e+00 8.529645e-01 1.365774e+00 1.829264e+00 1.255869e+00 2.095512e+00 2.305126e+00 1.518347e+00 1.180534e+00 5.675882e-01 9.834041e-02 1.785681e-01 1.012263e-01 2.053793e-01 1.849871e-01 2.422570e-01 3.363602e-01 2.190337e-01 2.271536e-01 2.583135e-01 3.267880e-01 2.368401e-01 1.311586e-01
<GCONST> 8.969270e+01
<TRANSP> 5
 0.000000e+00 1.000000e+00 0.000000e+00 0.000000e+00 0.000000e+00
 0.000000e+00 8.355678e-01 1.644322e-01 0.000000e+00 0.000000e+00
 0.000000e+00 0.000000e+00 7.482200e-01 2.517800e-01 0.000000e+00
 0.000000e+00 0.000000e+00 0.000000e+00 8.650341e-01 1.349659e-01
 0.000000e+00 0.000000e+00 0.000000e+00 0.000000e+00 0.000000e+00
<ENDHMM>
~h "b"
<BEGINHMM>
<NUMSTATES> 5
<STATE> 2
<MEAN> 39
 -7.785491e-02 -1.012872e+01 -8.259494e+00 -2.129124e+01 -8.866978e+00 1.373035e+01 -9.264670e+00 -1.805292e+00 -2.757342e+00 -1.801073e+00 -7.418805e-01 -6.815294e+00 6.948275e+01 -1.322293e-01 5.569269e-01 -3.419014e-01 3.001910e-01 1.348346e-02 1.159299e-01 4.335018e-01 -2.941164e-01 -2.597239e-02 5.283328e-02 2.987705e-01 5.876634e-01 -1.592832e+00 6.695091e-02 -1.353867e-02 6.803934e-02 6.623834e-02 -8.401320e-02 -2.961841e-01 -7.134015e-02 1.415054e-01 5.001351e-02 -1.787685e-02 -5.515567e-02 -2.529631e-02 1.619722e-01
<VARIANCE> 39
 3.150087e+01 4.786011e+01 2.192713e+01 8.144402e+01 1.358389e+01 6.383747e+01 6.642001e+01 2.720422e+01 3.294090e+01 1.277649e+01 2.005065e+01 2.379103e+01 2.524577e+02 1.862944e+00 1.292661e+00 1.914957e+00 4.519688e+00 1.799230e+00 4.913094e+00 3.933882e+00 2.395837e+00 3.158393e+00 1.766170e+00 1.381314e+00 1.722629e+00 3.984389e+00 3.313595e-01 2.473338e-01 3.315145e-01 9.644504e-01 4.348786e-01 8.827441e-01 7.146844e-01 5.082694e-01 5.332596e-01 2.785254e-01 3.060658e-01 3.516231e-01 8.297309e-01
<GCONST> 1.199820e+02
<STATE> 3
<MEAN> 39
 5.801433e-02 1.165156e+00 -3.397520e+00 -8.340004e+00 -1.086382e+01 1.192216e+00 -7.877792e+00 -2.607767e+00 -3.386813e-02 -1.554093e+00 -4.352317e+00 -2.259640e+00 5.469505e+01 2.407149e+00 -2.193712e+00 1.465203e+00 -2.712336e+00 -9.415193e-01 2.811902e-01 -1.613868e+00 -3.731906e-01 9.311222e-01 -7.839804e-01 -6.953137e-01 -1.955821e-01 5.573507e+00 2.206711e-02 -8.757836e-01 -6.358016e-02 -7.687652e-01 -1.435678e-01 8.901719e-01 -3.110634e-01 1.832932e-01 -3.277102e-02 -1.959742e-01 -1.925375e-02 -1.568834e-01 9.074093e-01
<VARIANCE> 39
 5.647523e+01 8.183866e+01 1.127598e+02 1.208716e+02 4.764843e+01 7.983290e+01 4.620819e+01 2.931436e+01 4.265135e+01 4.888461e+01 6.641209e+01 2.265296e+01 1.066583e+02 4.809459e+00 7.552879e+00 5.632712e+00 1.467720e+01 4.360746e+00 1.229916e+01 6.233452e+00 3.930147e+00 4.056565e+00 5.899932e+00 3.067907e+00 2.727892e+00 7.424917e+00 1.408584e+00 9.358663e-01 1.400079e+00 2.132161e+00 6.633970e-01 1.823812e+00 8.228530e-01 7.847344e-01 7.050015e-01 1.030624e+00 5.708480e-01 5.041845e-01 2.537189e+00
<GCONST> 1.477013e+02
<STATE> 4
<MEAN> 39
 9.817119e-01 -1.507723e+01 -2.337324e+00 -1.430791e+01 -1.464801e+01 5.604950e+00 -1.085778e+01 4.799937e+00 1.346696e+00 -4.027240e+00 -6.418213e+00 -6.716799e+00 7.428957e+01 -2.377597e-01 -4.508517e-01 -5.035735e-01 -2.653438e-01 3.377811e-01 5.548676e-01 1.513042e-01 -2.452660e-01 -4.231698e-02 3.717098e-02 1.896213e-02 -1.032258e-01 6.683095e-01 -6.444954e-02 1.158594e-01 -4.679048e-02 1.599943e-01 4.786117e-02 -2.828688e-02 3.701610e-02 -4.046049e-02 -3.016758e-03 -8.463671e-03 5.460345e-03 6.932399e-02 -2.155732e-01
<VARIANCE> 39
 3.004372e+01 4.021682e+01 4.855267e+01 9.608817e+01 4.518353e+01 1.024396e+02 7.503910e+01 1.074635e+02 2.875642e+01 5.468158e+01 5.015808e+01 2.908525e+01 1.363798e+02 1.923373e+00 2.891648e+00 2.663065e+00 5.933311e+00 2.638481e+00 6.695612e+00 4.435096e+00 6.685926e+00 2.335888e+00 4.021636e+00 3.029042e+00 3.336380e+00 1.061569e+01 3.882656e-01 3.923934e-01 4.009852e-01 9.157236e-01 4.179595e-01 1.065029e+00 8.181307e-01 1.117119e+00 4.381401e-01 6.876941e-01 5.575984e-01 6.984370e-01 1.340049e+00
<GCONST> 1.362385e+02
<TRANSP> 5
 0.000000e+00 1.000000e+00 0.000000e+00 0.000000e+00 0.000000e+00
 0.000000e+00 8.979462e-01 1.020538e-01 0.000000e+00 0.000000e+00
 0.000000e+00 0.000000e+00 7.462174e-01 2.537827e-01 0.000000e+00
 0.000000e+00 0.000000e+00 0.000000e+00 9.568009e-01 4.319915e-02
 0.000000e+00 0.000000e+00 0.000000e+00 0.000000e+00 0.000000e+00
<ENDHMM>
~h "d"
<BEGINHMM>
<NUMSTATES> 5
<STATE> 2
<MEAN> 39
 2.489316e+00 -2.355892e+01 -1.046116e+00 -9.865748e+00 -1.582548e+01 7.772395e+00 -1.276232e+01 1.642025e+01 -3.139904e+00 -1.448324e+01 -6.147029e+00 -1.185565e+01 6.851858e+01 -5.945678e-01 5.380343e-02 1.396070e-01 -1.771887e-02 -7.781177e-01 -6.584468e-01 1.399583e+00 2.386155e-01 -2.849209e-01 -1.828432e-02 -1.280355e-01 3.581856e-02 -9.935361e-01 -7.184335e-01 4.473709e-01 -4.455575e-01 3.944989e-01 4.680814e-01 -2.694483e-01 4.313609e-01 -1.785748e-01 3.903122e-02 4.314810e-01 -3.038329e-01 2.747407e-01 -7.104215e-01
<VARIANCE> 39
 1.309019e+01 1.892023e+01 1.519037e+01 1.442667e+01 1.810780e+01 2.178117e+01 3.436769e+01 1.517120e+01 1.727448e+01 1.772884e+01 1.631504e+01 8.130532e+00 1.586318e+01 1.304207e+00 1.631002e+00 1.371569e+00 1.029665e+00 1.935334e+00 1.242677e+00 1.670611e+00 1.390578e+00 2.525012e+00 1.990986e+00 1.445003e+00 9.848919e-01 1.926143e+00 3.600725e-01 3.709110e-01 3.079126e-01 2.783931e-01 4.334393e-01 2.643898e-01 2.726925e-01 2.956047e-01 3.360338e-01 3.781073e-01 2.926644e-01 1.655507e-01 3.466513e-01
<GCONST> 9.832865e+01
<STATE> 3
<MEAN> 39
 -4.155402e+00 -1.897423e+01 -3.583012e+00 -7.655021e+00 -1.410147e+01 3.539691e+00 -5.134044e+00 1.643601e+01 -5.259803e+00 -1.104287e+01 -9.443105e+00 -9.040259e+00 6.093059e+01 -2.621924e+00 1.379497e+00 -1.349243e+00 2.005757e+00 1.175343e+00 -1.403807e+00 3.200788e+00 -6.496339e-01 4.096275e-02 1.526937e+00 -6.363358e-01 1.438162e+00 -3.598065e+00 -5.861460e-02 -2.041765e-02 -2.953280e-01 5.781648e-01 7.187067e-02 -5.864766e-02 3.761627e-01 -3.083146e-01 3.292211e-01 1.012011e-01 1.484277e-01 3.321459e-01 -3.353077e-01
<VARIANCE> 39
 8.395689e+00 2.236267e+01 1.290548e+01 1.621942e+01 1.423771e+01 2.189929e+01 2.616055e+01 2.076711e+01 3.462050e+01 2.524523e+01 1.886667e+01 1.566243e+01 3.153019e+01 1.010885e+00 1.687086e+00 1.717113e+00 1.514937e+00 2.831925e+00 1.290084e+00 1.696786e+00 1.871886e+00 3.167405e+00 1.940199e+00 1.904261e+00 1.133801e+00 1.866458e+00 3.603164e-01 3.543360e-01 3.677913e-01 2.324610e-01 3.700639e-01 2.182386e-01 4.088398e-01 3.887099e-01 7.217064e-01 5.446750e-01 2.995222e-01 2.267085e-01 4.250599e-01
<GCONST> 1.040074e+02
<STATE> 4
<MEAN> 39
 -7.850101e+00 -1.640343e+01 -7.144058e+00 1.007171e-01 -1.072193e+01 2.194300e+00 2.222306e+00 1.363360e+01 -7.462445e-01 -8.209234e+00 -8.436849e+00 -4.798693e+00 5.195498e+01 -1.030328e+00 3.011259e-01 -7.359731e-01 1.570741e+00 -2.942993e-01 -1.429345e+00 2.340266e+00 -4.020178e-01 -1.359616e-01 5.969186e-01 -2.550064e-01 9.609799e-01 -1.768811e+00 4.610950e-01 -1.931939e-01 2.823092e-01 -3.766003e-01 -4.277115e-01 -1.989253e-01 -5.946310e-01 7.716157e-02 -5.095262e-01 -4.154598e-01 -1.144223e-05 -1.207656e-01 7.176145e-01
<VARIANCE> 39
 6.147321e+00 1.322437e+01 1.442028e+01 1.552672e+01 2.478678e+01 1.871338e+01 3.564663e+01 1.659466e+01 2.239799e+01 1.821789e+01 1.934270e+01 1.006066e+01 7.964804e+00 1.208340e+00 1.826537e+00 2.343276e+00 1.694335e+00 2.499525e+00 1.436753e+00 2.897884e+00 2.891500e+00 3.699903e+00 1.817509e+00 2.159323e+00 1.836918e+00 2.127286e+00 1.885672e-01 2.722830e-01 3.512029e-01 2.549433e-01 4.493969e-01 3.096848e-01 3.721578e-01 4.850048e-01 5.358582e-01 3.400413e-01 5.715092e-01 3.132450e-01 2.009690e-01
<GCONST> 1.028856e+02
<TRANSP> 5
 0.000000e+00 1.000000e+00 0.000000e+00 0.000000e+00 0.000000e+00
 0.000000e+00 5.088246e-01 4.911753e-01 0.000000e+00 0.000000e+00
 0.000000e+00 0.000000e+00 4.559994e-01 5.440006e-01 0.000000e+00
 0.000000e+00 0.000000e+00 0.000000e+00 6.777560e-01 3.222440e-01
 0.000000e+00 0.000000e+00 0.000000e+00 0.000000e+00 0.000000e+00
<ENDHMM>
~h "e"
<BEGINHMM>
<NUMSTATES> 5
<STATE> 2
<MEAN> 39
 7.591630e+00 -8.999870e+00 -8.422929e+00 -2.433051e+01 -8.396266e+00 2.554875e+01 -1.326140e+01 2.054384e+00 -5.210541e+00 -6.408625e+00 -2.347527e-02 -2.044472e+00 7.002042e+01 -1.195733e+00 2.134499e+00 -1.459601e-02 1.004954e+00 3.200976e+00 -1.356236e+00 1.771791e+00 -1.232315e+00 1.895467e+00 -4.484383e-01 -9.339314e-01 2.182270e+00 -2.175048e+00 -8.877530e-01 9.004870e-02 -2.555700e-03 -4.763529e-02 6.291881e-01 -6.774028e-01 6.849770e-02 -4.531069e-01 5.495935e-01 -3.155827e-01 1.107035e-01 -7.606571e-02 -3.306208e-02
<VARIANCE> 39
 6.628360e+00 2.053520e+01 1.038724e+01 1.839752e+01 3.372434e+01 1.752480e+01 2.994939e+01 1.361998e+01 2.128983e+01 1.359956e+01 1.756898e+01 2.806383e+01 2.092843e+01 3.011052e+00 1.146595e+00 1.108937e+00 1.333189e+00 3.798691e+00 4.380148e+00 2.835093e+00 2.134917e+00 3.225441e+00 1.928075e+00 1.548063e+00 1.612481e+00 5.628918e-01 2.116655e-01 4.782237e-01 2.516216e-01 3.274063e-01 5.856940e-01 5.754592e-01 6.264530e-01 2.947082e-01 4.140231e-01 3.210854e-01 2.571440e-01 5.718670e-01 2.354958e-01
<GCONST> 1.046116e+02
<STATE> 3
<MEAN> 39
 -1.028275e+01 -5.295278e+00 -1.521797e+01 -2.598224e+01 8.014644e+00 1.385087e+01 -5.190479e+00 -3.675758e+00 2.567050e+00 -1.268551e+01 2.537977e+00 1.192932e+00 6.050966e+01 -6.514095e-01 8.168763e-03 -4.656966e-01 -1.272755e-01 2.801985e-01 -3.752813e-01 3.946728e-01 -1.327173e-01 -1.944326e-01 -1.525775e-01 4.662918e-01 8.321377e-03 -6.317911e-01 4.533021e-01 -4.996953e-02 1.964655e-01 6.033119e-02 -5.164773e-01 2.744433e-01 -2.044744e-01 1.097948e-01 -2.229416e-01 1.846411e-01 4.360690e-02 -9.533460e-02 1.538556e-01
<VARIANCE> 39
 2.558472e+01 1.737407e+01 3.069983e+01 2.787261e+01 2.572443e+01 3.423323e+01 3.269367e+01 2.396990e+01 2.983413e+01 2.383865e+01 2.954269e+01 1.789653e+01 2.387040e+01 3.814556e+00 1.470191e+00 2.438781e+00 2.518214e+00 3.424185e+00 3.959697e+00 2.457417e+00 2.677821e+00 3.029835e+00 2.956373e+00 1.992493e+00 1.854158e+00 6.899477e-01 2.485831e-01 3.161612e-01 4.518144e-01 4.480968e-01 6.534810e-01 6.332721e-01 6.099182e-01 5.358288e-01 5.631164e-01 5.316601e-01 4.092499e-01 4.542194e-01 2.716406e-01
<GCONST> 1.148060e+02
<STATE> 4
<MEAN> 39
 1.887096e-02 -6.229610e+00 -3.387847e+00 -1.731386e+01 -7.351443e+00 9.228078e+00 -1.813412e+01 -6.926340e-01 -2.580024e+00 -5.571949e-02 2.796808e+00 -6.384079e+00 6.975182e+01 3.254222e-01 -5.977588e-02 5.247125e-01 5.868233e-01 -1.512533e-01 -6.738789e-01 -5.470310e-01 5.388457e-01 8.884108e-02 6.373162e-01 -8.319092e-01 -3.130957e-01 1.040848e+00 -5.942049e-02 -8.144124e-02 -2.080613e-01 -1.866349e-01 2.111685e-01 2.356064e-01 -6.792887e-02 1.131238e-01 5.087750e-02 -7.030367e-02 -6.742011e-02 2.019787e-02 3.603654e-02
<VARIANCE> 39
 4.865102e+01 2.368342e+01 2.446059e+01 7.863385e+01 1.099927e+02 1.677300e+02 1.536577e+02 3.138197e+01 2.476591e+01 4.757102e+01 5.322017e+01 4.560488e+01 7.253443e+01 8.500588e+00 3.221619e+00 4.433435e+00 6.323567e+00 1.498828e+01 1.356449e+01 2.003016e+01 3.943458e+00 3.230642e+00 4.244340e+00 4.247163e+00 4.849780e+00 1.033031e+01 1.427647e+00 6.501908e-01 6.025527e-01 1.146365e+00 1.778646e+00 2.159233e+00 3.186663e+00 8.080463e-01 6.823819e-01 6.122290e-01 8.195625e-01 7.000186e-01 1.964826e+00
<GCONST> 1.491425e+02
<TRANSP> 5
 0.000000e+00 1.000000e+00 0.000000e+00 0.000000e+00 0.000000e+00
 0.000000e+00 7.684410e-01 2.315590e-01 0.000000e+00 0.000000e+00
 0.000000e+00 0.000000e+00 9.338919e-01 6.610812e-02 0.000000e+00
 0.000000e+00 0.000000e+00 0.000000e+00 9.417281e-01 5.827199e-02
 0.000000e+00 0.000000e+00 0.000000e+00 0.000000e+00 0.000000e+00
<ENDHMM>
~h "h"
<BEGINHMM>
<NUMSTATES> 5
<STATE> 2
<MEAN> 39
 4.355385e+00 -1.295352e+01 -9.368233e+00 -1.356102e+01 -5.413406e+00 6.747601e+00 -1.466834e+01 6.216716e+00 -5.074458e+00 3.552127e+00 -8.179007e+00 -1.355774e+01 7.706111e+01 1.519297e+00 -1.727428e+00 -7.095292e-01 -4.061850e+00 -8.206736e-01 5.139320e+00 -2.147868e+00 -7.450109e-01 -1.631518e+00 1.386007e+00 1.993916e+00 -2.417117e+00 6.968725e-01 -6.265355e-01 2.234447e-02 7.122461e-01 1.143942e-01 -7.377096e-01 1.072600e-01 6.880627e-01 -7.103023e-01 -1.984076e-01 -8.545669e-01 7.773268e-01 9.008124e-01 -3.168251e-01
<VARIANCE> 39
 3.674201e+00 8.020507e+00 7.651095e+00 1.170967e+01 1.448364e+01 2.178790e+01 1.513251e+01 1.374454e+01 1.172819e+01 9.836027e+00 1.700973e+01 1.464284e+01 5.361051e+00 8.536447e-01 5.598707e-01 1.414132e+00 1.841272e+00 1.365993e+00 1.576295e+00 1.952735e+00 2.084683e+00 1.425507e+00 2.187502e+00 1.712543e+00 2.328424e+00 4.587043e-01 1.335451e-01 2.087432e-01 1.759993e-01 4.128651e-01 2.648495e-01 4.028614e-01 3.355109e-01 5.324159e-01 3.610211e-01 2.398502e-01 3.858827e-01 3.076342e-01 1.105721e-01
<GCONST> 8.978144e+01
<STATE> 3
<MEAN> 39
 5.031017e+00 -1.632295e+01 -6.977178e+00 -2.215026e+01 -9.066630e+00 1.833373e+01 -1.752381e+01 3.429491e+00 -8.349069e+00 2.937687e+00 -2.279963e+00 -1.355424e+01 7.747409e+01 8.455341e-02 -1.874493e-01 3.375130e-01 -2.353369e+00 -1.525665e+00 3.729279e+00 -6.337376e-01 -7.685128e-01 -5.852906e-01 -1.084735e+00 1.969946e+00 6.962495e-01 -7.695242e-02 -2.079292e-01 5.816894e-01 -9.637893e-02 7.879605e-01 -3.876462e-02 -7.805522e-01 4.819449e-01 1.685582e-01 5.011123e-01 -6.108509e-01 -2.874785e-01 6.572057e-01 -2.040617e-01
<VARIANCE> 39
 3.466750e+00 4.713346e+00 6.438671e+00 1.203873e+01 1.105005e+01 1.878271e+01 1.385835e+01 1.070445e+01 1.350639e+01 1.250233e+01 1.794878e+01 1.830723e+01 5.339617e+00 2.380354e-01 6.148182e-01 6.409786e-01 1.101270e+00 8.429851e-01 1.452483e+00 1.278895e+00 9.739675e-01 9.484524e-01 8.689083e-01 8.708458e-01 8.895566e-01 1.556138e-01 9.707011e-02 7.975472e-02 1.413639e-01 1.305543e-01 1.371593e-01 1.722594e-01 1.846204e-01 1.822289e-01 1.468216e-01 1.839016e-01 1.989610e-01 3.794842e-01 4.005730e-02
<GCONST> 7.219441e+01
<STATE> 4
<MEAN> 39
 6.175768e+00 -1.402994e+01 -8.112960e+00 -2.594875e+01 -1.450497e+01 2.651929e+01 -1.714269e+01 2.397748e+00 -6.912419e+00 -4.735793e+00 2.939275e+00 -9.485614e+00 7.614509e+01 3.359620e-01 3.060989e-01 -2.559770e-03 -4.040321e-01 -4.073158e-01 6.932235e-01 1.367691e-01 1.213468e-01 1.759924e-01 -1.083618e+00 3.810150e-01 6.653830e-01 -3.903034e-01 3.911197e-02 7.332687e-02 4.083241e-03 2.377862e-01 2.834157e-01 -3.707725e-01 1.324609e-01 6.886521e-02 4.091806e-02 1.394753e-01 -2.863306e-01 1.845031e-02 -1.395410e-01
<VARIANCE> 39
 4.837597e+00 4.948464e+00 4.704993e+00 1.093743e+01 1.732345e+01 2.274154e+01 2.219534e+01 1.340909e+01 1.269539e+01 1.889167e+01 1.462982e+01 1.476611e+01 7.167260e+00 2.569811e-01 3.129719e-01 2.891993e-01 4.954892e-01 1.034069e+00 1.542248e+00 1.063099e+00 6.645358e-01 5.894420e-01 5.804930e-01 7.892076e-01 7.465756e-01 2.353256e-01 4.773283e-02 1.064274e-01 6.660016e-02 1.039793e-01 1.375832e-01 2.161445e-01 2.512250e-01 1.549834e-01 1.244871e-01 8.569413e-02 1.281404e-01 1.645662e-01 5.816356e-02
<GCONST> 6.763793e+01
<TRANSP> 5
 0.000000e+00 1.000000e+00 0.000000e+00 0.000000e+00 0.000000e+00
 0.000000e+00 5.585390e-01 4.414610e-01 0.000000e+00 0.000000e+00
 0.000000e+00 0.000000e+00 6.080301e-01 3.919698e-01 0.000000e+00
 0.000000e+00 0.000000e+00 0.000000e+00 8.726906e-01 1.273094e-01
 0.000000e+00 0.000000e+00 0.000000e+00 0.000000e+00 0.000000e+00
<ENDHMM>
~h "i"
<BEGINHMM>
<NUMSTATES> 5
<STATE> 2
<MEAN> 39
 1.421637e+00 -8.127171e+00 3.745236e+00 -1.024375e+01 -1.276217e+01 1.011985e+00 -1.824510e+01 3.372208e+00 -9.308465e+00 -2.417680e+00 3.191857e+00 -9.702010e+00 7.162670e+01 4.145472e-02 7.556142e-01 -3.817573e-01 1.653479e+00 8.574235e-01 -1.232409e+00 1.387366e+00 -7.436669e-01 -2.460252e-01 -3.480772e-01 -3.302931e-01 7.609063e-01 -1.600641e+00 -4.526156e-01 1.216119e-01 -2.085638e-01 -1.763275e-01 4.968282e-02 -3.302994e-02 6.434783e-01 -3.335895e-01 2.684629e-01 -1.378869e-01 1.176535e-03 5.415563e-02 1.342332e-01
<VARIANCE> 39
 3.548569e+01 3.908314e+01 9.347588e+01 4.466943e+01 5.108522e+01 7.375330e+01 7.794236e+01 1.160648e+02 7.406495e+01 6.572414e+01 7.478609e+01 4.421859e+01 5.138475e+01 4.572899e+00 3.139198e+00 6.159873e+00 7.377741e+00 3.961011e+00 7.909015e+00 8.008332e+00 6.014956e+00 4.642344e+00 4.741351e+00 4.709641e+00 4.187349e+00 4.451466e+00 5.661604e-01 6.230278e-01 5.754631e-01 7.173452e-01 1.014731e+00 1.079036e+00 1.282475e+00 1.349167e+00 9.346750e-01 9.743707e-01 8.836601e-01 7.712942e-01 5.764729e-01
<GCONST> 1.441776e+02
<STATE> 3
<MEAN> 39
 6.565339e+00 -2.805165e+00 3.011458e+00 -2.121770e+00 -1.210706e+01 1.371493e+00 -8.374474e+00 -6.091020e+00 -1.546860e+01 -6.328548e+00 4.208745e+00 -9.145440e+00 6.245659e+01 -6.130875e-01 1.786330e+00 -8.585632e-01 7.679868e-01 7.927033e-01 -1.045760e+00 2.151839e+00 -9.281749e-01 9.060986e-02 -4.618022e-01 -7.413130e-01 1.057207e+00 -1.439606e+00 -1.171094e+00 2.982303e-01 4.250082e-01 -9.996240e-01 3.169503e-01 2.981738e-01 -6.441435e-02 3.065134e-01 5.525528e-01 1.905474e-01 -9.412943e-02 -7.402502e-02 4.838907e-01
<VARIANCE> 39
 3.447627e+01 3.543042e+01 3.819189e+01 3.432228e+01 2.067035e+01 3.046238e+01 2.185537e+01 4.882022e+01 8.315134e+01 2.355440e+01 3.929645e+01 2.288388e+01 3.255273e+01 6.388686e+00 2.757205e+00 2.602966e+00 4.454017e+00 2.636230e+00 4.610332e+00 3.880180e+00 3.108690e+00 2.914522e+00 2.075179e+00 2.162440e+00 1.466956e+00 1.993676e+00 4.862112e-01 5.408903e-01 5.969277e-01 5.613301e-01 7.439328e-01 1.113448e+00 3.826929e-01 4.881540e-01 5.590241e-01 3.610815e-01 2.982145e-01 4.125731e-01 6.620178e-01
<GCONST> 1.227937e+02
<STATE> 4
<MEAN> 39
 -5.770902e+00 -1.527099e+00 -4.957373e-01 -8.451216e+00 -5.917929e+00 -4.249390e+00 -3.812495e+00 -4.960262e+00 -5.836753e+00 -4.844523e+00 -2.282964e-01 -5.078815e+00 6.642508e+01 -3.154484e+00 1.025604e+00 -4.527633e-01 -4.536909e-01 2.359633e+00 -1.249697e+00 1.473109e+00 -1.658754e-01 1.198052e+00 4.330858e-02 -5.640548e-01 9.332793e-01 7.775044e-01 -9.628358e-02 -5.931160e-01 -1.527239e-01 -1.935297e-01 2.224869e-01 6.089740e-01 -8.904235e-01 5.848699e-01 1.965960e-01 3.506161e-01 -9.934827e-02 -9.930789e-02 2.555951e-01
<VARIANCE> 39
 1.060231e+02 5.964236e+01 6.922892e+01 4.096944e+01 4.943853e+01 6.727879e+01 5.291011e+01 4.231803e+01 8.665257e+01 2.631242e+01 4.420933e+01 3.125087e+01 7.175658e+01 9.030516e+00 3.549458e+00 3.402823e+00 3.858055e+00 5.424992e+00 7.314120e+00 6.506712e+00 5.595703e+00 5.054801e+00 3.430346e+00 4.105899e+00 3.389123e+00 5.549318e+00 2.382962e+00 5.670197e-01 4.688777e-01 7.114006e-01 1.073278e+00 2.312199e+00 1.178236e+00 7.031977e-01 8.976800e-01 5.613410e-01 6.056114e-01 5.836543e-01 9.525596e-01
<GCONST> 1.421065e+02
<TRANSP> 5
 0.000000e+00 1.000000e+00 0.000000e+00 0.000000e+00 0.000000e+00
 0.000000e+00 6.789877e-01 3.210123e-01 0.000000e+00 0.000000e+00
 0.000000e+00 0.000000e+00 6.141784e-01 3.858217e-01 0.000000e+00
 0.000000e+00 0.000000e+00 0.000000e+00 5.076901e-01 4.923100e-01
 0.000000e+00 0.000000e+00 0.000000e+00 0.000000e+00 0.000000e+00
<ENDHMM>
~h "j"
<BEGINHMM>
<NUMSTATES> 5
<STATE> 2
<MEAN> 39
 2.438556e+00 -8.265665e+00 -7.032192e-01 -1.553711e+01 -1.221071e+01 6.738848e+00 -2.121280e+01 4.076198e-01 -4.328390e+00 3.571767e-01 4.370122e+00 -8.921704e+00 7.058762e+01 4.119634e-02 2.762812e-01 6.254396e-01 2.647814e-01 3.393957e-01 -1.299996e+00 -6.292394e-01 6.328392e-01 -3.285394e-01 -1.040247e-01 -2.230448e-01 1.772733e-01 5.209941e-02 -3.238806e-01 4.233288e-02 2.664991e-02 4.011930e-02 1.471093e-01 -1.232294e-01 4.020715e-01 -3.741577e-02 -3.043084e-02 -2.555048e-01 -2.301323e-01 3.477961e-01 -3.315524e-01
<VARIANCE> 39
 4.405104e+01 3.039066e+01 2.358920e+01 8.769122e+01 4.886061e+01 9.425960e+01 7.271780e+01 5.635761e+01 4.313456e+01 5.521295e+01 6.833016e+01 5.067227e+01 5.145039e+01 7.071484e+00 4.059954e+00 3.825650e+00 1.107317e+01 5.403862e+00 1.452168e+01 9.182065e+00 6.902395e+00 5.223991e+00 6.744810e+00 6.556286e+00 6.988326e+00 6.425141e+00 5.657638e-01 8.001811e-01 7.928224e-01 1.328116e+00 8.456106e-01 1.962956e+00 1.519313e+00 1.415600e+00 1.123456e+00 1.617606e+00 7.850349e-01 1.555908e+00 1.607296e+00
<GCONST> 1.497964e+02
<STATE> 3
<MEAN> 39
 -3.972439e+00 -7.735822e+00 4.244961e+00 -1.129118e+01 -8.641390e+00 -6.829654e+00 -1.626016e+01 4.994956e+00 -2.736787e-01 -4.803143e+00 -3.809310e+00 -1.625851e+00 7.064653e+01 2.643188e-01 -1.086571e+00 -3.056523e-01 -6.151733e-01 -7.487987e-01 1.805722e-01 3.707421e-01 6.883734e-01 9.182390e-01 -7.383081e-01 -5.449845e-01 8.084720e-02 1.299486e+00 3.208598e-01 -4.464131e-01 -4.589906e-01 -2.000321e-01 -1.541715e-01 8.544886e-01 -2.084750e-01 -9.784296e-03 5.551133e-02 2.738919e-01 9.344190e-02 -7.275785e-01 2.226489e-01
<VARIANCE> 39
 5.161996e+01 5.322265e+01 4.013646e+01 2.851586e+01 9.922356e+01 3.928233e+01 1.148502e+02 6.428757e+01 3.105264e+01 2.379509e+01 3.500263e+01 2.951641e+01 6.513982e+01 8.715472e+00 1.064779e+01 4.559900e+00 3.639635e+00 1.640353e+01 8.672732e+00 1.705490e+01 1.299528e+01 3.189766e+00 3.382090e+00 4.737883e+00 8.854895e+00 9.711477e+00 1.664607e+00 1.447380e+00 8.269665e-01 6.380255e-01 3.680801e+00 1.062496e+00 3.661610e+00 3.397073e+00 7.296649e-01 7.003354e-01 1.020222e+00 8.423843e-01 1.495664e+00
<GCONST> 1.513265e+02
<STATE> 4
<MEAN> 39
 3.298911e+00 -2.130329e+01 -6.505363e+00 -1.857674e+01 -1.140927e+01 1.438922e+01 -2.094378e+01 5.827421e+00 3.169951e+00 -2.256389e+00 -7.672377e+00 -1.237325e+01 7.938972e+01 3.897145e-01 3.940834e-01 -5.837789e-01 3.249180e-02 7.775745e-01 8.308269e-01 -2.715287e-01 -7.885135e-01 -2.968182e-01 1.011717e+00 -3.238097e-01 -4.358615e-02 -7.708079e-01 -2.017851e-01 5.032608e-01 2.350272e-01 3.665140e-01 9.255444e-02 -6.349217e-01 3.187450e-01 -1.881225e-01 -2.061818e-02 -5.954759e-02 1.724027e-01 3.655158e-01 -5.578448e-01
<VARIANCE> 39
 9.942842e+00 1.795259e+01 1.894079e+01 1.189049e+01 1.395341e+01 7.010207e+01 3.356229e+01 5.322467e+01 2.561922e+01 2.997048e+01 2.261296e+01 2.044378e+01 9.489889e+00 6.417323e-01 3.695475e+00 2.258871e+00 2.114048e+00 1.277131e+00 1.416314e+01 3.440305e+00 6.096329e+00 1.588449e+00 1.772868e+00 2.076618e+00 4.235090e+00 2.575365e+00 2.286154e-01 2.818555e-01 2.301593e-01 2.756917e-01 3.626813e-01 1.051861e+00 1.047553e+00 1.700489e+00 3.690040e-01 5.323805e-01 4.871047e-01 5.209221e-01 2.553668e-01
<GCONST> 1.139538e+02
<TRANSP> 5
 0.000000e+00 1.000000e+00 0.000000e+00 0.000000e+00 0.000000e+00
 0.000000e+00 8.831239e-01 1.168761e-01 0.000000e+00 0.000000e+00
 0.000000e+00 0.000000e+00 8.675781e-01 1.324219e-01 0.000000e+00
 0.000000e+00 0.000000e+00 0.000000e+00 8.874291e-01 1.125709e-01
 0.000000e+00 0.000000e+00 0.000000e+00 0.000000e+00 0.000000e+00
<ENDHMM>
~h "l"
<BEGINHMM>
<NUMSTATES> 5
<STATE> 2
<MEAN> 39
 -1.062044e+01 3.342119e+00 -7.167773e+00 3.689319e-02 -7.312250e+00 1.333297e+00 -4.553809e+00 -7.267366e-01 -3.703302e+00 -4.965501e+00 -5.095509e+00 -2.647371e+00 4.041232e+01 5.393118e-01 2.006625e-02 2.132158e-01 2.296174e-01 -5.881853e-02 -2.393005e-02 1.155254e-01 4.032142e-01 2.467739e-01 -9.555729e-02 -1.513184e-01 3.149420e-01 4.044628e-01 -1.466926e-01 -1.886599e-01 9.612541e-02 7.350914e-02 -4.133877e-02 -5.347780e-02 -1.558994e-01 -1.344729e-02 -9.030826e-02 -3.453795e-03 9.016338e-02 5.530720e-02 -3.536609e-02
<VARIANCE> 39
 5.856161e+01 3.769488e+01 2.501389e+01 3.947089e+01 3.370784e+01 3.814135e+01 3.182574e+01 3.015037e+01 2.362281e+01 1.708984e+01 1.832640e+01 1.406759e+01 2.805270e+01 2.854484e+00 2.515251e+00 1.949005e+00 2.001217e+00 2.521030e+00 2.480356e+00 2.950150e+00 2.546323e+00 2.207829e+00 2.048813e+00 1.803686e+00 1.449721e+00 1.198888e+00 8.636272e-01 6.465122e-01 4.737698e-01 5.202453e-01 5.685360e-01 6.358163e-01 5.372195e-01 4.966473e-01 5.217640e-01 4.509315e-01 3.678144e-01 3.466715e-01 3.109858e-01
<GCONST> 1.160215e+02
<STATE> 3
<MEAN> 39
 -1.226719e+01 1.815883e+00 -6.791949e+00 -4.305230e-01 -6.859457e+00 7.396376e-01 -5.966030e+00 -5.916396e-01 -3.568121e+00 -4.581782e+00 -4.316579e+00 -2.337592e+00 3.998743e+01 7.916659e-01 2.903607e-01 6.559053e-01 2.402196e-01 -2.931179e-01 -1.403816e-01 -1.739547e-01 3.285652e-01 1.417447e-01 -1.248648e-01 -1.742794e-01 3.414469e-01 5.923373e-01 1.883225e-01 -7.232819e-02 1.667563e-01 9.065633e-02 -1.832464e-01 -8.630280e-02 -8.112071e-02 -9.464988e-02 -6.936328e-02 -8.888665e-02 -9.759090e-02 7.768941e-02 2.148511e-01
<VARIANCE> 39
 6.291650e+01 2.814480e+01 2.106380e+01 5.243116e+01 4.662380e+01 3.352217e+01 1.982145e+01 2.165913e+01 1.556803e+01 1.776813e+01 1.985806e+01 1.500516e+01 3.653918e+01 5.469002e+00 4.028581e+00 2.706236e+00 3.493664e+00 4.411275e+00 3.336525e+00 1.635082e+00 2.296548e+00 2.509217e+00 2.511213e+00 1.740726e+00 1.443930e+00 1.938555e+00 9.097928e-01 5.999330e-01 4.295895e-01 8.393995e-01 9.444773e-01 7.186109e-01 4.054287e-01 4.047113e-01 3.788110e-01 5.154760e-01 4.266278e-01 3.462371e-01 5.077924e-01
<GCONST> 1.192296e+02
<STATE> 4
<MEAN> 39
 -4.566036e+00 3.748627e+00 -3.589590e+00 -4.878220e-01 -1.115726e+01 -7.071928e-01 -8.142878e+00 -3.971575e-01 -2.730633e+00 -5.124215e+00 -6.113040e+00 -7.996019e-01 4.587785e+01 1.767072e+00 -5.498376e-01 8.553184e-01 -4.181659e-01 -1.010410e+00 -3.343099e-01 -7.320486e-01 3.995212e-01 3.696554e-01 -4.288507e-01 -4.639115e-01 2.187083e-01 2.118047e+00 -3.824942e-01 -4.697710e-01 -6.530021e-02 -8.823670e-02 8.432652e-02 1.237562e-01 1.402404e-02 2.605899e-02 -6.039042e-02 1.232676e-01 7.153051e-02 -1.217231e-01 -2.316266e-02
<VARIANCE> 39
 8.809570e+01 6.967242e+01 6.412279e+01 6.426381e+01 3.650891e+01 4.289718e+01 4.421930e+01 3.095233e+01 2.633278e+01 2.084027e+01 3.582537e+01 1.811524e+01 7.746135e+01 9.748048e+00 6.791710e+00 5.230062e+00 6.908332e+00 4.273212e+00 4.739396e+00 4.653107e+00 3.755203e+00 2.605241e+00 2.764727e+00 3.184219e+00 3.015826e+00 7.636143e+00 1.469332e+00 1.263999e+00 9.374339e-01 9.824981e-01 7.715371e-01 6.696549e-01 7.391274e-01 6.659382e-01 5.091393e-01 4.893320e-01 5.042824e-01 5.041069e-01 1.041591e+00
<GCONST> 1.368014e+02
<TRANSP> 5
 0.000000e+00 1.000000e+00 0.000000e+00 0.000000e+00 0.000000e+00
 0.000000e+00 4.321936e-01 5.678064e-01 0.000000e+00 0.000000e+00
 0.000000e+00 0.000000e+00 2.624953e-01 7.375047e-01 0.000000e+00
 0.000000e+00 0.000000e+00 0.000000e+00 5.049468e-01 4.950532e-01
 0.000000e+00 0.000000e+00 0.000000e+00 0.000000e+00 0.000000e+00
<ENDHMM>
~h "n"
<BEGINHMM>
<NUMSTATES> 5
<STATE> 2
<MEAN> 39
 3.046658e+00 -1.149909e+01 -4.458858e+00 -1.938602e+01 -1.042460e+01 1.466643e+01 -2.374858e+01 5.150019e+00 -4.556273e-01 -4.330708e+00 -1.094202e+00 -1.248908e+01 7.564252e+01 -4.728000e-01 4.549021e-02 -1.097398e-01 3.295862e-01 4.876045e-02 -1.243244e+00 -8.926587e-01 2.170742e+00 1.301235e+00 -1.695046e-01 -5.894306e-01 -6.571441e-01 1.387580e-01 8.249151e-02 8.471669e-02 2.106366e-01 4.438537e-01 -3.055423e-03 -2.683406e-01 2.372835e-01 -2.257372e-02 -1.882991e-01 -2.731905e-01 -3.096478e-02 3.137960e-01 -2.714008e-01
<VARIANCE> 39
 1.017326e+01 1.723240e+01 3.857310e+01 6.436237e+01 2.780200e+01 1.990164e+02 2.963321e+01 2.155252e+01 2.914925e+01 3.044471e+01 3.981140e+01 2.496636e+01 1.664560e+01 1.620273e+00 1.633269e+00 4.129757e+00 7.903475e+00 2.166998e+00 9.600460e+00 2.181273e+00 8.104660e+00 4.595613e+00 2.594378e+00 1.545112e+00 2.011366e+00 4.226338e+00 1.799928e-01 3.828034e-01 2.890886e-01 3.742026e-01 5.492355e-01 1.960976e+00 5.708084e-01 4.719094e-01 7.474369e-01 6.576223e-01 4.931872e-01 8.252255e-01 1.616102e-01
<GCONST> 1.220925e+02
<STATE> 3
<MEAN> 39
 4.012963e-01 -1.228799e+01 1.934941e-01 -1.315758e+01 -1.175895e+01 2.835052e+00 -2.546672e+01 1.471332e+01 5.026886e+00 -1.008027e+01 -5.535566e+00 -1.192900e+01 7.605680e+01 -1.799259e-02 -3.887881e-01 1.346422e-01 4.539464e-01 -3.719845e-01 9.907386e-01 8.133011e-01 1.254113e+00 -9.376554e-01 -1.815920e+00 1.288979e-01 6.009821e-01 -5.313235e-01 6.180617e-01 2.296804e-01 7.647149e-02 7.094365e-01 8.960136e-02 6.204553e-01 7.623594e-01 -1.717544e+00 -1.187455e+00 1.519397e-01 2.258025e-01 2.203629e-01 -9.114950e-01
<VARIANCE> 39
 6.147130e+00 1.611515e+01 2.112607e+01 1.461791e+01 1.829922e+01 2.145258e+01 2.277360e+01 2.795395e+01 2.935918e+01 4.010365e+01 3.478447e+01 1.634245e+01 1.531628e+01 1.245102e+00 5.521037e+00 5.417114e+00 4.221726e+00 2.622169e+00 1.179323e+01 2.878384e+00 1.150831e+01 7.206449e+00 2.795733e+00 1.703145e+00 5.259021e+00 4.480983e+00 9.693883e-02 2.308088e-01 6.836663e-01 6.077131e-01 4.708741e-01 9.737357e-01 3.954270e-01 5.006438e-01 5.374039e-01 6.484369e-01 3.459109e-01 3.947380e-01 1.728667e-01
<GCONST> 1.173841e+02
<STATE> 4
<MEAN> 39
 6.693843e+00 -5.059992e+00 2.369760e+00 -3.951087e+00 -1.021212e+01 3.234125e+00 -1.697930e+01 -1.303154e+00 -7.209670e+00 -1.060519e+01 -1.341044e+00 -5.657996e+00 6.538428e+01 8.204483e-01 6.236722e-01 -4.426973e-01 1.151232e+00 4.667360e-01 1.175701e-01 1.158361e+00 -1.832704e+00 -1.638072e+00 -3.691846e-01 4.875813e-01 7.544804e-01 -1.310851e+00 -5.419719e-01 -2.847971e-01 4.048632e-01 -6.379291e-01 -5.219859e-01 3.280441e-01 -4.523573e-01 6.744904e-01 3.287428e-01 6.996097e-02 3.948697e-01 -3.934219e-01 5.924073e-01
<VARIANCE> 39
 1.809347e+01 5.018453e+01 2.108913e+01 3.599759e+01 1.837860e+01 1.670753e+01 2.810906e+01 1.166195e+02 4.401219e+01 2.140781e+01 2.928561e+01 2.449825e+01 3.823372e+01 1.805765e+00 2.319877e+00 2.189682e+00 2.923037e+00 1.727757e+00 2.544209e+00 3.226457e+00 8.754817e+00 2.740775e+00 3.447535e+00 2.687731e+00 1.690187e+00 2.142155e+00 4.899631e-01 3.722643e-01 1.035664e+00 6.870724e-01 7.514752e-01 6.993422e-01 4.908536e-01 1.558409e+00 5.519726e-01 6.029900e-01 4.684367e-01 3.633390e-01 4.592785e-01
<GCONST> 1.220400e+02
<TRANSP> 5
 0.000000e+00 1.000000e+00 0.000000e+00 0.000000e+00 0.000000e+00
 0.000000e+00 6.502113e-01 3.497887e-01 0.000000e+00 0.000000e+00
 0.000000e+00 0.000000e+00 6.137363e-01 3.862638e-01 0.000000e+00
 0.000000e+00 0.000000e+00 0.000000e+00 6.612911e-01 3.387088e-01
 0.000000e+00 0.000000e+00 0.000000e+00 0.000000e+00 0.000000e+00
<ENDHMM>
~h "o"
<BEGINHMM>
<NUMSTATES> 5
<STATE> 2
<MEAN> 39
 -1.407040e+01 -1.114787e+00 -7.790260e+00 8.214833e-01 -5.231305e+00 1.590388e+00 -3.559024e+00 -2.648998e-01 -6.019609e+00 -4.047650e+00 -3.713189e+00 -3.563332e+00 3.943136e+01 -3.853738e-01 1.435257e-02 -2.605643e-01 -1.628303e-01 9.421670e-02 4.631226e-01 4.851808e-02 -3.936774e-01 5.989563e-02 2.536480e-01 2.145675e-01 -1.394449e-01 -3.615342e-01 2.647145e-01 -1.192543e-03 1.252268e-01 -1.307860e-01 -2.211483e-01 -2.751575e-01 -1.338491e-01 1.782629e-02 7.592717e-02 -1.283324e-01 -8.426936e-02 1.545858e-01 3.839920e-01
<VARIANCE> 39
 7.456359e+00 9.287825e+00 1.264816e+01 1.308818e+01 1.260777e+01 1.073807e+01 1.647635e+01 1.832096e+01 1.751925e+01 1.424046e+01 1.624926e+01 1.203808e+01 5.372330e+00 1.835700e+00 1.676931e+00 1.353094e+00 1.514723e+00 1.494052e+00 1.783399e+00 2.057566e+00 1.978163e+00 1.921830e+00 1.920922e+00 1.724897e+00 1.361093e+00 6.278561e-01 3.027378e-01 4.066966e-01 2.814471e-01 3.570502e-01 3.376724e-01 3.750456e-01 3.886555e-01 4.177083e-01 4.134420e-01 3.547298e-01 3.428205e-01 2.921229e-01 2.517656e-01
<GCONST> 9.616215e+01
<STATE> 3
<MEAN> 39
 -1.523501e+01 -7.959802e-01 -8.429854e+00 3.584470e-02 -6.045088e+00 1.755218e+00 -5.010944e+00 -1.571887e+00 -5.106014e+00 -3.769872e+00 -3.227493e+00 -3.085995e+00 3.815935e+01 1.124264e+00 -2.949510e-01 1.118408e+00 -9.715232e-01 -6.619489e-01 1.655947e-01 -5.888189e-01 -3.011036e-01 1.218950e+00 8.745416e-02 3.367721e-01 4.116412e-01 3.361427e+00 8.095924e-01 -2.846220e-02 4.345739e-01 -4.088148e-01 -1.441292e-01 -1.898998e-01 -4.455569e-01 -9.059929e-02 2.497540e-01 -4.532112e-02 1.894772e-01 -1.002734e-01 1.760980e+00
<VARIANCE> 39
 6.920888e+00 1.221449e+01 1.147751e+01 9.077129e+00 1.001534e+01 1.434891e+01 1.628653e+01 1.326817e+01 1.524894e+01 1.527435e+01 1.405920e+01 1.289579e+01 3.304562e+00 6.694062e+00 9.468870e+00 3.432284e+00 2.702081e+00 2.761669e+00 2.754300e+00 3.385569e+00 2.291091e+00 3.314825e+00 2.125844e+00 1.493084e+00 1.874169e+00 1.223096e+01 6.004441e-01 5.894650e-01 5.105805e-01 3.447654e-01 4.036632e-01 4.618348e-01 4.656606e-01 3.761600e-01 5.388585e-01 3.720464e-01 3.657940e-01 3.381127e-01 1.554009e+00
<GCONST> 1.094360e+02
<STATE> 4
<MEAN> 39
 -7.836753e+00 1.725196e+00 -4.451296e+00 -3.692657e+00 -8.709308e+00 -1.746370e-01 -7.124259e+00 -3.137109e+00 -2.542961e+00 -3.915210e+00 -1.992865e+00 -2.352628e+00 5.003722e+01 2.377244e+00 4.978814e-01 8.816872e-01 -1.124953e+00 -4.690605e-01 -6.064982e-01 -1.252397e+00 -4.794149e-01 3.148087e-01 -3.455032e-01 2.942358e-01 -2.292536e-01 3.834311e+00 -1.820189e-01 -2.645677e-02 -3.121580e-01 3.197019e-02 1.277248e-01 2.430521e-01 -1.894768e-01 -4.119692e-02 -5.085249e-01 -4.863921e-02 1.912684e-01 -1.842288e-01 -6.737577e-01
<VARIANCE> 39
 1.140303e+02 1.611829e+02 4.367529e+01 4.559537e+01 4.815310e+01 4.550999e+01 4.599259e+01 2.964415e+01 3.895930e+01 2.525972e+01 2.007300e+01 1.710490e+01 1.297269e+02 7.679510e+00 6.224284e+00 4.120894e+00 4.557212e+00 3.958792e+00 4.113041e+00 4.071640e+00 2.479351e+00 3.335458e+00 1.881252e+00 2.623641e+00 1.670709e+00 1.885363e+01 2.406063e+00 2.080483e+00 7.363864e-01 1.053499e+00 8.915065e-01 8.275804e-01 8.956947e-01 5.668100e-01 8.852689e-01 4.425097e-01 6.431017e-01 4.763438e-01 1.086266e+00
<GCONST> 1.380891e+02
<TRANSP> 5
 0.000000e+00 1.000000e+00 0.000000e+00 0.000000e+00 0.000000e+00
 0.000000e+00 6.635776e-01 3.364224e-01 0.000000e+00 0.000000e+00
 0.000000e+00 0.000000e+00 4.754822e-01 5.245178e-01 0.000000e+00
 0.000000e+00 0.000000e+00 0.000000e+00 4.969837e-01 5.030164e-01
 0.000000e+00 0.000000e+00 0.000000e+00 0.000000e+00 0.000000e+00
<ENDHMM>
~h "q"
<BEGINHMM>
<NUMSTATES> 5
<STATE> 2
<MEAN> 39
 6.298423e+00 -8.257202e+00 -4.799371e+00 -9.400284e+00 -7.960340e+00 6.382022e+00 -2.030086e+01 3.191778e+00 -8.530292e+00 -7.440137e+00 4.658620e+00 -1.708491e+01 6.631541e+01 -4.009348e-01 1.194168e+00 1.360429e+00 4.190591e-01 -5.677789e-02 -1.593176e+00 6.396812e-01 -1.081673e+00 -3.816473e-01 1.721106e+00 -2.327486e+00 7.943453e-01 -1.811283e+00 -2.567406e-01 1.691742e-01 1.985159e-01 -3.132999e-01 -1.331287e-01 5.284333e-01 1.787803e-01 -2.442515e-01 -2.447405e-01 5.453310e-02 2.206604e-01 5.654569e-02 -2.178682e-02
<VARIANCE> 39
 8.813836e+00 3.171202e+01 3.045586e+01 2.028722e+01 2.242417e+01 3.626303e+01 4.229090e+01 4.007026e+01 3.812711e+01 3.071520e+01 4.950302e+01 3.301012e+01 4.211970e+01 9.130847e-01 1.996171e+00 4.341959e+00 1.847617e+00 3.067719e+00 2.755861e+00 3.855513e+00 3.644062e+00 3.629220e+00 2.250027e+00 3.120287e+00 2.053456e+00 1.023775e+00 1.108843e-01 3.212909e-01 5.868407e-01 3.174700e-01 5.374805e-01 4.872297e-01 8.996953e-01 7.907865e-01 7.517899e-01 3.959922e-01 8.752370e-01 5.611368e-01 1.280499e-01
<GCONST> 1.168450e+02
<STATE> 3
<MEAN> 39
 -1.030453e+00 1.254194e+00 8.421396e+00 -1.253750e+01 -9.798759e+00 6.411938e+00 -1.340950e+01 -5.081799e+00 -1.766891e+01 2.157734e+00 8.557734e-01 -1.572839e+01 5.664320e+01 -7.258469e-01 7.528017e-01 3.137319e+00 -1.516676e+00 -1.056948e+00 1.006888e+00 3.632828e-01 -3.079871e-01 -1.826159e+00 3.193219e-01 1.275430e+00 -5.501675e-01 4.426854e-01 3.496891e-02 -1.876601e-01 -3.978521e-02 -9.346046e-02 -2.186579e-01 5.226491e-03 -2.939039e-01 4.750052e-01 2.655585e-01 -5.131350e-01 2.990692e-01 5.253562e-02 4.438447e-01
<VARIANCE> 39
 3.153895e+01 3.689200e+01 1.639091e+02 5.179459e+01 5.334986e+01 3.967187e+01 3.637752e+01 4.372812e+01 7.953300e+01 4.050071e+01 4.105033e+01 4.729564e+01 6.385260e+01 2.261245e+00 2.453339e+00 7.477659e+00 3.903130e+00 5.466683e+00 4.043585e+00 4.310882e+00 7.032355e+00 5.097099e+00 4.784998e+00 3.684667e+00 2.759178e+00 3.430684e+00 3.752964e-01 4.469229e-01 1.591142e+00 7.340838e-01 1.049139e+00 7.586813e-01 7.154031e-01 8.830350e-01 1.047724e+00 6.533222e-01 7.300219e-01 5.959013e-01 2.757011e-01
<GCONST> 1.361409e+02
<STATE> 4
<MEAN> 39
 -4.211823e+00 4.701677e-01 2.239017e+01 -1.971453e+01 -2.504155e+01 1.264744e+01 -1.333705e+01 -1.886102e+00 -1.715641e+01 -5.249430e+00 1.176618e+01 -1.548621e+01 7.051738e+01 2.107199e-01 -3.404788e-01 -6.724489e-01 5.872737e-01 2.620072e-02 1.018422e-01 1.980693e-01 -3.518650e-01 5.536714e-01 -5.072449e-01 2.139260e-01 2.034164e-01 3.410701e-01 2.799576e-01 -6.244163e-02 -3.789771e-01 4.378479e-01 3.419043e-01 -3.174407e-01 3.243138e-02 -9.352499e-02 -7.260028e-02 8.507910e-02 -2.301482e-01 8.451162e-02 -2.657212e-01
<VARIANCE> 39
 6.735609e+00 1.367665e+01 2.009134e+01 2.139529e+01 4.170790e+01 3.623820e+01 1.695432e+01 3.911786e+01 3.700903e+01 3.053338e+01 2.215015e+01 2.424419e+01 1.385926e+01 1.381016e+00 1.407846e+00 1.653268e+00 3.239061e+00 5.872958e+00 3.666887e+00 1.342114e+00 2.775824e+00 2.182817e+00 1.684832e+00 2.021410e+00 2.242738e+00 1.514281e+00 1.408027e-01 2.054111e-01 2.791426e-01 5.820522e-01 4.235519e-01 7.281674e-01 2.909676e-01 3.964327e-01 3.750708e-01 2.778284e-01 3.146229e-01 4.704612e-01 7.561328e-02
<GCONST> 1.065328e+02
<TRANSP> 5
 0.000000e+00 1.000000e+00 0.000000e+00 0.000000e+00 0.000000e+00
 0.000000e+00 8.311188e-01 1.688812e-01 0.000000e+00 0.000000e+00
 0.000000e+00 0.000000e+00 8.546494e-01 1.453506e-01 0.000000e+00
 0.000000e+00 0.000000e+00 0.000000e+00 9.204884e-01 7.951156e-02
 0.000000e+00 0.000000e+00 0.000000e+00 0.000000e+00 0.000000e+00
<ENDHMM>
~h "s"
<BEGINHMM>
<NUMSTATES> 5
<STATE> 2
<MEAN> 39
 -3.826217e+00 -4.001836e+00 -5.577553e+00 -8.732382e+00 -1.148001e+01 3.196602e+00 -5.258081e+00 -2.682424e+00 2.126599e-01 -3.335995e+00 -7.453488e+00 -8.127996e-01 6.198676e+01 1.982812e+00 -3.427652e-01 1.795604e+00 -1.048901e+00 -8.449047e-01 6.468096e-01 -9.865454e-01 5.850025e-02 4.458956e-01 -2.395237e-02 -4.546898e-01 5.267715e-01 2.002351e+00 2.653795e-01 -4.358508e-01 1.876554e-01 -4.687307e-01 -1.777214e-02 1.121866e-01 -9.003490e-01 3.143201e-01 -2.696316e-02 2.521243e-01 9.067415e-02 -3.309510e-01 3.430806e-01
<VARIANCE> 39
 4.760102e+01 4.498309e+01 4.790374e+01 2.592303e+02 4.197848e+01 1.170215e+02 5.641055e+01 4.389658e+01 1.758780e+01 2.727284e+01 5.342132e+01 3.234741e+01 4.044616e+02 6.487313e+00 3.861954e+00 4.024465e+00 6.351979e+00 2.482064e+00 4.425284e+00 6.025249e+00 3.600240e+00 1.771395e+00 3.897788e+00 2.967948e+00 2.263221e+00 7.817877e+00 7.011172e-01 6.280378e-01 2.850184e-01 1.329165e+00 7.592428e-01 1.140955e+00 1.018556e+00 7.756168e-01 2.739488e-01 5.350160e-01 3.538465e-01 4.843324e-01 1.260842e+00
<GCONST> 1.369240e+02
<STATE> 3
<MEAN> 39
 3.500875e+00 -2.077834e+00 3.912562e+00 -1.029873e+01 -1.604766e+01 7.124318e+00 -1.175450e+01 -1.240564e+00 1.089173e+00 -5.135447e+00 -6.672537e+00 -8.632729e-01 6.094370e+01 3.301494e+00 -1.989495e+00 2.054777e+00 -3.243412e+00 -1.652107e+00 1.155486e+00 -3.321595e+00 -3.366667e-01 2.779390e-01 8.510514e-01 -2.256792e-01 -1.961234e-01 4.514106e+00 -5.031345e-01 -6.766304e-01 -8.667987e-01 -2.495569e-01 3.372718e-01 -4.347929e-01 -2.749739e-01 5.557683e-01 -4.927156e-01 2.980966e-01 1.107579e-01 -3.646063e-01 1.611534e-01
<VARIANCE> 39
 6.006794e+01 1.186156e+02 7.107385e+01 3.028025e+02 3.920062e+01 1.077387e+02 2.932402e+01 3.152266e+01 2.279370e+01 5.472759e+01 5.439204e+01 1.841282e+01 1.320118e+02 7.484466e+00 5.936640e+00 5.003687e+00 1.328197e+01 3.741233e+00 9.944039e+00 5.780142e+00 4.074440e+00 1.800119e+00 5.233930e+00 3.702388e+00 1.975937e+00 1.253638e+01 1.357071e+00 1.849584e+00 7.442657e-01 1.960195e+00 4.881155e-01 8.887533e-01 5.866499e-01 9.782581e-01 2.095535e-01 5.863328e-01 5.417147e-01 3.405207e-01 7.862517e-01
<GCONST> 1.420318e+02
<STATE> 4
<MEAN> 39
 8.949963e+00 -6.533747e+00 4.886522e+00 -2.461405e+01 -1.953347e+01 1.290256e+01 -1.831382e+01 -1.002573e+00 -1.501431e+00 -3.351846e+00 -4.488109e+00 -1.400922e+00 7.017046e+01 2.813267e-01 -2.923035e+00 1.503578e-01 -2.316483e+00 -9.503964e-03 4.583248e-01 -1.796984e+00 1.660845e+00 -1.101207e+00 1.068671e+00 3.039729e-01 -7.990230e-01 2.900233e+00 -7.913659e-01 1.246887e-01 -7.229306e-01 6.367375e-01 5.414406e-01 -1.606258e-01 5.589491e-01 6.106616e-01 -2.075323e-01 2.864590e-02 1.623766e-01 -3.338462e-01 -5.709302e-01
<VARIANCE> 39
 9.322969e+00 3.980000e+01 3.402238e+01 2.528981e+02 3.003786e+01 1.247465e+02 1.893404e+01 1.793917e+01 3.083293e+01 4.591017e+01 7.654302e+01 1.681310e+01 2.144190e+01 1.870464e+00 3.746917e+00 1.307174e+00 7.162380e+00 2.389284e+00 2.933687e+00 5.982204e+00 4.110225e+00 1.343166e+00 1.315273e+00 9.814277e-01 2.889696e+00 9.120485e+00 7.531568e-01 3.147281e-01 4.108322e-01 1.223263e+00 1.643228e-01 8.390282e-01 7.105052e-01 1.062193e+00 4.276551e-01 6.929942e-01 5.475790e-01 4.546421e-01 3.614307e-01
<GCONST> 1.233314e+02
<TRANSP> 5
 0.000000e+00 1.000000e+00 0.000000e+00 0.000000e+00 0.000000e+00
 0.000000e+00 5.382096e-01 4.617904e-01 0.000000e+00 0.000000e+00
 0.000000e+00 0.000000e+00 3.245499e-01 6.754501e-01 0.000000e+00
 0.000000e+00 0.000000e+00 0.000000e+00 5.135018e-01 4.864982e-01
 0.000000e+00 0.000000e+00 0.000000e+00 0.000000e+00 0.000000e+00
<ENDHMM>
~h "t"
<BEGINHMM>
<NUMSTATES> 5
<STATE> 2
<MEAN> 39
 3.953717e+00 -6.106067e+00 -1.018173e+01 -1.658557e+01 7.538238e-01 1.453388e+01 -1.593786e+01 5.231557e+00 -3.603191e+00 -5.152975e+00 -3.963457e+00 -4.510281e+00 7.176399e+01 1.070225e+00 -7.393474e-01 -6.971632e-01 -9.825263e-01 -4.608062e-01 2.019855e+00 -7.850193e-01 -4.619730e-02 -1.221327e+00 2.118552e-01 4.560962e-01 -5.930032e-01 3.381742e-01 -3.930399e-01 -8.822978e-02 1.780948e-02 2.716069e-01 -1.891162e-01 -5.819958e-01 5.803069e-01 -5.717852e-01 -1.284305e-01 -1.286846e-01 3.538401e-01 -1.113025e-01 -1.790681e-01
<VARIANCE> 39
 1.810964e+01 1.207433e+01 3.576652e+01 2.662292e+01 1.675811e+01 3.495863e+01 4.923870e+01 3.295707e+01 3.234825e+01 7.881992e+01 6.397414e+01 2.526563e+01 4.611142e+01 1.254926e+00 1.424655e+00 9.207406e-01 2.837424e+00 2.089946e+00 9.942122e+00 7.208804e+00 2.990573e+00 2.102907e+00 3.025854e+00 2.848702e+00 1.550454e+00 1.700992e+00 2.087480e-01 2.545532e-01 2.131101e-01 3.500585e-01 3.317744e-01 7.951713e-01 8.176144e-01 6.208557e-01 4.622624e-01 3.784685e-01 6.352581e-01 3.549004e-01 2.035770e-01
<GCONST> 1.158987e+02
<STATE> 3
<MEAN> 39
 9.157792e+00 -2.058613e+00 -1.791611e+01 -1.118700e+01 -4.022552e-02 1.244079e+01 -5.241047e+00 2.103420e-01 -1.158797e+01 -9.412748e+00 1.471293e+00 -7.029196e+00 6.092384e+01 -5.974504e-01 8.142180e-01 3.972278e-01 8.778300e-01 5.855532e-02 -1.914188e-01 1.538891e+00 -6.534833e-01 -4.156214e-01 1.064691e+00 -1.132979e+00 3.981367e-01 -1.347576e+00 -4.543065e-01 6.851340e-02 3.648766e-01 1.909913e-01 7.710166e-03 2.777317e-01 1.112687e-02 -2.065879e-02 4.901868e-01 -1.772224e-01 -5.035258e-02 1.264419e-01 -2.032036e-01
<VARIANCE> 39
 1.183648e+01 2.726337e+01 1.815372e+01 2.415497e+01 1.117162e+01 1.956786e+01 4.995398e+01 2.046780e+01 2.595410e+01 2.365591e+01 2.601379e+01 1.974059e+01 4.848946e+01 1.540459e+00 2.618646e+00 1.720806e+00 1.528637e+00 1.640406e+00 2.154684e+00 2.823266e+00 1.896770e+00 2.441987e+00 2.409991e+00 3.056933e+00 1.905536e+00 1.979200e+00 1.546860e-01 3.431952e-01 1.821501e-01 2.254365e-01 2.433112e-01 2.989328e-01 3.424718e-01 3.514243e-01 2.523782e-01 2.911835e-01 4.189652e-01 3.006695e-01 1.826565e-01
<GCONST> 1.046677e+02
<STATE> 4
<MEAN> 39
 -1.511289e+00 6.247969e-01 -1.265678e+01 -4.608377e+00 1.753626e+00 1.426143e+01 1.736495e+00 -2.225895e-01 -8.110348e+00 -6.401654e+00 -4.562495e+00 -4.026283e+00 5.046789e+01 -1.987383e+00 -5.370218e-01 6.035851e-01 5.918564e-01 -3.170639e-01 -5.121006e-02 3.961540e-01 2.756896e-01 6.751888e-01 1.119944e-01 -2.426253e-01 1.682941e-01 -1.339225e+00 8.965790e-02 -1.897338e-01 -5.323336e-02 -2.458166e-01 -2.881151e-01 -3.351866e-01 -4.907674e-01 1.193151e-01 7.893322e-03 -5.459303e-02 2.262823e-01 -1.480946e-01 2.297814e-01
<VARIANCE> 39
 3.211232e+01 3.987857e+01 1.671636e+01 4.124821e+01 1.716988e+01 2.136284e+01 6.890575e+01 1.778727e+01 1.786395e+01 1.666342e+01 1.572610e+01 1.268638e+01 1.056657e+02 2.347533e+00 2.123946e+00 1.776703e+00 2.082762e+00 2.345356e+00 3.156333e+00 3.522134e+00 2.006977e+00 1.872226e+00 1.715460e+00 1.920551e+00 1.443138e+00 1.210161e+00 2.684857e-01 5.343938e-01 4.068612e-01 3.300453e-01 3.082376e-01 3.983825e-01 4.810373e-01 4.419016e-01 4.126823e-01 3.517923e-01 3.336039e-01 2.535192e-01 1.000088e-01
<GCONST> 1.089886e+02
<TRANSP> 5
 0.000000e+00 1.000000e+00 0.000000e+00 0.000000e+00 0.000000e+00
 0.000000e+00 5.665536e-01 4.334464e-01 0.000000e+00 0.000000e+00
 0.000000e+00 0.000000e+00 7.242412e-01 2.757587e-01 0.000000e+00
 0.000000e+00 0.000000e+00 0.000000e+00 7.381065e-01 2.618935e-01
 0.000000e+00 0.000000e+00 0.000000e+00 0.000000e+00 0.000000e+00
<ENDHMM>
~h "u"
<BEGINHMM>
<NUMSTATES> 5
<STATE> 2
<MEAN> 39
 -8.985380e+00 -1.676328e+01 -8.902826e+00 1.521636e+00 -1.567461e+01 -5.097406e+00 6.218243e+00 1.196991e+01 -6.605762e+00 -9.558544e+00 -9.352098e+00 -2.699307e+00 5.034160e+01 1.324011e-01 1.418295e+00 2.119120e-02 1.855739e-01 1.110038e-01 -1.325578e+00 -5.538318e-01 -8.914814e-01 -7.179818e-01 -6.868967e-01 1.241245e-01 1.143424e+00 -5.585371e-01 2.914158e-01 8.505489e-01 3.528483e-01 -2.851474e-01 6.263881e-01 3.749874e-01 -9.448327e-01 -3.433344e-01 2.632855e-01 2.514186e-02 1.161131e-01 -3.431320e-02 3.931984e-02
<VARIANCE> 39
 6.360203e+00 1.537630e+01 1.357912e+01 1.245686e+01 2.528657e+01 1.780325e+01 3.558499e+01 2.886832e+01 2.226480e+01 1.862311e+01 1.700282e+01 1.901502e+01 1.091779e+01 7.738093e-01 2.115000e+00 1.404825e+00 1.827189e+00 2.619167e+00 2.986817e+00 3.551383e+00 2.390441e+00 2.786569e+00 2.214901e+00 2.143968e+00 1.885135e+00 9.038537e-01 2.086171e-01 3.528709e-01 3.331459e-01 2.859669e-01 3.743286e-01 5.153401e-01 7.857954e-01 6.184260e-01 4.458969e-01 5.266517e-01 4.473213e-01 4.795454e-01 2.271300e-01
<GCONST> 1.055807e+02
<STATE> 3
<MEAN> 39
 -7.024819e+00 -7.881257e+00 -6.324801e+00 9.343770e-01 -1.122553e+01 -6.154274e+00 7.990037e-01 8.427272e+00 -6.401965e+00 -1.052230e+01 -9.343870e+00 8.283182e-01 4.886721e+01 8.396041e-01 4.052248e+00 1.221216e+00 -1.815603e-01 1.795913e+00 -1.738174e-01 -2.559975e+00 -2.353702e+00 -2.600293e-01 5.889647e-01 4.268910e-01 1.805345e-01 -7.542362e-01 -1.035981e-01 3.602622e-02 -6.124777e-02 8.174522e-03 1.599490e-01 4.593912e-01 -8.529690e-02 -2.519581e-01 -4.229083e-02 4.869734e-01 3.749073e-01 -6.478302e-01 -1.372694e-01
<VARIANCE> 39
 1.870422e+01 2.661157e+01 2.042892e+01 1.887598e+01 1.912171e+01 2.206745e+01 2.781674e+01 2.761687e+01 2.542812e+01 2.005860e+01 1.577278e+01 1.969573e+01 1.552870e+01 2.992256e+00 2.540847e+00 1.936757e+00 2.816296e+00 3.206189e+00 4.313187e+00 4.669479e+00 3.703392e+00 1.956482e+00 2.396770e+00 2.612661e+00 3.402336e+00 1.690300e+00 4.182576e-01 4.621549e-01 4.116320e-01 4.185348e-01 6.321267e-01 8.221745e-01 6.779664e-01 6.055209e-01 4.745953e-01 4.685337e-01 3.949596e-01 5.603181e-01 2.700342e-01
<GCONST> 1.154363e+02
<STATE> 4
<MEAN> 39
 -2.434062e+00 4.382422e+00 -2.432516e+00 8.514562e-01 -7.316735e+00 -5.884273e+00 -7.109135e+00 6.499669e-03 -7.578823e+00 -5.944294e+00 -5.211978e+00 -2.033402e+00 4.806719e+01 -9.955931e-01 1.154585e+00 9.066291e-03 3.152168e-01 1.117671e+00 1.626786e+00 -3.620924e-01 -1.084957e+00 1.793143e-01 9.525607e-01 1.021213e+00 -8.275128e-01 -1.448116e+00 -6.668070e-01 -1.139453e+00 -4.794678e-01 -2.280118e-02 -2.955216e-01 4.484251e-01 7.909693e-01 4.648308e-01 1.851976e-01 -1.412715e-02 -7.756473e-02 -5.651987e-02 -1.488046e-01
<VARIANCE> 39
 4.738489e+01 3.492556e+01 2.820847e+01 2.962152e+01 2.113534e+01 3.559174e+01 2.952602e+01 2.813729e+01 2.257863e+01 2.118132e+01 1.701424e+01 2.112291e+01 2.022113e+01 4.297506e+00 5.151061e+00 3.576242e+00 2.495302e+00 3.101371e+00 3.740311e+00 4.631196e+00 3.634422e+00 2.260548e+00 2.593848e+00 1.709843e+00 2.603176e+00 1.605435e+00 5.414932e-01 5.573445e-01 6.243415e-01 6.412733e-01 6.048390e-01 9.549809e-01 8.562729e-01 6.108530e-01 3.803985e-01 5.305648e-01 4.043583e-01 6.263629e-01 2.898048e-01
<GCONST> 1.209966e+02
<TRANSP> 5
 0.000000e+00 1.000000e+00 0.000000e+00 0.000000e+00 0.000000e+00
 0.000000e+00 7.079319e-01 2.920681e-01 0.000000e+00 0.000000e+00
 0.000000e+00 0.000000e+00 5.750067e-01 4.249933e-01 0.000000e+00
 0.000000e+00 0.000000e+00 0.000000e+00 6.769167e-01 3.230833e-01
 0.000000e+00 0.000000e+00 0.000000e+00 0.000000e+00 0.000000e+00
<ENDHMM>
~h "w"
<BEGINHMM>
<NUMSTATES> 5
<STATE> 2
<MEAN> 39
 -1.766955e+01 -3.378054e-01 -1.084109e+01 4.316686e-01 -8.387322e+00 9.371399e-01 -7.541305e+00 -2.557295e+00 -4.791383e+00 -4.106192e+00 -3.247134e+00 -3.674834e+00 3.441485e+01 4.899224e-02 -4.440528e-02 1.658721e-02 -4.444529e-02 7.925497e-03 -4.303276e-02 -1.364217e-02 1.204576e-02 -6.961734e-04 2.541358e-02 -1.381646e-02 3.100785e-02 8.050571e-02 -1.252169e-03 -2.892728e-03 -4.246273e-04 -1.001494e-02 -4.101530e-03 -5.466275e-03 4.137492e-03 5.126430e-03 5.291680e-03 1.089277e-03 -2.090163e-03 -4.188934e-03 3.294295e-03
<VARIANCE> 39
 1.834845e+00 2.611954e+00 5.409971e+00 6.544143e+00 8.700951e+00 9.935154e+00 1.009969e+01 1.102350e+01 1.315668e+01 1.114533e+01 1.156913e+01 1.118832e+01 2.688735e+00 1.298374e-01 2.548091e-01 4.708462e-01 6.908363e-01 8.581631e-01 1.034535e+00 1.104257e+00 1.147792e+00 1.331433e+00 1.328363e+00 1.376109e+00 1.287325e+00 4.398571e-02 2.517743e-02 5.029244e-02 9.558783e-02 1.443723e-01 1.795070e-01 2.181502e-01 2.246849e-01 2.292294e-01 2.759158e-01 2.778424e-01 2.847478e-01 2.643079e-01 7.877447e-03
<GCONST> 6.326781e+01
<STATE> 3
<MEAN> 39
 -1.504652e+01 -2.133394e+00 -1.240370e+01 -1.326171e+00 -8.990626e+00 -1.887791e+00 -8.859388e+00 -1.368349e+00 -3.018501e+00 -3.532145e+00 -4.513157e+00 -4.076827e+00 3.740803e+01 -4.247168e-02 2.504995e-04 1.008747e-01 2.637894e-02 5.964764e-02 4.593461e-02 5.331565e-02 -5.013720e-02 -8.637490e-02 -3.511755e-04 1.705775e-02 2.841563e-02 4.730416e-03 -9.781067e-03 1.820518e-02 2.492324e-02 2.269143e-02 2.886383e-02 3.160618e-02 1.931434e-02 2.958909e-04 -5.388831e-03 -3.362281e-03 1.205402e-02 2.256899e-03 -9.128794e-03
<VARIANCE> 39
 3.395106e+00 4.257866e+00 7.817894e+00 7.077579e+00 9.816402e+00 1.222187e+01 1.355877e+01 1.460279e+01 1.582637e+01 1.199513e+01 1.068729e+01 1.104142e+01 2.688735e+00 1.674206e-01 2.876834e-01 4.823145e-01 6.539721e-01 8.000875e-01 1.057499e+00 1.238245e+00 1.340569e+00 1.333724e+00 1.229090e+00 1.074108e+00 1.152171e+00 8.449970e-02 2.856725e-02 5.618764e-02 9.180429e-02 1.326766e-01 1.555748e-01 2.098520e-01 2.555638e-01 2.760008e-01 2.713422e-01 2.614888e-01 2.144404e-01 2.400848e-01 1.076149e-02
<GCONST> 6.677206e+01
<STATE> 4
<MEAN> 39
 -1.766716e+01 -9.021224e-01 -9.302977e+00 6.572349e-01 -6.559623e+00 1.490782e+00 -6.408369e+00 -2.345793e+00 -5.473471e+00 -4.124537e+00 -3.016159e+00 -3.258632e+00 3.567336e+01 3.140680e-01 3.196245e-01 1.909831e-01 1.842275e-01 3.013461e-01 2.155394e-01 2.161810e-01 2.207620e-01 7.834461e-03 -8.281580e-02 -2.314845e-02 -3.176644e-02 1.462664e-01 4.222097e-01 3.828911e-01 1.617841e-01 -7.690353e-02 2.636823e-03 3.568260e-02 7.034308e-02 4.226549e-04 2.234590e-02 1.115589e-02 -6.204564e-05 3.372309e-02 2.260340e-01
<VARIANCE> 39
 1.982534e+00 3.685987e+00 7.047685e+00 6.377834e+00 7.955905e+00 8.252894e+00 9.430832e+00 1.382400e+01 1.307634e+01 1.390200e+01 1.198235e+01 1.256838e+01 2.688735e+00 5.291457e-01 5.546460e-01 7.672169e-01 1.009029e+00 1.048573e+00 9.518603e-01 1.355413e+00 1.488889e+00 1.459139e+00 1.622787e+00 1.189990e+00 1.669459e+00 1.352943e-01 1.928930e-01 1.767057e-01 2.048144e-01 2.302965e-01 2.375546e-01 2.834823e-01 2.370183e-01 3.036097e-01 2.950859e-01 3.442101e-01 2.676459e-01 3.892936e-01 4.990982e-02
<GCONST> 7.719091e+01
<TRANSP> 5
 0.000000e+00 1.000000e+00 0.000000e+00 0.000000e+00 0.000000e+00
 0.000000e+00 9.545162e-01 4.548380e-02 0.000000e+00 0.000000e+00
 0.000000e+00 0.000000e+00 9.326438e-01 6.735615e-02 0.000000e+00
 0.000000e+00 0.000000e+00 0.000000e+00 6.038594e-01 3.961406e-01
 0.000000e+00 0.000000e+00 0.000000e+00 0.000000e+00 0.000000e+00
<ENDHMM>
~h "x"
<BEGINHMM>
<NUMSTATES> 5
<STATE> 2
<MEAN> 39
 3.256580e+00 -1.387531e+01 -8.764529e-01 -1.681325e+01 -1.400776e+01 7.483926e+00 -1.923730e+01 9.588907e-01 -7.455855e-01 6.281731e-01 -2.563860e+00 -9.194532e+00 7.740117e+01 -3.040258e-01 -8.148260e-01 -4.424332e-01 4.611757e-02 4.168647e-01 -5.111869e-01 -2.941961e-01 1.447046e+00 3.201881e-01 8.796506e-02 -5.546777e-01 -9.548583e-01 9.768684e-01 -2.524833e-01 2.099842e-01 -6.002945e-02 2.364073e-01 2.169365e-02 -1.177541e-01 3.553165e-01 1.620749e-01 -1.511237e-01 -3.471072e-01 -1.025542e-01 1.466929e-01 -1.857635e-01
<VARIANCE> 39
 2.507746e+01 4.880786e+01 6.991551e+01 6.475897e+01 6.146441e+01 1.124806e+02 6.406830e+01 1.016123e+02 4.674973e+01 5.984110e+01 7.488093e+01 4.194627e+01 2.513979e+01 2.033152e+00 2.895159e+00 3.352376e+00 5.998499e+00 3.111256e+00 7.648664e+00 8.155847e+00 7.863561e+00 3.218116e+00 4.598116e+00 2.993663e+00 4.352305e+00 2.670909e+00 4.341321e-01 3.335783e-01 4.037210e-01 6.197816e-01 4.894099e-01 1.045706e+00 9.761186e-01 1.323490e+00 5.283793e-01 7.059779e-01 5.253807e-01 8.411936e-01 2.756029e-01
<GCONST> 1.355661e+02
<STATE> 3
<MEAN> 39
 1.239177e+00 -1.899214e+01 -2.764036e+00 -1.601628e+01 -1.140797e+01 7.602374e+00 -1.806244e+01 1.048910e+01 -1.976506e+00 -3.987603e+00 -7.644710e+00 -1.139885e+01 8.079610e+01 -4.247470e-01 8.676209e-02 6.461158e-02 4.546669e-01 3.554117e-03 -9.290227e-01 9.301254e-01 4.417185e-01 -4.421619e-01 -7.163656e-01 8.718517e-03 3.152284e-01 2.569686e-01 -2.564194e-02 3.029869e-01 3.111236e-01 1.510808e-01 -2.005078e-01 -3.685966e-01 1.943206e-01 -2.800529e-01 -1.254230e-01 8.427194e-02 1.975137e-01 3.654230e-01 -2.102291e-01
<VARIANCE> 39
 1.325982e+01 4.351213e+01 4.764854e+01 2.167504e+01 2.260649e+01 6.429084e+01 5.454916e+01 8.216471e+01 3.987520e+01 4.687485e+01 5.923919e+01 2.288246e+01 1.310063e+01 6.124786e-01 1.405459e+00 2.569221e+00 2.019736e+00 2.329273e+00 5.797536e+00 3.205119e+00 6.025841e+00 2.319940e+00 2.811890e+00 2.074955e+00 2.047289e+00 5.063154e-01 9.195967e-02 1.730418e-01 1.911541e-01 2.543367e-01 2.270007e-01 4.288190e-01 4.824089e-01 9.436474e-01 4.170327e-01 4.403248e-01 3.168506e-01 4.549206e-01 5.696029e-02
<GCONST> 1.109060e+02
<STATE> 4
<MEAN> 39
 -2.293700e+00 -1.396378e+01 -1.871258e+00 -1.468790e+01 -1.394032e+01 -1.055185e-01 -1.123100e+01 7.106313e+00 -2.765904e+00 -6.472510e+00 -2.066383e+00 -8.651860e+00 8.241904e+01 1.500674e-01 4.095834e-01 7.717757e-01 1.176696e-01 -3.854793e-01 -3.413015e-01 -3.038531e-01 2.751324e-01 -7.874501e-01 2.825007e-01 7.290407e-01 1.186554e-01 -3.978747e-01 9.791221e-02 4.596938e-02 1.020309e-01 2.956550e-02 1.009738e-01 1.519204e-01 -2.289786e-01 -4.423700e-02 -9.674660e-02 1.229226e-01 -1.630473e-02 -1.192004e-03 -1.786658e-01
<VARIANCE> 39
 1.651570e+01 2.969326e+01 1.324179e+02 3.451221e+01 7.764911e+01 6.767577e+01 9.435377e+01 9.278423e+01 6.006260e+01 3.824564e+01 8.208727e+01 2.314038e+01 2.476545e+01 1.207238e+00 1.499465e+00 3.285555e+00 1.692192e+00 3.379050e+00 3.918850e+00 5.641047e+00 6.853149e+00 3.676059e+00 2.648983e+00 3.905001e+00 2.355343e+00 7.236484e-01 1.614759e-01 2.199931e-01 3.616124e-01 2.736489e-01 5.575322e-01 5.715913e-01 7.113090e-01 9.767892e-01 5.251186e-01 3.979597e-01 5.877159e-01 4.113226e-01 5.993116e-02
<GCONST> 1.222026e+02
<TRANSP> 5
 0.000000e+00 1.000000e+00 0.000000e+00 0.000000e+00 0.000000e+00
 0.000000e+00 6.751598e-01 3.248403e-01 0.000000e+00 0.000000e+00
 0.000000e+00 0.000000e+00 7.316437e-01 2.683563e-01 0.000000e+00
 0.000000e+00 0.000000e+00 0.000000e+00 8.506126e-01 1.493874e-01
 0.000000e+00 0.000000e+00 0.000000e+00 0.000000e+00 0.000000e+00
<ENDHMM>
~h "y"
<BEGINHMM>
<NUMSTATES> 5
<STATE> 2
<MEAN> 39
 -1.140070e+01 4.457878e+00 -4.252342e+00 1.724788e-01 -8.260135e+00 6.157910e-01 -7.066357e+00 -2.114737e+00 -5.557955e+00 -3.658060e+00 -2.643490e+00 -2.810899e+00 3.943654e+01 -1.471201e-01 2.943867e-02 5.135137e-01 -1.553276e-02 3.862153e-01 3.444425e-01 -1.893334e-01 2.543034e-01 -1.611250e-01 -1.324366e-01 1.535716e-01 -2.189443e-01 3.106298e-03 -1.822157e-01 -2.046404e-01 -5.333168e-02 -1.446713e-01 2.322440e-02 5.493985e-02 3.145613e-02 1.802070e-01 -6.575716e-02 -2.282844e-02 9.798900e-02 -1.126422e-01 -1.943742e-02
<VARIANCE> 39
 4.089545e+01 4.205561e+01 2.480594e+01 3.497014e+01 3.107062e+01 2.540609e+01 1.731263e+01 1.864690e+01 1.646408e+01 1.388718e+01 1.218218e+01 1.220896e+01 1.242702e+01 3.164228e+00 3.580334e+00 2.489760e+00 2.742096e+00 2.604848e+00 2.346247e+00 2.070241e+00 2.128780e+00 1.764895e+00 1.549678e+00 1.842657e+00 1.281089e+00 9.684626e-01 5.790511e-01 6.562016e-01 5.436030e-01 5.663165e-01 5.525790e-01 4.895633e-01 4.093214e-01 4.494749e-01 4.066851e-01 3.430939e-01 3.526532e-01 2.316895e-01 1.932470e-01
<GCONST> 1.095060e+02
<STATE> 3
<MEAN> 39
 -1.456908e+01 2.108668e+00 -4.286395e+00 -1.239800e+00 -5.455615e+00 2.871640e+00 -8.167389e+00 2.057160e-01 -7.536326e+00 -4.682400e+00 -7.188798e-01 -4.982657e+00 3.832352e+01 -8.825193e-02 -5.753747e-02 8.452498e-01 -1.119566e+00 7.442446e-02 6.516418e-02 -4.888336e-01 1.107641e+00 -8.107191e-01 8.369102e-02 5.078729e-01 -8.428909e-01 4.312857e-01 1.072818e+00 4.923670e-01 7.334383e-01 -3.322423e-01 -6.085624e-01 3.769844e-02 -9.095614e-02 -1.275384e-02 -4.515160e-02 -9.520586e-02 -8.029993e-02 -4.319608e-03 9.806448e-01
<VARIANCE> 39
 2.614678e+01 1.749415e+01 2.214931e+01 1.448467e+01 1.592962e+01 1.519825e+01 1.600170e+01 2.019552e+01 1.329124e+01 1.373614e+01 1.453527e+01 1.682241e+01 8.261076e+00 2.066341e+00 2.610216e+00 2.497585e+00 3.007160e+00 2.131230e+00 2.042327e+00 2.764407e+00 2.790212e+00 2.806709e+00 1.802884e+00 1.779625e+00 1.725704e+00 6.994785e-01 5.912354e-01 4.393975e-01 5.734423e-01 6.919156e-01 5.016391e-01 7.071094e-01 4.780953e-01 4.506143e-01 5.405728e-01 3.608932e-01 3.484306e-01 3.640495e-01 3.065131e-01
<GCONST> 1.075351e+02
<STATE> 4
<MEAN> 39
 -1.332485e+01 2.276861e+00 1.728715e+00 -2.941273e+00 -6.180923e+00 2.116282e+00 -9.508153e+00 2.516514e+00 -9.941985e+00 -3.398942e+00 7.590960e-01 -6.808434e+00 4.232687e+01 2.547092e+00 6.490998e-01 2.659961e+00 -1.334776e+00 -2.062723e+00 2.589360e-01 -9.065797e-01 3.123176e-01 -6.107571e-01 -6.723896e-01 4.066541e-01 -2.461788e-01 3.361691e+00 6.132160e-01 -4.474005e-01 2.512788e-01 -4.184307e-01 -9.707257e-01 -1.570107e-02 -3.517105e-01 -1.213942e-01 1.328530e-01 -2.901744e-01 2.252341e-01 2.753787e-01 1.274711e+00
<VARIANCE> 39
 4.748396e+01 5.327743e+01 7.546014e+01 5.734093e+01 4.015656e+01 4.067468e+01 4.765940e+01 3.780620e+01 3.994671e+01 2.010433e+01 2.388404e+01 3.592058e+01 2.047663e+01 8.193769e+00 5.425201e+00 1.167576e+01 6.658371e+00 1.121212e+01 5.390552e+00 4.082323e+00 3.069736e+00 3.742438e+00 3.027818e+00 2.850478e+00 3.002605e+00 1.033703e+01 1.048267e+00 1.245938e+00 1.805308e+00 1.754543e+00 1.581422e+00 1.379734e+00 8.802232e-01 7.025363e-01 6.823709e-01 5.282375e-01 6.559981e-01 6.017793e-01 1.347721e+00
<GCONST> 1.409991e+02
<TRANSP> 5
 0.000000e+00 1.000000e+00 0.000000e+00 0.000000e+00 0.000000e+00
 0.000000e+00 7.242358e-01 2.757642e-01 0.000000e+00 0.000000e+00
 0.000000e+00 0.000000e+00 4.585615e-01 5.414386e-01 0.000000e+00
 0.000000e+00 0.000000e+00 0.000000e+00 7.165073e-01 2.834927e-01
 0.000000e+00 0.000000e+00 0.000000e+00 0.000000e+00 0.000000e+00
<ENDHMM>
~h "z"
<BEGINHMM>
<NUMSTATES> 5
<STATE> 2
<MEAN> 39
 7.169793e+00 -8.691489e+00 4.683314e+00 -1.158327e+01 -7.998531e+00 6.966745e+00 -1.627585e+01 -1.731720e+00 -1.428136e+01 -8.706046e+00 4.362247e+00 -7.720520e+00 6.856448e+01 -2.505256e-01 -5.943068e-01 9.892189e-01 8.006038e-01 1.215029e+00 5.288400e-01 -8.591766e-01 -1.318815e+00 -9.536549e-01 -1.643653e-01 -2.042880e-01 2.935145e-01 -1.784101e-01 -3.453812e-03 2.201219e-01 -2.547022e-01 2.015635e-01 -4.052249e-02 -1.384064e-01 1.491636e-01 -1.892349e-01 4.087471e-01 1.687035e-01 -7.359628e-02 1.238759e-01 -2.509531e-01
<VARIANCE> 39
 3.566842e+00 1.059732e+01 1.413928e+01 1.995833e+01 3.734282e+01 2.405528e+01 1.958488e+01 3.014636e+01 4.063266e+01 2.779202e+01 2.301977e+01 1.375540e+01 5.250083e+00 8.090554e-01 8.271708e-01 1.076573e+00 1.156535e+00 1.873025e+00 3.054643e+00 3.039970e+00 2.017993e+00 3.427962e+00 3.439030e+00 2.786550e+00 1.655167e+00 9.125028e-01 1.556761e-01 2.097113e-01 2.355052e-01 2.146582e-01 4.734767e-01 5.548977e-01 7.571350e-01 4.099030e-01 7.773672e-01 6.240135e-01 6.754621e-01 3.434436e-01 3.165819e-01
<GCONST> 1.036107e+02
<STATE> 3
<MEAN> 39
 5.691974e+00 -8.918635e+00 6.484384e+00 -6.116525e+00 -3.697786e+00 4.144824e+00 -1.781994e+01 -1.025329e+01 -1.321521e+01 -5.669942e+00 2.229186e+00 -4.787508e+00 6.861707e+01 3.042866e-01 7.866290e-01 8.831106e-03 1.363135e+00 -5.143036e-01 -3.114377e-01 1.601206e-01 -1.067080e+00 8.598747e-01 1.728207e-01 -1.222129e+00 6.315815e-02 -1.006952e+00 -4.347157e-02 4.283720e-01 -2.144608e-01 -3.834765e-02 -1.744343e-01 -1.665574e-02 4.051966e-01 4.496731e-01 6.870814e-02 -3.710700e-01 -2.394970e-01 -1.184068e-01 -2.946182e-01
<VARIANCE> 39
 1.397773e+01 6.329881e+00 2.329455e+01 1.817423e+01 1.461615e+01 3.784642e+01 6.448129e+01 2.081079e+01 5.268043e+01 2.067756e+01 1.660385e+01 7.009030e+00 3.324217e+01 1.170807e+00 1.512084e+00 1.866794e+00 1.975350e+00 2.806656e+00 4.154639e+00 6.355996e+00 2.598834e+00 7.272758e+00 3.399649e+00 3.117302e+00 1.062348e+00 2.101140e+00 3.274099e-01 2.222062e-01 3.372562e-01 3.811696e-01 4.862286e-01 8.445860e-01 1.366386e+00 5.432975e-01 1.235815e+00 7.446948e-01 6.850909e-01 2.436194e-01 4.563772e-01
<GCONST> 1.147463e+02
<STATE> 4
<MEAN> 39
 7.453501e+00 -2.149227e+00 5.609857e+00 1.163199e+00 -7.834920e+00 3.179701e+00 -1.581910e+01 -1.190715e+01 -9.596300e+00 -7.480204e+00 -4.072948e+00 -4.191031e+00 6.063612e+01 -2.266926e+00 2.080986e+00 -3.217164e-01 4.296060e-01 1.370697e+00 -1.363576e+00 1.985817e+00 1.392405e+00 9.634951e-01 -2.430752e-01 -6.379967e-01 -1.579029e-01 -1.407821e+00 -1.356106e+00 -5.608532e-01 8.838882e-02 -1.038756e+00 1.125915e+00 -2.044230e-01 1.101125e-01 5.998235e-01 -2.104928e-01 5.339068e-01 7.301503e-01 -6.085687e-02 5.746881e-01
<VARIANCE> 39
 7.574249e+00 1.966781e+01 2.089143e+01 2.957418e+01 1.768792e+01 2.466027e+01 4.849901e+01 2.076299e+01 2.589885e+01 1.694855e+01 1.099178e+01 1.166662e+01 1.092110e+01 4.259413e+00 2.547085e+00 2.655225e+00 4.380610e+00 5.415798e+00 2.304010e+00 4.186928e+00 2.570939e+00 2.294823e+00 2.777549e+00 2.708833e+00 1.294455e+00 1.285633e+00 3.244528e-01 6.635203e-01 6.400282e-01 7.077263e-01 5.426701e-01 4.493749e-01 7.596843e-01 5.774864e-01 5.911762e-01 6.242340e-01 3.179108e-01 2.910948e-01 4.672074e-01
<GCONST> 1.138243e+02
<TRANSP> 5
 0.000000e+00 1.000000e+00 0.000000e+00 0.000000e+00 0.000000e+00
 0.000000e+00 8.708916e-01 1.291084e-01 0.000000e+00 0.000000e+00
 0.000000e+00 0.000000e+00 7.876709e-01 2.123291e-01 0.000000e+00
 0.000000e+00 0.000000e+00 0.000000e+00 6.764367e-01 3.235634e-01
 0.000000e+00 0.000000e+00 0.000000e+00 0.000000e+00 0.000000e+00
<ENDHMM>
~h "ai"
<BEGINHMM>
<NUMSTATES> 5
<STATE> 2
<MEAN> 39
 -1.262398e-01 -2.051152e+01 -3.078699e+00 -9.593394e+00 -1.259295e+01 9.598772e+00 -1.662036e+01 1.495292e+01 -1.290281e+00 -1.321445e+01 -7.904959e+00 -1.177611e+01 6.906039e+01 -2.497983e-01 -2.703377e-01 -6.950080e-02 6.372664e-01 -3.942393e-02 -2.886056e-01 1.341349e+00 -2.650807e-01 -5.745387e-01 1.496968e-01 -3.322529e-02 5.285206e-01 -1.349183e+00 -1.621163e-01 2.760240e-01 -5.632071e-02 6.268165e-02 8.602349e-02 -3.129837e-01 2.018454e-01 -6.660873e-02 2.017522e-01 1.304056e-01 -4.293746e-02 1.601006e-01 -1.657856e-01
<VARIANCE> 39
 1.778614e+01 4.973617e+01 1.314647e+01 2.268766e+01 2.036378e+01 2.596660e+01 4.235328e+01 2.779804e+01 1.959827e+01 2.229099e+01 1.776221e+01 2.196591e+01 7.131371e+01 1.583946e+00 2.395409e+00 1.272440e+00 1.341240e+00 1.426179e+00 2.284708e+00 2.270531e+00 1.537564e+00 1.636320e+00 1.615277e+00 1.248554e+00 1.195341e+00 1.888710e+00 3.241284e-01 3.405527e-01 2.682611e-01 3.103145e-01 2.715490e-01 3.571453e-01 3.488572e-01 3.248841e-01 2.958470e-01 3.135839e-01 2.347589e-01 2.139693e-01 3.294142e-01
<GCONST> 1.044434e+02
<STATE> 3
<MEAN> 39
 -6.937159e+00 -1.551328e+01 -8.722325e+00 -7.025200e-02 -1.149813e+01 3.222450e-01 1.662949e+00 1.087432e+01 -3.514443e+00 -1.042422e+01 -9.551186e+00 -4.022223e+00 5.245236e+01 -3.005837e-01 9.543012e-01 -2.963089e-01 8.056201e-01 3.306650e-02 -9.173708e-01 1.064117e+00 -6.204907e-01 -5.251741e-01 1.143489e-01 4.684014e-02 6.645043e-01 -1.132079e+00 2.374816e-01 1.624147e-01 2.466738e-01 -1.788990e-01 -1.645290e-02 7.463767e-02 -4.645631e-01 -5.950641e-02 -3.981240e-02 -5.826448e-02 1.187960e-01 -8.990121e-02 2.509813e-01
<VARIANCE> 39
 1.752402e+01 4.473785e+01 2.662958e+01 2.888383e+01 2.859604e+01 3.268119e+01 5.048114e+01 3.541124e+01 3.208606e+01 2.896256e+01 2.134824e+01 2.050428e+01 3.999161e+01 2.308298e+00 3.149499e+00 2.718079e+00 2.875733e+00 2.770622e+00 2.561119e+00 5.056973e+00 2.757087e+00 2.997924e+00 2.856011e+00 2.213289e+00 1.810030e+00 2.331035e+00 4.657997e-01 5.756449e-01 4.923123e-01 4.945938e-01 6.255121e-01 5.101157e-01 6.836813e-01 5.518292e-01 6.039917e-01 5.761926e-01 4.740395e-01 3.510662e-01 4.201725e-01
<GCONST> 1.203744e+02
<STATE> 4
<MEAN> 39
 -5.434336e+00 3.422019e-01 -4.310502e+00 1.394758e+00 -8.878633e+00 -2.522883e+00 -3.965626e+00 2.379775e+00 -5.653533e+00 -7.363670e+00 -5.555981e+00 -2.095315e+00 4.686908e+01 2.614488e-01 9.283836e-01 5.923753e-01 -3.805051e-01 2.735282e-01 3.924374e-01 -1.016724e+00 -7.217394e-01 4.638670e-01 6.156353e-01 3.941080e-01 -6.234539e-02 2.880182e-03 1.946166e-03 -5.657212e-01 -8.220733e-02 -2.456336e-01 -1.830505e-01 8.130883e-02 1.956131e-02 1.529160e-01 9.604571e-02 2.030552e-02 -3.927789e-02 -9.451928e-02 3.892997e-01
<VARIANCE> 39
 6.661731e+01 7.574374e+01 3.772066e+01 3.655862e+01 2.949326e+01 3.446093e+01 4.449446e+01 4.051275e+01 2.820732e+01 3.279645e+01 2.269750e+01 1.674982e+01 5.199419e+01 5.555799e+00 6.073981e+00 4.141115e+00 3.873337e+00 4.044093e+00 3.531543e+00 4.532236e+00 2.946684e+00 2.436343e+00 2.978777e+00 2.419359e+00 1.696695e+00 4.761772e+00 8.122737e-01 7.103795e-01 6.867123e-01 7.204254e-01 6.333334e-01 7.305157e-01 8.426254e-01 4.943448e-01 5.064082e-01 5.809816e-01 4.460022e-01 3.463661e-01 6.284385e-01
<GCONST> 1.286192e+02
<TRANSP> 5
 0.000000e+00 1.000000e+00 0.000000e+00 0.000000e+00 0.000000e+00
 0.000000e+00 8.404348e-01 1.595652e-01 0.000000e+00 0.000000e+00
 0.000000e+00 0.000000e+00 8.174487e-01 1.825512e-01 0.000000e+00
 0.000000e+00 0.000000e+00 0.000000e+00 7.352676e-01 2.647324e-01
 0.000000e+00 0.000000e+00 0.000000e+00 0.000000e+00 0.000000e+00
<ENDHMM>
~h "an"
<BEGINHMM>
<NUMSTATES> 5
<STATE> 2
<MEAN> 39
 5.786858e+00 -1.403190e+01 8.411794e-01 -2.321028e+01 -1.555383e+01 1.248993e+01 -2.147845e+01 4.664953e+00 -3.707038e+00 2.356303e+00 -2.151331e+00 -7.238204e+00 7.620442e+01 -5.655102e-01 -1.344612e+00 -1.067086e+00 6.420009e-01 5.387623e-01 -2.333478e-01 -9.258672e-01 2.050255e+00 -1.000962e-01 9.426894e-01 -7.210040e-02 -2.149074e+00 1.268997e+00 -2.354608e-01 4.905024e-01 -6.627846e-02 7.544981e-01 7.905842e-02 -4.544111e-01 7.685542e-01 -1.943612e-01 1.731552e-01 -3.759993e-01 -2.708626e-01 1.962420e-01 -5.409904e-01
<VARIANCE> 39
 5.135219e+00 1.035652e+01 3.221819e+01 9.146029e+01 1.780689e+01 1.034549e+02 2.082930e+01 4.414451e+01 2.793585e+01 2.496546e+01 6.395575e+01 4.638011e+01 6.257796e+00 7.726544e-01 2.074116e+00 1.899622e+00 9.672290e+00 1.861233e+00 4.898376e+00 2.466897e+00 7.777478e+00 2.913102e+00 4.421792e+00 2.694522e+00 4.104989e+00 4.141333e+00 3.402760e-01 1.984143e-01 4.248610e-01 4.146037e-01 5.065293e-01 7.728637e-01 1.237153e+00 1.218412e+00 5.429910e-01 5.946693e-01 3.372826e-01 1.066761e+00 4.444939e-01
<GCONST> 1.213625e+02
<STATE> 3
<MEAN> 39
 1.302100e+00 -1.854350e+01 -2.549199e-01 -1.519912e+01 -1.505128e+01 3.362386e+00 -1.612837e+01 1.232525e+01 -3.112012e+00 -1.489684e+00 -7.486672e+00 -9.328970e+00 8.100898e+01 -1.654783e-01 4.474890e-01 8.510217e-03 3.161864e-01 9.409590e-02 -5.153556e-01 6.236760e-01 6.822544e-02 -4.245408e-01 -7.033703e-02 7.626329e-02 4.893147e-01 -1.394438e-01 -9.668280e-02 2.775598e-01 -1.566896e-02 1.453238e-01 1.073620e-01 -5.336612e-02 1.799710e-01 -3.060941e-01 1.665336e-01 -2.848019e-02 5.757586e-02 1.176167e-01 -1.798853e-01
<VARIANCE> 39
 1.360229e+01 2.098944e+01 3.533389e+01 3.689320e+01 3.869835e+01 6.520574e+01 4.592844e+01 7.701574e+01 4.518520e+01 3.432869e+01 4.850094e+01 1.541073e+01 1.253962e+01 9.443308e-01 2.458056e+00 3.073960e+00 2.553086e+00 2.630388e+00 3.965147e+00 3.820540e+00 6.936592e+00 3.761692e+00 2.759985e+00 2.165391e+00 1.603707e+00 1.031459e+00 2.904607e-01 3.385291e-01 4.598755e-01 4.202835e-01 4.279331e-01 5.968084e-01 8.925977e-01 1.392573e+00 8.623747e-01 6.073302e-01 3.350981e-01 3.393615e-01 8.277266e-02
<GCONST> 1.187184e+02
<STATE> 4
<MEAN> 39
 -1.217384e+01 -3.483851e+00 -5.624655e+00 -5.051579e+00 -5.471969e+00 -3.126479e+00 -2.383224e+00 -9.549412e-01 -1.182601e+00 -4.140484e+00 -2.657652e+00 -2.304354e+00 6.997491e+01 -2.637699e-01 -1.210086e-03 -4.342316e-01 2.778086e-01 3.203419e-01 -4.957138e-02 1.007500e-01 -5.376460e-01 7.215516e-01 -5.844340e-01 -1.278814e-01 -2.733132e-01 4.941799e-03 4.096341e-01 -4.885888e-01 8.853180e-02 -3.833727e-01 -2.345910e-01 3.343966e-01 -5.693061e-01 4.303792e-01 -5.571001e-02 4.491080e-02 -1.497089e-01 -2.341357e-01 3.347917e-01
<VARIANCE> 39
 6.832240e+01 1.964098e+01 2.243329e+01 3.614086e+01 3.027740e+01 2.926333e+01 4.603622e+01 4.196737e+01 2.940713e+01 2.496565e+01 1.847719e+01 1.578622e+01 1.770935e+01 1.221938e+01 5.252146e+00 2.000536e+00 5.210001e+00 3.709524e+00 5.629633e+00 1.147326e+01 6.750071e+00 5.087615e+00 3.592101e+00 2.715961e+00 2.584759e+00 2.996196e+00 1.108543e+00 6.973854e-01 3.680948e-01 4.827030e-01 4.751956e-01 8.253061e-01 1.306069e+00 8.767957e-01 9.260069e-01 8.200802e-01 4.438671e-01 4.085822e-01 2.553995e-01
<GCONST> 1.287914e+02
<TRANSP> 5
 0.000000e+00 1.000000e+00 0.000000e+00 0.000000e+00 0.000000e+00
 0.000000e+00 7.140568e-01 2.859432e-01 0.000000e+00 0.000000e+00
 0.000000e+00 0.000000e+00 9.307176e-01 6.928239e-02 0.000000e+00
 0.000000e+00 0.000000e+00 0.000000e+00 9.292437e-01 7.075635e-02
 0.000000e+00 0.000000e+00 0.000000e+00 0.000000e+00 0.000000e+00
<ENDHMM>
~h "ao"
<BEGINHMM>
<NUMSTATES> 5
<STATE> 2
<MEAN> 39
 -6.192206e+00 3.779215e+00 4.027452e+00 -6.476388e+00 -2.663882e+00 -7.345536e-01 -5.869995e+00 -2.696991e+00 -8.671052e+00 -4.344404e+00 -1.211344e+00 -5.126349e+00 5.972595e+01 -4.753488e+00 -8.822785e-01 -1.755038e-01 -3.215362e+00 1.818971e+00 -9.479279e-01 -3.959931e-01 9.853643e-01 2.720987e+00 1.174082e+00 -3.062284e-01 9.755201e-01 2.520006e+00 4.927020e-02 -7.850040e-01 -2.445018e-01 -4.263356e-01 -8.637205e-01 5.007215e-01 -5.297753e-01 -2.978082e-01 7.972291e-02 -6.616125e-02 4.543567e-01 -5.723366e-02 7.832190e-01
<VARIANCE> 39
 1.091894e+02 7.216190e+01 6.557514e+01 6.331739e+01 9.293783e+01 8.193711e+01 6.100185e+01 2.869490e+01 4.089299e+01 2.497636e+01 1.942659e+01 1.895518e+01 7.120729e+01 2.499297e+01 3.069786e+00 4.385947e+00 5.222844e+00 1.303240e+01 1.097602e+01 5.255581e+00 3.711535e+00 5.878997e+00 3.532316e+00 3.298254e+00 2.648021e+00 6.115825e+00 2.608031e+00 7.536091e-01 8.946712e-01 8.619349e-01 1.726309e+00 1.350906e+00 8.566163e-01 7.108052e-01 8.439119e-01 5.915245e-01 4.996203e-01 3.752495e-01 5.931888e-01
<GCONST> 1.427816e+02
<STATE> 3
<MEAN> 39
 -1.684586e+01 -2.738777e+00 3.547654e+00 -1.468269e+01 -6.595672e+00 -4.086441e-02 -6.112456e+00 -3.995418e+00 -2.144289e+00 -3.343014e+00 8.008599e-03 -1.886981e+00 7.003331e+01 1.927619e+00 -2.163443e+00 -6.671969e-01 -1.497581e-01 -2.205000e+00 3.559984e-01 -1.304100e-01 -3.407544e-02 1.993676e-01 -1.190357e-01 1.160248e-01 -1.318968e-01 2.043091e+00 1.092559e+00 1.457345e-02 -2.798963e-01 7.657320e-01 7.616651e-02 -8.254371e-02 -8.857648e-02 3.764963e-01 -3.600960e-01 -4.230746e-02 -2.793086e-01 -3.195174e-01 -3.988790e-01
<VARIANCE> 39
 1.441366e+02 4.945591e+01 4.997532e+01 3.064608e+01 6.986156e+01 6.163696e+01 5.572807e+01 2.875632e+01 3.103954e+01 2.312453e+01 2.109560e+01 2.095061e+01 2.774195e+01 1.201075e+01 2.766672e+00 3.441907e+00 1.054004e+01 3.269223e+00 8.818377e+00 5.543836e+00 3.799348e+00 4.341470e+00 2.419950e+00 3.090320e+00 2.182019e+00 4.240049e+00 2.885293e+00 6.119116e-01 7.714679e-01 7.994976e-01 1.745133e+00 1.554489e+00 1.308339e+00 9.038855e-01 1.030944e+00 6.368167e-01 5.505666e-01 3.751743e-01 3.774202e-01
<GCONST> 1.371077e+02
<STATE> 4
<MEAN> 39
 3.323493e-01 -1.165587e+01 -3.397994e+00 -1.438456e+01 -1.168630e+01 4.004135e+00 -1.261467e+01 2.745144e+00 -2.596030e+00 -1.461766e+00 -1.879752e+00 -7.893421e+00 7.715766e+01 1.220029e+00 -7.739992e-01 -1.223180e+00 -9.233428e-01 5.062957e-01 1.758275e+00 -1.635516e+00 1.209105e+00 4.204424e-01 9.159502e-01 -6.820146e-01 -1.356894e+00 6.828430e-01 -3.750127e-01 1.698537e-01 1.688247e-01 -2.659307e-01 1.644865e-01 2.818336e-01 -4.393446e-02 -2.293260e-01 -1.432484e-01 1.181487e-01 1.407398e-01 -1.277515e-01 -2.787916e-01
<VARIANCE> 39
 2.755217e+01 1.910105e+01 4.076877e+01 1.197470e+02 5.278466e+01 1.468515e+02 8.368079e+01 5.154547e+01 3.141173e+01 3.078288e+01 5.441550e+01 3.762709e+01 3.291489e+01 3.145023e+00 1.954134e+00 3.588735e+00 7.564522e+00 4.336712e+00 9.815692e+00 5.963423e+00 6.024971e+00 4.044353e+00 3.409549e+00 4.292144e+00 3.860000e+00 2.099638e+00 4.402210e-01 3.032932e-01 4.206610e-01 1.844306e+00 7.683706e-01 2.170778e+00 1.063426e+00 1.108699e+00 7.374253e-01 7.581372e-01 9.502165e-01 7.871637e-01 4.216737e-01
<GCONST> 1.370502e+02
<TRANSP> 5
 0.000000e+00 1.000000e+00 0.000000e+00 0.000000e+00 0.000000e+00
 0.000000e+00 5.396013e-01 4.603987e-01 0.000000e+00 0.000000e+00
 0.000000e+00 0.000000e+00 7.212150e-01 2.787850e-01 0.000000e+00
 0.000000e+00 0.000000e+00 0.000000e+00 7.786071e-01 2.213929e-01
 0.000000e+00 0.000000e+00 0.000000e+00 0.000000e+00 0.000000e+00
<ENDHMM>
~h "ch"
<BEGINHMM>
<NUMSTATES> 5
<STATE> 2
<MEAN> 39
 6.480869e+00 -1.364502e+01 -7.948511e+00 -2.094604e+01 -8.078692e+00 1.897419e+01 -1.674430e+01 2.856279e+00 -7.512871e+00 -1.727606e+00 -1.628500e-01 -1.106468e+01 7.449184e+01 4.820719e-01 -2.579309e-02 1.861959e-01 -1.961696e+00 -1.187241e+00 2.401095e+00 5.051398e-02 -5.324927e-01 -5.401930e-01 -1.120519e+00 1.578609e+00 8.241723e-01 -4.109432e-01 -1.740107e-01 4.080043e-01 6.673208e-02 5.213621e-01 -1.347958e-01 -6.681564e-01 4.207894e-01 1.175284e-01 3.478847e-01 -3.796209e-01 -2.316050e-01 4.892194e-01 -2.016989e-01
<VARIANCE> 39
 3.322524e+00 1.569982e+01 1.118983e+01 2.655521e+01 2.374249e+01 2.557685e+01 1.327112e+01 1.359034e+01 1.946485e+01 7.674951e+01 2.946772e+01 2.880392e+01 2.359611e+01 4.009122e-01 1.095869e+00 9.706403e-01 2.136380e+00 1.514546e+00 3.977440e+00 1.211751e+00 1.568547e+00 1.651893e+00 2.140701e+00 1.545310e+00 1.735253e+00 2.887250e-01 1.055987e-01 1.272119e-01 2.403325e-01 1.656495e-01 1.753721e-01 2.221017e-01 3.044909e-01 2.732047e-01 2.607655e-01 5.150805e-01 2.637449e-01 5.698751e-01 6.682971e-02
<GCONST> 9.362169e+01
<STATE> 3
<MEAN> 39
 8.670636e+00 -1.055675e+01 -6.716751e+00 -2.685765e+01 -1.606034e+01 2.455111e+01 -1.767298e+01 2.061752e+00 -4.369418e+00 -8.974195e+00 4.827703e+00 -5.438084e+00 7.230030e+01 2.241464e-01 5.174443e-01 2.229887e-01 2.516540e-01 -4.699678e-01 -6.136391e-01 -1.819011e-01 -4.961999e-01 2.012076e-01 -1.203600e-01 3.317905e-01 6.759014e-01 -4.624809e-01 -1.109655e-01 -4.042006e-02 5.345922e-04 6.095237e-01 4.702685e-01 -7.388982e-01 2.608477e-01 -3.375882e-01 -9.974705e-02 4.213043e-01 -1.983069e-01 -7.447912e-02 -5.168412e-02
<VARIANCE> 39
 3.290430e+00 1.061714e+01 1.206345e+01 2.520385e+01 5.283701e+01 1.920224e+01 1.853792e+01 1.359103e+01 1.672158e+01 2.817584e+01 1.813760e+01 2.101419e+01 1.535054e+01 3.177063e-01 8.224875e-01 5.607212e-01 2.535141e+00 1.894808e+00 2.996244e+00 2.218298e+00 2.118709e+00 1.676210e+00 2.570786e+00 9.482957e-01 1.132363e+00 4.021162e-01 6.560404e-02 1.894169e-01 1.223872e-01 3.663875e-01 4.155918e-01 6.584908e-01 6.516901e-01 3.275930e-01 2.210899e-01 2.275973e-01 2.266501e-01 2.015835e-01 1.113998e-01
<GCONST> 9.254101e+01
<STATE> 4
<MEAN> 39
 6.951690e+00 -1.548891e+00 -1.183222e+01 -1.147738e+01 -2.380490e+00 1.445944e+01 -8.512653e+00 -1.980308e+00 -7.846066e+00 -9.381083e+00 1.804992e+00 -3.753211e+00 5.900318e+01 -1.119375e+00 1.117341e+00 1.314173e-01 2.567342e+00 1.401459e+00 -2.102255e+00 2.659748e+00 -1.056834e+00 -5.078724e-01 1.741899e+00 -1.262408e+00 2.200907e-01 -1.875073e+00 -4.012334e-01 -9.202202e-02 5.346676e-02 3.856175e-02 1.353567e-01 3.139833e-02 1.983333e-01 1.394846e-01 3.729109e-01 -1.698677e-01 -5.805712e-02 2.939381e-02 -1.448668e-01
<VARIANCE> 39
 1.746436e+01 4.662632e+01 3.130187e+01 6.214074e+01 8.593562e+01 3.202639e+01 7.150488e+01 2.896216e+01 2.606833e+01 4.454654e+01 2.684639e+01 1.708186e+01 6.906108e+01 1.601605e+00 2.540734e+00 1.785518e+00 3.367171e+00 3.504501e+00 9.359388e+00 3.117568e+00 3.149145e+00 2.805973e+00 2.980785e+00 2.307971e+00 1.893334e+00 1.691495e+00 2.298775e-01 6.115493e-01 3.474186e-01 5.492026e-01 5.969825e-01 6.734548e-01 8.309743e-01 5.872865e-01 4.570967e-01 5.918156e-01 4.498309e-01 3.007169e-01 3.070027e-01
<GCONST> 1.222892e+02
<TRANSP> 5
 0.000000e+00 1.000000e+00 0.000000e+00 0.000000e+00 0.000000e+00
 0.000000e+00 6.844192e-01 3.155808e-01 0.000000e+00 0.000000e+00
 0.000000e+00 0.000000e+00 7.911615e-01 2.088385e-01 0.000000e+00
 0.000000e+00 0.000000e+00 0.000000e+00 7.212901e-01 2.787099e-01
 0.000000e+00 0.000000e+00 0.000000e+00 0.000000e+00 0.000000e+00
<ENDHMM>
~h "er"
<BEGINHMM>
<NUMSTATES> 5
<STATE> 2
<MEAN> 39
 1.625713e+00 -9.210260e+00 -3.720134e+00 -2.751783e+01 -1.407588e+01 1.326525e+01 -1.014171e+01 -3.154664e+00 -1.138250e+00 -3.649707e+00 -1.897250e+00 -5.868172e+00 8.000090e+01 -1.624858e-01 -9.192325e-01 -4.406282e-01 -4.391997e-01 3.171383e-01 9.473798e-01 7.310206e-02 -2.903798e-01 -4.343365e-01 4.042565e-01 5.233225e-01 4.998842e-02 6.181864e-01 1.173602e-02 -4.457077e-03 -5.156526e-02 4.393602e-01 -6.429103e-03 -1.846785e-01 -1.166927e-01 2.378848e-01 -3.363223e-02 8.594716e-02 4.563416e-02 -1.474694e-01 -2.351728e-01
<VARIANCE> 39
 5.589331e+01 3.390311e+01 7.466091e+01 4.291135e+01 6.918238e+01 4.394237e+01 8.612578e+01 3.498876e+01 2.248359e+01 3.077039e+01 2.482144e+01 4.169107e+01 7.464259e+01 7.982945e-01 1.770124e+00 1.412090e+00 2.527283e+00 1.629444e+00 3.264437e+00 2.611920e+00 3.158344e+00 1.502685e+00 2.057410e+00 1.108503e+00 1.803121e+00 1.633936e+00 2.250015e-01 1.591009e-01 3.254193e-01 3.757664e-01 4.403712e-01 6.290091e-01 6.572093e-01 3.948472e-01 3.463710e-01 3.212732e-01 2.433339e-01 4.199147e-01 1.108321e-01
<GCONST> 1.140919e+02
<STATE> 3
<MEAN> 39
 1.408992e+00 -1.509574e+01 3.204620e+00 -1.534492e+01 -1.833061e+01 3.528449e+00 -2.154948e+01 7.403469e+00 -3.608540e+00 1.211114e+00 1.200305e+00 -1.046802e+01 7.926869e+01 -3.769588e-01 -4.336816e-01 -6.267139e-01 3.505539e-01 2.554524e-01 -5.775794e-02 2.554358e-01 5.300692e-01 3.511065e-01 -8.302544e-02 -6.608845e-01 -6.455671e-01 5.039185e-01 -2.531005e-03 1.071339e-01 2.163479e-03 -6.141594e-02 8.660442e-03 9.906129e-02 2.071387e-01 -1.321867e-01 -1.067414e-01 -1.865336e-01 -4.573063e-02 1.947887e-01 -6.710508e-02
<VARIANCE> 39
 1.821447e+01 1.456488e+01 7.143128e+01 4.873716e+01 4.132325e+01 8.219791e+01 4.972215e+01 9.459647e+01 7.759366e+01 4.776836e+01 8.466179e+01 3.744466e+01 1.530910e+01 7.642280e-01 1.356300e+00 5.326754e+00 4.612804e+00 3.226019e+00 7.333671e+00 5.360494e+00 9.681143e+00 5.326391e+00 4.326540e+00 2.782589e+00 6.057084e+00 1.288841e+00 6.451702e-02 2.017210e-01 5.107881e-01 4.132106e-01 3.601786e-01 8.009399e-01 5.890962e-01 1.362750e+00 6.912771e-01 6.628432e-01 5.170513e-01 1.029690e+00 1.002943e-01
<GCONST> 1.265034e+02
<STATE> 4
<MEAN> 39
 3.759357e+00 -2.175370e+01 -7.450874e+00 -1.897168e+01 -1.128408e+01 1.826249e+01 -1.736337e+01 7.751908e+00 -6.049139e+00 -3.502393e+00 -3.232198e+00 -1.274697e+01 7.907124e+01 2.198220e-01 -2.339332e-01 -2.748061e-01 4.332270e-01 -1.701272e-02 1.687489e-01 -2.494161e-01 4.295125e-01 -4.871865e-01 -1.909240e-01 5.711825e-01 -1.963295e-01 -1.481549e-01 -5.714560e-02 8.684739e-02 -1.395143e-02 6.638467e-02 5.064733e-02 -2.942265e-01 4.445878e-02 1.075158e-02 1.047608e-01 -9.400960e-03 2.079156e-02 1.366077e-02 3.329695e-02
<VARIANCE> 39
 1.393705e+01 2.103305e+01 2.310921e+01 4.298632e+01 1.403838e+01 1.040923e+02 4.124920e+01 6.542446e+01 3.435182e+01 1.658722e+01 5.655762e+01 1.982216e+01 1.668406e+01 4.561765e-01 8.555484e-01 7.856660e-01 1.057177e+00 1.085431e+00 4.170914e+00 2.341666e+00 2.389076e+00 1.178716e+00 9.620910e-01 8.876837e-01 1.061911e+00 8.351863e-01 1.007458e-01 1.665905e-01 1.666315e-01 1.157235e-01 2.268519e-01 4.193258e-01 4.096699e-01 3.683598e-01 2.018148e-01 1.732557e-01 1.258516e-01 1.593255e-01 1.177416e-01
<GCONST> 9.593870e+01
<TRANSP> 5
 0.000000e+00 1.000000e+00 0.000000e+00 0.000000e+00 0.000000e+00
 0.000000e+00 8.563840e-01 1.436160e-01 0.000000e+00 0.000000e+00
 0.000000e+00 0.000000e+00 8.687381e-01 1.312619e-01 0.000000e+00
 0.000000e+00 0.000000e+00 0.000000e+00 9.375585e-01 6.244153e-02
 0.000000e+00 0.000000e+00 0.000000e+00 0.000000e+00 0.000000e+00
<ENDHMM>
~h "iu"
<BEGINHMM>
<NUMSTATES> 5
<STATE> 2
<MEAN> 39
 1.547769e-01 -2.887401e+00 9.681071e+00 -5.478903e+00 -2.245966e+01 4.257183e+00 -1.595108e+01 1.748472e+00 -9.119599e+00 -1.172960e+01 8.541176e+00 -8.399921e+00 6.998456e+01 -9.877365e-01 -5.761903e-01 -5.796919e-01 -2.107635e-01 -1.301352e+00 2.102622e-01 -8.803609e-01 1.115186e+00 1.712027e+00 5.248437e-01 8.131022e-01 -1.824226e+00 1.592040e+00 3.612250e-01 6.466614e-02 -8.503721e-01 2.500271e-03 7.043444e-01 1.494411e-01 -2.711968e-01 -3.983527e-01 3.495421e-01 2.269085e-01 -8.242322e-02 -1.898826e-01 -1.617665e-01
<VARIANCE> 39
 2.753643e+01 1.848706e+01 4.917381e+01 4.452263e+01 9.217667e+01 6.688141e+01 4.279642e+01 5.089115e+01 5.463243e+01 2.147630e+01 3.574604e+01 3.910758e+01 3.522225e+01 4.456300e+00 1.904978e+00 1.618621e+01 8.259462e+00 2.000487e+01 1.253102e+01 8.754033e+00 5.517140e+00 5.571372e+00 2.796386e+00 5.046491e+00 2.859495e+00 1.458019e+00 6.617700e-01 4.378416e-01 1.720204e+00 2.090217e+00 3.356274e+00 3.428182e+00 1.663390e+00 1.234971e+00 1.032550e+00 5.056670e-01 1.215499e+00 6.356932e-01 3.761986e-01
<GCONST> 1.434326e+02
<STATE> 3
<MEAN> 39
 3.516242e+00 -3.070447e+00 -6.959157e+00 -1.157164e+01 -1.389913e+01 1.265403e+01 -2.585025e+01 -4.392345e-01 -1.111199e+00 -1.052019e+01 1.768315e+01 -1.750364e+01 7.287280e+01 4.758183e-01 -2.292712e-01 4.010642e-01 -3.617845e-01 8.670602e-01 3.970862e-01 -4.870303e-01 -6.145969e-01 -5.128804e-01 1.041247e-01 -1.694136e-01 1.248786e-01 -4.520483e-01 -3.170294e-02 -1.521810e-01 7.239367e-01 4.567829e-01 -3.730846e-01 -5.408272e-01 5.106272e-01 -1.394163e-02 -2.631897e-01 -3.415569e-02 -6.747218e-01 3.736765e-01 -1.673418e-01
<VARIANCE> 39
 6.155934e+00 9.428567e+00 1.872924e+01 2.472174e+01 2.090394e+01 2.772167e+01 3.865929e+01 2.686437e+01 2.545888e+01 3.555343e+01 4.663681e+01 1.825121e+01 1.033586e+01 5.062352e-01 1.442606e+00 6.905488e+00 4.633024e+00 2.631686e+00 7.327463e+00 4.882645e+00 3.782883e+00 2.175356e+00 5.005229e+00 1.217340e+01 2.080989e+00 9.053339e-01 1.081286e-01 1.503693e-01 2.589080e-01 3.350270e-01 7.435077e-01 5.146183e-01 1.464168e+00 7.888867e-01 7.560526e-01 1.116669e+00 1.044261e+00 5.519425e-01 1.209017e-01
<GCONST> 1.154076e+02
<STATE> 4
<MEAN> 39
 7.252696e+00 -8.327800e+00 8.219379e+00 -2.247858e+00 -1.292125e+01 1.573690e+00 -2.093274e+01 -7.042915e+00 -5.512829e+00 -6.498627e+00 -3.534131e+00 -9.898748e+00 6.604354e+01 -3.837410e-01 -2.990817e-01 4.027044e-01 -6.554270e-02 1.684780e-01 -2.309619e+00 1.304578e+00 7.092050e-01 4.551044e-01 1.756158e-01 -3.202609e+00 1.282177e+00 3.063965e-01 -6.515346e-01 1.748177e-02 -1.258903e+00 -1.272980e+00 3.906792e-01 4.032703e-01 -7.296116e-01 1.601044e+00 8.118680e-01 -2.748130e-01 8.746586e-01 -5.206500e-01 9.841190e-01
<VARIANCE> 39
 3.118321e+00 5.668486e+00 6.380369e+00 2.037857e+01 1.526733e+01 1.944703e+01 1.451676e+01 1.530023e+01 9.812673e+00 1.756903e+01 2.634151e+01 1.540644e+01 6.115471e+00 2.493902e+00 7.617962e-01 5.290537e+00 8.440025e+00 3.458726e+00 1.591554e+00 5.344444e+00 1.063211e+01 3.644932e+00 1.482796e+00 3.988380e+00 2.377015e+00 4.296622e+00 1.862152e-01 2.588530e-01 2.443382e-01 6.101538e-01 4.802055e-01 4.630409e-01 7.709230e-01 7.570974e-01 4.360617e-01 3.752585e-01 3.151953e-01 3.088703e-01 2.983516e-01
<GCONST> 1.067343e+02
<TRANSP> 5
 0.000000e+00 1.000000e+00 0.000000e+00 0.000000e+00 0.000000e+00
 0.000000e+00 8.506643e-01 1.493358e-01 0.000000e+00 0.000000e+00
 0.000000e+00 0.000000e+00 8.892762e-01 1.107237e-01 0.000000e+00
 0.000000e+00 0.000000e+00 0.000000e+00 7.567735e-01 2.432265e-01
 0.000000e+00 0.000000e+00 0.000000e+00 0.000000e+00 0.000000e+00
<ENDHMM>
~h "sh"
<BEGINHMM>
<NUMSTATES> 5
<STATE> 2
<MEAN> 39
 -2.883230e+00 -9.123314e+00 -1.376403e+00 9.436327e-01 -1.176034e+01 -1.061966e+01 -3.368387e-02 5.540127e+00 -9.340344e+00 -9.031477e+00 -2.475433e+00 -2.119218e+00 5.767948e+01 -2.347968e+00 -1.344306e+00 2.698944e+00 2.241652e-01 2.076624e-02 -2.280082e+00 6.747618e-01 6.971715e-01 6.649371e-01 2.413484e-01 9.523816e-01 -8.665131e-01 2.647342e+00 -1.061524e+00 -8.783729e-02 -9.442560e-03 2.624040e-01 3.297094e-01 -5.338004e-02 1.713896e-01 8.938079e-02 4.372615e-01 -5.239045e-02 -2.898851e-02 -1.136131e-01 1.645210e-01
<VARIANCE> 39
 6.678021e+01 4.560120e+01 4.660509e+01 3.423045e+01 2.350949e+01 4.429647e+01 4.874405e+01 5.454787e+01 2.612575e+01 2.765815e+01 1.977850e+01 2.286528e+01 7.854469e+01 8.508436e+00 5.122217e+00 3.333055e+00 2.646036e+00 2.717797e+00 3.702968e+00 2.929700e+00 3.247886e+00 3.140202e+00 4.022027e+00 1.663785e+00 2.285280e+00 3.147934e+00 9.201840e-01 1.102414e+00 7.870103e-01 4.727069e-01 5.440731e-01 8.838223e-01 6.652037e-01 6.851014e-01 4.677062e-01 7.515308e-01 3.603238e-01 5.823753e-01 6.721292e-01
<GCONST> 1.290032e+02
<STATE> 3
<MEAN> 39
 -2.467120e+01 -1.345122e+01 5.891119e+00 8.346017e+00 -6.545487e+00 -1.857977e+01 1.832194e+00 8.250928e+00 -2.359642e+00 -7.954063e+00 1.812567e+00 -4.440191e+00 6.701163e+01 -1.884589e+00 -3.461066e-01 -3.378204e-01 8.558653e-01 9.810944e-01 -2.568066e-01 -4.494627e-01 -1.700061e-01 8.433621e-01 2.816773e-01 3.412118e-01 1.362519e-01 7.373570e-01 9.741012e-01 2.947404e-02 -5.227708e-01 -4.390000e-01 -1.834887e-01 3.249173e-01 -1.977652e-01 -1.136994e-01 -1.861636e-01 4.245114e-03 -1.644204e-01 5.047539e-02 -2.336155e-01
<VARIANCE> 39
 3.506406e+01 1.956592e+01 1.305095e+01 2.239410e+01 2.357561e+01 1.132728e+01 2.286048e+01 2.085750e+01 2.279748e+01 1.736070e+01 1.309420e+01 1.109462e+01 1.581054e+01 4.863285e+00 1.286756e+00 1.890515e+00 2.711324e+00 1.684696e+00 1.552737e+00 1.605648e+00 1.969427e+00 2.259974e+00 1.720753e+00 1.408352e+00 1.471408e+00 1.275145e+00 3.854220e-01 3.207849e-01 2.955130e-01 6.171036e-01 3.394194e-01 3.230060e-01 3.897669e-01 3.866625e-01 4.478815e-01 3.964427e-01 2.372893e-01 3.712270e-01 3.283005e-01
<GCONST> 1.041045e+02
<STATE> 4
<MEAN> 39
 -1.792570e+01 -1.498753e+01 -1.842052e+00 3.264149e+00 -5.218870e+00 -1.611420e+01 -2.761073e+00 6.476972e+00 -3.444961e-01 -6.535254e+00 1.048135e+00 -5.037466e+00 6.943988e+01 6.487352e+00 7.268018e-01 -2.185740e+00 -3.750628e+00 -6.340080e-01 3.327729e+00 -1.772758e+00 -1.397465e+00 -4.265482e-01 1.222633e+00 -7.015747e-01 -1.454142e+00 2.067319e-01 1.062633e+00 8.945262e-02 9.333116e-02 -8.650826e-01 -2.822360e-01 1.553314e+00 -3.627958e-01 -5.358081e-01 -1.921321e-01 5.235158e-01 7.582986e-02 -4.126053e-01 1.052040e-01
<VARIANCE> 39
 9.705516e+01 2.081553e+01 2.169173e+01 3.226717e+01 2.019111e+01 3.030397e+01 2.284063e+01 2.140666e+01 2.669969e+01 2.100957e+01 1.708274e+01 1.475807e+01 1.657562e+01 7.044141e+00 2.337589e+00 1.634207e+00 3.020104e+00 1.861711e+00 7.703071e+00 2.533846e+00 3.410774e+00 2.517522e+00 3.037031e+00 1.672497e+00 1.714383e+00 1.395751e+00 2.044210e+00 7.021205e-01 4.539437e-01 4.643568e-01 3.975979e-01 5.833358e-01 4.065040e-01 5.109921e-01 5.619634e-01 4.238048e-01 4.689329e-01 3.733378e-01 3.668701e-01
<GCONST> 1.173454e+02
<TRANSP> 5
 0.000000e+00 1.000000e+00 0.000000e+00 0.000000e+00 0.000000e+00
 0.000000e+00 7.904522e-01 2.095478e-01 0.000000e+00 0.000000e+00
 0.000000e+00 0.000000e+00 8.613120e-01 1.386880e-01 0.000000e+00
 0.000000e+00 0.000000e+00 0.000000e+00 7.437195e-01 2.562805e-01
 0.000000e+00 0.000000e+00 0.000000e+00 0.000000e+00 0.000000e+00
<ENDHMM>
~h "si"
<BEGINHMM>
<NUMSTATES> 5
<STATE> 2
<MEAN> 39
 8.818085e+00 -6.912924e+00 3.070464e+00 -2.745514e+01 -2.069875e+01 1.620642e+01 -1.717796e+01 -2.483038e-01 -2.718843e+00 -5.099401e+00 -1.405771e+00 -8.023872e-01 7.153662e+01 1.407030e-01 -2.047125e+00 1.378495e-01 -1.120536e+00 2.187504e-01 4.071651e-01 -1.254064e+00 5.571314e-01 -5.786710e-01 1.502538e+00 1.193247e-01 -4.152194e-01 2.151052e+00 -6.130989e-01 1.834296e-01 -4.087501e-01 6.888919e-01 5.478796e-01 -3.814842e-01 2.891257e-01 2.734747e-01 -1.720325e-01 3.518588e-01 2.856453e-02 -3.915742e-01 -5.437676e-01
<VARIANCE> 39
 1.131812e+01 3.767230e+01 2.377666e+01 1.880804e+02 3.773945e+01 7.432664e+01 1.225497e+01 3.524876e+01 4.831525e+01 3.143990e+01 4.841397e+01 1.295565e+01 3.220916e+01 2.898508e+00 3.754528e+00 2.742516e+00 1.132609e+01 3.555932e+00 4.675250e+00 3.477704e+00 2.732337e+00 2.825553e+00 2.753501e+00 1.824329e+00 1.976326e+00 5.282426e+00 7.940328e-01 5.015655e-01 4.988014e-01 1.322363e+00 7.344831e-01 7.127705e-01 7.106154e-01 9.407775e-01 8.679844e-01 4.456080e-01 4.581545e-01 4.245693e-01 3.076485e-01
<GCONST> 1.271165e+02
<STATE> 3
<MEAN> 39
 2.945466e+00 -1.773320e+01 4.126736e-01 -1.739253e+01 -1.482952e+01 7.625923e+00 -1.958624e+01 1.138369e+01 -6.012131e+00 2.526634e+00 -6.140481e+00 -8.781789e+00 7.855941e+01 -2.925561e-01 2.545717e-01 -2.270444e-01 5.411797e-01 4.576880e-01 -5.431303e-01 6.310483e-01 3.625923e-01 -1.206041e-01 -1.012328e-01 -1.304461e-01 1.630421e-02 -3.392002e-02 -1.472019e-01 2.624490e-01 -2.263736e-02 1.720299e-01 9.321769e-02 -1.089843e-01 3.497644e-01 -2.944439e-01 1.943064e-01 -2.510579e-01 6.739596e-02 1.021750e-01 -1.473092e-01
<VARIANCE> 39
 7.395766e+00 2.234905e+01 3.114374e+01 5.615080e+01 3.591285e+01 1.041905e+02 3.668872e+01 8.012282e+01 4.232076e+01 4.339109e+01 4.406303e+01 2.989905e+01 1.373824e+01 7.858990e-01 2.739943e+00 2.290653e+00 5.574370e+00 2.428381e+00 6.006262e+00 4.220956e+00 8.155358e+00 4.208293e+00 4.348406e+00 2.398246e+00 3.723529e+00 1.497414e+00 2.351770e-01 2.564703e-01 3.685938e-01 4.650106e-01 3.485220e-01 7.458265e-01 7.152070e-01 1.287706e+00 7.594666e-01 8.153686e-01 3.803492e-01 6.582955e-01 1.407450e-01
<GCONST> 1.229905e+02
<STATE> 4
<MEAN> 39
 -1.428834e+01 -1.250906e+00 -6.501003e+00 -3.926195e+00 -2.603047e+00 -5.335595e+00 -1.818308e+00 -3.743938e+00 -9.194626e-01 -5.460452e+00 -2.975670e+00 -3.152618e+00 7.087755e+01 -2.488527e-01 3.566732e-01 -3.790557e-04 8.774132e-03 3.876649e-01 -3.318152e-01 -5.608881e-01 -1.039553e+00 4.062822e-01 -9.397042e-02 1.441886e-01 -2.246005e-01 -8.325756e-02 2.386927e-01 -2.085944e-01 1.138045e-01 -2.369317e-01 -1.491719e-01 1.559363e-01 -4.341215e-01 1.549851e-01 -1.479157e-01 1.126756e-01 -1.660291e-03 -5.884703e-02 1.405496e-01
<VARIANCE> 39
 6.927554e+01 2.985934e+01 2.314000e+01 2.263501e+01 4.626212e+01 2.401928e+01 4.663153e+01 5.418658e+01 1.843071e+01 2.083145e+01 1.681968e+01 1.514801e+01 1.723057e+01 7.401650e+00 2.790748e+00 2.652422e+00 3.116081e+00 2.391100e+00 3.379735e+00 8.418928e+00 4.192667e+00 2.610315e+00 2.407750e+00 1.741662e+00 1.827266e+00 1.593268e+00 7.027263e-01 4.823638e-01 3.392506e-01 3.586609e-01 4.531175e-01 5.280787e-01 8.333143e-01 7.668595e-01 4.511147e-01 3.707564e-01 3.186535e-01 3.345155e-01 2.704037e-01
<GCONST> 1.186124e+02
<TRANSP> 5
 0.000000e+00 1.000000e+00 0.000000e+00 0.000000e+00 0.000000e+00
 0.000000e+00 7.723110e-01 2.276891e-01 0.000000e+00 0.000000e+00
 0.000000e+00 0.000000e+00 9.290722e-01 7.092782e-02 0.000000e+00
 0.000000e+00 0.000000e+00 0.000000e+00 9.413991e-01 5.860092e-02
 0.000000e+00 0.000000e+00 0.000000e+00 0.000000e+00 0.000000e+00
<ENDHMM>
~h "sp"
<BEGINHMM>
<NUMSTATES> 3
<STATE> 2
~s "silst"
<TRANSP> 3
 0.000000e+00 1.141178e-01 8.858822e-01
 0.000000e+00 8.193356e-01 1.806644e-01
 0.000000e+00 0.000000e+00 0.000000e+00
<ENDHMM>
~h "un"
<BEGINHMM>
<NUMSTATES> 5
<STATE> 2
<MEAN> 39
 -1.218460e+00 -6.567546e+00 -1.024465e+01 -1.129841e+01 -2.060477e+00 -5.446904e-01 -5.739966e+00 -6.837886e+00 -2.983031e+00 -2.110464e+00 1.793152e+00 4.596274e-01 5.989450e+01 -2.054883e+00 -4.263535e-01 -5.351579e-01 3.250828e-01 1.957042e+00 -2.254129e+00 1.031232e+00 -3.026530e-01 6.045362e-01 4.146494e-01 -6.611621e-01 1.564423e-01 1.810381e-01 -2.950017e-02 -1.591784e-02 3.224059e-01 -1.715665e-01 -3.137022e-01 2.432986e-01 -2.470545e-01 -1.439854e-02 9.925424e-02 -1.122275e-01 -5.800540e-02 -2.560972e-01 5.792434e-01
<VARIANCE> 39
 4.559940e+01 5.954527e+01 3.691116e+01 3.655713e+01 6.646143e+01 6.977261e+01 3.455652e+01 3.405335e+01 2.893245e+01 2.223691e+01 2.561444e+01 2.458531e+01 1.187908e+02 1.623165e+00 9.045403e+00 4.460721e+00 6.533433e+00 1.052281e+01 1.270023e+01 5.727440e+00 5.502257e+00 3.944793e+00 2.467577e+00 3.138685e+00 2.777612e+00 2.431779e+01 4.692938e-01 2.048404e+00 9.430549e-01 1.529141e+00 2.725519e+00 3.033802e+00 1.008765e+00 1.185296e+00 7.757186e-01 5.426270e-01 6.766719e-01 5.631651e-01 3.096638e+00
<GCONST> 1.439478e+02
<STATE> 3
<MEAN> 39
 -5.997611e+00 -8.431673e+00 -5.060031e+00 -6.140941e+00 1.444816e+00 -1.066809e+01 -4.925151e+00 -1.025793e+01 1.700995e+00 -4.650730e+00 -2.366398e+00 -6.295230e+00 7.593632e+01 1.930599e+00 6.671253e-01 7.227024e-01 8.780870e-01 -1.549230e+00 1.725287e+00 -1.188824e+00 9.372564e-01 2.870491e-01 -9.827314e-01 3.789844e-02 -9.398966e-01 5.406333e-02 2.664962e-01 -1.602185e-01 -1.894235e-01 -2.235114e-01 -4.160251e-01 6.815366e-01 -5.414403e-01 6.697893e-01 3.948704e-02 -1.792447e-01 1.953323e-01 5.727337e-02 -5.081708e-01
<VARIANCE> 39
 5.629349e+01 1.240741e+01 1.196445e+01 1.788951e+01 3.670591e+01 4.694470e+01 2.189882e+01 2.671803e+01 2.438218e+01 2.483633e+01 1.629074e+01 1.398532e+01 5.169527e+01 2.685242e+00 2.488029e+00 3.481021e+00 3.943521e+00 2.920952e+00 4.941032e+00 4.308790e+00 5.685204e+00 3.424881e+00 2.627329e+00 2.265334e+00 2.404592e+00 5.180595e+00 1.047912e+00 5.505835e-01 7.467716e-01 6.115419e-01 1.050098e+00 9.407683e-01 5.551307e-01 5.276196e-01 8.008766e-01 7.181635e-01 5.477433e-01 4.772267e-01 1.139503e+00
<GCONST> 1.247817e+02
<STATE> 4
<MEAN> 39
 2.074803e+00 -1.039655e+01 2.506736e+00 -5.448441e+00 -1.630251e+01 4.908703e+00 -1.929259e+01 6.249774e+00 5.593182e+00 -1.566551e+01 2.913383e+00 -1.159861e+01 7.494039e+01 -5.392551e-01 -1.880552e-01 2.176718e+00 -3.750600e-01 -2.868894e+00 1.095268e+00 -1.081753e+00 1.447768e+00 -2.771089e-01 -1.847382e+00 1.733162e+00 -3.950749e-01 3.139616e-01 -1.660734e-01 2.911177e-01 -2.226824e-02 -5.849769e-02 5.845459e-01 -5.113015e-01 7.785442e-01 -8.819883e-01 -7.059895e-01 3.934938e-01 -2.583107e-02 3.845514e-01 -1.896653e-01
<VARIANCE> 39
 1.032182e+01 7.276929e+00 4.125887e+01 7.195346e+00 6.777061e+01 9.043452e+00 2.219762e+01 2.529383e+01 2.087255e+01 2.887370e+01 3.848477e+01 1.179237e+01 7.671484e+00 8.506482e-01 1.956980e+00 1.284461e+00 1.080454e+00 3.790177e+00 1.841036e+00 7.413363e+00 7.420632e+00 4.637187e+00 3.382766e+00 2.393004e+00 2.397669e+00 1.610618e+00 4.965158e-01 2.386116e-01 5.460500e-01 3.377126e-01 1.003490e+00 3.604937e-01 6.865721e-01 5.145798e-01 3.895232e-01 7.679229e-01 9.083332e-01 3.593180e-01 3.687040e-01
<GCONST> 1.115536e+02
<TRANSP> 5
