~o
<STREAMINFO> 1 39
<VECSIZE> 39<NULLD><MFCC_D_A_0><DIAGC>
~h "proto"
<BEGINHMM>
<NUMSTATES> 5
<STATE> 2
<MEAN> 39
 -4.831315e+00 -6.109222e+00 -3.437809e+00 -9.229187e+00 -9.218806e+00 5.197738e+00 -1.164527e+01 7.742584e-01 -4.539208e+00 -5.853002e+00 -2.275695e-01 -7.060808e+00 6.150542e+01 1.968843e-03 3.791429e-03 2.422122e-03 2.414069e-04 4.386763e-03 -1.905131e-03 -1.496051e-04 -4.687551e-03 -1.126752e-03 -5.925211e-03 5.394041e-03 -1.881936e-03 1.090706e-02 -3.437216e-04 -1.174428e-04 -2.310081e-04 -1.576093e-04 -5.294857e-04 1.651858e-04 2.989648e-04 2.125838e-04 -1.436573e-04 -1.952062e-05 -4.604908e-04 -1.068339e-03 -3.207899e-04
<VARIANCE> 39
 1.145884e+02 7.078659e+01 9.641729e+01 9.738477e+01 6.912416e+01 1.138757e+02 9.397301e+01 6.343231e+01 5.505625e+01 4.608579e+01 6.246661e+01 4.613967e+01 2.688735e+02 4.439796e+00 2.770835e+00 3.443758e+00 3.940298e+00 4.333231e+00 6.004729e+00 4.817949e+00 4.282879e+00 3.384017e+00 3.031818e+00 3.383675e+00 2.779006e+00 3.531406e+00 6.424924e-01 4.342849e-01 5.288075e-01 6.296625e-01 7.551682e-01 9.055246e-01 8.182287e-01 7.950706e-01 5.942368e-01 5.392049e-01 5.674443e-01 4.940564e-01 4.738125e-01
<GCONST> 1.397804e+02
<STATE> 3
<MEAN> 39
 -4.831315e+00 -6.109222e+00 -3.437809e+00 -9.229187e+00 -9.218806e+00 5.197738e+00 -1.164527e+01 7.742584e-01 -4.539208e+00 -5.853002e+00 -2.275695e-01 -7.060808e+00 6.150542e+01 1.968843e-03 3.791429e-03 2.422122e-03 2.414069e-04 4.386763e-03 -1.905131e-03 -1.496051e-04 -4.687551e-03 -1.126752e-03 -5.925211e-03 5.394041e-03 -1.881936e-03 1.090706e-02 -3.437216e-04 -1.174428e-04 -2.310081e-04 -1.576093e-04 -5.294857e-04 1.651858e-04 2.989648e-04 2.125838e-04 -1.436573e-04 -1.952062e-05 -4.604908e-04 -1.068339e-03 -3.207899e-04
<VARIANCE> 39
 1.145884e+02 7.078659e+01 9.641729e+01 9.738477e+01 6.912416e+01 1.138757e+02 9.397301e+01 6.343231e+01 5.505625e+01 4.608579e+01 6.246661e+01 4.613967e+01 2.688735e+02 4.439796e+00 2.770835e+00 3.443758e+00 3.940298e+00 4.333231e+00 6.004729e+00 4.817949e+00 4.282879e+00 3.384017e+00 3.031818e+00 3.383675e+00 2.779006e+00 3.531406e+00 6.424924e-01 4.342849e-01 5.288075e-01 6.296625e-01 7.551682e-01 9.055246e-01 8.182287e-01 7.950706e-01 5.942368e-01 5.392049e-01 5.674443e-01 4.940564e-01 4.738125e-01
<GCONST> 1.397804e+02
<STATE> 4
<MEAN> 39
 -4.831315e+00 -6.109222e+00 -3.437809e+00 -9.229187e+00 -9.218806e+00 5.197738e+00 -1.164527e+01 7.742584e-01 -4.539208e+00 -5.853002e+00 -2.275695e-01 -7.060808e+00 6.150542e+01 1.968843e-03 3.791429e-03 2.422122e-03 2.414069e-04 4.386763e-03 -1.905131e-03 -1.496051e-04 -4.687551e-03 -1.126752e-03 -5.925211e-03 5.394041e-03 -1.881936e-03 1.090706e-02 -3.437216e-04 -1.174428e-04 -2.310081e-04 -1.576093e-04 -5.294857e-04 1.651858e-04 2.989648e-04 2.125838e-04 -1.436573e-04 -1.952062e-05 -4.604908e-04 -1.068339e-03 -3.207899e-04
<VARIANCE> 39
 1.145884e+02 7.078659e+01 9.641729e+01 9.738477e+01 6.912416e+01 1.138757e+02 9.397301e+01 6.343231e+01 5.505625e+01 4.608579e+01 6.246661e+01 4.613967e+01 2.688735e+02 4.439796e+00 2.770835e+00 3.443758e+00 3.940298e+00 4.333231e+00 6.004729e+00 4.817949e+00 4.282879e+00 3.384017e+00 3.031818e+00 3.383675e+00 2.779006e+00 3.531406e+00 6.424924e-01 4.342849e-01 5.288075e-01 6.296625e-01 7.551682e-01 9.055246e-01 8.182287e-01 7.950706e-01 5.942368e-01 5.392049e-01 5.674443e-01 4.940564e-01 4.738125e-01
<GCONST> 1.397804e+02
<TRANSP> 5
 0.000000e+00 1.000000e+00 0.000000e+00 0.000000e+00 0.000000e+00
 0.000000e+00 6.000000e-01 4.000000e-01 0.000000e+00 0.000000e+00
 0.000000e+00 0.000000e+00 6.000000e-01 4.000000e-01 0.000000e+00
 0.000000e+00 0.000000e+00 0.000000e+00 7.000000e-01 3.000000e-01
 0.000000e+00 0.000000e+00 0.000000e+00 0.000000e+00 0.000000e+00
<ENDHMM>
