~o
<STREAMINFO> 1 39
<VECSIZE> 39<NULLD><MFCC_D_A_0><DIAGC>
~s "silst"
<MEAN> 39
 -1.718872e+01 -8.051544e-01 -9.351098e+00 3.354494e-01 -6.905634e+00 1.472269e+00 -6.050548e+00 -2.193939e+00 -5.246501e+00 -4.058061e+00 -3.373305e+00 -3.132530e+00 3.608575e+01 -7.544781e-02 2.996599e-02 -8.107580e-03 3.291046e-02 -4.164068e-02 -7.029042e-02 -4.713598e-02 -2.926727e-02 8.846825e-02 -4.000483e-02 1.098321e-01 -3.426931e-02 7.354586e-03 1.845270e-02 7.095301e-02 5.825553e-04 1.159165e-02 -7.864448e-03 -2.539953e-02 7.144268e-03 3.144976e-02 8.004025e-02 -9.614295e-02 6.806168e-02 -6.188521e-02 9.989133e-02
<VARIANCE> 39
 3.697248e+00 4.396846e+00 7.235552e+00 7.540116e+00 1.012742e+01 1.091702e+01 1.322276e+01 1.468756e+01 1.398464e+01 1.291230e+01 1.289331e+01 1.106931e+01 4.476342e+00 3.863826e-01 5.764120e-01 7.528466e-01 9.137827e-01 1.141906e+00 1.299598e+00 1.480171e+00 1.767593e+00 1.742084e+00 1.646317e+00 1.628150e+00 1.344775e+00 1.742816e-01 9.627356e-02 1.461761e-01 1.701236e-01 1.949272e-01 2.342748e-01 2.625657e-01 3.101873e-01 3.819345e-01 3.688210e-01 3.606043e-01 3.738427e-01 3.047926e-01 3.610577e-02
<GCONST> 7.956385e+01
~h "a"
<BEGINHMM>
<NUMSTATES> 5
<STATE> 2
<MEAN> 39
 -4.662294e+00 -1.405336e+01 -1.438202e+01 -1.206808e+01 5.323218e+00 1.106416e+01 -1.015935e+01 -4.522135e+00 3.123317e+00 -3.432666e+00 -4.792937e+00 -1.307354e+00 6.824693e+01 1.974348e+00 -4.359335e-02 -2.019719e-01 -7.399730e-04 -2.603048e-02 3.535657e+00 -2.131695e+00 -2.211618e-01 -2.068983e-01 -3.666460e-01 5.585396e-01 -2.027878e-01 -1.564797e-01 1.781638e-01 2.760745e-01 1.461968e-01 -2.625467e-02 -7.164974e-01 -9.622259e-02 -8.270735e-02 1.031455e-01 -2.027906e-01 -3.299932e-01 2.943322e-01 -3.913195e-01 -2.071084e-02
<VARIANCE> 39
 3.230829e+01 2.474009e+01 1.842822e+01 3.737335e+01 3.015249e+01 7.577683e+01 4.012277e+01 3.238087e+01 2.075547e+01 1.734561e+01 2.794908e+01 1.750810e+01 3.766685e+01 2.529756e+00 4.305268e+00 2.502648e+00 2.433656e+00 6.019912e+00 4.553752e+00 3.051234e+00 3.528792e+00 2.666091e+00 3.050033e+00 2.247658e+00 2.301111e+00 1.021280e+00 5.756811e-01 6.663234e-01 5.586794e-01 5.244705e-01 5.736452e-01 1.290640e+00 7.423816e-01 7.558116e-01 4.655597e-01 5.771310e-01 4.661183e-01 3.586570e-01 4.546105e-01
<GCONST> 1.221943e+02
<STATE> 3
<MEAN> 39
 5.353439e+00 -1.122118e+01 -1.505345e+01 -1.283612e+01 -3.991626e+00 2.435862e+01 -2.012220e+01 -1.394849e+00 -1.017328e+00 -1.259599e+01 2.736555e+00 -7.491105e+00 7.147842e+01 4.878150e-01 -1.828475e-01 -3.938816e-01 -8.455368e-01 -1.308125e+00 1.148363e+00 -5.475756e-01 6.555288e-01 -2.781090e-01 -2.671987e+00 2.189512e+00 -1.239272e+00 7.487045e-01 -4.173746e-01 -4.015677e-05 8.788715e-02 -3.381444e-03 5.672281e-01 -5.437757e-01 5.956060e-01 -1.979616e-01 2.932920e-01 1.343665e-01 -1.089478e-01 3.221263e-01 -2.977024e-01
<VARIANCE> 39
 7.097044e+00 1.528879e+01 1.110838e+01 2.379441e+01 1.405116e+01 1.725984e+01 2.652250e+01 2.885226e+01 2.138991e+01 4.206305e+01 3.128835e+01 1.628719e+01 1.739142e+01 9.689500e-01 1.010679e+00 1.054671e+00 1.047874e+00 2.105340e+00 1.670035e+00 2.151940e+00 1.521961e+00 1.526249e+00 1.772177e+00 1.401155e+00 1.333037e+00 9.152276e-01 2.413881e-01 4.045705e-01 2.026208e-01 3.020461e-01 2.606952e-01 2.060199e-01 3.025085e-01 2.964185e-01 2.410578e-01 4.010567e-01 4.293480e-01 3.157367e-01 1.780369e-01
<GCONST> 9.750192e+01
<STATE> 4
<MEAN> 39
 7.249295e+00 -6.216253e+00 -1.677450e+01 -1.385863e+01 -3.089295e+00 2.135975e+01 -1.488774e+01 -6.310702e-01 -1.903263e+00 -2.046031e+01 8.038779e+00 -7.730529e+00 6.748759e+01 4.113214e-01 7.411076e-01 -2.923498e-01 2.354628e-01 4.624424e-01 -1.077527e+00 1.084168e+00 2.121686e-01 -8.661978e-01 4.173220e-01 -2.637193e-01 1.453918e-01 -9.084210e-01 2.011708e-02 1.642261e-02 -2.116962e-02 1.029888e-01 5.875981e-02 -1.468315e-01 1.082817e-01 1.431832e-02 -1.919699e-01 4.067125e-01 -2.489249e-01 -7.978395e-03 -9.664116e-02
<VARIANCE> 39
 8.292400e+00 2.428262e+01 7.978012e+00 1.533843e+01 1.369782e+01 3.319021e+01 3.117058e+01 2.539081e+01 3.975328e+01 3.080174e+01 2.252473e+01 1.547048e+01 2.076957e+01 5.176783e-01 9.722054e-01 5.452073e-01 1.006283e+00 8.417565e-01 1.383758e+00 1.919404e+00 1.257041e+00 2.172359e+00 2.397898e+00 1.567698e+00 1.257187e+00 5.707994e-01 1.090142e-01 1.930530e-01 1.045468e-01 2.033532e-01 1.810580e-01 2.718886e-01 3.561224e-01 2.434141e-01 2.598963e-01 2.788273e-01 3.555002e-01 2.511875e-01 1.356545e-01
<GCONST> 9.188776e+01
<TRANSP> 5
 0.000000e+00 1.000000e+00 0.000000e+00 0.000000e+00 0.000000e+00
 0.000000e+00 8.395663e-01 1.604338e-01 0.000000e+00 0.000000e+00
 0.000000e+00 0.000000e+00 7.505312e-01 2.494687e-01 0.000000e+00
 0.000000e+00 0.000000e+00 0.000000e+00 8.818312e-01 1.181688e-01
 0.000000e+00 0.000000e+00 0.000000e+00 0.000000e+00 0.000000e+00
<ENDHMM>
~h "b"
<BEGINHMM>
<NUMSTATES> 5
<STATE> 2
<MEAN> 39
 -4.004383e-02 -1.003586e+01 -8.216419e+00 -2.124496e+01 -8.923367e+00 1.367354e+01 -9.135979e+00 -1.874680e+00 -2.859360e+00 -1.911762e+00 -6.561849e-01 -6.522508e+00 6.940119e+01 -1.476999e-01 5.679997e-01 -3.153573e-01 3.439581e-01 -1.956630e-02 8.889511e-02 3.982914e-01 -2.207839e-01 5.195404e-02 5.504304e-02 2.614681e-01 5.898700e-01 -1.673823e+00 5.275611e-02 3.192872e-03 5.105342e-02 6.746340e-02 -5.648274e-02 -2.600889e-01 -7.895470e-02 1.278073e-01 6.345689e-02 1.322235e-03 -5.797477e-02 -5.013712e-02 1.154732e-01
<VARIANCE> 39
 3.198682e+01 4.757248e+01 2.034689e+01 8.502431e+01 1.393382e+01 6.759635e+01 6.673095e+01 2.642328e+01 3.091304e+01 1.214385e+01 1.954939e+01 2.261773e+01 2.510472e+02 1.944980e+00 1.343208e+00 2.041085e+00 4.571822e+00 1.805352e+00 4.443066e+00 3.935302e+00 2.252406e+00 3.106107e+00 1.811477e+00 1.418240e+00 1.739695e+00 3.996764e+00 3.172125e-01 2.259768e-01 3.175290e-01 9.454731e-01 4.146486e-01 8.976356e-01 7.137154e-01 4.932338e-01 5.164097e-01 2.638835e-01 2.903681e-01 3.312100e-01 7.322624e-01
<GCONST> 1.192852e+02
<STATE> 3
<MEAN> 39
 -1.680560e+00 2.067092e+00 -4.165720e+00 -6.964520e+00 -1.018609e+01 1.520441e+00 -7.141106e+00 -2.398971e+00 -7.647698e-01 -9.588726e-01 -4.228447e+00 -2.373336e+00 5.167109e+01 2.444265e+00 -1.655719e+00 1.599770e+00 -2.003948e+00 -8.002321e-01 -2.175724e-01 -1.496670e+00 -2.616525e-01 8.826314e-01 -6.732200e-01 -7.532064e-01 -8.333358e-02 5.062628e+00 3.041267e-01 -9.936109e-01 6.406328e-02 -8.732945e-01 -2.498222e-01 7.394519e-01 -4.573052e-01 1.345770e-01 9.141781e-02 -3.168822e-01 -7.946290e-02 -1.296106e-01 1.280256e+00
<VARIANCE> 39
 5.433865e+01 7.134155e+01 1.219814e+02 1.089314e+02 3.854438e+01 8.282217e+01 2.958690e+01 2.460568e+01 3.934888e+01 3.369016e+01 5.435673e+01 1.751863e+01 8.348466e+01 5.580014e+00 7.377798e+00 5.196880e+00 1.461525e+01 4.542418e+00 1.085749e+01 5.830888e+00 3.156160e+00 4.495241e+00 5.620272e+00 2.784796e+00 2.565310e+00 8.903063e+00 1.260659e+00 7.859739e-01 1.539461e+00 1.823256e+00 5.461281e-01 1.957539e+00 6.570224e-01 6.888334e-01 6.451628e-01 8.385203e-01 4.829368e-01 5.130776e-01 1.969546e+00
<GCONST> 1.437722e+02
<STATE> 4
<MEAN> 39
 1.373964e+00 -1.490014e+01 -1.567178e+00 -1.382257e+01 -1.504920e+01 4.970454e+00 -1.123455e+01 5.529855e+00 1.423504e+00 -4.223177e+00 -6.420621e+00 -6.804052e+00 7.341011e+01 -1.640734e-01 -5.466339e-01 -4.585572e-01 -4.125744e-01 2.916123e-01 5.552613e-01 1.248462e-01 -2.073483e-01 -4.167800e-02 6.985431e-02 4.339823e-02 -1.923570e-01 8.066877e-01 -1.078259e-01 9.962939e-02 -8.007506e-02 1.337320e-01 6.734838e-02 2.371778e-02 5.779406e-02 -4.889948e-02 -1.150383e-02 1.016411e-02 -8.105041e-03 5.816936e-02 -2.020867e-01
<VARIANCE> 39
 2.993434e+01 4.664937e+01 4.396621e+01 9.769355e+01 4.265914e+01 9.564658e+01 7.442551e+01 9.791683e+01 2.983202e+01 5.597947e+01 5.275787e+01 3.117047e+01 1.352640e+02 2.037581e+00 3.419595e+00 2.914578e+00 6.576643e+00 2.749273e+00 6.942699e+00 4.713933e+00 6.778453e+00 2.367186e+00 4.066300e+00 3.057529e+00 3.324801e+00 1.169436e+01 4.327223e-01 4.228613e-01 4.200854e-01 9.682677e-01 4.422085e-01 1.081645e+00 8.418987e-01 1.139292e+00 4.625946e-01 7.071157e-01 5.689255e-01 6.997358e-01 1.386229e+00
<GCONST> 1.374863e+02
<TRANSP> 5
 0.000000e+00 1.000000e+00 0.000000e+00 0.000000e+00 0.000000e+00
 0.000000e+00 8.937079e-01 1.062921e-01 0.000000e+00 0.000000e+00
 0.000000e+00 0.000000e+00 7.244517e-01 2.755484e-01 0.000000e+00
 0.000000e+00 0.000000e+00 0.000000e+00 9.575613e-01 4.243869e-02
 0.000000e+00 0.000000e+00 0.000000e+00 0.000000e+00 0.000000e+00
<ENDHMM>
~h "d"
<BEGINHMM>
<NUMSTATES> 5
<STATE> 2
<MEAN> 39
 1.398082e+00 -2.368676e+01 -1.226617e+00 -1.063685e+01 -1.474117e+01 9.435760e+00 -1.530942e+01 1.642683e+01 -2.693452e+00 -1.451516e+01 -6.515965e+00 -1.248670e+01 6.983131e+01 -3.880436e-01 1.724321e-02 7.874186e-02 2.752844e-01 -5.345928e-01 -7.435020e-01 1.401839e+00 1.169624e-01 -3.700710e-01 2.054121e-03 -2.290719e-02 2.851929e-01 -1.068181e+00 -4.018010e-01 4.396824e-01 -3.052359e-01 2.842543e-01 2.912833e-01 -2.822286e-01 3.738169e-01 -3.557387e-02 6.818089e-02 3.111992e-01 -1.954362e-01 2.161714e-01 -4.735560e-01
<VARIANCE> 39
 1.133685e+01 1.538133e+01 1.231651e+01 1.202245e+01 1.900560e+01 1.763780e+01 3.174224e+01 1.463135e+01 1.442058e+01 1.642265e+01 1.564112e+01 9.344906e+00 1.516132e+01 1.084494e+00 1.504244e+00 1.038634e+00 8.930274e-01 1.735627e+00 1.257999e+00 1.450068e+00 1.299754e+00 1.631291e+00 1.527877e+00 1.195152e+00 9.104764e-01 1.472123e+00 3.047454e-01 2.758676e-01 2.485322e-01 2.196329e-01 3.939015e-01 2.113910e-01 2.170261e-01 2.915317e-01 3.017079e-01 3.244205e-01 2.363039e-01 1.573219e-01 3.475743e-01
<GCONST> 9.287280e+01
<STATE> 3
<MEAN> 39
 -3.272375e+00 -1.873121e+01 -3.602515e+00 -7.195450e+00 -1.358324e+01 3.390986e+00 -5.727545e+00 1.645690e+01 -4.590518e+00 -1.151587e+01 -9.086537e+00 -8.913698e+00 6.110978e+01 -2.050507e+00 1.390101e+00 -1.227681e+00 1.777296e+00 8.913406e-01 -1.273005e+00 2.950729e+00 -5.135331e-01 3.389409e-02 1.481583e+00 -4.872032e-01 1.297923e+00 -3.187461e+00 -1.028482e-01 -1.028174e-01 -2.142223e-01 3.839128e-01 3.383329e-02 -6.589547e-03 2.808718e-01 -2.415166e-01 2.280877e-01 1.149732e-01 1.000374e-01 2.284372e-01 -2.161748e-01
<VARIANCE> 39
 1.473379e+01 2.289125e+01 1.291169e+01 1.507106e+01 1.777709e+01 1.942053e+01 2.461231e+01 1.822565e+01 3.760365e+01 2.560521e+01 1.897419e+01 1.398757e+01 3.001571e+01 2.486327e+00 1.877241e+00 1.479212e+00 1.886764e+00 2.645175e+00 1.293974e+00 1.756305e+00 1.672131e+00 4.013667e+00 2.116825e+00 1.789195e+00 1.203303e+00 2.641026e+00 4.862122e-01 3.179835e-01 3.427085e-01 3.452913e-01 3.728270e-01 2.288082e-01 3.602915e-01 3.443241e-01 8.553082e-01 5.173510e-01 2.741650e-01 2.328707e-01 4.222786e-01
<GCONST> 1.063462e+02
<STATE> 4
<MEAN> 39
 -7.878895e+00 -1.671629e+01 -7.075283e+00 -2.194875e-01 -1.102761e+01 2.022729e+00 2.218209e+00 1.361920e+01 -9.902279e-01 -8.011500e+00 -8.291019e+00 -4.890165e+00 5.216113e+01 -1.030465e+00 2.721488e-01 -7.471453e-01 1.541883e+00 -3.085472e-01 -1.496863e+00 2.359385e+00 -4.378453e-01 -1.752260e-01 6.113647e-01 -2.307922e-01 9.166157e-01 -1.755017e+00 4.457148e-01 -1.476369e-01 2.780662e-01 -3.447332e-01 -3.720774e-01 -1.779015e-01 -6.223232e-01 7.195098e-02 -4.610621e-01 -4.436034e-01 -1.121418e-02 -9.863678e-02 6.848326e-01
<VARIANCE> 39
 6.080838e+00 1.499033e+01 1.367583e+01 1.671954e+01 2.586927e+01 1.875517e+01 3.523690e+01 1.656094e+01 2.421619e+01 1.733670e+01 1.956582e+01 1.039638e+01 8.816544e+00 1.172114e+00 1.682887e+00 2.340811e+00 1.621598e+00 2.628140e+00 1.346211e+00 2.783592e+00 2.826476e+00 3.739894e+00 1.872628e+00 2.159330e+00 1.765199e+00 1.914615e+00 2.016201e-01 2.910082e-01 3.503564e-01 2.524121e-01 5.058533e-01 3.089041e-01 3.867760e-01 4.673424e-01 5.947025e-01 3.329304e-01 5.697950e-01 3.173907e-01 2.267951e-01
<GCONST> 1.033395e+02
<TRANSP> 5
 0.000000e+00 1.000000e+00 0.000000e+00 0.000000e+00 0.000000e+00
 0.000000e+00 7.388927e-01 2.611072e-01 0.000000e+00 0.000000e+00
 0.000000e+00 0.000000e+00 5.873452e-01 4.126547e-01 0.000000e+00
 0.000000e+00 0.000000e+00 0.000000e+00 6.834752e-01 3.165247e-01
 0.000000e+00 0.000000e+00 0.000000e+00 0.000000e+00 0.000000e+00
<ENDHMM>
~h "e"
<BEGINHMM>
<NUMSTATES> 5
<STATE> 2
<MEAN> 39
 7.857258e+00 -9.403561e+00 -8.453653e+00 -2.451611e+01 -9.131454e+00 2.577940e+01 -1.369767e+01 2.353141e+00 -5.715886e+00 -6.421861e+00 1.167897e-01 -2.543629e+00 7.040082e+01 -1.043481e+00 2.212989e+00 -2.893530e-02 1.020194e+00 3.156870e+00 -1.255769e+00 1.846319e+00 -1.164733e+00 1.792733e+00 -3.592816e-01 -1.006477e+00 2.265648e+00 -2.217945e+00 -9.085381e-01 1.465904e-01 3.154162e-02 -1.530624e-02 7.323512e-01 -6.878268e-01 1.238163e-01 -5.049947e-01 6.254643e-01 -3.188420e-01 1.042190e-01 -1.000448e-02 -7.555408e-02
<VARIANCE> 39
 5.962649e+00 1.866883e+01 1.052949e+01 1.848692e+01 2.823948e+01 1.747493e+01 2.879267e+01 1.282952e+01 1.725871e+01 1.384054e+01 1.782249e+01 2.583523e+01 1.839227e+01 2.671506e+00 1.032548e+00 1.037330e+00 1.223801e+00 3.553684e+00 4.035439e+00 2.770549e+00 2.035858e+00 3.041574e+00 1.803151e+00 1.435802e+00 1.522194e+00 5.517298e-01 2.184850e-01 4.359919e-01 2.382179e-01 3.153951e-01 4.555664e-01 5.972612e-01 5.944604e-01 2.665255e-01 3.522494e-01 3.199576e-01 2.596071e-01 5.332844e-01 2.209595e-01
<GCONST> 1.020759e+02
<STATE> 3
<MEAN> 39
 -9.992776e+00 -5.233078e+00 -1.501710e+01 -2.585806e+01 7.912859e+00 1.402003e+01 -5.311790e+00 -3.638837e+00 2.662542e+00 -1.264259e+01 2.343256e+00 1.207021e+00 6.074174e+01 -8.449827e-01 -2.438037e-02 -5.427475e-01 -1.995945e-01 4.578415e-01 -4.560577e-01 4.543035e-01 -1.538437e-01 -8.584590e-02 -2.335282e-01 4.682682e-01 2.487779e-02 -6.538231e-01 4.075297e-01 -6.040125e-02 1.539236e-01 5.927625e-02 -4.809475e-01 2.462003e-01 -1.743705e-01 1.145312e-01 -2.306588e-01 1.746564e-01 4.501567e-02 -9.326276e-02 1.113531e-01
<VARIANCE> 39
 2.969321e+01 1.739052e+01 3.158926e+01 2.777185e+01 2.624406e+01 3.548569e+01 3.250124e+01 2.388829e+01 2.926884e+01 2.435654e+01 2.889188e+01 1.800741e+01 2.295761e+01 3.398029e+00 1.412307e+00 2.171818e+00 2.275180e+00 3.469778e+00 4.164254e+00 2.425590e+00 2.762475e+00 3.233020e+00 2.888307e+00 1.999659e+00 1.877686e+00 6.950436e-01 2.496555e-01 3.242263e-01 4.302412e-01 4.464859e-01 5.946641e-01 6.391746e-01 5.656691e-01 5.316252e-01 5.588065e-01 5.367326e-01 4.007479e-01 4.605137e-01 1.901930e-01
<GCONST> 1.141953e+02
<STATE> 4
<MEAN> 39
 -2.202640e-01 -6.166590e+00 -3.885971e+00 -1.745518e+01 -6.285395e+00 9.304467e+00 -1.759913e+01 -1.823274e-01 -2.366910e+00 -2.745267e-01 1.992618e+00 -5.849422e+00 6.971980e+01 5.210837e-01 -7.257820e-02 5.034115e-01 4.466580e-01 -2.583812e-01 -2.395842e-01 -7.370551e-01 5.453299e-01 2.251403e-02 6.293231e-01 -7.489856e-01 -3.014824e-01 1.013790e+00 -5.957221e-02 -9.938703e-02 -1.615445e-01 -1.717836e-01 1.160750e-01 1.900590e-01 -6.514574e-02 3.898501e-02 1.676328e-03 -6.682575e-02 9.085052e-03 -2.620118e-02 6.583782e-02
<VARIANCE> 39
 4.740747e+01 2.214826e+01 2.784592e+01 7.573392e+01 1.131686e+02 1.560674e+02 1.490972e+02 3.584449e+01 2.489930e+01 4.746910e+01 6.176845e+01 4.622871e+01 7.358803e+01 8.322176e+00 3.145829e+00 4.329417e+00 6.586890e+00 1.401734e+01 1.504360e+01 1.916115e+01 3.902067e+00 3.256700e+00 4.087078e+00 4.174344e+00 4.621030e+00 9.512683e+00 1.384155e+00 6.097856e-01 6.210378e-01 1.083815e+00 1.775465e+00 2.097381e+00 3.068060e+00 8.639840e-01 6.886776e-01 5.897273e-01 8.585421e-01 6.875037e-01 1.877839e+00
<GCONST> 1.489889e+02
<TRANSP> 5
 0.000000e+00 1.000000e+00 0.000000e+00 0.000000e+00 0.000000e+00
 0.000000e+00 7.494542e-01 2.505457e-01 0.000000e+00 0.000000e+00
 0.000000e+00 0.000000e+00 9.330765e-01 6.692348e-02 0.000000e+00
 0.000000e+00 0.000000e+00 0.000000e+00 9.472069e-01 5.279318e-02
 0.000000e+00 0.000000e+00 0.000000e+00 0.000000e+00 0.000000e+00
<ENDHMM>
~h "h"
<BEGINHMM>
<NUMSTATES> 5
<STATE> 2
<MEAN> 39
 4.805992e+00 -1.412040e+01 -9.483059e+00 -1.487617e+01 -6.083343e+00 9.043859e+00 -1.539584e+01 5.598606e+00 -5.811382e+00 3.949687e+00 -7.018817e+00 -1.456530e+01 7.729564e+01 1.120010e+00 -1.717361e+00 -2.477330e-01 -3.842538e+00 -1.083174e+00 5.040671e+00 -1.766591e+00 -1.078596e+00 -1.690631e+00 8.396174e-01 2.336009e+00 -1.789596e+00 5.040627e-01 -6.273181e-01 2.050490e-01 6.506671e-01 3.691339e-01 -6.140682e-01 -1.561872e-01 6.976073e-01 -4.905352e-01 3.465325e-03 -9.576851e-01 5.267622e-01 1.105695e+00 -3.340861e-01
<VARIANCE> 39
 3.364256e+00 7.156590e+00 8.116161e+00 1.239958e+01 1.386675e+01 1.984227e+01 1.543894e+01 1.287675e+01 1.203848e+01 1.023407e+01 1.632611e+01 1.281397e+01 5.359626e+00 6.778064e-01 5.037963e-01 1.229800e+00 1.585194e+00 1.078887e+00 1.507531e+00 1.638469e+00 1.514241e+00 1.162107e+00 1.768993e+00 1.255429e+00 2.376640e+00 3.580830e-01 1.137556e-01 1.906902e-01 1.866847e-01 3.021479e-01 2.375111e-01 3.423148e-01 3.029735e-01 4.539497e-01 3.325208e-01 2.135046e-01 3.200395e-01 2.084824e-01 8.381722e-02
<GCONST> 8.495968e+01
<STATE> 3
<MEAN> 39
 4.956723e+00 -1.647118e+01 -6.963763e+00 -2.184936e+01 -8.775014e+00 1.747604e+01 -1.691821e+01 3.081476e+00 -8.117164e+00 3.011096e+00 -2.352312e+00 -1.388687e+01 7.772565e+01 5.757537e-02 -2.809215e-01 5.063832e-01 -2.537168e+00 -1.602110e+00 3.942455e+00 -7.087776e-01 -8.220546e-01 -6.937180e-01 -1.035271e+00 2.037970e+00 7.238839e-01 -6.143701e-02 -2.493332e-01 6.540447e-01 -7.295035e-02 8.182992e-01 -6.168540e-02 -7.904777e-01 4.904626e-01 1.987332e-01 5.389947e-01 -6.734578e-01 -3.190752e-01 7.653321e-01 -2.231167e-01
<VARIANCE> 39
 4.853720e+00 5.492964e+00 8.089309e+00 1.054626e+01 1.044857e+01 1.549295e+01 1.850331e+01 1.354280e+01 1.335794e+01 1.176652e+01 1.723221e+01 1.824520e+01 6.859050e+00 2.825363e-01 4.827020e-01 5.810431e-01 8.433230e-01 9.129435e-01 1.305268e+00 1.463364e+00 9.727689e-01 8.277681e-01 8.140221e-01 8.673346e-01 8.053921e-01 1.743978e-01 8.053050e-02 7.157359e-02 1.513598e-01 1.481968e-01 1.288387e-01 1.938290e-01 1.934200e-01 1.870244e-01 1.369264e-01 1.482429e-01 1.853452e-01 3.036236e-01 4.249452e-02
<GCONST> 7.217794e+01
<STATE> 4
<MEAN> 39
 6.017423e+00 -1.422878e+01 -8.007183e+00 -2.575753e+01 -1.403246e+01 2.606544e+01 -1.737321e+01 2.510979e+00 -7.217994e+00 -3.926342e+00 2.493310e+00 -9.746087e+00 7.630745e+01 3.090751e-01 3.167309e-01 -3.923467e-02 -4.970397e-01 -5.323844e-01 9.306247e-01 6.558796e-02 6.923759e-02 1.523373e-01 -1.134186e+00 5.221620e-01 6.963584e-01 -3.573377e-01 3.682715e-02 9.202565e-02 -1.757376e-02 2.718261e-01 2.677800e-01 -4.108723e-01 1.447714e-01 8.568581e-02 7.170425e-02 9.475195e-02 -2.854483e-01 2.660028e-02 -1.258133e-01
<VARIANCE> 39
 4.533679e+00 4.921364e+00 4.590168e+00 1.080799e+01 1.796939e+01 2.353379e+01 2.079690e+01 1.288379e+01 1.313350e+01 2.102998e+01 1.593509e+01 1.580585e+01 6.646299e+00 2.530178e-01 3.113045e-01 3.015147e-01 5.881231e-01 1.058848e+00 1.744924e+00 1.025909e+00 7.082050e-01 5.988441e-01 5.924941e-01 8.656514e-01 7.520810e-01 2.204059e-01 4.640922e-02 1.099129e-01 7.103150e-02 1.186051e-01 1.391254e-01 2.245035e-01 2.459585e-01 1.527431e-01 1.363783e-01 1.016063e-01 1.326385e-01 1.714071e-01 5.177502e-02
<GCONST> 6.858784e+01
<TRANSP> 5
 0.000000e+00 1.000000e+00 0.000000e+00 0.000000e+00 0.000000e+00
 0.000000e+00 4.963835e-01 5.036165e-01 0.000000e+00 0.000000e+00
 0.000000e+00 0.000000e+00 3.735608e-01 6.264392e-01 0.000000e+00
 0.000000e+00 0.000000e+00 0.000000e+00 8.779353e-01 1.220647e-01
 0.000000e+00 0.000000e+00 0.000000e+00 0.000000e+00 0.000000e+00
<ENDHMM>
~h "i"
<BEGINHMM>
<NUMSTATES> 5
<STATE> 2
<MEAN> 39
 2.035135e+00 -7.631620e+00 3.504628e+00 -8.349254e+00 -1.318130e+01 2.549948e-01 -1.639256e+01 2.022811e+00 -1.142279e+01 -3.076048e+00 4.151624e+00 -9.488022e+00 7.030781e+01 -8.185272e-02 9.627410e-01 -4.922892e-01 1.394660e+00 8.765362e-01 -1.489661e+00 1.592086e+00 -9.637499e-01 -2.839366e-01 -4.361581e-01 -3.924546e-01 9.928964e-01 -1.130966e+00 -5.052447e-01 2.549747e-01 -3.409551e-02 -4.140825e-01 9.864574e-02 1.593835e-01 4.476226e-01 -2.490754e-01 4.205419e-01 -4.749101e-02 -5.572791e-02 -3.472540e-02 2.172795e-01
<VARIANCE> 39
 4.379271e+01 3.371334e+01 7.472340e+01 5.810879e+01 4.552918e+01 6.097839e+01 8.381622e+01 1.096822e+02 6.992010e+01 6.182652e+01 6.237683e+01 4.140374e+01 5.883147e+01 5.747241e+00 2.972706e+00 5.726008e+00 6.872983e+00 3.928067e+00 8.164928e+00 7.370518e+00 5.482942e+00 4.438807e+00 4.570608e+00 4.704206e+00 3.932596e+00 4.071782e+00 6.017154e-01 6.080899e-01 7.132073e-01 9.681501e-01 1.020688e+00 1.292914e+00 1.289304e+00 1.285235e+00 8.295004e-01 9.404483e-01 8.248642e-01 7.193682e-01 5.872263e-01
<GCONST> 1.438226e+02
<STATE> 3
<MEAN> 39
 3.390555e+00 -3.318579e+00 2.225102e+00 -3.451978e+00 -1.083231e+01 -1.259764e+00 -7.163045e+00 -4.763504e+00 -1.276207e+01 -5.643077e+00 3.143656e+00 -7.592951e+00 6.348795e+01 -1.258959e+00 1.810124e+00 -7.156414e-01 1.136424e-01 1.060802e+00 -9.071856e-01 2.197144e+00 -1.213249e+00 3.773643e-01 -5.231580e-01 -5.839585e-01 1.004138e+00 -7.507801e-01 -8.286716e-01 1.752198e-01 3.028531e-01 -8.184134e-01 3.016961e-01 5.433233e-01 -3.047195e-01 3.870026e-01 4.327563e-01 2.005212e-01 -1.761697e-01 -1.770865e-01 3.912143e-01
<VARIANCE> 39
 7.452621e+01 2.737168e+01 4.718916e+01 4.613908e+01 3.662068e+01 4.387274e+01 3.454199e+01 6.107539e+01 9.710107e+01 2.594628e+01 4.031991e+01 3.201535e+01 4.400602e+01 6.108330e+00 3.195538e+00 1.979943e+00 3.182464e+00 3.870357e+00 5.085382e+00 4.721335e+00 3.782987e+00 3.224373e+00 2.407534e+00 2.304523e+00 1.844314e+00 4.711852e+00 9.718751e-01 6.034544e-01 7.486679e-01 6.455341e-01 6.994668e-01 1.123626e+00 6.397608e-01 5.857514e-01 6.076131e-01 3.890090e-01 3.937047e-01 4.362575e-01 6.032721e-01
<GCONST> 1.303273e+02
<STATE> 4
<MEAN> 39
 -4.141328e+00 -6.009958e-01 2.384197e+00 -8.742713e+00 -7.643709e+00 -3.042534e+00 -5.828763e+00 -5.723596e+00 -8.502074e+00 -5.827109e+00 1.517885e+00 -6.428230e+00 6.819507e+01 -2.017827e+00 1.113707e+00 -1.864823e-01 -2.443071e-01 1.620805e+00 -1.573342e-01 9.754347e-01 -4.070236e-02 9.044964e-01 5.879927e-02 -7.688942e-01 5.403158e-01 2.640668e-02 -2.406479e-01 -4.434450e-01 -7.052785e-02 -1.165311e-01 2.115178e-01 4.197779e-01 -5.706111e-01 5.188557e-01 2.506349e-01 3.603947e-01 -5.423937e-02 -8.747410e-02 -2.424790e-02
<VARIANCE> 39
 1.231622e+02 4.454556e+01 9.886014e+01 4.940347e+01 6.068767e+01 6.388218e+01 6.343271e+01 3.964365e+01 9.190303e+01 2.824843e+01 4.383006e+01 3.435036e+01 5.434341e+01 8.286136e+00 3.643808e+00 3.371985e+00 3.383317e+00 4.916571e+00 5.308509e+00 5.745109e+00 4.312552e+00 4.069751e+00 2.953134e+00 3.386233e+00 2.800176e+00 4.085740e+00 2.071457e+00 5.127361e-01 4.742616e-01 6.607961e-01 1.044439e+00 2.002514e+00 1.303506e+00 7.398081e-01 9.623523e-01 5.651583e-01 5.277820e-01 4.868765e-01 5.131984e-01
<GCONST> 1.394714e+02
<TRANSP> 5
 0.000000e+00 1.000000e+00 0.000000e+00 0.000000e+00 0.000000e+00
 0.000000e+00 6.358755e-01 3.641245e-01 0.000000e+00 0.000000e+00
 0.000000e+00 0.000000e+00 4.850640e-01 5.149360e-01 0.000000e+00
 0.000000e+00 0.000000e+00 0.000000e+00 5.390477e-01 4.609523e-01
 0.000000e+00 0.000000e+00 0.000000e+00 0.000000e+00 0.000000e+00
<ENDHMM>
~h "j"
<BEGINHMM>
<NUMSTATES> 5
<STATE> 2
<MEAN> 39
 -5.046603e-01 -7.397344e+00 -4.524362e-01 -1.268748e+01 -9.238478e+00 2.860034e+00 -1.838920e+01 6.292491e-01 -3.442506e+00 -4.889071e-05 9.814489e-01 -6.877593e+00 6.867192e+01 3.155190e-01 6.534383e-01 5.303671e-01 -4.785619e-01 3.568790e-01 -9.024387e-01 -1.032004e-01 -4.918327e-02 -6.844123e-01 -5.225531e-01 1.481197e-01 5.737386e-01 4.154877e-01 -1.215675e-01 -3.798620e-02 -1.489048e-01 -1.955286e-01 -1.135185e-01 2.443185e-01 3.302606e-01 -3.998250e-02 -8.351037e-02 -1.261748e-01 1.416786e-02 1.485322e-01 -3.311177e-01
<VARIANCE> 39
 7.352036e+01 3.408050e+01 2.594897e+01 8.005112e+01 4.637797e+01 8.520918e+01 8.710541e+01 5.626664e+01 4.938187e+01 5.181932e+01 5.639082e+01 4.498520e+01 5.803336e+01 1.015958e+01 4.451762e+00 3.874033e+00 1.120111e+01 6.557627e+00 1.427878e+01 1.094413e+01 6.315444e+00 5.611264e+00 4.890851e+00 6.017785e+00 5.279516e+00 1.152161e+01 1.187499e+00 1.013107e+00 8.120210e-01 1.264206e+00 8.848972e-01 1.747946e+00 1.777860e+00 1.356822e+00 1.405035e+00 1.235824e+00 7.475679e-01 1.173276e+00 2.056994e+00
<GCONST> 1.519103e+02
<STATE> 3
<MEAN> 39
 -9.210089e-01 -8.558750e+00 3.787067e+00 -1.389102e+01 -1.113533e+01 -2.054579e+00 -1.974228e+01 4.041385e+00 -1.521143e+00 -3.895104e+00 8.705950e-02 -3.797190e+00 7.178877e+01 2.169768e-01 -1.344789e+00 2.754088e-03 -8.953330e-02 -7.244194e-01 -2.204535e-01 -3.041162e-01 1.313163e+00 1.087101e+00 -4.509064e-01 -7.166213e-01 -2.495590e-01 1.236676e+00 1.043110e-01 -2.596224e-01 -3.318824e-01 -9.702578e-03 1.028536e-01 4.997247e-01 -5.424180e-02 -4.133211e-02 4.080677e-02 1.220992e-01 -1.117434e-01 -4.950910e-01 7.641092e-02
<VARIANCE> 39
 4.534502e+01 4.833000e+01 3.239388e+01 5.284292e+01 9.601902e+01 1.203334e+02 1.014128e+02 7.194331e+01 3.321227e+01 3.270522e+01 7.683092e+01 5.592802e+01 4.920681e+01 6.402534e+00 8.796568e+00 4.573532e+00 4.861711e+00 1.397880e+01 1.049129e+01 1.501548e+01 1.150731e+01 2.578208e+00 5.333106e+00 5.096330e+00 1.013775e+01 8.095201e+00 1.245039e+00 1.427601e+00 8.794101e-01 8.341566e-01 3.314366e+00 1.660500e+00 3.326795e+00 3.250520e+00 6.873197e-01 1.215011e+00 1.070216e+00 1.602069e+00 1.395391e+00
<GCONST> 1.552905e+02
<STATE> 4
<MEAN> 39
 3.101938e+00 -1.950906e+01 -6.684007e+00 -1.710580e+01 -1.036782e+01 1.299200e+01 -1.983382e+01 4.814623e+00 3.609135e+00 -1.607556e+00 -8.008559e+00 -1.162815e+01 7.656215e+01 -9.611484e-02 5.204258e-01 -6.232709e-01 4.467983e-01 7.601135e-01 4.229246e-01 5.068317e-01 -1.039777e+00 -2.446179e-01 5.978151e-01 -1.070291e-01 -1.004137e-01 -1.292578e+00 -3.257019e-01 3.148606e-01 1.528198e-01 1.734915e-01 4.692377e-02 -5.749840e-01 3.218524e-01 -1.351942e-01 -9.566693e-02 -1.273286e-01 2.074780e-01 3.279671e-01 -2.184963e-01
<VARIANCE> 39
 1.064598e+01 3.088755e+01 1.755454e+01 2.400206e+01 1.874681e+01 7.194353e+01 4.422561e+01 5.131824e+01 2.622039e+01 3.102338e+01 2.207922e+01 2.380126e+01 5.671466e+01 2.043375e+00 3.489649e+00 2.205177e+00 3.300467e+00 1.421572e+00 1.313503e+01 6.230591e+00 5.977582e+00 1.944589e+00 2.654132e+00 2.380226e+00 3.865688e+00 4.643823e+00 3.273094e-01 4.580101e-01 2.898718e-01 5.092428e-01 3.768073e-01 1.151636e+00 1.112248e+00 1.506495e+00 4.214380e-01 5.654423e-01 4.745460e-01 6.123523e-01 1.063154e+00
<GCONST> 1.246056e+02
<TRANSP> 5
 0.000000e+00 1.000000e+00 0.000000e+00 0.000000e+00 0.000000e+00
 0.000000e+00 8.595962e-01 1.404038e-01 0.000000e+00 0.000000e+00
 0.000000e+00 0.000000e+00 8.818882e-01 1.181118e-01 0.000000e+00
 0.000000e+00 0.000000e+00 0.000000e+00 9.077400e-01 9.225999e-02
 0.000000e+00 0.000000e+00 0.000000e+00 0.000000e+00 0.000000e+00
<ENDHMM>
~h "l"
<BEGINHMM>
<NUMSTATES> 5
<STATE> 2
<MEAN> 39
 -1.198302e+01 1.390988e+00 -8.263106e+00 -6.893389e-01 -7.346519e+00 3.661338e-01 -5.637345e+00 -9.271564e-01 -3.518460e+00 -4.844360e+00 -5.040765e+00 -2.873215e+00 4.036565e+01 2.439611e-01 -9.260748e-02 1.181888e-01 1.597372e-01 -4.625836e-02 -1.088031e-01 2.572126e-02 2.875441e-01 1.686154e-01 -1.150998e-01 -1.688148e-01 2.129896e-01 2.161923e-01 -9.336027e-02 -1.052124e-01 7.963017e-02 9.404908e-02 -2.796764e-03 -6.147311e-02 -9.342949e-02 -8.935860e-03 -1.383820e-02 2.796818e-02 9.148553e-02 2.922662e-02 -2.751617e-02
<VARIANCE> 39
 5.846847e+01 3.930748e+01 3.309402e+01 3.909153e+01 3.009191e+01 4.026660e+01 3.748362e+01 2.797352e+01 2.317534e+01 1.614643e+01 1.925370e+01 1.514532e+01 2.647124e+01 2.847970e+00 2.261023e+00 2.238910e+00 1.952423e+00 2.620269e+00 2.789870e+00 3.401314e+00 2.721667e+00 2.515077e+00 2.166563e+00 2.052295e+00 1.537805e+00 1.182673e+00 5.716991e-01 4.750344e-01 4.681982e-01 4.388099e-01 5.432578e-01 6.204272e-01 6.639382e-01 5.099056e-01 5.055706e-01 4.376759e-01 4.067653e-01 3.511187e-01 2.305606e-01
<GCONST> 1.160998e+02
<STATE> 3
<MEAN> 39
 -1.190377e+01 1.600571e+00 -7.151197e+00 -6.514692e-01 -7.585124e+00 9.494580e-01 -6.158154e+00 -6.629186e-01 -4.008791e+00 -5.076170e+00 -4.720517e+00 -2.238977e+00 4.007828e+01 3.795314e-01 -3.646106e-03 5.982909e-01 3.673420e-01 -1.216591e-01 -2.031935e-01 -6.014108e-02 2.903620e-01 2.805000e-01 6.230880e-03 -8.028852e-02 3.192133e-01 4.376504e-01 2.139672e-01 3.520792e-02 2.069731e-01 1.352297e-01 -1.016842e-01 -2.522396e-02 -3.167128e-02 -8.442007e-02 -1.056141e-02 2.914354e-02 -2.207456e-02 5.499699e-02 2.050843e-01
<VARIANCE> 39
 6.381518e+01 2.905742e+01 2.159259e+01 6.195656e+01 4.567302e+01 3.506871e+01 2.242489e+01 2.122372e+01 1.452708e+01 1.680259e+01 1.832735e+01 1.462609e+01 4.340060e+01 4.344019e+00 3.540761e+00 2.228184e+00 2.841134e+00 4.263525e+00 2.699816e+00 1.553853e+00 2.044811e+00 2.115960e+00 2.239275e+00 1.938592e+00 1.274557e+00 1.657145e+00 7.074391e-01 5.289226e-01 3.936448e-01 6.120061e-01 8.609181e-01 6.245729e-01 4.071324e-01 3.761503e-01 3.705216e-01 4.734896e-01 3.639495e-01 3.304312e-01 3.170393e-01
<GCONST> 1.160373e+02
<STATE> 4
<MEAN> 39
 -7.482519e+00 3.583198e+00 -5.241598e+00 1.961503e-01 -9.598719e+00 -5.169750e-01 -6.885867e+00 -5.433545e-01 -3.393945e+00 -4.783850e+00 -4.818541e+00 -9.929585e-01 4.272056e+01 1.585143e+00 -3.469314e-02 8.660551e-01 1.764812e-01 -6.547976e-01 -1.777994e-01 -2.958438e-01 2.140994e-01 2.742991e-01 -2.651620e-01 -4.006143e-01 3.832889e-01 1.471760e+00 4.421854e-02 -2.524472e-01 1.207207e-01 -6.481677e-02 -4.413721e-02 7.926015e-02 -5.372763e-02 -4.408316e-02 -3.330799e-02 2.974677e-02 -6.335581e-02 -2.411197e-02 2.378762e-01
<VARIANCE> 39
 8.119508e+01 4.646065e+01 3.086246e+01 5.725242e+01 3.609806e+01 3.544553e+01 2.109832e+01 2.050019e+01 1.963813e+01 1.860581e+01 2.656567e+01 1.323664e+01 5.032792e+01 8.626459e+00 4.786330e+00 3.386765e+00 4.386725e+00 3.394747e+00 3.819965e+00 3.121003e+00 2.634982e+00 2.321891e+00 2.853799e+00 2.521768e+00 2.093518e+00 4.677133e+00 1.664225e+00 1.176625e+00 6.147686e-01 8.971565e-01 7.018523e-01 6.430538e-01 5.471207e-01 5.135121e-01 4.430667e-01 4.898481e-01 4.646208e-01 3.364581e-01 8.629934e-01
<GCONST> 1.269627e+02
<TRANSP> 5
 0.000000e+00 1.000000e+00 0.000000e+00 0.000000e+00 0.000000e+00
 0.000000e+00 5.644977e-01 4.355023e-01 0.000000e+00 0.000000e+00
 0.000000e+00 0.000000e+00 2.209730e-01 7.790270e-01 0.000000e+00
 0.000000e+00 0.000000e+00 0.000000e+00 3.942629e-01 6.057371e-01
 0.000000e+00 0.000000e+00 0.000000e+00 0.000000e+00 0.000000e+00
<ENDHMM>
~h "n"
<BEGINHMM>
<NUMSTATES> 5
<STATE> 2
<MEAN> 39
 3.196450e+00 -1.075414e+01 -3.482568e+00 -1.644403e+01 -9.631793e+00 1.120761e+01 -2.438254e+01 5.098965e+00 4.047539e-01 -4.023036e+00 -2.290279e+00 -1.329138e+01 7.460169e+01 -7.197287e-01 -4.149399e-02 -8.162016e-02 2.866856e-01 1.509600e-01 -1.869102e+00 -1.128365e+00 2.786096e+00 1.766460e+00 -3.095680e-01 -8.225201e-01 -5.696923e-01 4.813562e-01 6.100593e-02 7.299189e-03 2.621085e-01 2.938192e-01 -1.703792e-01 1.243013e-02 3.407032e-01 -8.520273e-03 -3.340707e-01 -5.183951e-01 1.422927e-01 4.197829e-01 -2.245452e-01
<VARIANCE> 39
 1.038994e+01 1.853476e+01 3.597721e+01 6.394426e+01 2.028515e+01 2.096985e+02 3.098165e+01 2.985476e+01 3.158653e+01 2.495738e+01 3.860553e+01 2.574153e+01 1.855988e+01 1.809609e+00 1.841130e+00 5.544977e+00 9.773012e+00 2.338554e+00 9.549299e+00 2.306329e+00 8.410084e+00 3.913040e+00 2.755459e+00 1.507687e+00 2.461881e+00 4.809044e+00 1.866736e-01 4.365204e-01 2.711236e-01 4.123094e-01 5.298746e-01 2.137178e+00 6.410207e-01 6.433647e-01 8.456653e-01 5.531468e-01 4.814600e-01 9.525698e-01 2.018670e-01
<GCONST> 1.242840e+02
<STATE> 3
<MEAN> 39
 6.877276e-01 -1.178907e+01 7.514146e-01 -1.227860e+01 -1.188959e+01 2.497807e+00 -2.525710e+01 1.414799e+01 4.718570e+00 -1.071552e+01 -5.095789e+00 -1.113402e+01 7.551542e+01 3.762752e-03 -2.640114e-01 2.411940e-01 3.792414e-01 -5.556052e-01 1.083843e+00 8.652302e-01 9.854501e-01 -1.052458e+00 -1.919860e+00 3.737316e-01 6.678187e-01 -5.736691e-01 5.778235e-01 2.161864e-01 1.623639e-02 6.296006e-01 1.040014e-01 6.287296e-01 7.644259e-01 -1.657760e+00 -1.125387e+00 2.216312e-01 2.571885e-01 1.180358e-01 -8.430740e-01
<VARIANCE> 39
 7.188008e+00 1.697446e+01 2.067373e+01 2.101126e+01 1.952468e+01 1.868500e+01 2.137687e+01 3.459718e+01 3.400983e+01 3.847613e+01 3.390059e+01 1.743761e+01 1.883030e+01 1.327770e+00 5.714943e+00 5.115110e+00 4.030432e+00 2.417759e+00 9.753071e+00 3.163566e+00 1.254002e+01 7.328930e+00 2.335989e+00 1.591130e+00 5.048809e+00 4.623243e+00 1.450040e-01 2.212506e-01 7.453606e-01 6.300995e-01 5.258563e-01 8.957717e-01 3.748221e-01 5.986190e-01 5.518360e-01 6.423730e-01 3.597425e-01 3.665716e-01 2.362588e-01
<GCONST> 1.189553e+02
<STATE> 4
<MEAN> 39
 6.352439e+00 -5.859100e+00 2.061723e+00 -4.471874e+00 -1.054686e+01 3.878660e+00 -1.717991e+01 -5.070739e-01 -6.465881e+00 -1.093168e+01 -1.755597e+00 -6.275126e+00 6.600570e+01 8.999667e-01 5.005041e-01 -5.937722e-01 1.251055e+00 4.289778e-01 2.406419e-01 1.216775e+00 -1.815906e+00 -1.655305e+00 -3.430724e-01 4.826711e-01 6.419842e-01 -1.344175e+00 -5.069956e-01 -2.610466e-01 3.717264e-01 -5.886149e-01 -3.752331e-01 1.873895e-01 -4.884377e-01 6.681124e-01 3.022321e-01 1.196039e-01 3.232049e-01 -3.357011e-01 5.415754e-01
<VARIANCE> 39
 2.003427e+01 5.902224e+01 2.216891e+01 3.733640e+01 2.029344e+01 1.653029e+01 2.613142e+01 1.251366e+02 4.962081e+01 2.272157e+01 3.128796e+01 2.719023e+01 4.520488e+01 1.349389e+00 2.436152e+00 1.480663e+00 2.064121e+00 1.489820e+00 2.747388e+00 2.961371e+00 8.315965e+00 2.617198e+00 3.382125e+00 2.308686e+00 1.540212e+00 1.736178e+00 4.772604e-01 3.966055e-01 8.817397e-01 7.265526e-01 6.910603e-01 6.769104e-01 4.987509e-01 1.637628e+00 6.166016e-01 5.901622e-01 4.867928e-01 3.824302e-01 5.308383e-01
<GCONST> 1.214883e+02
<TRANSP> 5
 0.000000e+00 1.000000e+00 0.000000e+00 0.000000e+00 0.000000e+00
 0.000000e+00 6.022891e-01 3.977109e-01 0.000000e+00 0.000000e+00
 0.000000e+00 0.000000e+00 6.327255e-01 3.672745e-01 0.000000e+00
 0.000000e+00 0.000000e+00 0.000000e+00 6.162261e-01 3.837740e-01
 0.000000e+00 0.000000e+00 0.000000e+00 0.000000e+00 0.000000e+00
<ENDHMM>
~h "o"
<BEGINHMM>
<NUMSTATES> 5
<STATE> 2
<MEAN> 39
 -1.360851e+01 -1.014975e+00 -7.543247e+00 8.855201e-01 -5.153638e+00 1.359065e+00 -3.651717e+00 -4.242107e-02 -6.099391e+00 -4.218455e+00 -3.842970e+00 -3.653926e+00 3.982798e+01 -4.324409e-01 9.022035e-02 -2.867507e-01 -1.694444e-01 1.077982e-01 5.790297e-01 6.510182e-02 -4.503649e-01 8.703792e-02 3.606830e-01 2.856672e-01 -1.906811e-01 -4.483827e-01 2.335163e-01 -4.977418e-02 8.338127e-02 -1.259030e-01 -2.554685e-01 -2.837484e-01 -8.092514e-02 3.811556e-02 5.539186e-02 -1.142512e-01 -9.868293e-02 1.584706e-01 3.289062e-01
<VARIANCE> 39
 1.000406e+01 1.049403e+01 1.352407e+01 1.552075e+01 1.381924e+01 1.157814e+01 1.776543e+01 1.985406e+01 1.851575e+01 1.580230e+01 1.621961e+01 1.263165e+01 6.264609e+00 2.063719e+00 1.906448e+00 1.526801e+00 1.670086e+00 1.655181e+00 2.161016e+00 2.119266e+00 2.243007e+00 2.008793e+00 1.963517e+00 1.773716e+00 1.483971e+00 8.089925e-01 3.150887e-01 4.270936e-01 3.009804e-01 3.796926e-01 3.706247e-01 3.588488e-01 4.230290e-01 4.443964e-01 4.013065e-01 3.697447e-01 3.438439e-01 3.105101e-01 1.934532e-01
<GCONST> 9.907056e+01
<STATE> 3
<MEAN> 39
 -1.463688e+01 -2.092524e-01 -8.362364e+00 6.073774e-02 -6.039781e+00 1.458969e+00 -5.063895e+00 -1.654932e+00 -5.205084e+00 -3.625563e+00 -3.201532e+00 -3.124870e+00 3.838207e+01 1.151237e+00 1.249406e-01 8.660457e-01 -8.580455e-01 -6.670046e-01 1.337855e-01 -2.580878e-01 -2.185880e-01 9.885511e-01 1.631091e-01 2.856341e-01 3.529076e-01 2.552643e+00 6.507977e-01 -1.747113e-01 4.194244e-01 -3.847075e-01 -1.866093e-01 -1.706581e-01 -4.094938e-01 -6.618193e-02 2.778324e-01 -6.998730e-02 1.395446e-01 -5.690929e-02 1.673170e+00
<VARIANCE> 39
 1.276656e+01 1.597125e+01 1.115842e+01 9.207387e+00 1.138276e+01 1.467255e+01 1.689020e+01 1.319008e+01 1.467701e+01 1.434517e+01 1.456313e+01 1.269942e+01 4.586309e+00 7.162885e+00 8.834700e+00 3.108529e+00 2.606344e+00 2.790875e+00 2.685957e+00 2.643590e+00 2.046022e+00 2.503208e+00 1.979583e+00 1.494918e+00 1.740354e+00 8.962687e+00 6.844253e-01 5.514662e-01 5.398294e-01 3.785962e-01 4.098933e-01 4.741658e-01 4.738935e-01 3.883374e-01 5.690685e-01 3.878152e-01 3.660257e-01 3.188975e-01 1.739484e+00
<GCONST> 1.099378e+02
<STATE> 4
<MEAN> 39
 -6.185592e+00 5.340783e+00 -5.253760e+00 -2.948236e+00 -8.697141e+00 -4.728346e-01 -6.507294e+00 -3.166658e+00 -3.930348e+00 -3.551313e+00 -2.238170e+00 -2.534454e+00 4.591336e+01 1.478240e+00 -9.233046e-02 8.918974e-01 -8.360640e-01 -5.424857e-01 -3.140269e-01 -9.924371e-01 -3.734904e-01 2.970437e-01 -3.659094e-01 1.292164e-01 2.566768e-02 3.067729e+00 -4.353290e-01 -4.146066e-01 -1.762150e-01 1.155096e-01 1.973648e-01 1.498134e-01 -1.874898e-01 -3.246442e-02 -2.209931e-01 -7.458223e-02 1.087092e-01 -1.283276e-01 -2.189612e-01
<VARIANCE> 39
 1.258653e+02 1.235289e+02 4.240222e+01 4.416133e+01 4.499255e+01 4.995932e+01 4.130809e+01 2.794473e+01 2.673958e+01 2.302498e+01 1.831186e+01 1.358752e+01 5.044846e+01 8.649874e+00 7.286442e+00 4.349227e+00 4.835184e+00 3.808212e+00 4.099467e+00 4.182030e+00 2.408933e+00 4.110761e+00 1.792053e+00 2.231632e+00 1.786898e+00 1.847926e+01 2.372647e+00 1.627575e+00 7.367756e-01 9.471930e-01 8.071998e-01 8.110797e-01 8.090531e-01 5.244446e-01 5.273522e-01 3.853376e-01 5.334017e-01 3.843877e-01 1.301749e+00
<GCONST> 1.348338e+02
<TRANSP> 5
 0.000000e+00 1.000000e+00 0.000000e+00 0.000000e+00 0.000000e+00
 0.000000e+00 6.793804e-01 3.206196e-01 0.000000e+00 0.000000e+00
 0.000000e+00 0.000000e+00 4.498026e-01 5.501974e-01 0.000000e+00
 0.000000e+00 0.000000e+00 0.000000e+00 5.144213e-01 4.855787e-01
 0.000000e+00 0.000000e+00 0.000000e+00 0.000000e+00 0.000000e+00
<ENDHMM>
~h "q"
<BEGINHMM>
<NUMSTATES> 5
<STATE> 2
<MEAN> 39
 6.121243e+00 -7.422851e+00 -3.982730e+00 -9.080841e+00 -7.706991e+00 5.067914e+00 -2.020635e+01 2.657562e+00 -8.475445e+00 -6.427191e+00 2.613959e+00 -1.610098e+01 6.492907e+01 -5.957121e-01 1.397598e+00 1.342730e+00 2.613249e-01 -7.181934e-02 -1.373472e+00 6.560062e-01 -1.087815e+00 -4.985924e-01 1.694767e+00 -2.275033e+00 9.503319e-01 -1.894302e+00 -2.633202e-01 1.607662e-01 1.517420e-01 -3.059810e-01 -1.693561e-01 6.031720e-01 3.313426e-01 -2.942276e-01 -3.736053e-01 5.384517e-02 4.457967e-01 -1.063450e-01 5.475260e-03
<VARIANCE> 39
 1.075237e+01 3.499481e+01 3.181248e+01 2.134303e+01 2.357694e+01 3.097560e+01 4.596505e+01 4.130544e+01 3.948147e+01 2.888642e+01 3.587425e+01 3.204749e+01 4.434576e+01 8.635141e-01 1.987347e+00 5.016828e+00 1.825249e+00 3.438170e+00 2.854870e+00 4.101345e+00 3.977559e+00 4.044473e+00 2.388866e+00 3.380894e+00 2.001312e+00 1.138317e+00 1.286692e-01 3.586833e-01 6.544324e-01 3.473477e-01 5.604410e-01 5.074654e-01 8.765766e-01 8.657517e-01 7.328752e-01 4.330548e-01 7.015844e-01 4.774075e-01 1.443683e-01
<GCONST> 1.180218e+02
<STATE> 3
<MEAN> 39
 -1.064056e+00 1.182641e+00 6.211287e+00 -1.124188e+01 -9.059763e+00 5.689327e+00 -1.298421e+01 -5.451113e+00 -1.658107e+01 2.270408e+00 -2.990691e-01 -1.515909e+01 5.566118e+01 -6.773383e-01 8.284746e-01 3.273607e+00 -1.475690e+00 -9.183656e-01 1.041763e+00 4.261863e-01 -5.647556e-01 -2.022625e+00 5.806692e-01 1.218904e+00 -6.961122e-01 2.910240e-01 6.939490e-02 -1.728613e-01 1.127486e-01 -2.209623e-01 -1.935633e-01 6.302959e-02 -3.680022e-01 5.270578e-01 1.672075e-01 -5.421785e-01 4.241144e-01 -6.438002e-03 4.951496e-01
<VARIANCE> 39
 3.552094e+01 3.794044e+01 1.453676e+02 4.492198e+01 5.347941e+01 3.893213e+01 3.859028e+01 4.541234e+01 7.708328e+01 4.256448e+01 3.491359e+01 4.937311e+01 6.465921e+01 2.391056e+00 2.344004e+00 8.041803e+00 4.103425e+00 5.153576e+00 4.267397e+00 4.694625e+00 7.197140e+00 5.113644e+00 4.678251e+00 3.880350e+00 2.695041e+00 3.267500e+00 4.083422e-01 4.680648e-01 1.594269e+00 6.822783e-01 1.100139e+00 7.870165e-01 7.378116e-01 9.136010e-01 1.064246e+00 6.992681e-01 6.763290e-01 6.074212e-01 2.838170e-01
<GCONST> 1.364781e+02
<STATE> 4
<MEAN> 39
 -3.666712e+00 3.373566e-01 2.202318e+01 -1.932930e+01 -2.382925e+01 1.245201e+01 -1.357446e+01 -2.180653e+00 -1.764253e+01 -4.870428e+00 1.143861e+01 -1.577232e+01 6.989223e+01 3.091757e-01 -3.351685e-01 -6.276612e-01 6.906802e-01 -1.153943e-02 -9.557628e-02 2.173227e-01 -2.151234e-01 3.731251e-01 -5.715024e-01 2.259850e-01 3.086684e-01 2.903405e-01 2.391066e-01 -4.056944e-02 -4.065360e-01 4.304934e-01 2.343886e-01 -3.103065e-01 7.750160e-02 -8.553553e-02 -1.390652e-02 4.891363e-02 -2.258079e-01 1.241780e-01 -2.352056e-01
<VARIANCE> 39
 9.204256e+00 1.545463e+01 2.272573e+01 2.490706e+01 4.997385e+01 3.442008e+01 1.707796e+01 3.809113e+01 3.935604e+01 3.317186e+01 2.228116e+01 2.395010e+01 1.672387e+01 1.980686e+00 1.522311e+00 2.847857e+00 4.776458e+00 6.121450e+00 4.641482e+00 1.369776e+00 2.897264e+00 2.433129e+00 1.729655e+00 2.263369e+00 2.345217e+00 1.981707e+00 1.562706e-01 2.357247e-01 3.229021e-01 5.677364e-01 5.188042e-01 6.911807e-01 3.158855e-01 4.097039e-01 4.353544e-01 2.915452e-01 3.253953e-01 4.608782e-01 9.042362e-02
<GCONST> 1.109689e+02
<TRANSP> 5
 0.000000e+00 1.000000e+00 0.000000e+00 0.000000e+00 0.000000e+00
 0.000000e+00 7.942472e-01 2.057528e-01 0.000000e+00 0.000000e+00
 0.000000e+00 0.000000e+00 8.302922e-01 1.697078e-01 0.000000e+00
 0.000000e+00 0.000000e+00 0.000000e+00 9.298190e-01 7.018095e-02
 0.000000e+00 0.000000e+00 0.000000e+00 0.000000e+00 0.000000e+00
<ENDHMM>
~h "s"
<BEGINHMM>
<NUMSTATES> 5
<STATE> 2
<MEAN> 39
 -3.677865e+00 -3.253184e+00 -5.184566e+00 -8.410068e+00 -1.211265e+01 2.350591e+00 -5.604578e+00 -2.096307e+00 -3.731791e-01 -4.099829e+00 -6.930823e+00 -7.810361e-01 6.134995e+01 2.021898e+00 -4.308336e-01 1.752179e+00 -1.362905e+00 -9.567595e-01 7.804512e-01 -1.150664e+00 3.663069e-02 6.289412e-01 -1.737093e-01 -2.756239e-01 4.630964e-01 2.252877e+00 1.658909e-01 -4.627798e-01 1.160698e-01 -3.996558e-01 5.211165e-02 1.739500e-01 -7.954575e-01 2.198725e-01 -1.263118e-02 3.162134e-01 2.125272e-02 -2.970425e-01 2.186102e-01
<VARIANCE> 39
 5.076240e+01 5.087535e+01 6.076781e+01 2.322187e+02 4.239087e+01 1.074075e+02 6.620049e+01 4.883207e+01 2.074162e+01 2.787796e+01 6.133150e+01 2.845021e+01 3.873957e+02 6.818944e+00 4.603129e+00 4.359054e+00 8.786557e+00 2.845588e+00 5.322132e+00 5.750930e+00 3.769114e+00 1.883698e+00 3.948643e+00 2.864556e+00 2.275972e+00 8.371460e+00 8.890849e-01 7.109200e-01 4.543619e-01 1.234140e+00 8.593128e-01 1.084639e+00 1.258365e+00 7.893911e-01 3.182887e-01 5.449193e-01 4.556960e-01 4.535903e-01 1.347793e+00
<GCONST> 1.401248e+02
<STATE> 3
<MEAN> 39
 1.906366e+00 -1.686277e+00 4.928411e+00 -9.724960e+00 -1.595823e+01 6.754529e+00 -1.206202e+01 -8.214629e-01 9.692231e-01 -6.118514e+00 -4.934583e+00 -6.726369e-01 6.041615e+01 3.150170e+00 -2.058570e+00 2.031688e+00 -2.778186e+00 -1.651099e+00 1.237788e+00 -3.216355e+00 -3.100376e-01 5.187123e-01 1.064559e+00 -3.572396e-01 -3.001669e-01 4.370527e+00 -3.558833e-01 -5.901948e-01 -8.972458e-01 -4.163866e-02 3.634759e-01 -5.683642e-01 -1.686122e-01 5.081017e-01 -4.657071e-01 4.228714e-01 -1.778334e-01 -3.298820e-01 9.996849e-02
<VARIANCE> 39
 7.058022e+01 1.080015e+02 7.111077e+01 3.054458e+02 5.243375e+01 1.014710e+02 3.499492e+01 2.972586e+01 2.891076e+01 5.168954e+01 6.881075e+01 1.775918e+01 1.511705e+02 7.353441e+00 5.258069e+00 6.237520e+00 1.198661e+01 3.134405e+00 9.593416e+00 5.608850e+00 4.483262e+00 2.794979e+00 4.218376e+00 4.594028e+00 1.767864e+00 1.186675e+01 1.411586e+00 1.920293e+00 8.287119e-01 2.098762e+00 7.467668e-01 8.853649e-01 8.308253e-01 6.237350e-01 2.329685e-01 5.083928e-01 6.057825e-01 3.483897e-01 1.228605e+00
<GCONST> 1.441943e+02
<STATE> 4
<MEAN> 39
 8.814487e+00 -5.437582e+00 4.998806e+00 -2.321509e+01 -2.013405e+01 1.249600e+01 -1.788356e+01 -1.056041e+00 -1.091469e+00 -4.062021e+00 -3.936002e+00 -1.362254e+00 6.914932e+01 6.610188e-01 -2.953336e+00 3.114578e-01 -2.180333e+00 -2.176104e-01 1.291210e-01 -1.859200e+00 1.223853e+00 -8.966495e-01 1.369785e+00 -7.671058e-02 -6.706542e-01 3.177407e+00 -8.061502e-01 -2.814591e-02 -7.096037e-01 5.218210e-01 5.868490e-01 -2.245681e-01 4.578036e-01 6.630098e-01 -2.846068e-01 6.260467e-02 1.516835e-01 -3.721793e-01 -4.978322e-01
<VARIANCE> 39
 1.447085e+01 3.397571e+01 2.823470e+01 2.848172e+02 2.631550e+01 1.233629e+02 2.299179e+01 2.150475e+01 2.690665e+01 4.207290e+01 7.949107e+01 1.488305e+01 2.895849e+01 3.061157e+00 3.606911e+00 2.400571e+00 6.928797e+00 2.806958e+00 3.879359e+00 7.117818e+00 2.869959e+00 2.178257e+00 1.355986e+00 1.501814e+00 2.091657e+00 9.627817e+00 7.798396e-01 4.002582e-01 3.568641e-01 1.733272e+00 1.800035e-01 8.819331e-01 7.245701e-01 1.096292e+00 3.458635e-01 6.543964e-01 6.924315e-01 4.931959e-01 4.509190e-01
<GCONST> 1.266677e+02
<TRANSP> 5
 0.000000e+00 1.000000e+00 0.000000e+00 0.000000e+00 0.000000e+00
 0.000000e+00 5.257027e-01 4.742973e-01 0.000000e+00 0.000000e+00
 0.000000e+00 0.000000e+00 2.325229e-01 7.674770e-01 0.000000e+00
 0.000000e+00 0.000000e+00 0.000000e+00 5.076927e-01 4.923073e-01
 0.000000e+00 0.000000e+00 0.000000e+00 0.000000e+00 0.000000e+00
<ENDHMM>
~h "t"
<BEGINHMM>
<NUMSTATES> 5
<STATE> 2
<MEAN> 39
 5.424048e+00 -6.469264e+00 -1.201471e+01 -1.626088e+01 1.990155e-01 1.514149e+01 -1.473515e+01 4.702126e+00 -6.597532e+00 -5.907803e+00 -1.786387e+00 -6.060668e+00 7.032597e+01 4.871100e-01 -6.118879e-01 -6.223268e-01 -4.562894e-01 -4.634780e-01 1.041530e+00 1.298937e-01 -6.310916e-01 -1.246125e+00 2.690441e-01 3.759338e-01 -5.100132e-01 -2.212518e-02 -3.677261e-01 5.635379e-02 1.086445e-01 3.005530e-01 -1.529966e-01 -4.143725e-01 5.282896e-01 -4.681599e-01 2.165580e-01 -1.540529e-01 3.394665e-02 9.481943e-02 -2.174025e-01
<VARIANCE> 39
 1.958342e+01 1.667353e+01 3.982786e+01 3.281831e+01 1.420629e+01 2.661642e+01 6.278272e+01 2.566498e+01 4.250278e+01 6.325335e+01 6.110301e+01 2.836331e+01 6.234027e+01 9.545888e-01 2.104522e+00 1.026869e+00 2.408447e+00 2.086792e+00 5.820430e+00 5.213112e+00 2.378553e+00 1.513952e+00 3.458449e+00 3.321465e+00 1.573940e+00 1.863766e+00 1.590761e-01 2.884940e-01 2.160656e-01 3.233345e-01 3.026033e-01 6.966887e-01 6.783132e-01 5.013757e-01 4.514435e-01 3.696816e-01 5.587131e-01 3.642884e-01 2.159199e-01
<GCONST> 1.147050e+02
<STATE> 3
<MEAN> 39
 8.753133e+00 -1.939700e+00 -1.769677e+01 -1.110151e+01 -3.612222e-01 1.260183e+01 -4.635330e+00 -5.497037e-01 -1.146715e+01 -7.989172e+00 1.257831e-01 -6.459927e+00 6.098436e+01 -7.368293e-01 9.207240e-01 6.096398e-01 9.100481e-01 -1.063626e-01 5.819088e-02 1.546408e+00 -8.557497e-01 -2.974523e-02 8.529789e-01 -1.235011e+00 6.067122e-01 -1.437737e+00 -4.833950e-01 4.721920e-02 4.475043e-01 1.768855e-01 5.211138e-02 2.791040e-01 -8.512841e-02 1.438234e-01 4.739015e-01 -2.286627e-01 3.705125e-02 5.735292e-02 -1.956012e-01
<VARIANCE> 39
 1.299256e+01 3.226163e+01 2.031079e+01 2.771300e+01 1.245185e+01 2.214405e+01 5.741814e+01 1.875183e+01 2.489362e+01 1.862928e+01 1.858426e+01 1.594564e+01 6.591116e+01 1.627848e+00 2.831277e+00 1.653324e+00 1.687218e+00 1.951244e+00 2.081278e+00 2.915304e+00 1.794358e+00 2.190459e+00 2.462706e+00 3.301549e+00 1.790284e+00 2.217150e+00 1.640428e-01 3.231305e-01 1.725303e-01 2.196172e-01 2.526416e-01 3.041110e-01 2.875218e-01 2.919049e-01 2.301263e-01 2.624158e-01 3.343999e-01 2.376781e-01 1.503934e-01
<GCONST> 1.040490e+02
<STATE> 4
<MEAN> 39
 -9.164608e-01 6.660950e-01 -1.278711e+01 -4.901189e+00 1.489303e+00 1.443571e+01 1.529090e+00 -4.130430e-01 -8.229604e+00 -6.621720e+00 -4.508992e+00 -4.126157e+00 5.102626e+01 -2.024793e+00 -4.760298e-01 6.896893e-01 6.187683e-01 -2.194697e-01 1.310476e-01 5.132659e-01 3.599205e-01 7.181822e-01 1.373966e-01 -2.411738e-01 1.500641e-01 -1.387161e+00 5.030050e-02 -2.270172e-01 -6.809584e-02 -2.466507e-01 -2.582447e-01 -3.153727e-01 -5.011072e-01 1.614401e-01 2.095654e-02 -3.522086e-02 2.558809e-01 -1.633216e-01 2.152305e-01
<VARIANCE> 39
 3.173412e+01 4.382374e+01 1.669531e+01 4.483913e+01 1.986365e+01 2.364324e+01 7.207404e+01 1.827839e+01 1.859458e+01 1.534072e+01 1.558315e+01 1.286121e+01 1.103652e+02 2.286678e+00 2.218402e+00 1.787330e+00 2.256044e+00 2.359054e+00 2.862240e+00 3.204114e+00 1.860404e+00 1.866660e+00 1.691967e+00 1.969443e+00 1.489982e+00 1.255958e+00 2.795772e-01 5.462062e-01 4.075615e-01 3.424960e-01 3.287241e-01 4.326437e-01 4.885486e-01 4.477132e-01 4.109027e-01 3.655378e-01 3.334984e-01 2.627499e-01 1.105653e-01
<GCONST> 1.098425e+02
<TRANSP> 5
 0.000000e+00 1.000000e+00 0.000000e+00 0.000000e+00 0.000000e+00
 0.000000e+00 5.539958e-01 4.460042e-01 0.000000e+00 0.000000e+00
 0.000000e+00 0.000000e+00 6.181123e-01 3.818876e-01 0.000000e+00
 0.000000e+00 0.000000e+00 0.000000e+00 7.292246e-01 2.707754e-01
 0.000000e+00 0.000000e+00 0.000000e+00 0.000000e+00 0.000000e+00
<ENDHMM>
~h "u"
<BEGINHMM>
<NUMSTATES> 5
<STATE> 2
<MEAN> 39
 -8.960543e+00 -1.638400e+01 -8.981667e+00 1.555284e+00 -1.544326e+01 -4.986339e+00 6.209436e+00 1.202061e+01 -6.430026e+00 -9.640023e+00 -9.431707e+00 -2.453703e+00 5.019700e+01 1.865845e-01 1.530933e+00 1.120865e-01 1.193802e-01 1.716022e-01 -1.244910e+00 -6.594747e-01 -9.181458e-01 -6.919436e-01 -6.744892e-01 8.496697e-02 1.165543e+00 -5.358107e-01 2.911442e-01 8.251610e-01 3.660128e-01 -2.853928e-01 5.943491e-01 3.414842e-01 -9.453350e-01 -3.790203e-01 2.140040e-01 5.620448e-02 1.284992e-01 -7.428937e-02 5.149919e-02
<VARIANCE> 39
 6.054660e+00 1.576118e+01 1.383326e+01 1.259593e+01 2.566875e+01 1.801403e+01 3.490339e+01 2.847747e+01 2.254117e+01 1.924748e+01 1.628078e+01 1.887785e+01 1.031649e+01 8.481514e-01 2.483522e+00 1.408474e+00 1.874979e+00 2.670748e+00 3.202747e+00 3.521908e+00 2.560812e+00 2.757280e+00 2.098088e+00 2.132681e+00 1.899394e+00 9.223798e-01 2.046273e-01 3.835468e-01 3.338326e-01 3.042491e-01 3.919408e-01 5.363835e-01 7.434722e-01 6.203808e-01 4.618075e-01 5.291166e-01 4.413297e-01 4.877759e-01 2.245726e-01
<GCONST> 1.060999e+02
<STATE> 3
<MEAN> 39
 -6.431441e+00 -7.251471e+00 -5.756139e+00 1.273809e+00 -1.114236e+01 -6.596993e+00 3.920797e-01 7.839111e+00 -6.679069e+00 -1.044012e+01 -9.327428e+00 9.231766e-01 4.915745e+01 9.512695e-01 4.152198e+00 1.327104e+00 -1.274928e-01 1.868695e+00 -3.041779e-01 -2.768751e+00 -2.414472e+00 -3.012210e-01 5.958951e-01 4.559572e-01 1.612907e-01 -6.542795e-01 -1.582348e-01 -3.334561e-02 -1.067101e-01 -1.487138e-02 1.390318e-01 5.449364e-01 1.480543e-02 -1.582522e-01 -1.043543e-03 4.668104e-01 3.681329e-01 -6.614842e-01 -1.576975e-01
<VARIANCE> 39
 1.946464e+01 3.116238e+01 2.131217e+01 1.793814e+01 1.972312e+01 2.620367e+01 2.900461e+01 3.041006e+01 2.619463e+01 1.996576e+01 1.670336e+01 2.071869e+01 1.506892e+01 3.183865e+00 2.652112e+00 1.986007e+00 2.849200e+00 3.185578e+00 4.239342e+00 4.489775e+00 3.856226e+00 1.869017e+00 2.452155e+00 2.603579e+00 3.506340e+00 1.750542e+00 4.407878e-01 5.201247e-01 4.067402e-01 4.015792e-01 6.503201e-01 9.351208e-01 6.780366e-01 6.188701e-01 4.982245e-01 4.720621e-01 4.233242e-01 5.828740e-01 2.857715e-01
<GCONST> 1.167450e+02
<STATE> 4
<MEAN> 39
 -2.258376e+00 4.063344e+00 -2.180373e+00 5.855220e-01 -7.514876e+00 -6.730626e+00 -7.286647e+00 4.309453e-01 -7.863748e+00 -6.404710e+00 -5.563763e+00 -1.627858e+00 4.855963e+01 -9.088054e-01 1.384071e+00 1.737893e-03 3.602650e-01 1.375111e+00 1.790066e+00 -4.701165e-01 -1.180256e+00 2.307166e-01 9.744319e-01 1.107945e+00 -9.056355e-01 -1.512173e+00 -7.900110e-01 -1.195940e+00 -5.468242e-01 1.595099e-02 -2.748089e-01 5.985309e-01 9.190181e-01 5.224671e-01 2.264273e-01 2.549861e-02 -3.490272e-02 -1.200909e-01 -2.611935e-01
<VARIANCE> 39
 4.469632e+01 3.941575e+01 3.234809e+01 3.116250e+01 2.102921e+01 3.314035e+01 3.176189e+01 3.256699e+01 2.212588e+01 1.949475e+01 1.715845e+01 2.127864e+01 1.989664e+01 4.381662e+00 4.788644e+00 3.435759e+00 2.452559e+00 2.971857e+00 3.437636e+00 4.760280e+00 3.503423e+00 2.358724e+00 2.796087e+00 1.697349e+00 2.759693e+00 1.730329e+00 5.366157e-01 6.081777e-01 6.308768e-01 6.895071e-01 6.180398e-01 9.322653e-01 8.442453e-01 6.488667e-01 3.520172e-01 5.769173e-01 4.199533e-01 6.566142e-01 2.502081e-01
<GCONST> 1.214316e+02
<TRANSP> 5
 0.000000e+00 1.000000e+00 0.000000e+00 0.000000e+00 0.000000e+00
 0.000000e+00 7.158337e-01 2.841663e-01 0.000000e+00 0.000000e+00
 0.000000e+00 0.000000e+00 5.402616e-01 4.597383e-01 0.000000e+00
 0.000000e+00 0.000000e+00 0.000000e+00 5.786001e-01 4.213999e-01
 0.000000e+00 0.000000e+00 0.000000e+00 0.000000e+00 0.000000e+00
<ENDHMM>
~h "w"
<BEGINHMM>
<NUMSTATES> 5
<STATE> 2
<MEAN> 39
 -1.759158e+01 -3.523542e-01 -1.095880e+01 3.758445e-01 -8.394252e+00 8.863928e-01 -7.563998e+00 -2.421848e+00 -4.679720e+00 -4.030628e+00 -3.180374e+00 -3.647408e+00 3.445387e+01 5.285109e-02 -4.435699e-02 1.917562e-02 -3.681430e-02 1.256001e-02 -4.721941e-02 -1.829340e-02 1.907315e-03 -3.525792e-03 1.652407e-02 -2.579462e-02 2.958744e-02 8.450314e-02 -1.012094e-05 -2.501559e-03 -3.212006e-03 -9.451540e-03 -4.444247e-03 -4.317083e-03 5.569477e-03 2.768912e-03 4.161680e-03 -6.153755e-04 -4.530814e-03 -5.681895e-03 3.074870e-03
<VARIANCE> 39
 1.939377e+00 2.632313e+00 5.556241e+00 6.584849e+00 8.828227e+00 1.033286e+01 1.041577e+01 1.141183e+01 1.326443e+01 1.141644e+01 1.187132e+01 1.101911e+01 2.688735e+00 1.327814e-01 2.562834e-01 4.701379e-01 6.705498e-01 8.397912e-01 1.025241e+00 1.116566e+00 1.158765e+00 1.303634e+00 1.345697e+00 1.380440e+00 1.251512e+00 4.560066e-02 2.550293e-02 5.110146e-02 9.678023e-02 1.391573e-01 1.756347e-01 2.170563e-01 2.248884e-01 2.349624e-01 2.698096e-01 2.804201e-01 2.878225e-01 2.578196e-01 7.895026e-03
<GCONST> 6.349364e+01
<STATE> 3
<MEAN> 39
 -1.500401e+01 -2.161407e+00 -1.232671e+01 -1.213758e+00 -8.824664e+00 -1.736509e+00 -8.753996e+00 -1.413041e+00 -3.024839e+00 -3.548729e+00 -4.507339e+00 -4.074008e+00 3.747899e+01 -4.847061e-02 6.267652e-03 9.061383e-02 3.067770e-02 7.057580e-02 5.215598e-02 6.294818e-02 -3.798845e-02 -9.133906e-02 -8.283693e-03 2.178881e-02 1.965287e-02 -1.392725e-03 -7.766226e-03 2.314967e-02 2.820987e-02 1.660328e-02 2.517188e-02 2.824138e-02 1.550176e-02 1.642005e-03 -8.069094e-03 -8.857157e-05 1.764985e-02 4.884225e-03 -7.228470e-03
<VARIANCE> 39
 3.586743e+00 4.376253e+00 8.080309e+00 7.393349e+00 9.875285e+00 1.291447e+01 1.376096e+01 1.471357e+01 1.598588e+01 1.179570e+01 1.054399e+01 1.114029e+01 2.688735e+00 1.713259e-01 2.876172e-01 4.836105e-01 6.680312e-01 8.203353e-01 1.054989e+00 1.247632e+00 1.337625e+00 1.354189e+00 1.217261e+00 1.020450e+00 1.147641e+00 8.339361e-02 3.136528e-02 5.715717e-02 9.293421e-02 1.371013e-01 1.575321e-01 2.080532e-01 2.606800e-01 2.747982e-01 2.733623e-01 2.516037e-01 1.995151e-01 2.374573e-01 1.154510e-02
<GCONST> 6.714610e+01
<STATE> 4
<MEAN> 39
 -1.749925e+01 -8.829506e-01 -9.339588e+00 6.538111e-01 -6.508573e+00 1.269221e+00 -6.493935e+00 -2.345765e+00 -5.511381e+00 -4.124423e+00 -3.049160e+00 -3.358292e+00 3.586492e+01 5.510873e-01 5.217879e-01 3.093145e-01 1.408964e-01 2.872116e-01 1.984874e-01 2.291290e-01 2.375697e-01 7.176457e-03 -5.470189e-02 -7.275828e-02 -7.724017e-02 2.658229e-01 5.031922e-01 4.657715e-01 2.025513e-01 -8.384404e-02 1.421001e-02 5.521606e-02 6.681542e-02 -7.133058e-03 3.213363e-02 1.339806e-02 1.869582e-02 7.949976e-02 2.645431e-01
<VARIANCE> 39
 2.368947e+00 4.071468e+00 7.391814e+00 7.024631e+00 8.412517e+00 8.146194e+00 9.390529e+00 1.375979e+01 1.316662e+01 1.386980e+01 1.267130e+01 1.357576e+01 2.688735e+00 8.635058e-01 7.645733e-01 8.154497e-01 1.130911e+00 1.221103e+00 9.971253e-01 1.402227e+00 1.526878e+00 1.472098e+00 1.590380e+00 1.271343e+00 1.754679e+00 2.094262e-01 2.276769e-01 2.044469e-01 2.321427e-01 2.528779e-01 2.596708e-01 3.186597e-01 2.567536e-01 3.318662e-01 3.064561e-01 3.462163e-01 2.984745e-01 4.232632e-01 5.672662e-02
<GCONST> 8.083900e+01
<TRANSP> 5
 0.000000e+00 1.000000e+00 0.000000e+00 0.000000e+00 0.000000e+00
 0.000000e+00 9.591613e-01 4.083860e-02 0.000000e+00 0.000000e+00
 0.000000e+00 0.000000e+00 9.301088e-01 6.989118e-02 0.000000e+00
 0.000000e+00 0.000000e+00 0.000000e+00 5.644020e-01 4.355981e-01
 0.000000e+00 0.000000e+00 0.000000e+00 0.000000e+00 0.000000e+00
<ENDHMM>
~h "x"
<BEGINHMM>
<NUMSTATES> 5
<STATE> 2
<MEAN> 39
 3.807767e+00 -1.438434e+01 -1.645278e+00 -1.749633e+01 -1.359745e+01 8.032434e+00 -1.889365e+01 5.096116e-01 -1.654425e-01 1.164259e+00 -3.100573e+00 -8.566199e+00 7.763501e+01 -2.806839e-01 -8.600569e-01 -4.153111e-01 9.563227e-02 4.239674e-01 -5.083504e-01 -5.574246e-01 1.526226e+00 4.051892e-01 2.719567e-01 -4.891911e-01 -1.194259e+00 9.281929e-01 -2.061183e-01 1.984723e-01 -4.230225e-02 2.946871e-01 -4.750789e-02 -1.050902e-01 2.739038e-01 2.867798e-01 -1.393091e-01 -3.693672e-01 -9.262230e-02 6.990211e-02 -2.008586e-01
<VARIANCE> 39
 2.198379e+01 3.878555e+01 6.894834e+01 7.292991e+01 5.544672e+01 1.108825e+02 6.114056e+01 9.056818e+01 4.012606e+01 6.189477e+01 7.008785e+01 3.879635e+01 2.337885e+01 2.110729e+00 2.912280e+00 3.095208e+00 6.573710e+00 2.812983e+00 7.533172e+00 8.446033e+00 8.285978e+00 3.232342e+00 4.860960e+00 2.599785e+00 4.695508e+00 3.041857e+00 4.422100e-01 3.495858e-01 4.344025e-01 6.228751e-01 4.353169e-01 1.072452e+00 1.090404e+00 1.428951e+00 5.251176e-01 7.305593e-01 4.775017e-01 7.916253e-01 2.845551e-01
<GCONST> 1.349884e+02
<STATE> 3
<MEAN> 39
 1.474091e+00 -1.837823e+01 -3.430863e+00 -1.600537e+01 -1.125984e+01 6.832509e+00 -1.882966e+01 9.867448e+00 -1.097391e+00 -2.487361e+00 -7.210228e+00 -1.182878e+01 8.077582e+01 -3.996121e-01 6.219092e-03 1.043569e-01 7.320197e-01 1.638485e-02 -1.164645e+00 7.185287e-01 8.503218e-01 -5.699200e-01 -8.821931e-01 -1.419556e-01 4.142109e-01 2.244053e-01 -1.979179e-02 2.737826e-01 3.721751e-01 1.182963e-01 -2.104601e-01 -2.861065e-01 2.298468e-01 -2.972462e-01 -2.143934e-01 -2.124105e-02 2.126386e-01 4.826995e-01 -2.180268e-01
<VARIANCE> 39
 1.327918e+01 3.287048e+01 4.213169e+01 2.783640e+01 2.534019e+01 6.015950e+01 5.619176e+01 7.932690e+01 3.857167e+01 5.638259e+01 6.923644e+01 2.478518e+01 1.309299e+01 8.594405e-01 1.417032e+00 3.003000e+00 3.010549e+00 2.409174e+00 6.918424e+00 4.073580e+00 7.909256e+00 2.728645e+00 3.729639e+00 1.991123e+00 2.763279e+00 6.959145e-01 1.375533e-01 2.264437e-01 2.291770e-01 3.445026e-01 2.822711e-01 6.395833e-01 6.204994e-01 1.195836e+00 5.142610e-01 6.686463e-01 3.429884e-01 6.435537e-01 6.891146e-02
<GCONST> 1.173356e+02
<STATE> 4
<MEAN> 39
 -1.589042e+00 -1.456608e+01 -3.923000e-01 -1.424667e+01 -1.536608e+01 3.665226e-02 -1.299475e+01 8.663997e+00 -3.516858e+00 -6.172927e+00 -1.429877e+00 -8.692719e+00 8.189953e+01 1.056916e-01 4.660497e-01 7.656182e-01 6.378892e-02 -4.338658e-01 -1.952426e-01 -2.114951e-01 4.752760e-02 -8.008319e-01 3.033620e-01 8.057067e-01 1.490860e-01 -3.852349e-01 2.441636e-02 1.143654e-01 4.554950e-02 9.226635e-03 1.448839e-01 1.083948e-01 -7.170018e-02 -1.770526e-01 -1.352834e-02 9.206499e-02 -3.990537e-02 9.554664e-03 -1.491769e-01
<VARIANCE> 39
 1.751217e+01 3.067011e+01 1.118255e+02 3.900478e+01 7.055430e+01 7.371817e+01 1.023802e+02 1.024775e+02 5.579262e+01 4.417781e+01 8.656149e+01 2.408418e+01 2.219431e+01 1.027298e+00 1.460781e+00 3.657305e+00 1.661228e+00 3.438509e+00 3.784029e+00 5.198068e+00 5.980429e+00 3.586774e+00 2.867076e+00 4.042060e+00 2.542567e+00 7.836928e-01 1.668480e-01 2.236836e-01 3.508369e-01 2.882306e-01 5.810323e-01 6.000979e-01 7.731413e-01 9.942924e-01 5.275108e-01 4.632616e-01 6.618871e-01 4.090095e-01 7.376670e-02
<GCONST> 1.231218e+02
<TRANSP> 5
 0.000000e+00 1.000000e+00 0.000000e+00 0.000000e+00 0.000000e+00
 0.000000e+00 6.690189e-01 3.309810e-01 0.000000e+00 0.000000e+00
 0.000000e+00 0.000000e+00 7.500862e-01 2.499138e-01 0.000000e+00
 0.000000e+00 0.000000e+00 0.000000e+00 8.757933e-01 1.242067e-01
 0.000000e+00 0.000000e+00 0.000000e+00 0.000000e+00 0.000000e+00
<ENDHMM>
~h "y"
<BEGINHMM>
<NUMSTATES> 5
<STATE> 2
<MEAN> 39
 -1.276176e+01 3.022567e+00 -5.943492e+00 -1.027709e+00 -8.703993e+00 6.657192e-01 -7.173782e+00 -1.980029e+00 -5.024908e+00 -3.512998e+00 -2.660973e+00 -2.969931e+00 3.881309e+01 -1.185985e-01 -1.513643e-02 5.319343e-01 -4.316398e-02 2.256941e-01 2.229454e-01 -1.638846e-01 1.906541e-01 -1.946565e-01 -3.726913e-02 1.789049e-01 -7.106894e-02 4.031613e-02 -6.814098e-02 -5.168933e-02 1.040724e-01 -4.251406e-02 4.612787e-02 5.947249e-02 4.803488e-02 1.341703e-01 -8.472934e-02 -4.348992e-02 5.919152e-02 -9.186950e-02 1.637668e-02
<VARIANCE> 39
 3.574181e+01 3.015137e+01 2.303836e+01 3.449204e+01 2.899040e+01 2.193115e+01 1.420360e+01 1.874931e+01 1.795960e+01 1.592904e+01 1.265340e+01 1.189918e+01 1.375400e+01 1.686192e+00 1.867253e+00 1.729704e+00 2.665085e+00 1.890486e+00 2.065849e+00 1.858464e+00 1.981653e+00 1.636883e+00 1.684581e+00 1.806303e+00 1.441882e+00 7.336665e-01 3.626504e-01 4.428146e-01 4.739673e-01 5.597869e-01 4.761873e-01 4.580562e-01 3.881202e-01 4.487967e-01 4.498785e-01 3.909043e-01 3.471797e-01 2.364741e-01 1.623164e-01
<GCONST> 1.051900e+02
<STATE> 3
<MEAN> 39
 -1.403727e+01 2.339285e+00 -4.879842e+00 -6.061367e-01 -6.235752e+00 2.422501e+00 -7.560571e+00 -6.396779e-01 -7.127586e+00 -4.465587e+00 -1.286576e+00 -4.022473e+00 3.827697e+01 -2.227532e-01 -4.679146e-02 8.331672e-01 -6.786281e-01 2.198642e-01 9.522943e-02 -3.054494e-01 8.993411e-01 -6.732361e-01 -3.346337e-02 5.795590e-01 -5.571325e-01 2.514673e-01 7.791473e-01 3.912592e-01 5.583793e-01 -3.063180e-01 -3.616624e-01 4.222111e-02 -6.222805e-02 9.311923e-02 1.421134e-02 -7.452743e-02 -6.082543e-02 -9.832059e-02 7.081236e-01
<VARIANCE> 39
 3.153498e+01 2.424929e+01 2.139185e+01 1.538886e+01 1.545812e+01 1.714725e+01 1.504519e+01 1.770885e+01 1.081783e+01 1.227119e+01 1.343543e+01 1.551488e+01 9.191689e+00 2.271245e+00 3.130300e+00 2.439321e+00 3.505667e+00 2.312822e+00 1.892049e+00 2.311586e+00 2.483952e+00 2.795313e+00 1.605651e+00 1.643243e+00 1.834157e+00 7.635869e-01 7.125597e-01 5.922011e-01 6.704021e-01 6.425909e-01 4.593136e-01 5.668715e-01 4.215307e-01 4.147391e-01 4.704211e-01 3.171256e-01 3.331768e-01 3.334562e-01 2.973342e-01
<GCONST> 1.072840e+02
<STATE> 4
<MEAN> 39
 -1.427025e+01 9.971800e-01 -2.402818e+00 -8.052863e-01 -5.630483e+00 9.451095e-01 -8.373032e+00 7.878610e-01 -7.864877e+00 -4.018055e+00 -4.816975e-01 -5.205928e+00 4.022940e+01 8.871865e-01 5.502495e-01 1.282636e+00 -8.072234e-01 -2.891853e-01 2.696282e-01 -4.893884e-01 4.905193e-01 -4.286545e-01 -1.737110e-01 2.042720e-01 -4.940895e-01 1.107510e+00 4.994706e-01 -4.749013e-02 3.166253e-01 -3.108002e-01 -5.848726e-01 8.446161e-02 -1.891267e-01 -7.620791e-02 1.988478e-02 -1.822246e-01 3.838115e-02 1.053237e-01 7.317501e-01
<VARIANCE> 39
 3.839731e+01 5.010384e+01 5.609002e+01 4.763206e+01 3.936987e+01 3.366206e+01 4.415090e+01 3.405602e+01 3.233019e+01 1.913052e+01 2.380876e+01 2.905707e+01 1.432989e+01 6.397900e+00 5.388855e+00 7.634233e+00 5.174939e+00 5.780150e+00 4.516418e+00 4.289496e+00 3.090598e+00 3.042127e+00 2.332822e+00 2.363270e+00 2.528270e+00 4.213023e+00 1.196360e+00 9.564398e-01 1.385092e+00 1.292278e+00 1.491095e+00 1.026119e+00 8.899941e-01 6.794839e-01 5.634469e-01 5.084282e-01 5.605915e-01 5.443543e-01 1.337678e+00
<GCONST> 1.340057e+02
<TRANSP> 5
 0.000000e+00 1.000000e+00 0.000000e+00 0.000000e+00 0.000000e+00
 0.000000e+00 6.238404e-01 3.761596e-01 0.000000e+00 0.000000e+00
 0.000000e+00 0.000000e+00 3.814038e-01 6.185961e-01 0.000000e+00
 0.000000e+00 0.000000e+00 0.000000e+00 7.953084e-01 2.046916e-01
 0.000000e+00 0.000000e+00 0.000000e+00 0.000000e+00 0.000000e+00
<ENDHMM>
~h "z"
<BEGINHMM>
<NUMSTATES> 5
<STATE> 2
<MEAN> 39
 7.249201e+00 -8.959014e+00 5.021711e+00 -1.090297e+01 -7.291260e+00 6.602256e+00 -1.661555e+01 -2.539803e+00 -1.469885e+01 -7.707399e+00 4.039129e+00 -7.109070e+00 6.842258e+01 -1.664233e-01 -5.956774e-01 9.780965e-01 7.483465e-01 8.848283e-01 3.188015e-01 -8.781992e-01 -1.249937e+00 -6.739122e-01 2.325594e-03 -3.187174e-01 2.366053e-01 2.722067e-02 -8.337742e-02 2.665432e-01 -2.910408e-01 1.364480e-01 -9.231018e-02 -1.111741e-01 2.356059e-01 -1.525481e-01 4.692811e-01 1.861034e-02 -1.245415e-01 7.051116e-02 -2.834839e-01
<VARIANCE> 39
 4.184020e+00 1.026398e+01 1.713325e+01 2.289088e+01 3.338467e+01 2.511439e+01 2.895809e+01 3.698173e+01 3.801400e+01 2.939833e+01 1.935123e+01 1.259573e+01 6.306240e+00 8.888651e-01 1.413073e+00 1.379377e+00 1.370007e+00 2.408819e+00 3.191588e+00 3.398783e+00 1.976942e+00 4.376247e+00 3.478984e+00 2.912449e+00 1.646237e+00 1.905373e+00 3.003291e-01 2.213883e-01 2.538586e-01 2.655959e-01 4.768535e-01 5.631584e-01 9.476952e-01 4.871317e-01 8.532783e-01 7.383898e-01 7.288159e-01 3.514913e-01 3.017021e-01
<GCONST> 1.087000e+02
<STATE> 3
<MEAN> 39
 5.276867e+00 -8.093789e+00 5.427832e+00 -5.683430e+00 -4.497046e+00 3.031736e+00 -1.640032e+01 -1.028500e+01 -1.157617e+01 -6.099268e+00 8.549145e-01 -4.673406e+00 6.909052e+01 1.576516e-01 9.591728e-01 -5.376767e-02 1.319689e+00 -2.733257e-01 -2.840262e-01 5.752890e-01 -8.540594e-01 5.915403e-01 -2.456122e-01 -1.271712e+00 5.260127e-02 -1.110291e+00 -1.419023e-01 3.599565e-01 -1.031234e-01 -1.040079e-01 4.644396e-02 3.117477e-02 2.323637e-01 4.649969e-01 -9.214532e-02 -2.149100e-01 2.906626e-02 -9.678198e-02 -3.128501e-01
<VARIANCE> 39
 2.183293e+01 6.817692e+00 2.553490e+01 2.461557e+01 1.630944e+01 4.117561e+01 6.125075e+01 2.440462e+01 4.909729e+01 2.117128e+01 1.660099e+01 7.713851e+00 5.274135e+01 2.159102e+00 2.132960e+00 2.223744e+00 2.323973e+00 3.578147e+00 4.968860e+00 6.950026e+00 2.857605e+00 7.519811e+00 3.243566e+00 3.261328e+00 1.146331e+00 3.308422e+00 5.516012e-01 2.317215e-01 3.850536e-01 4.580929e-01 6.326470e-01 9.438380e-01 1.195931e+00 5.958827e-01 1.237270e+00 7.307065e-01 6.098635e-01 2.504043e-01 6.033126e-01
<GCONST> 1.203210e+02
<STATE> 4
<MEAN> 39
 7.012035e+00 -2.196323e+00 6.077098e+00 -5.441895e-01 -6.896996e+00 3.339060e+00 -1.720479e+01 -1.124798e+01 -9.272305e+00 -7.663041e+00 -3.687961e+00 -4.820889e+00 6.133659e+01 -2.091718e+00 2.305036e+00 -6.004515e-01 4.502794e-01 1.445004e+00 -1.491669e+00 2.059693e+00 1.405369e+00 6.948075e-01 -1.084543e-01 -4.973432e-01 -2.124576e-01 -1.394878e+00 -1.282663e+00 -5.585682e-01 8.204854e-03 -9.138448e-01 1.006774e+00 -1.591977e-01 2.167628e-01 4.926450e-01 -1.479292e-01 5.921701e-01 7.091100e-01 2.346054e-02 5.444940e-01
<VARIANCE> 39
 1.338192e+01 1.519418e+01 2.225068e+01 4.389989e+01 3.537823e+01 2.909150e+01 6.799957e+01 2.919957e+01 3.623462e+01 2.062338e+01 1.273205e+01 1.527963e+01 9.720627e+00 2.459756e+00 2.177033e+00 2.296823e+00 5.067073e+00 4.242865e+00 2.585907e+00 4.463253e+00 2.599778e+00 2.478694e+00 3.224848e+00 2.348010e+00 1.511922e+00 1.736507e+00 5.427489e-01 4.524981e-01 7.848492e-01 7.451254e-01 1.037684e+00 6.178787e-01 1.032056e+00 8.770547e-01 7.769670e-01 6.449544e-01 3.660289e-01 4.209820e-01 3.479553e-01
<GCONST> 1.193427e+02
<TRANSP> 5
 0.000000e+00 1.000000e+00 0.000000e+00 0.000000e+00 0.000000e+00
 0.000000e+00 8.877083e-01 1.122917e-01 0.000000e+00 0.000000e+00
 0.000000e+00 0.000000e+00 7.779334e-01 2.220666e-01 0.000000e+00
 0.000000e+00 0.000000e+00 0.000000e+00 5.491676e-01 4.508324e-01
 0.000000e+00 0.000000e+00 0.000000e+00 0.000000e+00 0.000000e+00
<ENDHMM>
~h "ai"
<BEGINHMM>
<NUMSTATES> 5
<STATE> 2
<MEAN> 39
 -5.791165e-01 -2.008368e+01 -3.415896e+00 -8.964195e+00 -1.226526e+01 9.343130e+00 -1.567917e+01 1.474794e+01 -1.259071e+00 -1.310070e+01 -8.011190e+00 -1.139469e+01 6.787354e+01 -2.917764e-01 -1.205939e-01 -1.145584e-01 7.483160e-01 3.851406e-02 -3.489400e-01 1.508017e+00 -3.033492e-01 -4.878485e-01 2.355308e-01 -7.465445e-02 6.057622e-01 -1.477741e+00 -1.273758e-01 2.295858e-01 -5.842872e-02 5.552924e-02 6.308907e-02 -3.028040e-01 1.861256e-01 -8.047791e-02 1.956379e-01 1.173967e-01 -4.464954e-02 1.491254e-01 -1.204882e-01
<VARIANCE> 39
 2.006116e+01 5.149836e+01 1.281644e+01 2.474424e+01 2.060345e+01 2.536576e+01 5.201168e+01 2.895421e+01 2.014505e+01 2.336375e+01 1.799589e+01 2.377170e+01 7.967517e+01 1.885680e+00 2.514390e+00 1.416106e+00 1.469086e+00 1.500701e+00 2.211195e+00 2.497179e+00 1.548752e+00 1.774704e+00 1.702983e+00 1.295699e+00 1.199246e+00 2.079235e+00 4.036205e-01 3.836680e-01 2.830769e-01 3.202227e-01 2.826408e-01 3.746144e-01 3.706786e-01 3.301904e-01 3.134064e-01 3.307679e-01 2.496691e-01 2.243264e-01 3.877693e-01
<GCONST> 1.069552e+02
<STATE> 3
<MEAN> 39
 -7.164119e+00 -1.586746e+01 -8.474098e+00 2.608942e-01 -1.146019e+01 6.261337e-01 1.741294e+00 1.104312e+01 -2.915748e+00 -9.692218e+00 -9.386334e+00 -4.065063e+00 5.236471e+01 -1.384658e-01 6.896276e-01 -4.154773e-01 8.641588e-01 -2.027524e-01 -1.108901e+00 1.138785e+00 -6.608165e-01 -6.594908e-01 -2.271042e-02 -7.442750e-02 7.137046e-01 -9.420613e-01 3.072555e-01 1.795818e-01 2.333799e-01 -2.908898e-01 -4.525844e-02 5.912415e-02 -5.624571e-01 -6.616156e-02 -1.158001e-01 -1.814196e-01 9.596050e-02 -9.584358e-02 3.114455e-01
<VARIANCE> 39
 1.743890e+01 5.017120e+01 2.623860e+01 3.130896e+01 3.047129e+01 3.160304e+01 5.752673e+01 3.684766e+01 2.862031e+01 2.637906e+01 2.222602e+01 2.027830e+01 4.003916e+01 2.740728e+00 3.199959e+00 2.735320e+00 2.934344e+00 2.900668e+00 2.438431e+00 4.744642e+00 2.744464e+00 3.035118e+00 2.743893e+00 2.209884e+00 1.649761e+00 2.688255e+00 4.771912e-01 6.264289e-01 4.837971e-01 5.236440e-01 6.815065e-01 5.156221e-01 7.254835e-01 5.363988e-01 5.829366e-01 5.144761e-01 4.862261e-01 3.363400e-01 4.921854e-01
<GCONST> 1.210039e+02
<STATE> 4
<MEAN> 39
 -5.594581e+00 -1.319533e+00 -5.379675e+00 1.115932e+00 -9.317849e+00 -2.711556e+00 -2.959870e+00 3.106080e+00 -5.862503e+00 -8.352623e+00 -6.408882e+00 -2.145310e+00 4.730751e+01 2.196020e-01 1.072419e+00 6.127899e-01 -4.055379e-01 3.072872e-01 3.595196e-01 -1.007513e+00 -7.084215e-01 3.494617e-01 4.955188e-01 4.288505e-01 -5.788339e-02 -9.853563e-02 -6.504552e-02 -4.340090e-01 -1.240473e-02 -1.553307e-01 -1.070274e-01 1.050394e-01 -1.276731e-02 1.232124e-01 1.226245e-01 1.033325e-01 2.473068e-02 -8.786011e-02 2.594936e-01
<VARIANCE> 39
 6.096225e+01 8.968259e+01 4.646286e+01 3.634196e+01 2.991247e+01 3.514186e+01 5.422161e+01 4.286305e+01 2.929043e+01 3.714753e+01 2.550283e+01 1.801154e+01 4.937401e+01 4.962725e+00 5.756737e+00 3.864654e+00 3.800717e+00 3.813771e+00 3.419095e+00 4.418128e+00 3.015032e+00 2.518069e+00 3.177324e+00 2.439003e+00 1.846077e+00 4.548991e+00 6.534086e-01 7.699208e-01 7.114448e-01 6.996267e-01 6.244193e-01 6.959414e-01 8.130736e-01 5.461094e-01 5.264412e-01 6.158955e-01 4.609313e-01 3.695957e-01 5.288714e-01
<GCONST> 1.291782e+02
<TRANSP> 5
 0.000000e+00 1.000000e+00 0.000000e+00 0.000000e+00 0.000000e+00
 0.000000e+00 8.386259e-01 1.613741e-01 0.000000e+00 0.000000e+00
 0.000000e+00 0.000000e+00 7.662038e-01 2.337962e-01 0.000000e+00
 0.000000e+00 0.000000e+00 0.000000e+00 7.869987e-01 2.130013e-01
 0.000000e+00 0.000000e+00 0.000000e+00 0.000000e+00 0.000000e+00
<ENDHMM>
~h "an"
<BEGINHMM>
<NUMSTATES> 5
<STATE> 2
<MEAN> 39
 6.238832e+00 -1.313724e+01 2.364307e+00 -2.316998e+01 -1.642482e+01 1.148369e+01 -2.070086e+01 3.244965e+00 -3.791481e+00 1.584766e+00 -2.688083e+00 -4.673862e+00 7.531202e+01 -6.516783e-01 -1.714949e+00 -1.273556e+00 4.374075e-02 6.751106e-01 2.121594e-01 -1.182952e+00 2.066933e+00 -4.292251e-02 1.160901e+00 2.269405e-01 -2.398778e+00 1.744215e+00 -3.732397e-01 5.474343e-01 -2.505396e-01 7.548655e-01 1.530398e-01 -2.417488e-01 7.041365e-01 1.402218e-02 2.340716e-01 -3.307857e-01 -2.306108e-01 -1.950908e-01 -5.961787e-01
<VARIANCE> 39
 7.117256e+00 9.077435e+00 3.517376e+01 1.196866e+02 1.872370e+01 1.257300e+02 1.979801e+01 4.236616e+01 3.150501e+01 2.883174e+01 7.377029e+01 3.612772e+01 8.724291e+00 7.545168e-01 2.469744e+00 1.523246e+00 1.099640e+01 1.792609e+00 3.199500e+00 2.434666e+00 8.045663e+00 3.064513e+00 3.659734e+00 2.897280e+00 4.128346e+00 4.627894e+00 4.189043e-01 2.132047e-01 4.677947e-01 3.831981e-01 4.876690e-01 9.633521e-01 1.405380e+00 1.259060e+00 4.569529e-01 6.356745e-01 3.863752e-01 7.855581e-01 4.712241e-01
<GCONST> 1.226455e+02
<STATE> 3
<MEAN> 39
 2.597637e+00 -1.958932e+01 3.477895e-01 -1.655914e+01 -1.518284e+01 6.048868e+00 -1.872611e+01 1.237636e+01 -3.056938e+00 -1.496036e-01 -6.868680e+00 -1.041458e+01 8.000095e+01 -2.016103e-01 1.675526e-01 -2.164853e-01 2.226799e-01 2.577739e-01 -5.004928e-01 6.746347e-01 2.748069e-01 -3.197805e-01 -1.582901e-01 -2.063747e-01 2.837039e-01 7.294250e-02 -6.303148e-02 3.144143e-01 -5.101468e-03 1.555406e-01 7.552481e-02 -1.255278e-01 2.291131e-01 -3.848349e-01 1.216930e-01 -7.706120e-02 6.123218e-02 2.326526e-01 -1.772171e-01
<VARIANCE> 39
 8.114046e+00 1.699386e+01 2.400279e+01 3.964598e+01 3.505735e+01 7.050638e+01 2.907251e+01 7.140510e+01 3.664314e+01 3.561296e+01 5.655469e+01 1.826099e+01 9.204395e+00 7.147104e-01 2.000308e+00 2.462417e+00 3.179543e+00 2.623982e+00 5.281877e+00 2.801464e+00 6.575479e+00 3.572333e+00 3.108963e+00 2.298121e+00 2.376719e+00 1.013110e+00 1.742767e-01 2.537608e-01 3.270152e-01 4.464644e-01 3.790598e-01 7.125133e-01 6.714028e-01 1.290880e+00 7.937807e-01 6.237847e-01 3.621409e-01 5.112693e-01 1.082914e-01
<GCONST> 1.162153e+02
<STATE> 4
<MEAN> 39
 -1.001105e+01 -5.734296e+00 -5.162557e+00 -6.875776e+00 -7.261459e+00 -2.828132e+00 -3.955094e+00 1.333598e+00 -1.423205e+00 -4.174337e+00 -3.722232e+00 -3.362854e+00 7.290266e+01 -1.667098e-01 1.725099e-01 -2.514618e-01 2.975957e-01 2.056770e-01 -8.233731e-02 8.842890e-02 -4.503553e-01 4.273022e-01 -3.805357e-01 1.636126e-02 -9.022665e-02 -1.174522e-01 2.786587e-01 -3.501118e-01 8.599881e-02 -2.604736e-01 -1.535369e-01 2.649366e-01 -4.146664e-01 3.238766e-01 -1.072098e-02 3.337464e-02 -1.082958e-01 -1.758111e-01 2.107254e-01
<VARIANCE> 39
 7.362085e+01 3.568490e+01 3.068833e+01 4.999270e+01 4.463993e+01 3.179396e+01 5.268576e+01 7.052079e+01 3.741467e+01 2.326857e+01 2.435840e+01 1.881023e+01 4.803405e+01 1.008827e+01 5.077148e+00 2.663891e+00 4.737649e+00 3.462237e+00 4.963754e+00 1.054849e+01 7.172687e+00 5.175728e+00 3.366538e+00 2.576911e+00 2.434547e+00 2.752596e+00 1.073066e+00 7.222329e-01 4.576036e-01 5.116516e-01 5.154779e-01 7.511114e-01 1.435723e+00 1.041502e+00 9.663291e-01 7.553833e-01 4.173750e-01 3.675156e-01 2.661624e-01
<GCONST> 1.327152e+02
<TRANSP> 5
 0.000000e+00 1.000000e+00 0.000000e+00 0.000000e+00 0.000000e+00
 0.000000e+00 6.580767e-01 3.419233e-01 0.000000e+00 0.000000e+00
 0.000000e+00 0.000000e+00 9.180045e-01 8.199549e-02 0.000000e+00
 0.000000e+00 0.000000e+00 0.000000e+00 9.444011e-01 5.559881e-02
 0.000000e+00 0.000000e+00 0.000000e+00 0.000000e+00 0.000000e+00
<ENDHMM>
~h "ao"
<BEGINHMM>
<NUMSTATES> 5
<STATE> 2
<MEAN> 39
 -4.339256e+00 4.574813e+00 3.827673e+00 -5.365387e+00 -3.653733e+00 6.307911e-01 -5.666858e+00 -3.618598e+00 -1.013729e+01 -4.519578e+00 -6.132208e-01 -5.756248e+00 5.809545e+01 -4.785832e+00 -3.891668e-01 2.419592e-01 -2.821938e+00 2.126582e+00 -1.014877e+00 -1.215517e-01 1.250544e+00 2.757730e+00 1.154221e+00 -5.960550e-01 9.928716e-01 1.974350e+00 -3.034300e-01 -8.603418e-01 -1.561302e-01 -5.126279e-01 -6.209937e-01 2.003081e-01 -5.290579e-01 -1.698358e-01 2.204325e-01 -2.546553e-02 4.226004e-01 2.956614e-02 9.593148e-01
<VARIANCE> 39
 1.130385e+02 7.100479e+01 4.706066e+01 6.695618e+01 7.259526e+01 8.116093e+01 5.402217e+01 3.292015e+01 4.584513e+01 2.384177e+01 1.957096e+01 1.883353e+01 8.142019e+01 2.261855e+01 3.369377e+00 4.905887e+00 5.100037e+00 1.302702e+01 9.161663e+00 4.707265e+00 3.323879e+00 5.626765e+00 3.361130e+00 3.265480e+00 2.447307e+00 6.128930e+00 2.607475e+00 7.106169e-01 5.788338e-01 9.345634e-01 1.874361e+00 1.419459e+00 6.733333e-01 6.830116e-01 8.239812e-01 5.930463e-01 4.850780e-01 3.585588e-01 5.668476e-01
<GCONST> 1.412820e+02
<STATE> 3
<MEAN> 39
 -1.675816e+01 -2.360100e+00 3.580555e+00 -1.423652e+01 -6.298237e+00 -1.309830e-01 -5.763018e+00 -3.856428e+00 -2.152125e+00 -3.447752e+00 -3.529708e-01 -1.928002e+00 6.907353e+01 1.792809e+00 -2.035419e+00 -4.883392e-01 -1.912031e-01 -2.179092e+00 2.585973e-01 -1.378592e-01 3.080055e-03 2.211960e-01 -2.289219e-01 9.765992e-02 -9.184300e-02 2.145758e+00 1.120790e+00 -3.194523e-02 -2.865399e-01 6.978157e-01 -3.053873e-02 -5.368715e-02 -1.640214e-01 3.266588e-01 -3.832089e-01 -3.859192e-02 -2.071790e-01 -3.104988e-01 -2.915705e-01
<VARIANCE> 39
 1.396879e+02 5.522907e+01 4.915749e+01 3.623658e+01 6.753483e+01 6.591051e+01 5.242247e+01 2.910595e+01 2.926678e+01 2.389313e+01 1.831955e+01 2.212139e+01 3.790433e+01 1.348378e+01 2.785104e+00 4.369348e+00 1.080550e+01 4.226817e+00 8.147952e+00 5.484011e+00 3.806592e+00 4.409455e+00 2.389889e+00 3.194246e+00 2.162893e+00 5.351980e+00 2.799860e+00 6.975122e-01 7.627000e-01 9.561863e-01 1.702121e+00 1.711304e+00 1.350767e+00 9.534046e-01 9.488431e-01 6.362412e-01 5.444247e-01 3.795979e-01 3.700252e-01
<GCONST> 1.386577e+02
<STATE> 4
<MEAN> 39
 8.303958e-01 -1.153410e+01 -3.425324e+00 -1.521520e+01 -1.187099e+01 5.492844e+00 -1.375355e+01 3.170573e+00 -3.066696e+00 -1.581779e+00 -1.669490e+00 -8.139064e+00 7.691333e+01 1.187914e+00 -7.960861e-01 -1.198742e+00 -8.856114e-01 3.426013e-01 1.640864e+00 -1.647326e+00 1.197431e+00 3.587737e-01 9.619958e-01 -5.511895e-01 -1.348300e+00 7.325884e-01 -3.741730e-01 1.641814e-01 1.377192e-01 -1.908192e-01 2.041181e-01 1.811145e-01 2.642198e-02 -2.472715e-01 -9.458576e-02 1.104492e-01 1.147617e-01 -9.352382e-02 -3.244701e-01
<VARIANCE> 39
 2.468420e+01 1.965352e+01 5.065222e+01 1.180099e+02 5.645531e+01 1.627480e+02 7.803912e+01 4.663219e+01 3.407076e+01 3.173760e+01 5.656724e+01 3.487151e+01 2.946086e+01 3.088536e+00 2.199447e+00 3.380287e+00 7.704913e+00 4.353030e+00 1.060635e+01 5.743720e+00 5.403818e+00 3.958701e+00 3.470617e+00 4.177576e+00 3.841513e+00 3.188044e+00 3.960522e-01 3.051800e-01 5.790077e-01 1.694482e+00 8.734928e-01 2.121493e+00 9.796511e-01 1.040998e+00 7.854235e-01 7.428866e-01 9.850852e-01 7.622424e-01 4.374224e-01
<GCONST> 1.376894e+02
<TRANSP> 5
 0.000000e+00 1.000000e+00 0.000000e+00 0.000000e+00 0.000000e+00
 0.000000e+00 5.810443e-01 4.189557e-01 0.000000e+00 0.000000e+00
 0.000000e+00 0.000000e+00 7.362695e-01 2.637305e-01 0.000000e+00
 0.000000e+00 0.000000e+00 0.000000e+00 8.017283e-01 1.982717e-01
 0.000000e+00 0.000000e+00 0.000000e+00 0.000000e+00 0.000000e+00
<ENDHMM>
~h "ch"
<BEGINHMM>
<NUMSTATES> 5
<STATE> 2
<MEAN> 39
 6.577964e+00 -1.352704e+01 -8.146420e+00 -2.127317e+01 -8.479575e+00 1.920222e+01 -1.637706e+01 2.972311e+00 -7.859712e+00 -1.681018e+00 2.721665e-01 -1.101916e+01 7.430952e+01 4.432829e-01 1.856230e-01 1.374607e-01 -1.780933e+00 -1.220114e+00 2.264507e+00 2.456841e-01 -6.139910e-01 -4.679473e-01 -1.027858e+00 1.380958e+00 8.858405e-01 -5.345417e-01 -1.841690e-01 4.032923e-01 1.068941e-01 5.349097e-01 -1.172857e-01 -6.299954e-01 3.536201e-01 9.312958e-02 3.688356e-01 -3.268817e-01 -2.800430e-01 4.399099e-01 -2.030309e-01
<VARIANCE> 39
 3.497515e+00 1.716252e+01 1.340251e+01 2.672990e+01 3.162997e+01 2.961589e+01 1.281448e+01 1.284597e+01 1.619094e+01 5.983176e+01 2.951519e+01 2.703136e+01 2.618122e+01 4.410182e-01 1.340053e+00 9.621445e-01 2.526564e+00 1.386893e+00 4.017448e+00 1.869258e+00 1.288373e+00 1.804703e+00 2.755529e+00 1.947933e+00 1.587198e+00 4.941553e-01 1.063257e-01 1.419208e-01 2.287812e-01 1.667181e-01 1.913672e-01 2.658574e-01 2.997324e-01 3.031415e-01 2.476190e-01 5.100424e-01 2.621175e-01 5.610756e-01 8.452987e-02
<GCONST> 9.611535e+01
<STATE> 3
<MEAN> 39
 8.775160e+00 -1.004119e+01 -7.041940e+00 -2.682704e+01 -1.573383e+01 2.427799e+01 -1.695145e+01 2.073275e+00 -4.527127e+00 -8.940538e+00 4.605762e+00 -5.229748e+00 7.173048e+01 1.627517e-01 6.963530e-01 2.691041e-01 2.426520e-01 -5.195221e-01 -5.387145e-01 -1.678449e-01 -5.524009e-01 2.537535e-01 -2.864030e-02 1.678677e-01 6.805649e-01 -5.841303e-01 -1.327458e-01 -8.656116e-02 6.435127e-02 6.069475e-01 4.228021e-01 -6.373307e-01 1.596830e-01 -3.364631e-01 -9.466549e-02 4.228262e-01 -1.805090e-01 -7.660325e-02 -3.135473e-02
<VARIANCE> 39
 3.344219e+00 1.410955e+01 1.640907e+01 3.182291e+01 6.028354e+01 2.274690e+01 2.355630e+01 1.341111e+01 1.771993e+01 2.166105e+01 1.668336e+01 1.883503e+01 2.292115e+01 4.041797e-01 1.050753e+00 4.868500e-01 2.198741e+00 1.640130e+00 2.282083e+00 2.765716e+00 1.967691e+00 1.625783e+00 2.867454e+00 1.286897e+00 8.910828e-01 7.674141e-01 7.961185e-02 1.487764e-01 1.409994e-01 3.641341e-01 3.521944e-01 6.220326e-01 5.553747e-01 3.190661e-01 2.386648e-01 2.010935e-01 1.930077e-01 2.003809e-01 8.837688e-02
<GCONST> 9.386865e+01
<STATE> 4
<MEAN> 39
 5.797905e+00 1.427503e-01 -1.101223e+01 -1.073448e+01 -2.633190e+00 1.413016e+01 -7.331200e+00 -2.694309e+00 -7.767130e+00 -7.692686e+00 4.416238e-01 -3.263537e+00 5.728545e+01 -1.335902e+00 7.699671e-01 3.839558e-01 2.531965e+00 1.055751e+00 -1.503416e+00 2.258339e+00 -9.018052e-01 -3.098971e-01 1.643969e+00 -1.137215e+00 1.401093e-01 -1.836882e+00 -3.308304e-01 -3.869289e-01 -6.485592e-02 -5.130158e-02 1.694726e-01 -1.141071e-01 1.244005e-01 2.263249e-01 3.132184e-01 -2.748817e-01 1.204487e-01 -2.456633e-02 4.901507e-02
<VARIANCE> 39
 2.076873e+01 4.722442e+01 2.814077e+01 8.245468e+01 9.647424e+01 4.222341e+01 7.969986e+01 2.285902e+01 2.987118e+01 2.856751e+01 2.411301e+01 1.886551e+01 7.859094e+01 1.832656e+00 2.673217e+00 1.682300e+00 3.097972e+00 2.634217e+00 6.896438e+00 3.162628e+00 3.546004e+00 2.677704e+00 2.783127e+00 2.239269e+00 2.011436e+00 1.663697e+00 2.606072e-01 5.097198e-01 3.562103e-01 6.962085e-01 7.971550e-01 1.037778e+00 9.681960e-01 5.251654e-01 5.298572e-01 5.277147e-01 4.244717e-01 3.235059e-01 2.851427e-01
<GCONST> 1.231543e+02
<TRANSP> 5
 0.000000e+00 1.000000e+00 0.000000e+00 0.000000e+00 0.000000e+00
 0.000000e+00 7.093848e-01 2.906153e-01 0.000000e+00 0.000000e+00
 0.000000e+00 0.000000e+00 7.663782e-01 2.336217e-01 0.000000e+00
 0.000000e+00 0.000000e+00 0.000000e+00 6.644383e-01 3.355617e-01
 0.000000e+00 0.000000e+00 0.000000e+00 0.000000e+00 0.000000e+00
<ENDHMM>
~h "er"
<BEGINHMM>
<NUMSTATES> 5
<STATE> 2
<MEAN> 39
 1.065329e+00 -8.755325e+00 -4.105016e+00 -2.655831e+01 -1.374359e+01 1.225002e+01 -9.546294e+00 -3.506966e+00 -3.210809e-01 -3.815546e+00 -2.862101e+00 -6.478356e+00 8.023624e+01 -1.939451e-01 -7.918557e-01 -4.421070e-01 -7.513900e-01 2.988610e-01 1.066375e+00 2.516264e-01 -3.535598e-01 -5.821701e-01 2.505363e-01 5.106660e-01 2.786423e-01 6.128485e-01 -2.145642e-02 -8.315429e-03 -7.389575e-02 3.945999e-01 4.685505e-02 -1.767267e-01 -3.230274e-02 2.428914e-01 -1.318146e-01 6.086276e-02 1.324924e-01 -4.056028e-02 -2.514262e-01
<VARIANCE> 39
 6.004825e+01 3.761744e+01 8.034144e+01 5.087939e+01 7.399917e+01 4.645736e+01 8.983353e+01 3.475853e+01 2.255550e+01 3.273041e+01 2.390656e+01 4.631787e+01 8.761908e+01 6.978533e-01 1.892509e+00 1.522185e+00 2.202951e+00 1.728146e+00 3.547912e+00 2.392070e+00 3.032866e+00 1.399655e+00 1.727115e+00 1.173159e+00 1.476892e+00 1.613226e+00 2.642325e-01 1.699345e-01 3.683182e-01 4.199741e-01 4.708077e-01 7.040121e-01 6.820206e-01 4.112013e-01 3.372173e-01 3.111443e-01 2.642211e-01 4.517897e-01 1.294691e-01
<GCONST> 1.154156e+02
<STATE> 3
<MEAN> 39
 2.102723e+00 -1.437654e+01 3.448777e+00 -1.679831e+01 -1.850722e+01 5.007607e+00 -2.144197e+01 6.654579e+00 -4.173965e+00 8.967317e-01 1.866520e+00 -9.325150e+00 7.836141e+01 -3.740613e-01 -6.415055e-01 -6.111513e-01 4.575865e-01 3.109207e-01 -1.576518e-01 1.855931e-02 5.554597e-01 3.562721e-01 2.605231e-01 -4.971607e-01 -8.422017e-01 5.581374e-01 1.900505e-02 9.381271e-02 -1.436319e-02 9.455591e-03 -1.938977e-02 7.931941e-02 1.481211e-01 -7.698835e-02 -1.590373e-02 -1.546958e-01 -9.203614e-02 6.801567e-02 -6.916672e-02
<VARIANCE> 39
 1.860608e+01 1.614046e+01 6.490416e+01 7.330663e+01 3.740711e+01 9.971642e+01 4.532832e+01 9.378603e+01 6.930112e+01 4.723973e+01 7.480579e+01 4.311036e+01 1.918704e+01 7.736002e-01 1.678026e+00 5.205030e+00 4.828067e+00 3.229293e+00 6.486380e+00 4.816551e+00 9.067622e+00 4.709398e+00 4.352983e+00 2.981944e+00 6.021304e+00 1.335382e+00 6.744179e-02 1.959802e-01 5.187585e-01 4.413263e-01 3.946216e-01 7.916045e-01 6.364966e-01 1.292204e+00 6.600909e-01 6.245152e-01 4.988515e-01 1.083403e+00 1.120556e-01
<GCONST> 1.272068e+02
<STATE> 4
<MEAN> 39
 3.472530e+00 -2.130351e+01 -8.213480e+00 -1.852753e+01 -1.073335e+01 1.706337e+01 -1.677352e+01 7.338681e+00 -5.815035e+00 -3.505833e+00 -2.717690e+00 -1.292890e+01 7.935148e+01 1.431518e-01 -1.370155e-01 -3.771905e-01 3.956523e-01 1.269081e-01 -8.923301e-02 -8.611115e-02 3.337944e-01 -3.691553e-01 -2.382644e-01 4.994935e-01 -8.765858e-02 -8.322405e-02 -4.923268e-02 8.145968e-02 2.139443e-02 6.713062e-02 3.184688e-02 -2.787578e-01 2.160125e-02 3.600309e-02 9.777039e-02 -1.479015e-02 -3.938396e-04 4.470874e-02 1.729396e-02
<VARIANCE> 39
 1.530674e+01 2.258235e+01 2.705571e+01 4.259250e+01 1.870078e+01 1.099146e+02 4.921792e+01 6.904973e+01 3.498400e+01 1.637807e+01 5.812098e+01 2.026938e+01 1.828369e+01 6.221568e-01 1.080692e+00 9.859530e-01 1.063364e+00 1.382275e+00 5.513957e+00 3.084169e+00 2.882715e+00 1.453660e+00 1.015499e+00 9.932628e-01 1.136704e+00 9.232965e-01 1.174107e-01 1.953736e-01 2.016180e-01 1.283116e-01 2.514701e-01 4.669861e-01 4.733234e-01 4.291353e-01 2.190963e-01 1.834832e-01 1.676773e-01 1.926840e-01 1.251943e-01
<GCONST> 1.010678e+02
<TRANSP> 5
 0.000000e+00 1.000000e+00 0.000000e+00 0.000000e+00 0.000000e+00
 0.000000e+00 8.385266e-01 1.614734e-01 0.000000e+00 0.000000e+00
 0.000000e+00 0.000000e+00 8.780722e-01 1.219278e-01 0.000000e+00
 0.000000e+00 0.000000e+00 0.000000e+00 9.464616e-01 5.353845e-02
 0.000000e+00 0.000000e+00 0.000000e+00 0.000000e+00 0.000000e+00
<ENDHMM>
~h "iu"
<BEGINHMM>
<NUMSTATES> 5
<STATE> 2
<MEAN> 39
 6.588228e-01 -2.678316e+00 9.633623e+00 -5.296128e+00 -2.189746e+01 4.147490e+00 -1.557334e+01 1.293109e+00 -9.730031e+00 -1.183530e+01 8.252506e+00 -7.704738e+00 6.933798e+01 -1.100177e+00 -5.936791e-01 -2.855110e-01 -2.350302e-01 -1.479654e+00 1.426191e-01 -7.865701e-01 1.293101e+00 1.537479e+00 3.865153e-01 8.610345e-01 -1.720809e+00 1.638010e+00 2.904012e-01 2.110170e-02 -7.782023e-01 -1.675541e-02 6.251644e-01 1.524554e-01 -3.266731e-01 -3.205929e-01 4.232098e-01 2.528543e-01 -1.130145e-01 -2.510172e-01 -9.251277e-02
<VARIANCE> 39
 3.184068e+01 1.948369e+01 4.884581e+01 4.610555e+01 1.000497e+02 6.643600e+01 4.007980e+01 5.328197e+01 4.776243e+01 2.094466e+01 3.821516e+01 3.679626e+01 3.784235e+01 4.341099e+00 1.842255e+00 1.588716e+01 8.220880e+00 1.870865e+01 1.203407e+01 8.489565e+00 4.744181e+00 5.774780e+00 2.791061e+00 5.029723e+00 3.022106e+00 1.413317e+00 7.876164e-01 4.494859e-01 1.945540e+00 2.107150e+00 3.564512e+00 3.387375e+00 1.588671e+00 1.300528e+00 8.609145e-01 4.816272e-01 1.127699e+00 6.079459e-01 4.477551e-01
<GCONST> 1.435246e+02
<STATE> 3
<MEAN> 39
 3.424940e+00 -3.106515e+00 -6.924047e+00 -1.134136e+01 -1.411456e+01 1.241913e+01 -2.574774e+01 -2.213508e-01 -9.440839e-01 -1.053020e+01 1.745502e+01 -1.752366e+01 7.294340e+01 4.869836e-01 -1.941895e-01 2.329463e-01 -4.526744e-01 9.832157e-01 5.005902e-01 -6.056716e-01 -6.530480e-01 -4.117570e-01 1.513233e-01 -7.927467e-02 3.101435e-02 -4.192042e-01 -3.057777e-02 -1.384347e-01 7.374123e-01 4.150868e-01 -3.760063e-01 -4.870862e-01 5.134662e-01 -3.742218e-02 -3.044722e-01 -3.719877e-02 -6.213267e-01 3.799598e-01 -1.749876e-01
<VARIANCE> 39
 6.507039e+00 9.504884e+00 1.823052e+01 2.653429e+01 2.138714e+01 3.024654e+01 3.835667e+01 2.713712e+01 2.652754e+01 3.500613e+01 4.920006e+01 1.803843e+01 1.036109e+01 5.120113e-01 1.477272e+00 7.298554e+00 4.505098e+00 2.873704e+00 7.362179e+00 4.923043e+00 3.855052e+00 2.475516e+00 5.024385e+00 1.170100e+01 2.175397e+00 8.657130e-01 1.082691e-01 1.608862e-01 2.337307e-01 3.995724e-01 7.406094e-01 6.220052e-01 1.449605e+00 8.029386e-01 8.053703e-01 1.105023e+00 1.162645e+00 5.526075e-01 1.197978e-01
<GCONST> 1.164606e+02
<STATE> 4
<MEAN> 39
 7.289273e+00 -8.428114e+00 8.137813e+00 -2.252494e+00 -1.305388e+01 2.004194e+00 -2.121541e+01 -6.999865e+00 -5.373411e+00 -6.587997e+00 -3.129578e+00 -1.008123e+01 6.609398e+01 -2.734725e-01 -3.013524e-01 6.006634e-01 1.569370e-01 8.522236e-02 -2.354828e+00 1.442719e+00 4.319727e-01 3.127143e-01 1.955934e-01 -3.323308e+00 1.357016e+00 1.395517e-01 -6.528540e-01 5.474136e-02 -1.263588e+00 -1.278371e+00 4.035799e-01 3.487006e-01 -6.925628e-01 1.572538e+00 7.890759e-01 -2.602516e-01 8.583055e-01 -4.863299e-01 9.756029e-01
<VARIANCE> 39
 3.037328e+00 5.697857e+00 6.794129e+00 2.001225e+01 1.474675e+01 1.784693e+01 1.606964e+01 1.676678e+01 1.008226e+01 1.726192e+01 2.710142e+01 1.687086e+01 6.954568e+00 2.398205e+00 7.544051e-01 5.217231e+00 8.251637e+00 3.443443e+00 1.541107e+00 5.262555e+00 1.002284e+01 3.365957e+00 1.514300e+00 4.095908e+00 2.299499e+00 4.128337e+00 1.916018e-01 2.418276e-01 2.504421e-01 6.051493e-01 4.667111e-01 4.170809e-01 8.576236e-01 8.395591e-01 4.615506e-01 3.647064e-01 3.335761e-01 3.520455e-01 3.179541e-01
<GCONST> 1.071195e+02
<TRANSP> 5
 0.000000e+00 1.000000e+00 0.000000e+00 0.000000e+00 0.000000e+00
 0.000000e+00 8.525696e-01 1.474304e-01 0.000000e+00 0.000000e+00
 0.000000e+00 0.000000e+00 8.910272e-01 1.089727e-01 0.000000e+00
 0.000000e+00 0.000000e+00 0.000000e+00 7.544823e-01 2.455177e-01
 0.000000e+00 0.000000e+00 0.000000e+00 0.000000e+00 0.000000e+00
<ENDHMM>
~h "sh"
<BEGINHMM>
<NUMSTATES> 5
<STATE> 2
<MEAN> 39
 -2.204826e+00 -9.085379e+00 -2.928163e+00 1.636121e+00 -1.192373e+01 -9.490745e+00 2.950159e-01 5.892341e+00 -1.018945e+01 -9.733217e+00 -2.878548e+00 -1.544826e+00 5.601210e+01 -1.995319e+00 -1.358886e+00 2.851318e+00 1.595118e-01 -2.183618e-01 -2.415522e+00 6.344019e-01 7.624043e-01 4.296707e-01 2.801589e-01 9.981474e-01 -7.929012e-01 2.517843e+00 -1.193334e+00 -2.004223e-01 1.777075e-01 1.617717e-01 2.919317e-01 -1.985625e-01 2.278757e-01 1.120649e-01 5.320920e-01 2.773168e-02 -2.895431e-02 -2.181281e-01 3.294589e-01
<VARIANCE> 39
 5.738605e+01 4.069571e+01 4.222999e+01 2.984587e+01 2.250152e+01 4.029707e+01 4.687471e+01 5.204478e+01 2.552579e+01 2.911366e+01 1.991521e+01 2.338058e+01 6.624937e+01 7.774356e+00 5.532343e+00 3.370466e+00 2.354455e+00 2.483325e+00 3.547657e+00 2.879984e+00 3.287032e+00 2.963646e+00 4.209311e+00 1.728749e+00 2.375737e+00 3.373806e+00 8.322948e-01 1.071244e+00 7.553422e-01 4.351955e-01 5.471743e-01 8.632352e-01 5.515115e-01 7.024267e-01 4.560491e-01 8.088253e-01 3.479127e-01 5.991001e-01 5.994563e-01
<GCONST> 1.275356e+02
<STATE> 3
<MEAN> 39
 -2.333509e+01 -1.324328e+01 6.023682e+00 7.540954e+00 -7.239430e+00 -1.846450e+01 2.075076e+00 8.259660e+00 -2.827638e+00 -8.102201e+00 1.596222e+00 -4.503616e+00 6.679784e+01 -2.282079e+00 -3.346383e-01 -7.431743e-02 9.938522e-01 1.069848e+00 -4.108834e-01 -3.440900e-01 -8.425483e-02 9.692316e-01 2.759342e-01 4.171050e-01 6.439836e-02 8.969213e-01 8.341389e-01 5.437754e-02 -5.514879e-01 -3.093049e-01 -1.048352e-01 3.434322e-01 -2.210903e-01 -1.242139e-01 -1.640553e-01 -3.405732e-03 -1.596795e-01 9.618660e-02 -2.817434e-01
<VARIANCE> 39
 4.841424e+01 2.070104e+01 1.416554e+01 2.650635e+01 2.377018e+01 1.208469e+01 2.335403e+01 2.252115e+01 2.395704e+01 1.796063e+01 1.415579e+01 1.153930e+01 1.795081e+01 4.848140e+00 1.322810e+00 2.112938e+00 2.398041e+00 1.545556e+00 1.792244e+00 1.794932e+00 2.066581e+00 2.420460e+00 1.773881e+00 1.441348e+00 1.627002e+00 1.723522e+00 4.221427e-01 3.398628e-01 3.243142e-01 6.620989e-01 3.546053e-01 3.393141e-01 3.952011e-01 3.803144e-01 4.444942e-01 4.155477e-01 2.492784e-01 3.773749e-01 3.345057e-01
<GCONST> 1.065131e+02
<STATE> 4
<MEAN> 39
 -1.615233e+01 -1.447773e+01 -2.229146e+00 2.644364e+00 -4.930821e+00 -1.475444e+01 -3.358573e+00 5.692281e+00 -6.020266e-01 -5.809319e+00 9.389926e-01 -5.613199e+00 6.934602e+01 6.085254e+00 4.645576e-01 -2.069967e+00 -3.868249e+00 -7.406692e-01 3.591991e+00 -1.781855e+00 -1.565518e+00 -3.615589e-01 1.314788e+00 -5.513093e-01 -1.405371e+00 4.210732e-01 7.613633e-01 -9.223074e-04 1.404501e-01 -8.272292e-01 -3.683433e-01 1.347020e+00 -2.650670e-01 -3.929392e-01 -1.335820e-01 3.630328e-01 1.318770e-01 -2.952277e-01 1.430744e-01
<VARIANCE> 39
 1.493200e+02 2.079834e+01 2.670434e+01 5.096542e+01 2.008144e+01 4.719350e+01 2.622819e+01 2.498873e+01 2.445387e+01 2.461764e+01 1.701840e+01 1.742952e+01 1.549549e+01 8.167634e+00 2.465973e+00 1.732794e+00 3.466710e+00 1.940743e+00 9.630066e+00 2.491225e+00 3.389842e+00 2.426549e+00 3.060059e+00 1.694001e+00 1.934826e+00 1.508810e+00 2.896932e+00 7.205249e-01 4.854216e-01 5.153467e-01 3.994214e-01 7.324824e-01 4.510048e-01 5.896133e-01 5.394853e-01 5.356604e-01 4.723954e-01 4.094899e-01 3.616005e-01
<GCONST> 1.214625e+02
<TRANSP> 5
 0.000000e+00 1.000000e+00 0.000000e+00 0.000000e+00 0.000000e+00
 0.000000e+00 7.614375e-01 2.385625e-01 0.000000e+00 0.000000e+00
 0.000000e+00 0.000000e+00 8.659396e-01 1.340605e-01 0.000000e+00
 0.000000e+00 0.000000e+00 0.000000e+00 7.907077e-01 2.092923e-01
 0.000000e+00 0.000000e+00 0.000000e+00 0.000000e+00 0.000000e+00
<ENDHMM>
~h "si"
<BEGINHMM>
<NUMSTATES> 5
<STATE> 2
<MEAN> 39
 8.202201e+00 -7.647062e+00 1.800486e+00 -2.842970e+01 -1.996302e+01 1.827133e+01 -1.811514e+01 5.911349e-01 -3.157715e+00 -3.958987e+00 -8.761945e-01 -2.670902e+00 7.250838e+01 1.595782e-01 -1.783180e+00 7.494796e-02 -6.611666e-01 -5.650219e-02 4.855940e-01 -9.859053e-01 7.902413e-02 -2.375302e-01 1.393499e+00 -5.751340e-03 -5.408280e-01 1.942071e+00 -4.519947e-01 6.917114e-02 -2.591441e-01 6.584975e-01 3.745674e-01 -4.979801e-01 2.385220e-01 1.769484e-01 -8.260692e-02 2.740451e-01 9.424410e-03 -2.208630e-01 -4.424364e-01
<VARIANCE> 39
 1.233175e+01 4.418242e+01 2.648100e+01 1.341079e+02 2.883211e+01 6.878273e+01 1.597600e+01 2.536139e+01 4.166685e+01 4.108661e+01 3.853839e+01 2.853133e+01 4.147243e+01 3.190051e+00 3.177755e+00 2.353576e+00 1.058897e+01 3.498265e+00 4.576151e+00 3.087934e+00 2.112108e+00 2.969566e+00 2.751678e+00 1.730149e+00 2.375103e+00 5.650870e+00 6.557329e-01 5.142773e-01 4.800835e-01 1.196982e+00 6.371096e-01 5.954785e-01 6.537214e-01 6.489042e-01 6.993021e-01 5.013032e-01 3.630098e-01 4.366082e-01 2.564295e-01
<GCONST> 1.256297e+02
<STATE> 3
<MEAN> 39
 3.493023e+00 -1.731058e+01 2.782294e-01 -1.580939e+01 -1.593295e+01 7.876126e+00 -2.057775e+01 6.555874e+00 -1.630240e+00 3.792016e+00 -7.503510e+00 -8.784735e+00 7.785348e+01 -3.239768e-01 -6.624259e-01 -4.484456e-01 -1.997244e-01 6.324168e-01 -2.756016e-01 2.942248e-01 9.315596e-01 -3.393497e-01 -2.101045e-01 -4.296867e-01 -1.369015e-01 7.566155e-01 -2.426722e-01 2.941669e-01 -1.134874e-01 8.986321e-02 1.715955e-01 -3.099777e-02 3.531106e-01 -4.955953e-02 -5.063098e-02 -2.988296e-01 1.617400e-01 7.709786e-02 -2.633198e-01
<VARIANCE> 39
 1.343610e+01 1.867854e+01 4.120723e+01 7.466807e+01 4.168396e+01 7.041074e+01 3.008868e+01 1.048724e+02 4.599479e+01 5.022959e+01 5.217351e+01 3.912683e+01 2.376600e+01 1.038482e+00 3.689802e+00 2.489837e+00 8.355662e+00 2.600849e+00 6.350092e+00 4.850431e+00 1.015648e+01 3.915943e+00 4.694482e+00 2.294672e+00 4.267318e+00 3.573638e+00 5.057616e-01 3.841839e-01 6.246538e-01 7.670325e-01 5.253515e-01 8.336546e-01 8.376267e-01 1.790610e+00 8.204960e-01 8.857172e-01 4.469514e-01 9.171169e-01 3.082089e-01
<GCONST> 1.321746e+02
<STATE> 4
<MEAN> 39
 -9.073136e+00 -5.731410e+00 -4.737566e+00 -6.906166e+00 -6.966974e+00 -2.386800e+00 -5.094952e+00 1.674314e+00 -2.662978e+00 -5.253548e+00 -4.145957e+00 -4.842793e+00 7.431261e+01 -1.967261e-01 5.755696e-01 5.161953e-02 8.962981e-02 3.201943e-01 -4.611946e-01 -2.056234e-01 -7.576429e-01 1.785123e-01 -3.071225e-02 3.636210e-01 -4.090208e-02 -1.966198e-01 1.264404e-01 -8.469055e-02 7.978286e-02 -1.361195e-01 -7.029137e-02 9.862643e-02 -2.959448e-01 7.696287e-02 -1.544757e-02 6.226397e-02 1.130430e-02 -6.280693e-02 4.317418e-02
<VARIANCE> 39
 8.244257e+01 9.195742e+01 2.896970e+01 5.627487e+01 6.690108e+01 4.235298e+01 6.595799e+01 1.241473e+02 2.978367e+01 2.419061e+01 2.275573e+01 1.792407e+01 4.064086e+01 5.395249e+00 2.998553e+00 2.226403e+00 3.224443e+00 2.404026e+00 2.836674e+00 7.928726e+00 4.620445e+00 2.803646e+00 2.319057e+00 1.686914e+00 1.875026e+00 1.605563e+00 6.673785e-01 4.873546e-01 3.251299e-01 3.633687e-01 4.595789e-01 4.094141e-01 8.723539e-01 7.643568e-01 4.714629e-01 3.694017e-01 3.078092e-01 2.960855e-01 2.676762e-01
<GCONST> 1.242392e+02
<TRANSP> 5
 0.000000e+00 1.000000e+00 0.000000e+00 0.000000e+00 0.000000e+00
 0.000000e+00 7.938462e-01 2.061538e-01 0.000000e+00 0.000000e+00
 0.000000e+00 0.000000e+00 8.541598e-01 1.458402e-01 0.000000e+00
 0.000000e+00 0.000000e+00 0.000000e+00 9.300653e-01 6.993474e-02
 0.000000e+00 0.000000e+00 0.000000e+00 0.000000e+00 0.000000e+00
<ENDHMM>
~h "sp"
<BEGINHMM>
<NUMSTATES> 3
<STATE> 2
~s "silst"
<TRANSP> 3
 0.000000e+00 8.645257e-02 9.135474e-01
 0.000000e+00 7.892138e-01 2.107862e-01
 0.000000e+00 0.000000e+00 0.000000e+00
<ENDHMM>
~h "un"
<BEGINHMM>
<NUMSTATES> 5
<STATE> 2
<MEAN> 39
 -1.669724e-01 -6.783754e+00 -9.793248e+00 -1.178870e+01 -3.215766e+00 7.481165e-01 -6.651771e+00 -6.643771e+00 -3.290340e+00 -2.268837e+00 2.197520e+00 2.721723e-01 6.049472e+01 -1.957677e+00 -4.498556e-01 -6.418071e-01 5.448063e-01 2.224499e+00 -2.597388e+00 1.188688e+00 -3.953656e-01 6.092183e-01 4.505460e-01 -6.138209e-01 2.594858e-01 5.640651e-02 -1.105654e-01 2.010820e-03 2.846919e-01 -1.843197e-01 -1.989745e-01 1.806341e-01 -1.581945e-01 4.154421e-03 1.375226e-01 -1.219123e-01 -8.869882e-02 -2.336992e-01 5.464032e-01
<VARIANCE> 39
 4.418503e+01 5.647441e+01 3.845855e+01 4.005462e+01 7.605276e+01 8.057159e+01 4.315326e+01 3.451202e+01 2.696209e+01 2.280545e+01 2.681099e+01 2.547490e+01 1.198619e+02 1.669784e+00 8.850965e+00 3.843763e+00 7.512324e+00 1.055436e+01 1.439576e+01 6.232335e+00 5.478739e+00 3.765344e+00 2.497203e+00 3.220012e+00 2.689799e+00 2.308998e+01 4.092523e-01 1.946035e+00 9.372092e-01 1.482613e+00 2.685008e+00 2.986181e+00 1.106499e+00 1.205987e+00 7.444136e-01 5.631209e-01 6.669378e-01 5.659302e-01 3.036762e+00
<GCONST> 1.444882e+02
<STATE> 3
<MEAN> 39
 -6.843215e+00 -8.841429e+00 -5.281537e+00 -6.465483e+00 1.876080e+00 -1.137531e+01 -4.382350e+00 -1.052115e+01 1.652689e+00 -4.269304e+00 -2.349306e+00 -6.093130e+00 7.619900e+01 1.833664e+00 7.468520e-01 8.284668e-01 9.761193e-01 -1.462722e+00 1.458548e+00 -9.589590e-01 6.809173e-01 2.338921e-01 -9.409251e-01 -9.261712e-03 -9.797413e-01 1.967254e-01 3.593373e-01 -7.405789e-02 -2.044560e-01 -1.939691e-01 -4.525942e-01 7.690108e-01 -5.564966e-01 6.689633e-01 1.180597e-02 -1.737129e-01 1.927851e-01 7.277468e-02 -6.144838e-01
<VARIANCE> 39
 5.503413e+01 1.366320e+01 1.398392e+01 1.937617e+01 3.695929e+01 3.986407e+01 1.910594e+01 2.540942e+01 2.411226e+01 2.644136e+01 1.588492e+01 1.479311e+01 4.966138e+01 3.288251e+00 2.426013e+00 3.944201e+00 4.155406e+00 3.001308e+00 5.959061e+00 4.096387e+00 6.064952e+00 3.373945e+00 2.636769e+00 2.326801e+00 2.482389e+00 6.055895e+00 1.050847e+00 6.797897e-01 7.524006e-01 6.587241e-01 1.132621e+00 8.795944e-01 5.575591e-01 5.397391e-01 8.090089e-01 7.219000e-01 5.475156e-01 4.708708e-01 1.063119e+00
<GCONST> 1.258398e+02
<STATE> 4
<MEAN> 39
 1.616324e+00 -8.979233e+00 4.025680e+00 -5.606787e+00 -1.648874e+01 4.523373e+00 -1.618679e+01 3.075365e+00 2.792407e+00 -1.499778e+01 4.500584e+00 -1.058686e+01 7.372969e+01 1.170962e-01 1.086991e-01 1.369368e+00 -4.392989e-03 -1.638989e+00 1.014595e+00 -9.327142e-01 4.154477e-01 -4.674276e-01 -8.171426e-01 9.185323e-01 -3.200764e-01 -1.883226e-01 -9.332366e-02 6.439683e-02 -1.804338e-01 1.128043e-01 4.474206e-01 -5.137141e-01 3.905413e-01 -5.849710e-01 -3.366507e-01 2.594897e-01 -1.866663e-01 2.418857e-01 -5.818348e-03
<VARIANCE> 39
 1.242644e+01 1.172223e+01 5.558333e+01 1.189750e+01 8.795828e+01 1.296998e+01 2.295288e+01 4.087010e+01 3.939911e+01 3.362305e+01 4.933252e+01 1.459332e+01 1.509342e+01 1.839076e+00 2.063496e+00 3.541786e+00 2.140145e+00 1.080834e+01 3.184558e+00 7.958492e+00 1.117025e+01 5.256034e+00 6.338915e+00 5.652589e+00 2.559200e+00 2.661189e+00 6.058061e-01 3.313617e-01 7.254667e-01 5.831846e-01 1.266646e+00 3.933031e-01 7.787564e-01 7.920063e-01 6.468199e-01 8.158164e-01 1.147220e+00 3.782005e-01 4.809701e-01
<GCONST> 1.262082e+02
<TRANSP> 5
