~o
<STREAMINFO> 1 39
<VECSIZE> 39<NULLD><MFCC_D_A_0><DIAGC>
~h "a"
<BEGINHMM>
<NUMSTATES> 5
<STATE> 2
<MEAN> 39
 3.894495e-01 -1.345138e+01 -1.277261e+01 -1.432548e+01 -1.110393e+00 1.622334e+01 -1.464404e+01 -2.983789e+00 2.155177e+00 -5.139099e+00 -2.161228e+00 -5.207688e+00 6.884776e+01 8.214197e-01 4.871035e-01 -3.146812e-01 1.892480e-02 -5.160341e-01 1.304865e+00 -6.372490e-01 1.949827e-01 -4.146953e-01 -1.103179e+00 6.969397e-01 -3.147376e-01 1.872358e-01 -1.347926e-01 1.893682e-02 -1.072843e-02 3.944546e-02 -7.703372e-02 -2.513416e-01 1.608482e-01 1.007606e-01 7.852124e-03 -2.567168e-01 1.191850e-01 -4.026606e-02 -9.798099e-03
<VARIANCE> 39
 4.377684e+01 3.352908e+01 2.266053e+01 4.134727e+01 5.780390e+01 9.290115e+01 6.312532e+01 3.078636e+01 2.701696e+01 4.199053e+01 3.247996e+01 2.974336e+01 6.000976e+01 4.806848e+00 3.292300e+00 1.522967e+00 3.147638e+00 4.866211e+00 9.062386e+00 6.021302e+00 3.089551e+00 2.093333e+00 4.154067e+00 2.832122e+00 2.974854e+00 5.059302e+00 7.212298e-01 6.352480e-01 3.222628e-01 6.921349e-01 6.995530e-01 1.277629e+00 9.209913e-01 6.141096e-01 4.021761e-01 5.888978e-01 4.304821e-01 4.773346e-01 1.017407e+00
<GCONST> 1.309592e+02
<STATE> 3
<MEAN> 39
 4.018108e+00 -1.157084e+01 -1.459205e+01 -1.392767e+01 -2.771793e+00 2.267625e+01 -1.748560e+01 -2.440624e+00 -9.679794e-04 -1.249757e+01 2.638044e+00 -6.725471e+00 7.148985e+01 5.445751e-01 2.359033e-01 -2.816066e-01 -3.467616e-01 -7.320830e-01 8.804445e-01 -2.843216e-01 2.987670e-01 -2.153749e-01 -1.833837e+00 1.218621e+00 -4.923182e-01 2.754400e-01 -2.028033e-01 7.192823e-02 2.440641e-02 5.367491e-02 2.328337e-01 -4.662986e-01 3.399084e-01 -6.134436e-02 8.723316e-02 1.435161e-01 -1.015617e-01 1.684469e-01 -2.348724e-01
<VARIANCE> 39
 1.907951e+01 2.321662e+01 1.246153e+01 2.907084e+01 2.794649e+01 4.106984e+01 4.542154e+01 3.187886e+01 2.151445e+01 6.945306e+01 4.444840e+01 2.056022e+01 3.481636e+01 1.871872e+00 1.732898e+00 1.012785e+00 1.565903e+00 2.815129e+00 3.309217e+00 3.396287e+00 1.926929e+00 1.660789e+00 3.068025e+00 2.710335e+00 2.217194e+00 1.531028e+00 3.316092e-01 3.764133e-01 2.168935e-01 3.438438e-01 5.087112e-01 4.010691e-01 4.975575e-01 3.645363e-01 3.026460e-01 5.441222e-01 4.720256e-01 3.834305e-01 3.011889e-01
<GCONST> 1.125730e+02
<STATE> 4
<MEAN> 39
 6.518024e+00 -7.344392e+00 -1.653825e+01 -1.345449e+01 -2.947209e+00 2.010486e+01 -1.361230e+01 -1.014552e+00 -3.064510e+00 -1.701348e+01 5.601250e+00 -7.382791e+00 6.796716e+01 2.419335e-01 6.270922e-01 -2.071048e-01 2.151727e-01 2.205188e-01 -7.594810e-01 8.259361e-01 1.908898e-01 -6.225985e-01 2.147326e-01 -1.848042e-01 -2.991339e-02 -7.638593e-01 -4.224000e-02 4.116978e-02 4.996089e-02 9.324621e-02 6.172875e-02 -1.436217e-01 1.062433e-01 1.728132e-02 -5.313450e-02 2.580751e-01 -1.941048e-01 2.586436e-02 -1.144401e-01
<VARIANCE> 39
 1.682821e+01 3.651293e+01 1.112052e+01 2.132214e+01 1.402813e+01 3.998549e+01 5.050254e+01 3.260312e+01 4.981183e+01 6.086768e+01 3.945987e+01 1.605427e+01 5.207089e+01 8.306735e-01 1.341005e+00 7.653991e-01 1.184858e+00 1.090974e+00 2.030975e+00 2.362358e+00 1.663688e+00 2.153642e+00 3.325596e+00 2.562327e+00 1.462292e+00 1.054022e+00 1.564935e-01 2.599331e-01 1.502746e-01 2.057571e-01 2.080331e-01 3.123211e-01 3.647788e-01 3.157037e-01 3.268140e-01 3.442027e-01 3.673576e-01 2.834510e-01 1.683818e-01
<GCONST> 1.034379e+02
<TRANSP> 5
 0.000000e+00 1.000000e+00 0.000000e+00 0.000000e+00 0.000000e+00
 0.000000e+00 7.685264e-01 2.314736e-01 0.000000e+00 0.000000e+00
 0.000000e+00 0.000000e+00 6.552529e-01 3.447470e-01 0.000000e+00
 0.000000e+00 0.000000e+00 0.000000e+00 9.052223e-01 9.477765e-02
 0.000000e+00 0.000000e+00 0.000000e+00 0.000000e+00 0.000000e+00
<ENDHMM>
~h "b"
<BEGINHMM>
<NUMSTATES> 5
<STATE> 2
<MEAN> 39
 -2.964200e+00 -4.898981e+00 -7.488132e+00 -1.463644e+01 -9.268097e+00 7.157024e+00 -4.843741e+00 -2.683536e+00 -2.652283e+00 -1.996372e+00 -3.489171e+00 -4.911118e+00 6.553257e+01 -1.899241e-01 5.272518e-02 -2.480089e-01 -2.922305e-01 6.919310e-02 2.150643e-01 3.716590e-01 -1.939723e-01 5.288100e-02 4.497003e-01 9.766768e-02 5.136793e-01 -2.623323e-01 2.313127e-01 -1.188027e-01 1.581138e-01 -1.879488e-01 -1.318745e-01 -1.488376e-01 -3.609746e-01 1.568637e-01 1.335160e-01 -4.183333e-02 -4.842150e-02 -4.052699e-02 2.785657e-01
<VARIANCE> 39
 3.524892e+01 1.014988e+02 4.251194e+01 1.499058e+02 1.740945e+01 6.640749e+01 4.866505e+01 2.539348e+01 2.463833e+01 1.193131e+01 1.872274e+01 2.351075e+01 4.013318e+02 3.148969e+00 1.976161e+00 2.872063e+00 3.355306e+00 2.355403e+00 2.861976e+00 3.136649e+00 1.697923e+00 3.804220e+00 2.855145e+00 1.957891e+00 1.860100e+00 3.050298e+00 3.194112e-01 4.521464e-01 3.874628e-01 5.832723e-01 3.395230e-01 6.674357e-01 3.543735e-01 4.503002e-01 6.042642e-01 3.081686e-01 4.681176e-01 3.302858e-01 4.301606e-01
<GCONST> 1.218914e+02
<STATE> 3
<MEAN> 39
 -1.677769e+00 -3.832741e+00 -5.799320e+00 -1.379284e+01 -1.054126e+01 6.842505e+00 -7.181012e+00 -1.955343e+00 -2.248625e+00 -1.556854e+00 -3.340451e+00 -3.311012e+00 6.172441e+01 6.860739e-01 -3.205724e-01 5.388353e-01 -8.000638e-01 -1.540026e-01 -1.290768e-01 -8.104557e-01 -1.993806e-01 5.470727e-01 4.096102e-01 -2.592420e-01 2.460093e-01 6.792457e-01 3.484102e-01 -3.267978e-01 3.180143e-01 -1.938946e-01 -1.041673e-01 -1.143150e-01 -3.308314e-01 3.779285e-02 7.113456e-02 -1.588157e-01 -1.007940e-01 -9.220048e-02 5.300918e-01
<VARIANCE> 39
 5.126937e+01 1.076227e+02 8.531580e+01 1.910037e+02 2.564584e+01 7.202143e+01 6.150626e+01 2.358410e+01 2.242484e+01 2.378700e+01 3.515773e+01 1.951739e+01 3.367492e+02 3.808800e+00 3.563864e+00 3.976895e+00 6.391860e+00 2.455269e+00 4.536398e+00 4.392627e+00 1.482935e+00 3.165146e+00 3.964456e+00 3.237926e+00 2.144533e+00 6.537116e+00 7.743962e-01 7.699490e-01 9.467234e-01 1.164419e+00 4.966188e-01 6.821799e-01 6.120621e-01 3.853037e-01 4.576240e-01 3.859347e-01 4.589521e-01 3.809441e-01 1.309732e+00
<GCONST> 1.337408e+02
<STATE> 4
<MEAN> 39
 6.294146e-01 -1.331550e+01 -1.819552e+00 -1.275366e+01 -1.443390e+01 4.052682e+00 -1.053854e+01 5.248008e+00 1.175919e+00 -3.888530e+00 -6.146571e+00 -6.491290e+00 7.062080e+01 8.003092e-02 -5.080100e-01 -2.327422e-01 -3.817800e-01 1.485386e-01 2.811287e-01 5.250592e-03 -1.335695e-01 3.031678e-02 -5.182303e-03 7.615994e-02 -2.183767e-01 8.116196e-01 -3.332508e-02 -3.325276e-02 -7.218391e-02 -3.524261e-02 2.924721e-02 1.517327e-01 9.054970e-03 -4.657595e-02 -2.020296e-02 -6.037030e-03 -4.504269e-03 -1.448935e-02 5.730088e-02
<VARIANCE> 39
 2.870291e+01 6.243867e+01 5.171288e+01 8.884450e+01 4.341653e+01 8.654713e+01 7.310821e+01 9.449679e+01 3.346370e+01 5.269022e+01 5.587582e+01 2.938381e+01 1.717385e+02 2.576927e+00 3.852715e+00 3.467978e+00 7.426806e+00 3.035295e+00 6.460035e+00 5.058770e+00 6.514523e+00 2.834645e+00 4.046566e+00 3.006248e+00 3.152136e+00 1.479107e+01 4.511153e-01 5.009466e-01 5.240689e-01 1.036100e+00 4.886598e-01 1.167860e+00 8.538100e-01 1.113871e+00 5.131994e-01 7.080724e-01 5.594374e-01 6.622820e-01 1.559875e+00
<GCONST> 1.398255e+02
<TRANSP> 5
 0.000000e+00 1.000000e+00 0.000000e+00 0.000000e+00 0.000000e+00
 0.000000e+00 6.162787e-01 3.837214e-01 0.000000e+00 0.000000e+00
 0.000000e+00 0.000000e+00 4.419096e-01 5.580904e-01 0.000000e+00
 0.000000e+00 0.000000e+00 0.000000e+00 9.613626e-01 3.863740e-02
 0.000000e+00 0.000000e+00 0.000000e+00 0.000000e+00 0.000000e+00
<ENDHMM>
~h "d"
<BEGINHMM>
<NUMSTATES> 5
<STATE> 2
<MEAN> 39
 -4.748774e-01 -2.178437e+01 -2.091249e+00 -8.934700e+00 -1.421270e+01 7.600861e+00 -1.230230e+01 1.609941e+01 -3.347315e+00 -1.322644e+01 -7.577287e+00 -1.071231e+01 6.659819e+01 -6.331452e-01 4.050825e-01 -2.795876e-01 5.870822e-01 -2.310942e-01 -8.848616e-01 1.636855e+00 -6.110938e-02 -2.328384e-01 2.265565e-01 -1.105374e-01 6.169487e-01 -1.528776e+00 -2.067488e-01 2.844738e-01 -2.270049e-01 2.073669e-01 1.631445e-01 -2.008569e-01 2.726672e-01 -1.629713e-01 1.449001e-01 2.468519e-01 -2.269428e-02 1.425330e-01 -2.943739e-01
<VARIANCE> 39
 1.999244e+01 3.684340e+01 1.570116e+01 2.248016e+01 2.147983e+01 3.100709e+01 6.160224e+01 2.661893e+01 2.650831e+01 2.524051e+01 1.980100e+01 1.952782e+01 5.578296e+01 1.876891e+00 1.946940e+00 1.328977e+00 1.627871e+00 2.067375e+00 1.385257e+00 2.267616e+00 2.045398e+00 2.960804e+00 2.444340e+00 1.588053e+00 1.186159e+00 2.491699e+00 3.836968e-01 3.909781e-01 3.136916e-01 3.077017e-01 3.820058e-01 2.298799e-01 4.070489e-01 3.844688e-01 6.015448e-01 4.530282e-01 3.005683e-01 2.048996e-01 5.402365e-01
<GCONST> 1.094883e+02
<STATE> 3
<MEAN> 39
 -3.168444e+00 -1.924774e+01 -3.791852e+00 -6.081232e+00 -1.356456e+01 4.338931e+00 -5.902119e+00 1.517196e+01 -3.395509e+00 -1.132023e+01 -7.882843e+00 -8.250523e+00 6.060844e+01 -1.092377e+00 7.838669e-01 -7.217002e-01 1.142486e+00 7.795043e-02 -1.196753e+00 2.194095e+00 -5.409381e-01 4.131246e-02 7.578968e-01 -1.672818e-01 8.802979e-01 -2.070371e+00 -3.624947e-02 8.087343e-02 -6.951089e-02 1.290607e-01 3.855711e-02 -9.302470e-02 4.243609e-02 -1.419811e-01 5.813608e-02 1.034224e-01 -1.762272e-02 6.855056e-02 1.687014e-03
<VARIANCE> 39
 2.366987e+01 3.771088e+01 1.873136e+01 2.916911e+01 2.362682e+01 2.921740e+01 6.444188e+01 3.163156e+01 3.233738e+01 2.972906e+01 2.243964e+01 2.259258e+01 6.249142e+01 2.408915e+00 2.589457e+00 2.167405e+00 2.192370e+00 2.629029e+00 1.356248e+00 3.190671e+00 2.225912e+00 3.672293e+00 2.721309e+00 1.982160e+00 1.500699e+00 3.889400e+00 5.182786e-01 5.107736e-01 4.402608e-01 4.127966e-01 5.455729e-01 2.514480e-01 5.768665e-01 4.539076e-01 8.354395e-01 6.154455e-01 4.354765e-01 3.069533e-01 8.785310e-01
<GCONST> 1.183669e+02
<STATE> 4
<MEAN> 39
 -6.100054e+00 -1.750264e+01 -5.776571e+00 -2.563626e+00 -1.346834e+01 1.111200e+00 -4.701614e-04 1.358750e+01 -3.413507e+00 -9.042729e+00 -8.422785e+00 -6.042802e+00 5.536972e+01 -8.908395e-01 7.298079e-01 -5.392603e-01 1.216648e+00 -5.677263e-02 -1.319377e+00 1.863198e+00 -6.256071e-01 -7.392087e-02 5.863359e-01 -2.593177e-01 9.541314e-01 -1.545814e+00 2.427387e-01 1.728554e-01 1.711268e-01 -9.367886e-02 7.674763e-02 -5.077485e-02 -4.123483e-01 -4.250779e-02 -1.073708e-01 -1.601260e-01 6.399306e-02 4.563803e-02 2.831105e-01
<VARIANCE> 39
 1.980615e+01 3.112248e+01 2.013496e+01 3.010490e+01 2.449986e+01 3.110115e+01 6.495213e+01 3.284871e+01 3.291811e+01 2.664581e+01 2.118805e+01 2.181585e+01 4.452855e+01 2.513346e+00 3.598679e+00 2.696295e+00 2.508155e+00 2.794140e+00 1.662881e+00 5.240012e+00 2.807507e+00 3.924718e+00 2.850230e+00 2.349485e+00 1.942680e+00 5.542563e+00 4.886512e-01 6.649907e-01 4.788128e-01 4.617555e-01 6.449390e-01 3.654121e-01 8.350468e-01 5.500798e-01 7.842708e-01 6.180835e-01 5.309911e-01 3.879571e-01 8.122814e-01
<GCONST> 1.221339e+02
<TRANSP> 5
 0.000000e+00 1.000000e+00 0.000000e+00 0.000000e+00 0.000000e+00
 0.000000e+00 6.052365e-01 3.947635e-01 0.000000e+00 0.000000e+00
 0.000000e+00 0.000000e+00 5.498554e-01 4.501446e-01 0.000000e+00
 0.000000e+00 0.000000e+00 0.000000e+00 5.851723e-01 4.148277e-01
 0.000000e+00 0.000000e+00 0.000000e+00 0.000000e+00 0.000000e+00
<ENDHMM>
~h "e"
<BEGINHMM>
<NUMSTATES> 5
<STATE> 2
<MEAN> 39
 2.221051e+00 -1.005249e+01 -8.509693e+00 -2.305387e+01 -6.038380e+00 2.015147e+01 -1.283191e+01 7.470813e-01 -3.556836e+00 -6.333923e+00 -9.765279e-02 -4.162210e+00 7.106532e+01 -4.709923e-01 5.149742e-01 -4.764212e-01 -2.022260e-01 1.301219e+00 -2.055071e-01 4.242197e-01 -2.488542e-01 5.684366e-01 -3.616093e-01 -1.520032e-01 6.589761e-01 -8.032466e-01 -2.014072e-01 4.438590e-02 -4.670132e-02 -3.466788e-02 1.459829e-01 -9.659433e-02 5.249775e-02 -8.951745e-02 5.687749e-02 1.721490e-02 2.838637e-02 -5.318449e-03 -5.116916e-02
<VARIANCE> 39
 5.937080e+01 2.751149e+01 2.175052e+01 5.274116e+01 8.897767e+01 1.057214e+02 4.781620e+01 2.731951e+01 4.285947e+01 3.489151e+01 2.912397e+01 3.902046e+01 4.282229e+01 4.012420e+00 2.265889e+00 1.384576e+00 3.091880e+00 4.521895e+00 5.326872e+00 3.508835e+00 2.457981e+00 2.949487e+00 2.318941e+00 2.190487e+00 2.991510e+00 1.272744e+00 4.062704e-01 3.680316e-01 2.292990e-01 5.313513e-01 7.221770e-01 7.334665e-01 5.607135e-01 4.195516e-01 5.095592e-01 4.404646e-01 3.525676e-01 4.986885e-01 1.621199e-01
<GCONST> 1.224495e+02
<STATE> 3
<MEAN> 39
 -2.414908e+00 -8.071609e+00 -1.132966e+01 -2.448093e+01 8.657742e-02 1.817801e+01 -1.014035e+01 -9.708373e-01 -8.470058e-01 -8.426767e+00 5.256130e-01 -1.733998e+00 6.711745e+01 -8.336432e-01 3.672298e-01 -5.489596e-01 -2.946497e-01 1.104361e+00 -3.491369e-01 5.204306e-01 -3.214803e-01 4.207050e-01 -3.627472e-01 1.638416e-01 4.312422e-01 -7.574108e-01 -6.850664e-03 -2.001489e-02 3.921404e-02 -3.791308e-03 -9.914082e-02 5.969997e-04 -1.097738e-02 -2.383576e-02 -4.517464e-02 9.854330e-03 5.703804e-02 -4.552433e-02 2.210323e-02
<VARIANCE> 39
 8.322148e+01 2.732953e+01 3.206601e+01 3.631907e+01 1.091689e+02 7.414051e+01 5.159782e+01 3.139573e+01 4.735981e+01 3.935018e+01 2.952548e+01 3.773749e+01 5.507842e+01 3.732647e+00 2.196231e+00 1.859240e+00 2.707255e+00 4.899100e+00 5.481292e+00 3.514152e+00 2.543323e+00 3.429417e+00 2.500646e+00 2.262978e+00 2.971905e+00 1.269501e+00 4.521821e-01 3.696673e-01 3.143580e-01 4.618075e-01 7.694999e-01 7.855004e-01 6.029247e-01 4.690380e-01 5.786390e-01 4.789970e-01 3.797024e-01 5.145810e-01 1.875461e-01
<GCONST> 1.248301e+02
<STATE> 4
<MEAN> 39
 -2.759344e+00 -6.543839e+00 -8.023430e+00 -2.111693e+01 -1.651352e+00 1.208328e+01 -1.362176e+01 -6.692047e-01 -1.151383e+00 -4.493817e+00 1.834657e+00 -3.553330e+00 6.771418e+01 1.152912e-01 3.010883e-02 1.284482e-01 1.918408e-01 1.952525e-02 -1.492949e-01 -2.377695e-01 1.766583e-01 -2.089894e-02 2.420386e-01 -2.517306e-01 -6.445832e-02 2.694890e-01 4.508562e-02 -5.329812e-02 -1.489172e-02 -3.486180e-02 -6.141679e-02 9.910648e-02 -4.725785e-02 -5.220517e-03 -3.226674e-02 -7.452596e-03 2.082153e-02 -3.254677e-02 4.935075e-02
<VARIANCE> 39
 6.523705e+01 2.146352e+01 5.283412e+01 7.119611e+01 1.277958e+02 1.256678e+02 1.302190e+02 3.506345e+01 3.223285e+01 6.918639e+01 4.981821e+01 4.549835e+01 6.975674e+01 6.230071e+00 2.543419e+00 3.466740e+00 4.919870e+00 1.023294e+01 1.101539e+01 1.268191e+01 3.458892e+00 3.289654e+00 3.575543e+00 3.678161e+00 3.701192e+00 6.452895e+00 9.991391e-01 4.661010e-01 5.545967e-01 8.212082e-01 1.399220e+00 1.589782e+00 2.075996e+00 7.193766e-01 6.393569e-01 5.491095e-01 6.623855e-01 5.856205e-01 1.126997e+00
<GCONST> 1.437671e+02
<TRANSP> 5
 0.000000e+00 1.000000e+00 0.000000e+00 0.000000e+00 0.000000e+00
 0.000000e+00 7.331287e-01 2.668713e-01 0.000000e+00 0.000000e+00
 0.000000e+00 0.000000e+00 8.006341e-01 1.993659e-01 0.000000e+00
 0.000000e+00 0.000000e+00 0.000000e+00 9.647821e-01 3.521786e-02
 0.000000e+00 0.000000e+00 0.000000e+00 0.000000e+00 0.000000e+00
<ENDHMM>
~h "h"
<BEGINHMM>
<NUMSTATES> 5
<STATE> 2
<MEAN> 39
 -2.937216e+00 -6.604815e+00 1.639453e+00 -1.576357e+01 -1.047985e+01 1.015265e+01 -1.219135e+01 -6.865535e-01 -8.799734e+00 -1.960116e+00 1.655838e+00 -1.023917e+01 7.129485e+01 -6.726851e-01 -5.402480e-01 -2.469661e-01 -1.460414e+00 -4.033907e-01 1.536952e+00 -2.319804e-01 -3.439870e-01 4.210762e-01 -2.861456e-01 6.097294e-01 4.660667e-01 5.421880e-01 1.955970e-01 4.478759e-02 -4.278437e-02 4.233429e-01 -1.879917e-01 -2.594214e-01 1.851343e-01 2.165376e-02 3.988910e-02 -2.507187e-01 -7.809480e-02 2.169012e-01 -8.313364e-02
<VARIANCE> 39
 1.519522e+02 9.252243e+01 1.225238e+02 6.465982e+01 9.947996e+01 1.183861e+02 4.819758e+01 3.307074e+01 4.837245e+01 2.853116e+01 4.857843e+01 4.441557e+01 5.790515e+01 1.164703e+01 2.530764e+00 1.704838e+00 5.511536e+00 5.663177e+00 6.757284e+00 2.232236e+00 2.065772e+00 4.532050e+00 2.056947e+00 2.929284e+00 2.072752e+00 2.518354e+00 1.708245e+00 4.660111e-01 3.663671e-01 7.272201e-01 1.021451e+00 8.117294e-01 4.647345e-01 4.091929e-01 6.169883e-01 4.061761e-01 4.032572e-01 5.140576e-01 2.578664e-01
<GCONST> 1.339649e+02
<STATE> 3
<MEAN> 39
 -3.422031e+00 -9.635651e+00 -3.520122e+00 -1.876981e+01 -9.514862e+00 1.319667e+01 -1.204772e+01 -1.634890e-01 -5.768814e+00 -2.121196e+00 2.049775e-01 -7.794094e+00 7.345199e+01 5.092056e-01 -5.200765e-01 -3.634523e-01 -6.338412e-01 -8.876909e-01 1.091361e+00 -7.725200e-02 -1.260631e-02 1.914778e-01 -6.283624e-01 3.241950e-01 4.585704e-01 4.413823e-01 3.574056e-01 7.538490e-02 -5.538868e-02 3.784037e-01 5.105207e-02 -3.126674e-01 7.730822e-02 1.224181e-01 -5.264078e-02 -7.272058e-02 -1.783379e-01 -3.105584e-02 -1.058991e-01
<VARIANCE> 39
 1.787981e+02 6.281223e+01 4.234084e+01 6.395973e+01 4.566680e+01 1.816671e+02 5.831422e+01 2.834849e+01 3.126343e+01 2.253520e+01 2.502740e+01 3.911546e+01 3.514008e+01 9.155855e+00 2.399384e+00 1.191121e+00 4.369835e+00 3.476556e+00 4.849774e+00 2.214460e+00 2.016537e+00 2.969660e+00 1.877967e+00 2.417211e+00 1.829536e+00 1.660223e+00 1.473406e+00 3.131056e-01 2.203348e-01 7.130982e-01 7.530229e-01 7.602538e-01 4.710975e-01 4.087134e-01 5.539401e-01 3.382562e-01 3.463724e-01 3.413216e-01 1.729961e-01
<GCONST> 1.247240e+02
<STATE> 4
<MEAN> 39
 2.201553e+00 -1.200880e+01 -6.266810e+00 -2.065642e+01 -1.132232e+01 1.758102e+01 -1.338362e+01 1.382745e+00 -5.389286e+00 -3.801920e+00 -1.262498e-01 -7.760721e+00 7.465102e+01 7.693137e-01 -8.055153e-02 -3.596651e-01 -4.224062e-01 -1.356792e-01 8.409232e-01 -1.174532e-01 1.471081e-01 1.197889e-01 -4.622009e-01 6.715895e-02 2.042593e-01 -1.493419e-01 -7.837417e-02 1.165664e-01 9.775827e-03 5.878710e-02 1.994344e-01 -1.367417e-01 5.374457e-02 -7.100840e-03 6.063645e-02 3.101700e-02 -8.097807e-02 2.452216e-02 -1.242695e-01
<VARIANCE> 39
 7.831473e+01 2.342305e+01 2.181953e+01 7.353962e+01 3.793254e+01 1.810694e+02 5.095780e+01 2.553374e+01 2.753764e+01 2.781758e+01 3.239815e+01 2.912262e+01 1.832624e+01 3.944525e+00 1.821575e+00 1.101844e+00 4.014535e+00 3.004805e+00 5.217673e+00 2.924320e+00 2.366906e+00 2.198856e+00 1.999400e+00 2.311641e+00 2.384705e+00 1.171466e+00 5.555470e-01 2.345653e-01 1.801496e-01 6.831963e-01 4.684280e-01 7.215003e-01 4.834568e-01 4.650913e-01 4.034291e-01 3.429988e-01 3.555688e-01 3.653786e-01 1.316905e-01
<GCONST> 1.177132e+02
<TRANSP> 5
 0.000000e+00 1.000000e+00 0.000000e+00 0.000000e+00 0.000000e+00
 0.000000e+00 6.946325e-01 3.053674e-01 0.000000e+00 0.000000e+00
 0.000000e+00 0.000000e+00 6.549742e-01 3.450258e-01 0.000000e+00
 0.000000e+00 0.000000e+00 0.000000e+00 8.204884e-01 1.795116e-01
 0.000000e+00 0.000000e+00 0.000000e+00 0.000000e+00 0.000000e+00
<ENDHMM>
~h "i"
<BEGINHMM>
<NUMSTATES> 5
<STATE> 2
<MEAN> 39
 -2.880907e-01 -7.295773e+00 2.434274e+00 -1.050717e+01 -1.097127e+01 1.697335e+00 -1.361031e+01 8.044575e-01 -8.646114e+00 -3.674623e+00 2.402681e+00 -7.814913e+00 7.082774e+01 -4.446769e-01 9.576204e-01 -1.989097e-01 2.838162e-01 9.550919e-01 -1.357713e-01 4.053087e-01 -7.092122e-01 6.277315e-03 1.453121e-01 -1.343334e-01 4.513454e-01 -6.218103e-01 -3.791701e-01 1.092058e-01 4.149169e-03 -1.331971e-01 1.005826e-02 6.741245e-02 2.122689e-01 -6.518992e-02 1.943235e-01 -5.800980e-02 -4.989655e-03 -8.514280e-02 6.418177e-02
<VARIANCE> 39
 7.418467e+01 7.131513e+01 9.689005e+01 7.279675e+01 8.826053e+01 9.656168e+01 9.165662e+01 9.577262e+01 8.510146e+01 6.241130e+01 5.402424e+01 4.951608e+01 7.061950e+01 9.448160e+00 4.249151e+00 4.341858e+00 5.709758e+00 5.975699e+00 9.526358e+00 7.719347e+00 6.434802e+00 5.584211e+00 4.542965e+00 4.383768e+00 3.725675e+00 2.801400e+00 1.064444e+00 6.227807e-01 6.489723e-01 8.293668e-01 1.149681e+00 1.408592e+00 1.178464e+00 1.055059e+00 8.777722e-01 9.198600e-01 7.514445e-01 6.749573e-01 3.985791e-01
<GCONST> 1.477330e+02
<STATE> 3
<MEAN> 39
 -1.623183e+00 -4.562133e+00 1.734966e+00 -1.001005e+01 -8.727084e+00 1.372317e+00 -1.181518e+01 -1.514273e+00 -8.714565e+00 -3.570873e+00 2.416156e+00 -7.311163e+00 6.936723e+01 -1.198498e+00 9.592302e-01 -2.268654e-01 7.962640e-02 1.076631e+00 -9.763126e-02 8.253223e-01 -7.230827e-01 4.960940e-01 -5.566592e-02 -3.007464e-01 3.428134e-01 -3.895984e-01 -2.977805e-01 -9.079028e-02 5.632405e-03 -1.099604e-01 -9.009407e-02 5.949730e-02 4.152007e-02 1.071082e-01 1.457213e-01 -5.842395e-02 1.020526e-02 -8.506826e-02 1.249808e-01
<VARIANCE> 39
 9.958886e+01 7.374957e+01 8.989016e+01 6.424313e+01 9.586480e+01 9.666203e+01 9.276446e+01 7.186863e+01 8.992809e+01 4.953071e+01 5.486090e+01 4.769544e+01 6.288858e+01 1.101714e+01 4.292896e+00 3.511609e+00 5.350707e+00 5.993993e+00 8.042593e+00 7.195423e+00 5.882279e+00 5.286026e+00 4.068414e+00 3.772837e+00 2.992768e+00 2.866134e+00 1.235054e+00 6.848530e-01 5.790874e-01 7.726913e-01 1.139662e+00 1.252636e+00 1.036846e+00 9.943817e-01 8.845065e-01 7.310743e-01 6.303640e-01 5.828922e-01 3.268857e-01
<GCONST> 1.454074e+02
<STATE> 4
<MEAN> 39
 -5.381162e+00 -2.156698e+00 2.723638e+00 -1.060823e+01 -6.606076e+00 8.472753e-01 -9.777640e+00 -3.025294e+00 -7.870016e+00 -4.127146e+00 1.908557e+00 -7.003616e+00 6.906900e+01 -1.466972e+00 3.828816e-01 -1.895967e-01 2.091224e-02 7.670262e-01 -9.609972e-02 8.645538e-01 -2.840044e-01 6.696672e-01 -5.963800e-02 -4.757463e-01 4.035508e-01 -6.489635e-02 -6.979052e-03 -1.886990e-01 -5.613186e-02 -4.571839e-02 -1.559877e-01 2.301712e-02 -1.112949e-01 2.230770e-01 -5.143780e-03 3.489746e-02 2.414564e-02 -2.930991e-02 5.333327e-02
<VARIANCE> 39
 1.503367e+02 6.661516e+01 1.043426e+02 5.529839e+01 8.285756e+01 8.501286e+01 8.809280e+01 4.674500e+01 8.053821e+01 4.008163e+01 4.656442e+01 4.415894e+01 4.649728e+01 1.115679e+01 4.194058e+00 3.049560e+00 4.495002e+00 6.048680e+00 5.823733e+00 5.848401e+00 4.385953e+00 4.762656e+00 3.475564e+00 3.347974e+00 2.695344e+00 2.511695e+00 1.537987e+00 7.033110e-01 4.980920e-01 7.643073e-01 1.130351e+00 9.616567e-01 1.007808e+00 8.840217e-01 8.437375e-01 6.198193e-01 5.924606e-01 4.911717e-01 2.912438e-01
<GCONST> 1.414420e+02
<TRANSP> 5
 0.000000e+00 1.000000e+00 0.000000e+00 0.000000e+00 0.000000e+00
 0.000000e+00 4.789808e-01 5.210192e-01 0.000000e+00 0.000000e+00
 0.000000e+00 0.000000e+00 4.522308e-01 5.477692e-01 0.000000e+00
 0.000000e+00 0.000000e+00 0.000000e+00 6.254135e-01 3.745865e-01
 0.000000e+00 0.000000e+00 0.000000e+00 0.000000e+00 0.000000e+00
<ENDHMM>
~h "j"
<BEGINHMM>
<NUMSTATES> 5
<STATE> 2
<MEAN> 39
 -6.490319e-01 -8.340757e+00 -3.051205e-01 -1.217926e+01 -9.913197e+00 2.633715e+00 -1.795716e+01 1.471151e+00 -2.159391e+00 -6.910057e-01 -3.025880e-01 -6.456686e+00 6.859475e+01 5.387121e-01 1.792196e-01 6.563129e-01 -4.008834e-01 3.442382e-01 -9.629375e-01 -5.997207e-01 2.677404e-01 -1.617544e-01 -2.757685e-01 -1.419050e-01 3.650954e-01 1.308813e+00 1.743493e-02 2.410103e-02 -1.868126e-01 -1.934298e-01 -4.842271e-02 2.379907e-01 1.882297e-01 -6.626979e-02 -1.735203e-01 -1.120348e-01 8.241696e-02 -5.554529e-03 -2.790212e-01
<VARIANCE> 39
 6.515662e+01 4.959363e+01 3.127819e+01 8.363955e+01 6.071935e+01 1.143683e+02 9.527756e+01 6.307656e+01 4.295166e+01 4.724908e+01 6.168038e+01 5.678042e+01 7.499396e+01 8.609684e+00 6.660147e+00 4.051436e+00 9.485253e+00 8.131080e+00 1.373415e+01 1.180321e+01 7.553692e+00 5.265276e+00 4.871140e+00 5.729311e+00 6.841720e+00 1.555320e+01 1.148782e+00 1.304764e+00 8.028259e-01 1.118681e+00 1.408146e+00 1.915689e+00 2.173809e+00 1.691772e+00 1.197056e+00 1.090500e+00 8.013939e-01 1.394942e+00 1.930043e+00
<GCONST> 1.554567e+02
<STATE> 3
<MEAN> 39
 4.333282e-02 -9.892149e+00 9.052620e-01 -1.438638e+01 -1.021590e+01 1.133740e+00 -1.917222e+01 3.657837e+00 -1.749163e+00 -2.265637e+00 -1.387841e+00 -5.815699e+00 7.192464e+01 1.587075e-01 -7.529695e-01 -1.295263e-01 -3.663371e-01 -2.462882e-01 2.460523e-01 -1.323874e-01 4.348215e-01 3.053179e-01 -2.407735e-01 -3.705491e-01 -1.951822e-01 8.001714e-01 -3.093290e-02 -1.239960e-01 -1.562225e-01 -9.078592e-03 -2.560329e-02 2.668120e-01 5.758496e-02 -4.648979e-02 3.055710e-02 2.315371e-02 -7.260879e-03 -1.366003e-01 -4.978791e-02
<VARIANCE> 39
 4.667528e+01 6.604234e+01 3.848848e+01 6.254921e+01 7.537414e+01 1.302672e+02 9.244974e+01 7.454037e+01 4.001166e+01 3.753454e+01 7.489383e+01 5.530857e+01 6.389822e+01 6.678188e+00 7.890793e+00 4.137023e+00 6.526243e+00 1.108494e+01 1.346510e+01 1.301166e+01 1.095411e+01 3.890957e+00 4.918021e+00 4.759339e+00 8.299464e+00 7.678094e+00 1.182597e+00 1.286911e+00 7.968354e-01 9.096848e-01 2.271048e+00 1.784209e+00 2.686647e+00 2.595085e+00 7.891502e-01 1.089632e+00 8.534890e-01 1.549693e+00 1.450436e+00
<GCONST> 1.551595e+02
<STATE> 4
<MEAN> 39
 -5.557688e-01 -1.480469e+01 -5.594521e+00 -1.461532e+01 -8.207141e+00 6.300965e+00 -1.608489e+01 2.664515e+00 1.632090e+00 -1.911849e+00 -5.676047e+00 -8.046400e+00 7.274223e+01 -3.675987e-01 2.157701e-02 -5.487394e-01 2.526652e-01 6.945326e-01 -3.393921e-02 5.098729e-01 -3.388182e-01 1.101957e-01 -4.486702e-03 -1.087575e-01 2.304223e-01 -3.204070e-01 2.799063e-02 2.279066e-02 1.292782e-02 2.775633e-02 7.516705e-02 7.173018e-02 -6.703885e-02 -7.061326e-03 -4.416917e-03 -3.749487e-03 3.607952e-02 5.682452e-02 -4.332561e-02
<VARIANCE> 39
 4.825605e+01 5.223306e+01 4.956366e+01 4.452198e+01 5.526572e+01 1.352493e+02 1.034072e+02 5.616162e+01 3.278463e+01 3.487255e+01 4.495358e+01 4.514681e+01 7.353737e+01 5.096219e+00 4.916877e+00 2.911253e+00 4.310704e+00 4.936922e+00 1.461193e+01 1.000269e+01 7.346568e+00 2.814546e+00 3.925584e+00 3.379196e+00 5.198853e+00 7.267076e+00 9.639525e-01 7.661251e-01 5.260037e-01 7.421156e-01 1.022372e+00 2.246722e+00 1.927988e+00 1.667041e+00 5.751308e-01 8.201460e-01 6.959079e-01 9.417210e-01 1.393118e+00
<GCONST> 1.452410e+02
<TRANSP> 5
 0.000000e+00 1.000000e+00 0.000000e+00 0.000000e+00 0.000000e+00
 0.000000e+00 8.262979e-01 1.737020e-01 0.000000e+00 0.000000e+00
 0.000000e+00 0.000000e+00 8.449067e-01 1.550933e-01 0.000000e+00
 0.000000e+00 0.000000e+00 0.000000e+00 9.406452e-01 5.935478e-02
 0.000000e+00 0.000000e+00 0.000000e+00 0.000000e+00 0.000000e+00
<ENDHMM>
~h "l"
<BEGINHMM>
<NUMSTATES> 5
<STATE> 2
<MEAN> 39
 -1.326658e+01 1.856685e-03 -8.386680e+00 -1.312250e+00 -7.715214e+00 5.918133e-01 -7.073385e+00 -8.355439e-01 -3.979988e+00 -4.767395e+00 -4.267248e+00 -3.191546e+00 3.998923e+01 1.926160e-01 -3.417683e-02 1.412690e-01 1.392690e-01 -6.041156e-02 -8.785345e-02 4.280310e-02 7.574302e-02 1.011930e-01 -1.050035e-01 -1.377089e-01 2.215944e-01 1.905568e-01 -2.627690e-02 -1.402214e-02 7.033323e-02 6.230117e-02 4.943281e-02 -6.568299e-02 -3.659727e-02 -3.979205e-03 1.638957e-02 1.855389e-02 4.652639e-02 2.054657e-02 3.011666e-02
<VARIANCE> 39
 5.609946e+01 3.677689e+01 2.966790e+01 4.855932e+01 2.786372e+01 3.550459e+01 3.610484e+01 2.211922e+01 2.266965e+01 1.734461e+01 1.745968e+01 1.509367e+01 5.495977e+01 2.228762e+00 1.959330e+00 2.128029e+00 1.791840e+00 2.425660e+00 2.288017e+00 3.233636e+00 2.380237e+00 2.375814e+00 1.964822e+00 1.836279e+00 1.503356e+00 1.086473e+00 4.203045e-01 3.824275e-01 3.833243e-01 3.771797e-01 5.474320e-01 5.259508e-01 6.587066e-01 4.722911e-01 4.813989e-01 4.400196e-01 3.774772e-01 3.282191e-01 2.090232e-01
<GCONST> 1.135430e+02
<STATE> 3
<MEAN> 39
 -1.077708e+01 1.137269e+00 -6.730064e+00 -8.607895e-01 -8.475424e+00 8.408737e-01 -6.105083e+00 -2.637284e-01 -3.475100e+00 -5.455163e+00 -5.101579e+00 -2.110039e+00 4.177775e+01 2.952495e-01 -1.345574e-02 4.610339e-01 3.840417e-01 2.306566e-02 -2.707069e-01 1.058248e-02 2.138998e-01 2.147808e-01 1.125265e-02 -4.970229e-02 2.928680e-01 3.994228e-01 1.932772e-01 5.719571e-02 1.729582e-01 3.304582e-02 -5.579898e-02 -1.852186e-02 -8.932588e-02 -2.799557e-02 3.776848e-03 9.787100e-02 9.704319e-03 -6.748926e-03 1.692747e-01
<VARIANCE> 39
 5.799960e+01 4.082213e+01 2.504378e+01 8.119519e+01 3.400351e+01 3.946889e+01 2.534452e+01 2.375059e+01 1.757430e+01 1.691710e+01 1.906428e+01 1.437260e+01 9.184863e+01 3.380818e+00 2.832663e+00 2.003672e+00 2.105396e+00 2.884835e+00 2.571284e+00 1.998221e+00 2.352642e+00 1.830659e+00 2.160316e+00 1.928011e+00 1.337103e+00 1.235233e+00 5.981364e-01 5.803753e-01 4.028102e-01 4.991620e-01 5.479701e-01 5.544429e-01 4.591990e-01 4.673623e-01 3.678127e-01 3.934537e-01 3.317462e-01 3.056214e-01 2.614900e-01
<GCONST> 1.153227e+02
<STATE> 4
<MEAN> 39
 -9.258760e+00 1.047249e+00 -5.339561e+00 -1.418552e+00 -8.700459e+00 1.996634e-01 -5.705840e+00 1.571357e-01 -3.356117e+00 -5.599459e+00 -5.077810e+00 -1.621143e+00 4.574966e+01 5.947198e-01 4.514734e-02 6.806026e-01 4.452771e-01 -2.225748e-01 -2.071820e-01 -1.280215e-01 2.121001e-01 5.715310e-02 2.260298e-01 -4.595187e-03 2.487382e-01 5.656569e-01 3.543796e-01 3.082718e-02 2.006875e-01 -8.781507e-02 -1.661653e-01 5.038410e-02 -2.135043e-01 -3.863462e-02 4.827750e-02 4.798208e-02 -8.070558e-02 -1.910660e-02 2.781476e-01
<VARIANCE> 39
 6.325481e+01 4.934150e+01 2.717823e+01 1.127337e+02 4.422495e+01 4.856421e+01 3.018373e+01 2.801258e+01 1.974966e+01 2.140386e+01 2.468928e+01 1.250666e+01 2.082379e+02 3.930057e+00 2.912961e+00 1.956007e+00 2.853683e+00 3.568308e+00 2.704328e+00 2.249252e+00 2.494741e+00 1.809008e+00 2.467773e+00 1.843720e+00 1.697334e+00 1.480416e+00 1.021052e+00 6.927261e-01 4.727401e-01 6.302662e-01 6.211923e-01 5.297140e-01 4.214516e-01 4.688759e-01 3.876482e-01 4.450589e-01 3.828393e-01 3.242366e-01 5.208112e-01
<GCONST> 1.216730e+02
<TRANSP> 5
 0.000000e+00 1.000000e+00 0.000000e+00 0.000000e+00 0.000000e+00
 0.000000e+00 6.358832e-01 3.641169e-01 0.000000e+00 0.000000e+00
 0.000000e+00 0.000000e+00 3.585084e-01 6.414916e-01 0.000000e+00
 0.000000e+00 0.000000e+00 0.000000e+00 4.267190e-01 5.732810e-01
 0.000000e+00 0.000000e+00 0.000000e+00 0.000000e+00 0.000000e+00
<ENDHMM>
~h "n"
<BEGINHMM>
<NUMSTATES> 5
<STATE> 2
<MEAN> 39
 2.514204e+00 -8.717529e+00 -7.722491e-01 -1.088380e+01 -1.205469e+01 6.907766e+00 -2.328549e+01 4.270824e+00 -9.448075e-02 -6.807395e+00 5.308773e-01 -1.260375e+01 7.272887e+01 -9.951732e-02 -4.677849e-02 -8.907324e-02 1.743452e-01 3.562940e-01 -7.740791e-01 -1.992440e-01 1.020588e+00 3.033106e-01 -3.481945e-01 -5.729542e-01 1.310188e-01 -1.063289e-01 3.220242e-02 6.924711e-02 -2.282324e-02 -7.581051e-02 4.786967e-02 2.432700e-01 2.356886e-01 -1.399891e-01 -3.080952e-01 -2.451823e-01 2.007320e-01 1.984730e-01 -1.354973e-01
<VARIANCE> 39
 1.628368e+01 3.550994e+01 4.772288e+01 5.397122e+01 4.844335e+01 9.877576e+01 5.346941e+01 8.259784e+01 4.076614e+01 4.285680e+01 9.470776e+01 3.394942e+01 3.230038e+01 2.212095e+00 2.721671e+00 6.525075e+00 7.462782e+00 4.673325e+00 1.219773e+01 7.111460e+00 9.660910e+00 6.056354e+00 3.592237e+00 5.572522e+00 4.290970e+00 4.348234e+00 4.316710e-01 3.627991e-01 8.869525e-01 1.096969e+00 9.991599e-01 1.699543e+00 1.449306e+00 1.896802e+00 1.203582e+00 6.889099e-01 8.164582e-01 8.468824e-01 7.012622e-01
<GCONST> 1.421997e+02
<STATE> 3
<MEAN> 39
 2.409710e+00 -9.572215e+00 -8.200536e-01 -1.062148e+01 -1.148586e+01 5.705032e+00 -2.293259e+01 7.388127e+00 -5.160761e-02 -9.543689e+00 -1.241780e+00 -1.171735e+01 7.217298e+01 1.167956e-01 -8.681869e-03 -1.687834e-01 1.653341e-01 1.918810e-01 2.352286e-01 5.389292e-01 3.269011e-01 -6.120641e-01 -8.786228e-01 6.583333e-04 4.685772e-01 -5.867291e-01 6.643464e-02 -2.032210e-02 5.836451e-02 9.911721e-02 -8.111754e-02 2.551119e-01 2.133636e-01 -3.450449e-01 -2.860296e-01 2.415720e-03 1.436122e-01 5.094558e-02 -1.672618e-01
<VARIANCE> 39
 1.565385e+01 5.451699e+01 3.703108e+01 3.774799e+01 2.633348e+01 6.676257e+01 4.077664e+01 9.740353e+01 4.882266e+01 3.530950e+01 1.042103e+02 2.940355e+01 3.779679e+01 1.936031e+00 3.721920e+00 4.659706e+00 5.595514e+00 2.964817e+00 8.787236e+00 4.753009e+00 1.225782e+01 6.203161e+00 3.164242e+00 3.831798e+00 3.605729e+00 4.482660e+00 3.885899e-01 3.571295e-01 7.820986e-01 9.179632e-01 6.831301e-01 1.332865e+00 9.821965e-01 1.950350e+00 1.108371e+00 6.379648e-01 6.036481e-01 5.760207e-01 6.503705e-01
<GCONST> 1.366209e+02
<STATE> 4
<MEAN> 39
 2.496800e+00 -1.189058e+01 -1.564170e+00 -9.251711e+00 -1.144615e+01 7.112506e+00 -1.950999e+01 8.658489e+00 -2.219183e+00 -1.209468e+01 -2.728095e+00 -1.058401e+01 6.954064e+01 -3.095013e-02 -9.338270e-02 2.383335e-02 4.523285e-01 -2.962758e-02 3.617670e-01 9.260930e-01 -3.262382e-01 -9.005192e-01 -3.522800e-01 1.936392e-01 4.540972e-01 -9.875632e-01 -1.695529e-01 -3.671026e-02 2.144721e-01 -1.418486e-02 -1.625430e-01 -7.531847e-02 1.377862e-02 -2.194880e-02 6.011873e-02 2.288337e-01 2.535621e-02 -2.165059e-02 3.411910e-02
<VARIANCE> 39
 2.393062e+01 9.688193e+01 2.920446e+01 3.727734e+01 2.390717e+01 4.648394e+01 5.684909e+01 1.105087e+02 5.078318e+01 2.727827e+01 9.211185e+01 3.397515e+01 5.408863e+01 2.010399e+00 2.995107e+00 3.324718e+00 3.440823e+00 3.087827e+00 4.961419e+00 4.149458e+00 6.928373e+00 3.292319e+00 2.762366e+00 2.897119e+00 2.151964e+00 3.101671e+00 4.379912e-01 4.216642e-01 7.172958e-01 7.752117e-01 7.757155e-01 9.065564e-01 8.299918e-01 1.485750e+00 7.278898e-01 4.904156e-01 5.070878e-01 4.109029e-01 6.684079e-01
<GCONST> 1.315202e+02
<TRANSP> 5
 0.000000e+00 1.000000e+00 0.000000e+00 0.000000e+00 0.000000e+00
 0.000000e+00 6.897886e-01 3.102113e-01 0.000000e+00 0.000000e+00
 0.000000e+00 0.000000e+00 6.149676e-01 3.850324e-01 0.000000e+00
 0.000000e+00 0.000000e+00 0.000000e+00 7.039585e-01 2.960415e-01
 0.000000e+00 0.000000e+00 0.000000e+00 0.000000e+00 0.000000e+00
<ENDHMM>
~h "o"
<BEGINHMM>
<NUMSTATES> 5
<STATE> 2
<MEAN> 39
 -1.216298e+01 -2.958234e+00 -7.655225e+00 4.026947e-01 -6.905780e+00 -3.626838e-01 -3.075822e+00 1.805494e+00 -6.050364e+00 -5.783101e+00 -5.182141e+00 -3.198571e+00 4.217785e+01 -3.365703e-01 6.302103e-01 -8.097769e-02 -1.506024e-01 2.949648e-01 5.231829e-01 -1.628214e-01 -6.660973e-01 9.954481e-02 4.435411e-01 3.621939e-01 -1.203433e-01 -5.347507e-01 1.593908e-01 -7.400925e-02 8.147491e-02 -9.926920e-02 -1.663972e-01 -7.925768e-02 -1.543211e-02 7.382666e-02 8.070868e-02 -4.495210e-02 -3.043300e-02 6.535810e-02 2.522899e-01
<VARIANCE> 39
 2.044656e+01 3.833638e+01 1.572524e+01 1.853794e+01 2.360976e+01 2.219111e+01 2.890437e+01 3.696837e+01 2.190594e+01 2.171336e+01 2.034733e+01 1.586501e+01 3.427022e+01 1.824814e+00 2.594069e+00 1.739003e+00 1.836509e+00 2.315398e+00 2.726984e+00 2.672048e+00 2.591009e+00 1.973507e+00 1.840672e+00 1.761239e+00 1.776346e+00 1.093672e+00 3.343342e-01 5.206863e-01 3.514736e-01 3.872657e-01 4.463476e-01 4.828639e-01 5.439708e-01 4.750094e-01 4.016531e-01 3.670851e-01 3.552586e-01 3.778937e-01 2.840471e-01
<GCONST> 1.099301e+02
<STATE> 3
<MEAN> 39
 -1.297415e+01 2.907600e-01 -7.709232e+00 -6.612172e-01 -6.288905e+00 7.696505e-01 -4.981620e+00 -1.723108e+00 -5.190685e+00 -3.995796e+00 -3.022740e+00 -3.168573e+00 4.064011e+01 7.805786e-01 6.672674e-01 4.201565e-01 -4.778062e-01 -2.972693e-01 1.463335e-01 -1.102661e-01 -2.513764e-01 4.370837e-01 1.677384e-01 2.672528e-01 2.289979e-01 8.404076e-01 3.496187e-01 -2.043167e-01 2.571434e-01 -2.334241e-01 -2.109912e-01 -4.728621e-02 -2.656267e-01 1.147813e-02 1.764985e-01 -8.981295e-02 1.104200e-02 2.334866e-02 8.795514e-01
<VARIANCE> 39
 4.207106e+01 3.601747e+01 1.673155e+01 2.229799e+01 1.903604e+01 2.526171e+01 2.593589e+01 1.952763e+01 2.166818e+01 1.667100e+01 1.531410e+01 1.696898e+01 5.404823e+01 5.358694e+00 4.796412e+00 2.627916e+00 2.984995e+00 2.895620e+00 2.875841e+00 2.748894e+00 2.466055e+00 2.149320e+00 1.703076e+00 1.580892e+00 1.736142e+00 3.479453e+00 7.969258e-01 6.146942e-01 4.900767e-01 4.932389e-01 4.704094e-01 5.347911e-01 5.265513e-01 4.493323e-01 4.837532e-01 3.888469e-01 3.520417e-01 3.916688e-01 1.454696e+00
<GCONST> 1.174265e+02
<STATE> 4
<MEAN> 39
 -5.780470e+00 5.399497e+00 -5.416358e+00 -4.304098e+00 -8.967689e+00 1.422873e+00 -7.245510e+00 -2.220368e+00 -4.263190e+00 -4.438788e+00 -2.275207e+00 -2.771337e+00 4.500199e+01 1.588618e+00 -9.473306e-02 7.622429e-01 -1.094044e+00 -8.587494e-01 2.597654e-01 -8.008176e-01 -2.357662e-01 3.344031e-01 -2.274395e-01 1.334974e-01 9.106846e-02 2.513212e+00 -3.755123e-01 -5.614404e-01 -4.602905e-02 6.661737e-02 1.201903e-01 2.209985e-02 -1.209959e-01 -4.547691e-02 -2.871067e-02 -4.063547e-02 1.103509e-02 -5.556341e-02 2.336951e-01
<VARIANCE> 39
 1.277954e+02 8.226548e+01 3.959081e+01 9.189274e+01 5.426754e+01 6.978854e+01 4.368262e+01 2.479823e+01 2.347915e+01 2.360383e+01 1.862709e+01 1.440898e+01 7.894186e+01 1.007710e+01 8.369819e+00 3.834277e+00 6.856721e+00 4.155521e+00 5.137886e+00 3.645051e+00 2.263001e+00 3.286500e+00 2.624910e+00 1.908417e+00 1.833659e+00 1.163706e+01 2.055781e+00 1.012174e+00 7.374134e-01 1.194939e+00 8.426691e-01 9.339401e-01 7.597293e-01 4.947758e-01 4.502009e-01 4.456749e-01 4.070802e-01 3.723976e-01 2.297252e+00
<GCONST> 1.361067e+02
<TRANSP> 5
 0.000000e+00 1.000000e+00 0.000000e+00 0.000000e+00 0.000000e+00
 0.000000e+00 7.374638e-01 2.625361e-01 0.000000e+00 0.000000e+00
 0.000000e+00 0.000000e+00 3.903294e-01 6.096706e-01 0.000000e+00
 0.000000e+00 0.000000e+00 0.000000e+00 6.086674e-01 3.913326e-01
 0.000000e+00 0.000000e+00 0.000000e+00 0.000000e+00 0.000000e+00
<ENDHMM>
~h "q"
<BEGINHMM>
<NUMSTATES> 5
<STATE> 2
<MEAN> 39
 4.138162e+00 -6.130478e+00 -1.338112e+00 -1.036506e+01 -9.275861e+00 6.290389e+00 -1.841015e+01 1.333861e+00 -1.022763e+01 -5.126194e+00 3.058356e+00 -1.585883e+01 6.407588e+01 -5.115780e-01 1.194884e+00 1.279231e+00 5.209304e-02 -1.519936e-01 -8.161634e-01 7.938939e-01 -1.282147e+00 -8.104928e-01 1.434516e+00 -1.195031e+00 3.247309e-01 -1.438548e+00 -1.372776e-01 6.892935e-02 4.524116e-02 -2.046757e-01 -1.435996e-02 3.532169e-01 2.070645e-02 -6.432252e-02 -1.159953e-01 -7.437853e-02 2.883197e-01 -6.793502e-02 8.375191e-02
<VARIANCE> 39
 2.336787e+01 4.409798e+01 9.236580e+01 3.240299e+01 4.477811e+01 4.420715e+01 4.373506e+01 5.768072e+01 4.905317e+01 5.005794e+01 5.393517e+01 3.791315e+01 7.216239e+01 1.386576e+00 2.486586e+00 5.013534e+00 2.574492e+00 3.560493e+00 4.130714e+00 3.986722e+00 4.367629e+00 4.522270e+00 2.954045e+00 5.176154e+00 2.571455e+00 2.434988e+00 1.844297e-01 3.626895e-01 6.817358e-01 3.576096e-01 6.686752e-01 5.798768e-01 7.793264e-01 9.104359e-01 7.139043e-01 5.438513e-01 8.075320e-01 4.928688e-01 1.932019e-01
<GCONST> 1.282444e+02
<STATE> 3
<MEAN> 39
 2.037971e+00 -2.695937e+00 4.122255e+00 -1.173650e+01 -1.066384e+01 5.829654e+00 -1.655459e+01 -2.216162e+00 -1.359113e+01 -1.346989e+00 1.717506e+00 -1.599577e+01 6.142970e+01 -6.968867e-01 1.121189e+00 1.753130e+00 -5.756620e-01 -4.418538e-01 1.738117e-01 7.352696e-01 -1.038117e+00 -1.218143e+00 9.875370e-01 -4.749576e-02 -3.580034e-02 -6.971628e-01 -4.765993e-02 -5.072436e-02 1.152507e-01 -1.713767e-01 -7.590935e-02 2.515118e-01 -6.640530e-02 1.818458e-01 -5.636936e-02 -2.208797e-01 3.415229e-01 -7.832877e-02 2.668697e-01
<VARIANCE> 39
 2.894148e+01 4.549033e+01 1.444025e+02 4.788454e+01 6.013585e+01 4.488966e+01 3.479279e+01 6.048721e+01 6.859724e+01 5.148643e+01 4.970238e+01 4.004803e+01 7.193883e+01 1.337656e+00 2.604234e+00 6.385170e+00 3.061905e+00 4.299112e+00 4.371090e+00 3.691737e+00 5.315580e+00 5.108740e+00 4.013870e+00 5.257186e+00 2.648902e+00 2.896189e+00 2.532535e-01 3.783740e-01 1.018810e+00 4.971630e-01 8.318801e-01 7.223240e-01 7.312425e-01 1.035389e+00 8.565233e-01 6.425560e-01 7.216656e-01 5.172716e-01 2.455681e-01
<GCONST> 1.333448e+02
<STATE> 4
<MEAN> 39
 -1.493665e+00 5.039034e-01 1.745964e+01 -1.569604e+01 -2.010610e+01 9.888345e+00 -1.295320e+01 -3.522446e+00 -1.805023e+01 -3.920624e+00 8.994604e+00 -1.511341e+01 6.660940e+01 1.745749e-01 7.528850e-02 1.067185e-02 3.749532e-01 -7.250684e-02 -9.182937e-02 3.314912e-01 -2.076121e-01 -8.447912e-02 -3.257737e-01 2.091657e-01 2.768686e-01 1.042546e-01 1.407299e-02 -4.312224e-03 -1.723626e-01 1.002695e-01 1.188764e-01 -1.111732e-01 2.352321e-02 3.861610e-02 9.252679e-02 -3.436555e-02 -9.048174e-02 7.002069e-02 -4.471148e-02
<VARIANCE> 39
 2.993492e+01 2.218711e+01 9.135181e+01 6.578999e+01 8.052496e+01 4.834237e+01 2.169345e+01 4.287283e+01 4.336902e+01 4.318434e+01 4.167569e+01 2.642448e+01 4.806122e+01 2.900717e+00 2.180628e+00 6.940361e+00 6.055323e+00 5.908939e+00 5.084989e+00 1.956024e+00 3.449028e+00 3.914314e+00 2.458592e+00 3.059044e+00 2.615816e+00 2.525911e+00 4.760968e-01 3.631509e-01 7.150123e-01 8.939981e-01 6.955805e-01 8.551338e-01 3.999899e-01 5.625784e-01 6.132530e-01 4.286025e-01 4.344023e-01 4.634552e-01 2.170930e-01
<GCONST> 1.278760e+02
<TRANSP> 5
 0.000000e+00 1.000000e+00 0.000000e+00 0.000000e+00 0.000000e+00
 0.000000e+00 6.314192e-01 3.685807e-01 0.000000e+00 0.000000e+00
 0.000000e+00 0.000000e+00 6.584835e-01 3.415164e-01 0.000000e+00
 0.000000e+00 0.000000e+00 0.000000e+00 9.474916e-01 5.250831e-02
 0.000000e+00 0.000000e+00 0.000000e+00 0.000000e+00 0.000000e+00
<ENDHMM>
~h "s"
<BEGINHMM>
<NUMSTATES> 5
<STATE> 2
<MEAN> 39
 -2.884974e+00 -3.872436e+00 -3.087043e+00 -1.011464e+01 -1.033609e+01 3.004976e+00 -1.010059e+01 -4.269061e-01 -1.336019e+00 -3.497450e+00 -3.218206e+00 -2.173218e+00 6.374259e+01 6.061335e-01 -7.658142e-01 1.444049e+00 -1.413556e+00 -7.270050e-01 1.048913e+00 -1.040106e+00 -2.245276e-02 -8.317600e-02 4.119268e-01 -1.160897e-01 1.743828e-01 1.538301e+00 2.082987e-01 -9.304957e-02 2.644769e-02 -7.818209e-02 1.335007e-02 1.965997e-01 -1.303809e-01 3.540237e-01 -9.421235e-02 2.038532e-01 -8.909480e-02 -2.342528e-01 1.548876e-01
<VARIANCE> 39
 1.062089e+02 6.376239e+01 5.488750e+01 2.277105e+02 7.185018e+01 1.652786e+02 6.785686e+01 5.819263e+01 2.898740e+01 3.322073e+01 3.836255e+01 2.688846e+01 2.277279e+02 6.820343e+00 4.574534e+00 4.537691e+00 8.267622e+00 2.668303e+00 5.201295e+00 5.085315e+00 2.282914e+00 2.005232e+00 2.628375e+00 2.214901e+00 2.285078e+00 9.622034e+00 1.117186e+00 1.034786e+00 5.833634e-01 1.098958e+00 4.376633e-01 1.223650e+00 7.760354e-01 7.455788e-01 4.292011e-01 6.227734e-01 3.620490e-01 3.629513e-01 9.377857e-01
<GCONST> 1.396423e+02
<STATE> 3
<MEAN> 39
 -8.315496e-01 -4.874014e+00 9.141650e-01 -1.227173e+01 -1.291983e+01 5.356850e+00 -1.249624e+01 3.683562e-01 -2.438893e+00 -3.177485e+00 -3.518281e+00 -2.492778e+00 6.442782e+01 1.052477e+00 -8.079126e-01 1.354511e+00 -1.114941e+00 -6.798008e-01 7.974507e-01 -1.040870e+00 2.875179e-01 5.298669e-02 7.233316e-01 -2.174810e-01 -3.291814e-01 2.106739e+00 6.267951e-02 -1.644010e-01 -4.749121e-01 -2.915780e-02 5.761656e-02 -1.928913e-01 -4.929748e-03 3.251432e-01 9.687875e-02 8.647041e-02 -1.240632e-01 -2.529667e-01 1.747160e-01
<VARIANCE> 39
 1.119432e+02 7.844653e+01 7.048286e+01 2.544058e+02 9.005247e+01 1.433153e+02 8.315733e+01 5.047680e+01 2.394921e+01 2.969947e+01 5.198711e+01 1.471287e+01 1.761279e+02 6.704232e+00 5.588705e+00 3.782050e+00 5.888063e+00 2.687202e+00 4.062467e+00 4.702962e+00 2.687747e+00 2.528131e+00 2.967030e+00 2.824672e+00 1.972285e+00 9.419238e+00 1.457221e+00 1.280987e+00 9.258225e-01 1.657414e+00 6.062394e-01 9.344838e-01 1.061690e+00 8.736113e-01 4.371778e-01 4.875132e-01 4.345280e-01 3.334215e-01 1.137583e+00
<GCONST> 1.414269e+02
<STATE> 4
<MEAN> 39
 3.460352e+00 -6.277155e+00 3.001813e+00 -1.608990e+01 -1.571615e+01 7.394726e+00 -1.517076e+01 1.025611e+00 -1.007604e+00 -2.179230e+00 -4.512748e+00 -3.103720e+00 6.812989e+01 9.245701e-01 -1.624171e+00 7.958800e-02 -1.359950e+00 -5.113180e-01 2.724455e-01 -1.144814e+00 7.422000e-01 1.183375e-01 7.622709e-01 -5.153979e-01 -7.119465e-01 2.634869e+00 -3.420035e-01 -2.587921e-01 -5.608508e-01 7.073281e-03 2.182780e-01 -9.106939e-02 9.540312e-02 3.785039e-01 -2.889750e-03 -8.403797e-02 -1.989025e-02 -2.241019e-01 -1.142031e-01
<VARIANCE> 39
 6.860418e+01 8.983548e+01 5.077952e+01 2.772595e+02 6.036294e+01 1.422323e+02 6.849471e+01 5.260314e+01 3.027134e+01 4.643432e+01 7.428072e+01 2.355314e+01 1.038685e+02 7.472147e+00 5.665932e+00 3.449235e+00 1.141329e+01 3.170922e+00 4.474309e+00 5.693295e+00 5.656645e+00 2.407190e+00 3.139800e+00 2.264222e+00 2.695364e+00 9.323832e+00 1.044676e+00 9.501249e-01 7.058963e-01 1.414719e+00 4.365332e-01 8.177509e-01 1.230411e+00 1.177845e+00 5.167386e-01 5.170661e-01 5.991726e-01 3.994759e-01 8.773456e-01
<GCONST> 1.426205e+02
<TRANSP> 5
 0.000000e+00 1.000000e+00 0.000000e+00 0.000000e+00 0.000000e+00
 0.000000e+00 3.966862e-01 6.033139e-01 0.000000e+00 0.000000e+00
 0.000000e+00 0.000000e+00 3.572851e-01 6.427149e-01 0.000000e+00
 0.000000e+00 0.000000e+00 0.000000e+00 5.830498e-01 4.169502e-01
 0.000000e+00 0.000000e+00 0.000000e+00 0.000000e+00 0.000000e+00
<ENDHMM>
~h "t"
<BEGINHMM>
<NUMSTATES> 5
<STATE> 2
<MEAN> 39
 4.745462e+00 -4.442121e+00 -1.407786e+01 -1.551086e+01 -6.084778e-01 1.513403e+01 -9.838365e+00 5.425460e-01 -5.943250e+00 -9.031477e+00 2.638946e-01 -5.668852e+00 6.635617e+01 -9.891115e-02 1.186325e-01 -1.737535e-01 1.011349e-01 4.688511e-02 2.605677e-01 8.151017e-01 -3.803266e-01 -6.194962e-01 4.325857e-01 -2.020568e-01 -1.454438e-02 -7.396570e-01 -2.368133e-01 -2.303964e-02 1.392234e-01 1.511565e-01 -5.831713e-02 -6.337572e-02 1.284882e-01 -1.428137e-02 1.366506e-01 -6.664561e-02 1.625294e-02 1.548298e-02 -1.195229e-01
<VARIANCE> 39
 4.202811e+01 3.099466e+01 3.421467e+01 4.991942e+01 2.840571e+01 3.952918e+01 8.162260e+01 3.376164e+01 4.750236e+01 6.111303e+01 4.978444e+01 2.608727e+01 9.278442e+01 2.265114e+00 2.479850e+00 1.451530e+00 2.221172e+00 2.347880e+00 4.811512e+00 4.174157e+00 2.456637e+00 2.776356e+00 3.024907e+00 3.182173e+00 1.696221e+00 2.062889e+00 2.968979e-01 3.024176e-01 2.439611e-01 3.077521e-01 3.216278e-01 6.243826e-01 6.135260e-01 4.633267e-01 4.412134e-01 3.632259e-01 4.337900e-01 2.971029e-01 1.850211e-01
<GCONST> 1.196673e+02
<STATE> 3
<MEAN> 39
 3.937783e+00 -3.225227e+00 -1.470567e+01 -1.421181e+01 3.451238e-01 1.515159e+01 -7.336231e+00 -1.212131e-01 -7.294168e+00 -8.149679e+00 -4.760693e-01 -5.277743e+00 6.290161e+01 -5.969936e-01 8.329365e-02 2.292541e-01 4.248574e-01 -1.299281e-01 3.836623e-01 8.969500e-01 -2.000099e-01 -2.414455e-01 3.653486e-01 -3.454970e-01 6.538268e-02 -9.223462e-01 -2.387807e-01 -6.601465e-02 1.799639e-01 7.309292e-02 -8.277272e-02 -2.087309e-03 -9.396226e-02 1.434482e-01 2.295690e-01 -7.320831e-02 2.286526e-02 -2.519518e-02 -5.966578e-02
<VARIANCE> 39
 5.585218e+01 4.551857e+01 2.898911e+01 6.901341e+01 2.649431e+01 3.255064e+01 9.666353e+01 2.689703e+01 4.073658e+01 3.742396e+01 3.683223e+01 2.341676e+01 1.175456e+02 2.292956e+00 2.472083e+00 1.803901e+00 2.392236e+00 2.223052e+00 2.995404e+00 3.755171e+00 2.086004e+00 2.508752e+00 2.385997e+00 3.216799e+00 1.772847e+00 1.890367e+00 2.429563e-01 3.616297e-01 2.783169e-01 3.145591e-01 3.036782e-01 4.469261e-01 5.044290e-01 4.110101e-01 3.822317e-01 3.445238e-01 3.967688e-01 2.884297e-01 1.569178e-01
<GCONST> 1.174316e+02
<STATE> 4
<MEAN> 39
 6.235406e-01 -2.468941e+00 -1.389992e+01 -1.224478e+01 1.745930e-01 1.524995e+01 -3.847635e+00 -7.225394e-02 -7.051489e+00 -7.516446e+00 -1.887320e+00 -4.217076e+00 5.813041e+01 -1.034807e+00 -1.035349e-01 6.180507e-01 4.504298e-01 -3.201283e-01 2.745023e-01 3.865199e-01 1.485047e-01 2.945882e-01 2.473877e-01 -2.120688e-01 7.107188e-03 -9.675003e-01 -8.034102e-02 -6.363024e-02 1.073832e-01 -1.162158e-02 -1.436765e-01 -1.618501e-01 -3.204150e-01 1.372710e-01 1.768262e-01 2.310652e-02 1.078879e-01 -1.300514e-01 3.673567e-02
<VARIANCE> 39
 6.645265e+01 5.758377e+01 2.485250e+01 1.049299e+02 3.546612e+01 4.029588e+01 1.177511e+02 2.347981e+01 3.237166e+01 2.689438e+01 2.917889e+01 2.374424e+01 1.559307e+02 2.842770e+00 2.159912e+00 1.796466e+00 2.433017e+00 2.301050e+00 2.768426e+00 3.902216e+00 1.890325e+00 2.103315e+00 1.877040e+00 2.452035e+00 1.924312e+00 1.609051e+00 3.219220e-01 4.162356e-01 3.604448e-01 4.173006e-01 3.797442e-01 5.572013e-01 5.703336e-01 4.182669e-01 3.815823e-01 3.725272e-01 3.571638e-01 2.890960e-01 1.765005e-01
<GCONST> 1.190357e+02
<TRANSP> 5
 0.000000e+00 1.000000e+00 0.000000e+00 0.000000e+00 0.000000e+00
 0.000000e+00 5.702319e-01 4.297681e-01 0.000000e+00 0.000000e+00
 0.000000e+00 0.000000e+00 5.671122e-01 4.328878e-01 0.000000e+00
 0.000000e+00 0.000000e+00 0.000000e+00 6.602080e-01 3.397920e-01
 0.000000e+00 0.000000e+00 0.000000e+00 0.000000e+00 0.000000e+00
<ENDHMM>
~h "u"
<BEGINHMM>
<NUMSTATES> 5
<STATE> 2
<MEAN> 39
 -7.416102e+00 -1.520584e+01 -6.263959e+00 -7.319546e-02 -1.360888e+01 -2.122123e+00 2.946639e+00 1.143409e+01 -4.044298e+00 -8.408284e+00 -8.908697e+00 -3.390054e+00 5.296838e+01 5.010259e-02 1.593788e+00 1.191877e-01 6.538697e-01 4.042153e-01 -1.364544e+00 1.497358e-01 -8.604097e-01 -4.309156e-01 1.566491e-02 8.400495e-02 1.116296e+00 -6.505197e-01 3.308374e-01 4.867685e-01 2.261068e-01 -2.235178e-01 3.211637e-01 1.112901e-01 -7.835779e-01 -1.770014e-01 -1.950995e-01 -1.293787e-01 2.308378e-01 -1.166326e-01 1.696032e-01
<VARIANCE> 39
 1.791975e+01 4.354244e+01 2.307022e+01 2.655944e+01 2.693456e+01 3.885497e+01 6.901228e+01 4.524178e+01 3.429241e+01 2.330658e+01 2.377369e+01 2.456519e+01 3.632597e+01 3.321733e+00 5.523396e+00 2.866952e+00 3.422734e+00 3.687706e+00 2.987791e+00 8.377096e+00 3.510499e+00 4.139129e+00 3.143410e+00 3.032998e+00 2.621624e+00 6.642133e+00 5.046884e-01 8.602943e-01 5.388363e-01 4.576337e-01 6.800132e-01 6.594898e-01 9.522094e-01 7.340748e-01 7.940469e-01 6.035590e-01 5.476535e-01 5.699058e-01 6.936572e-01
<GCONST> 1.282469e+02
<STATE> 3
<MEAN> 39
 -5.844457e+00 -1.022937e+01 -4.979127e+00 1.097403e-01 -1.206889e+01 -4.319160e+00 5.752182e-01 8.581002e+00 -5.494922e+00 -8.626245e+00 -7.863678e+00 -1.372103e+00 5.301785e+01 5.727310e-01 2.569359e+00 4.194316e-01 1.456313e-01 1.065061e+00 -7.910587e-01 -1.401060e+00 -1.403534e+00 -7.346799e-01 -1.215973e-02 6.851527e-01 5.777283e-01 -5.677997e-01 -6.068785e-02 1.168083e-01 -3.886201e-02 -1.632006e-01 1.898426e-01 5.018165e-01 -3.705637e-01 -1.631157e-01 -3.063754e-02 1.041218e-01 2.178549e-01 -3.928070e-01 -1.304523e-01
<VARIANCE> 39
 2.952949e+01 7.836227e+01 3.092185e+01 4.630980e+01 3.607395e+01 5.438837e+01 8.153114e+01 6.364466e+01 3.588191e+01 2.258421e+01 3.745421e+01 2.862926e+01 5.464310e+01 4.112018e+00 6.487451e+00 2.953153e+00 4.288825e+00 4.518718e+00 5.826561e+00 7.227496e+00 4.328301e+00 3.729564e+00 3.148219e+00 3.457532e+00 3.531306e+00 4.683570e+00 7.181476e-01 1.284672e+00 6.276788e-01 5.742266e-01 8.194031e-01 9.728343e-01 1.333244e+00 8.021328e-01 9.134603e-01 6.527295e-01 6.118937e-01 7.444189e-01 7.005269e-01
<GCONST> 1.366284e+02
<STATE> 4
<MEAN> 39
 -1.797139e+00 -6.668690e+00 -8.702798e-01 -7.375747e+00 -1.030942e+01 -7.152333e-01 -1.251283e+01 3.265109e+00 -4.141751e+00 -6.428113e+00 -1.643372e+00 -4.464499e+00 6.266602e+01 -1.449077e-01 6.183338e-01 -4.089706e-02 -1.241403e-01 6.568831e-01 3.107979e-01 -6.465684e-01 -6.194214e-01 5.168193e-02 1.759972e-01 2.181241e-01 -3.163735e-01 -2.212844e-01 -2.151453e-01 -2.834222e-01 -1.566340e-01 -3.120029e-02 -7.469744e-02 3.477226e-01 2.136796e-01 3.000197e-02 1.152458e-01 1.168733e-01 -1.323523e-02 -1.606424e-01 -9.637861e-02
<VARIANCE> 39
 4.655070e+01 8.077199e+01 4.515692e+01 1.261253e+02 4.992821e+01 1.031142e+02 1.498927e+02 6.548392e+01 4.925937e+01 3.216283e+01 8.426794e+01 5.470123e+01 1.975296e+02 4.841648e+00 8.299381e+00 4.042443e+00 5.751235e+00 6.480856e+00 8.837596e+00 8.065357e+00 8.300921e+00 4.593166e+00 4.354033e+00 5.730654e+00 6.764975e+00 7.659548e+00 8.096688e-01 1.429241e+00 7.390621e-01 8.350861e-01 1.367115e+00 1.414120e+00 1.701844e+00 1.710766e+00 9.313304e-01 1.037445e+00 9.391231e-01 1.359975e+00 1.300699e+00
<GCONST> 1.530298e+02
<TRANSP> 5
 0.000000e+00 1.000000e+00 0.000000e+00 0.000000e+00 0.000000e+00
 0.000000e+00 4.368756e-01 5.631244e-01 0.000000e+00 0.000000e+00
 0.000000e+00 0.000000e+00 4.199991e-01 5.800010e-01 0.000000e+00
 0.000000e+00 0.000000e+00 0.000000e+00 7.364078e-01 2.635922e-01
 0.000000e+00 0.000000e+00 0.000000e+00 0.000000e+00 0.000000e+00
<ENDHMM>
~h "w"
<BEGINHMM>
<NUMSTATES> 5
<STATE> 2
<MEAN> 39
 -1.695323e+01 -6.245514e-01 -1.137483e+01 -5.591881e-02 -8.518044e+00 3.047721e-01 -7.772415e+00 -2.100031e+00 -4.198253e+00 -3.915224e+00 -3.476465e+00 -3.820892e+00 3.509809e+01 3.809265e-02 -3.113404e-02 3.400889e-02 -2.545750e-02 2.644388e-02 -2.331916e-02 -4.247837e-04 -7.019916e-03 -2.224438e-02 7.078486e-03 -2.495507e-02 2.048962e-02 7.398486e-02 -2.431083e-03 2.527974e-03 3.837819e-03 -7.597431e-04 3.494522e-03 2.952238e-03 4.393926e-03 -7.770301e-04 -5.326839e-05 3.636256e-03 4.562400e-03 -9.599465e-04 6.988668e-05
<VARIANCE> 39
 3.393032e+00 3.359276e+00 6.947167e+00 7.583320e+00 9.117302e+00 1.258966e+01 1.203779e+01 1.297833e+01 1.397448e+01 1.163268e+01 1.195997e+01 1.072108e+01 3.087551e+00 1.637375e-01 2.684897e-01 4.960976e-01 6.516588e-01 8.132508e-01 1.093931e+00 1.199048e+00 1.277261e+00 1.300936e+00 1.295537e+00 1.286784e+00 1.153109e+00 7.364571e-02 3.153384e-02 5.354671e-02 1.012180e-01 1.332413e-01 1.660203e-01 2.289438e-01 2.432882e-01 2.653539e-01 2.703016e-01 2.716095e-01 2.654617e-01 2.371847e-01 1.297693e-02
<GCONST> 6.688381e+01
<STATE> 3
<MEAN> 39
 -1.575529e+01 -1.989446e+00 -1.108834e+01 -4.145100e-01 -8.007835e+00 -6.787344e-01 -8.100133e+00 -1.957452e+00 -3.888487e+00 -3.678378e+00 -4.204181e+00 -3.711301e+00 3.713005e+01 -2.966242e-02 2.498937e-02 8.401503e-02 1.772865e-02 6.775825e-02 6.162143e-02 7.108559e-02 -1.702018e-03 -7.756414e-02 -3.295623e-03 5.754445e-02 3.388034e-02 4.834309e-03 2.884213e-02 3.653642e-02 1.534819e-02 6.659399e-05 1.570390e-02 7.723982e-03 5.919158e-03 6.420814e-03 -1.909967e-03 -9.812260e-03 6.930787e-03 -5.561561e-03 1.339280e-02
<VARIANCE> 39
 5.065404e+00 5.205974e+00 8.560212e+00 7.825436e+00 1.048646e+01 1.427066e+01 1.491690e+01 1.434005e+01 1.761032e+01 1.194737e+01 1.155780e+01 1.225500e+01 3.528090e+00 2.006102e-01 3.038113e-01 5.077850e-01 7.742422e-01 9.197617e-01 1.039000e+00 1.262565e+00 1.373178e+00 1.460760e+00 1.287349e+00 1.094845e+00 1.383332e+00 8.386345e-02 5.323188e-02 6.496122e-02 1.018058e-01 1.738390e-01 1.873488e-01 2.197447e-01 2.593756e-01 2.786803e-01 2.843569e-01 2.521981e-01 2.216341e-01 2.959673e-01 1.851838e-02
<GCONST> 7.156561e+01
<STATE> 4
<MEAN> 39
 -1.640629e+01 -5.608795e-01 -9.393017e+00 -2.575283e-01 -7.262460e+00 8.096535e-01 -6.893320e+00 -2.305372e+00 -5.319134e+00 -3.997416e+00 -3.165765e+00 -3.463586e+00 3.666967e+01 4.898620e-01 5.062637e-01 2.567084e-01 2.925225e-02 1.969546e-01 1.426419e-01 1.180182e-01 1.127996e-01 -3.631697e-02 -6.655565e-02 -7.828317e-02 -2.342096e-02 2.194116e-01 3.964149e-01 3.741753e-01 1.744085e-01 -3.747634e-02 1.228375e-02 3.252361e-02 9.126529e-02 4.508892e-02 6.218469e-02 1.641557e-02 2.263247e-02 7.765014e-02 2.182139e-01
<VARIANCE> 39
 8.627337e+00 9.534643e+00 9.372828e+00 1.099060e+01 1.207245e+01 1.222758e+01 1.096668e+01 1.454289e+01 1.399251e+01 1.303367e+01 1.244662e+01 1.218738e+01 4.182919e+00 1.231910e+00 1.041902e+00 9.216613e-01 1.272362e+00 1.264848e+00 1.252993e+00 1.538130e+00 1.477287e+00 1.403824e+00 1.556668e+00 1.377844e+00 1.608865e+00 3.335540e-01 2.906112e-01 2.420130e-01 2.454357e-01 3.397287e-01 2.712727e-01 3.569247e-01 3.087205e-01 3.825935e-01 2.950268e-01 3.047208e-01 3.250346e-01 3.272357e-01 1.050994e-01
<GCONST> 8.810482e+01
<TRANSP> 5
 0.000000e+00 1.000000e+00 0.000000e+00 0.000000e+00 0.000000e+00
 0.000000e+00 9.706827e-01 2.931727e-02 0.000000e+00 0.000000e+00
 0.000000e+00 0.000000e+00 8.864458e-01 1.135543e-01 0.000000e+00
 0.000000e+00 0.000000e+00 0.000000e+00 5.320637e-01 4.679364e-01
 0.000000e+00 0.000000e+00 0.000000e+00 0.000000e+00 0.000000e+00
<ENDHMM>
~h "x"
<BEGINHMM>
<NUMSTATES> 5
<STATE> 2
<MEAN> 39
 8.962665e-01 -1.391340e+01 -8.865701e-01 -1.411621e+01 -1.268579e+01 3.113754e+00 -1.568647e+01 5.219850e+00 -1.330586e+00 -1.758030e+00 -5.212656e+00 -7.731685e+00 7.641179e+01 -1.916546e-01 -5.249048e-01 -1.180369e-01 -1.263879e-01 1.447313e-01 -6.435513e-01 -6.411776e-02 7.828698e-01 -8.893060e-02 -6.996246e-02 -9.886295e-03 -2.504023e-01 8.400288e-01 -1.365015e-01 1.722634e-01 4.646182e-02 9.324950e-02 -7.327666e-03 -4.841531e-02 1.294454e-01 1.106622e-02 -1.285585e-01 -7.723676e-02 7.344349e-02 1.416834e-01 -1.477516e-01
<VARIANCE> 39
 3.800081e+01 5.567225e+01 7.542508e+01 8.018234e+01 5.354293e+01 8.512491e+01 8.252827e+01 9.985074e+01 3.994360e+01 5.937692e+01 8.103635e+01 3.292891e+01 9.172867e+01 3.256228e+00 3.044248e+00 4.323490e+00 4.865542e+00 3.809796e+00 5.668347e+00 6.842449e+00 8.102155e+00 3.485077e+00 4.208147e+00 3.183951e+00 3.931907e+00 5.715150e+00 5.051917e-01 4.335350e-01 6.983615e-01 5.466270e-01 6.060904e-01 7.541010e-01 1.001088e+00 1.419985e+00 5.952653e-01 7.004203e-01 5.704039e-01 6.757348e-01 5.454410e-01
<GCONST> 1.396991e+02
<STATE> 3
<MEAN> 39
 -4.296403e-01 -1.487366e+01 -1.689385e+00 -1.417042e+01 -1.244817e+01 1.628586e+00 -1.466231e+01 7.350814e+00 -1.878056e+00 -2.671203e+00 -4.532963e+00 -8.403490e+00 7.840524e+01 -3.993357e-01 8.011951e-02 1.724470e-01 2.077915e-01 4.777035e-02 -6.589360e-01 3.245987e-01 5.707042e-01 -3.516589e-01 -2.790309e-01 1.373644e-01 2.276349e-01 1.401859e-01 -5.560552e-02 1.835984e-01 1.441626e-01 3.630020e-02 -3.929259e-02 2.785306e-02 9.671982e-02 -1.728282e-01 -9.603623e-02 -2.999110e-02 8.902607e-02 1.628304e-01 -1.108372e-01
<VARIANCE> 39
 4.342022e+01 4.594450e+01 6.188408e+01 4.711299e+01 4.782979e+01 7.729134e+01 9.022342e+01 9.765674e+01 4.077519e+01 6.320726e+01 7.584647e+01 2.863664e+01 6.646684e+01 2.904537e+00 2.225729e+00 4.286904e+00 3.599983e+00 3.589872e+00 5.774470e+00 6.444412e+00 8.429931e+00 3.701115e+00 4.344871e+00 3.268470e+00 3.723871e+00 3.178695e+00 4.475188e-01 3.852587e-01 4.770947e-01 4.790848e-01 6.257589e-01 7.653621e-01 9.348143e-01 1.423721e+00 6.026804e-01 7.296001e-01 5.703444e-01 7.018999e-01 3.606696e-01
<GCONST> 1.359086e+02
<STATE> 4
<MEAN> 39
 -2.356047e+00 -1.397980e+01 -7.154850e-01 -1.388480e+01 -1.331798e+01 1.833340e-01 -1.275910e+01 7.872270e+00 -3.252037e+00 -4.093019e+00 -2.436078e+00 -7.834493e+00 7.943035e+01 -6.244683e-02 3.878803e-01 5.028177e-01 1.208175e-01 -1.259951e-01 -2.760652e-01 9.915430e-03 -1.776810e-02 -4.089274e-01 4.672636e-02 4.294274e-01 2.299619e-01 -2.439314e-01 -3.422507e-02 1.386931e-01 1.977646e-02 -4.110236e-03 8.419904e-02 6.975342e-02 1.728423e-02 -1.980740e-01 -3.135916e-03 5.420434e-02 1.226309e-02 1.844054e-04 -9.760518e-02
<VARIANCE> 39
 7.149968e+01 4.656376e+01 7.290137e+01 4.156373e+01 6.695423e+01 7.929482e+01 1.037096e+02 1.212996e+02 4.861639e+01 5.246759e+01 6.347367e+01 3.172603e+01 4.514071e+01 3.213910e+00 2.281590e+00 3.800920e+00 2.438957e+00 3.878424e+00 4.534505e+00 6.430605e+00 7.018424e+00 3.945319e+00 3.594650e+00 3.632876e+00 3.358389e+00 1.989018e+00 5.083275e-01 3.536356e-01 4.673845e-01 3.741148e-01 6.680645e-01 6.812850e-01 1.021371e+00 1.244857e+00 6.479689e-01 6.244617e-01 5.702516e-01 5.868289e-01 2.122149e-01
<GCONST> 1.342633e+02
<TRANSP> 5
 0.000000e+00 1.000000e+00 0.000000e+00 0.000000e+00 0.000000e+00
 0.000000e+00 5.964501e-01 4.035499e-01 0.000000e+00 0.000000e+00
 0.000000e+00 0.000000e+00 6.539224e-01 3.460777e-01 0.000000e+00
 0.000000e+00 0.000000e+00 0.000000e+00 8.714656e-01 1.285345e-01
 0.000000e+00 0.000000e+00 0.000000e+00 0.000000e+00 0.000000e+00
<ENDHMM>
~h "y"
<BEGINHMM>
<NUMSTATES> 5
<STATE> 2
<MEAN> 39
 -1.459317e+01 9.532843e-01 -7.676350e+00 -1.436919e+00 -8.124775e+00 -5.473644e-02 -7.743062e+00 -1.177484e+00 -4.768918e+00 -4.096256e+00 -2.701908e+00 -3.437916e+00 3.799601e+01 -1.066566e-01 -6.363626e-02 2.765958e-01 -6.163553e-02 7.772765e-02 7.502662e-02 -1.304580e-01 -5.986422e-03 -7.327622e-02 -1.218094e-02 5.807818e-02 7.992391e-03 4.830512e-02 -1.480219e-02 7.332723e-03 1.040514e-01 -3.437554e-02 8.922359e-03 2.729258e-02 2.591617e-02 7.438049e-02 -4.886878e-02 -1.413288e-02 2.616174e-02 -3.545535e-02 2.580731e-02
<VARIANCE> 39
 3.101349e+01 2.229548e+01 2.500117e+01 3.769341e+01 2.743789e+01 2.171153e+01 1.925458e+01 2.801787e+01 1.854108e+01 1.907973e+01 1.452881e+01 1.237172e+01 1.560312e+01 1.277508e+00 1.371675e+00 2.451646e+00 2.865542e+00 2.680753e+00 2.203603e+00 1.939292e+00 2.831887e+00 1.806842e+00 2.178380e+00 1.900619e+00 1.515117e+00 7.050676e-01 2.955599e-01 3.010855e-01 5.276392e-01 5.633355e-01 5.384083e-01 4.501956e-01 3.929817e-01 5.849319e-01 3.963947e-01 4.916298e-01 3.632944e-01 2.723170e-01 1.520680e-01
<GCONST> 1.072686e+02
<STATE> 3
<MEAN> 39
 -1.391269e+01 2.173728e+00 -5.504335e+00 -7.282276e-01 -7.201294e+00 1.847422e+00 -7.415939e+00 -1.473835e+00 -5.862020e+00 -4.242732e+00 -2.287064e+00 -3.532600e+00 3.837340e+01 -1.673606e-01 -6.545575e-02 6.084679e-01 -3.950954e-01 9.528226e-02 1.431914e-01 -2.714484e-01 4.375477e-01 -3.805725e-01 -1.154482e-01 3.460011e-01 -3.050287e-01 1.650881e-01 3.452592e-01 2.265623e-01 3.187078e-01 -1.057859e-01 -1.266170e-01 -2.223114e-03 3.920932e-02 1.513588e-01 -6.714988e-02 -1.930104e-02 1.280987e-02 -1.145952e-01 3.034553e-01
<VARIANCE> 39
 4.180252e+01 2.848038e+01 2.457447e+01 2.905243e+01 1.938812e+01 2.143439e+01 1.552092e+01 1.702365e+01 1.553385e+01 1.534767e+01 1.280938e+01 1.579210e+01 1.909255e+01 2.294167e+00 2.543935e+00 2.286121e+00 3.200747e+00 2.395112e+00 2.634248e+00 1.795515e+00 2.109894e+00 2.167250e+00 1.671153e+00 1.628832e+00 1.686640e+00 8.009177e-01 6.044246e-01 5.708771e-01 6.051831e-01 6.374229e-01 4.588072e-01 5.543783e-01 3.756403e-01 3.786937e-01 4.856478e-01 4.036278e-01 3.651401e-01 2.820973e-01 2.367018e-01
<GCONST> 1.089942e+02
<STATE> 4
<MEAN> 39
 -1.346305e+01 1.823828e+00 -4.641265e+00 1.684046e-02 -5.834156e+00 1.056272e+00 -7.777491e+00 -7.285526e-01 -6.336543e+00 -4.232765e+00 -1.846727e+00 -3.751962e+00 3.927290e+01 2.933466e-01 3.016363e-01 7.666475e-01 -4.048482e-01 1.925226e-01 1.409415e-01 -2.732213e-01 5.157920e-01 -4.260514e-01 -5.517630e-02 2.527491e-01 -5.055938e-01 3.950200e-01 3.319877e-01 6.204884e-02 2.714885e-01 -2.413503e-01 -2.409043e-01 5.936357e-02 -8.794018e-02 7.093135e-02 -3.699470e-02 -4.013925e-02 2.739732e-02 -4.820539e-02 3.991652e-01
<VARIANCE> 39
 4.285694e+01 5.046351e+01 3.143040e+01 3.532166e+01 3.307040e+01 2.978036e+01 3.199234e+01 2.134974e+01 1.749269e+01 1.488070e+01 1.625855e+01 1.775204e+01 1.630753e+01 3.899736e+00 4.593519e+00 3.788963e+00 3.567068e+00 3.264808e+00 3.436726e+00 3.653280e+00 2.797490e+00 2.600508e+00 1.765890e+00 2.064316e+00 1.758457e+00 1.432029e+00 1.150147e+00 8.638778e-01 8.632115e-01 7.511936e-01 7.352471e-01 7.714077e-01 6.978891e-01 4.980349e-01 4.880372e-01 3.405552e-01 4.408912e-01 3.833138e-01 6.139215e-01
<GCONST> 1.210866e+02
<TRANSP> 5
 0.000000e+00 1.000000e+00 0.000000e+00 0.000000e+00 0.000000e+00
 0.000000e+00 6.886999e-01 3.113000e-01 0.000000e+00 0.000000e+00
 0.000000e+00 0.000000e+00 3.765603e-01 6.234397e-01 0.000000e+00
 0.000000e+00 0.000000e+00 0.000000e+00 6.410587e-01 3.589412e-01
 0.000000e+00 0.000000e+00 0.000000e+00 0.000000e+00 0.000000e+00
<ENDHMM>
~h "z"
<BEGINHMM>
<NUMSTATES> 5
<STATE> 2
<MEAN> 39
 3.416322e+00 -5.856020e+00 6.773043e-02 -1.198002e+01 -7.214793e+00 6.147481e+00 -1.404479e+01 -4.499846e+00 -6.807932e+00 -6.597030e+00 1.627717e+00 -5.666386e+00 6.704562e+01 1.247723e-01 -1.684530e-01 2.736429e-01 3.106433e-01 2.058769e-01 -1.500058e-01 -3.401542e-01 1.097839e-02 -3.503733e-01 1.882550e-01 -8.871882e-02 -6.075045e-02 3.221331e-01 -7.359876e-02 9.951890e-03 -2.865758e-02 -7.472891e-02 1.016979e-02 9.714586e-03 2.534975e-02 4.602208e-02 1.008574e-01 -4.728488e-03 -3.753490e-02 -2.656873e-02 3.687986e-02
<VARIANCE> 39
 5.512598e+01 3.527369e+01 6.426350e+01 9.137207e+01 4.402578e+01 6.838498e+01 5.900709e+01 4.819655e+01 1.096897e+02 3.020490e+01 2.920944e+01 1.640220e+01 5.288297e+01 7.414146e+00 3.102013e+00 3.354105e+00 5.132088e+00 3.847895e+00 6.086631e+00 6.024051e+00 4.208339e+00 6.666495e+00 3.190361e+00 3.195694e+00 1.697885e+00 5.057564e+00 1.420343e+00 5.071313e-01 4.995673e-01 6.559681e-01 7.383837e-01 9.944830e-01 1.181427e+00 6.788253e-01 9.665823e-01 6.680428e-01 6.140451e-01 3.446826e-01 8.303153e-01
<GCONST> 1.367239e+02
<STATE> 3
<MEAN> 39
 2.946856e+00 -6.731771e+00 4.920626e-02 -1.228345e+01 -6.387907e+00 6.588868e+00 -1.513330e+01 -4.018305e+00 -6.949370e+00 -5.800091e+00 9.626461e-01 -6.114513e+00 6.881313e+01 -4.167850e-02 -1.285097e-01 7.926915e-02 -5.429417e-03 1.512305e-01 5.897413e-02 -3.109941e-01 1.816740e-01 3.378597e-02 1.419142e-01 -1.619584e-01 -1.372485e-01 2.788528e-01 -5.686007e-02 2.776321e-02 -3.113904e-02 -4.659105e-02 2.733768e-03 3.462513e-03 2.537541e-02 2.820903e-02 7.755040e-02 -1.733664e-02 -2.372619e-02 -6.943291e-03 -2.152230e-02
<VARIANCE> 39
 5.641685e+01 3.181949e+01 6.267590e+01 1.077496e+02 4.037586e+01 9.883422e+01 6.524653e+01 5.658202e+01 7.899435e+01 2.875671e+01 2.723156e+01 1.649683e+01 5.881802e+01 7.986609e+00 3.246737e+00 3.748493e+00 6.108416e+00 4.197177e+00 8.753052e+00 7.807137e+00 4.310858e+00 6.598362e+00 3.159909e+00 3.052461e+00 1.848720e+00 5.368654e+00 1.621240e+00 5.153186e-01 6.014926e-01 7.344658e-01 8.288822e-01 1.394651e+00 1.578782e+00 7.265309e-01 1.082503e+00 6.708532e-01 5.957513e-01 3.851220e-01 7.760334e-01
<GCONST> 1.395982e+02
<STATE> 4
<MEAN> 39
 2.727453e+00 -6.938096e+00 -4.428573e-01 -1.367134e+01 -5.984102e+00 8.072068e+00 -1.790934e+01 -2.404084e+00 -5.458589e+00 -5.152392e+00 5.208040e-01 -7.190825e+00 6.991476e+01 1.219066e-01 6.678101e-02 -2.441913e-01 -1.484492e-01 -1.550788e-01 3.907115e-01 -1.682088e-01 1.469475e-01 1.109980e-02 -1.827689e-02 -2.376955e-02 -7.669210e-02 4.676715e-02 -1.945374e-02 3.067987e-02 -1.628548e-02 4.805841e-03 -5.017332e-02 7.325292e-02 6.684406e-02 8.884625e-03 -3.288709e-02 -4.346374e-02 2.940931e-02 1.077545e-02 -6.211822e-02
<VARIANCE> 39
 4.661386e+01 3.324150e+01 6.049611e+01 1.139769e+02 4.273040e+01 1.270468e+02 7.400791e+01 6.635847e+01 6.968462e+01 2.995793e+01 2.737781e+01 2.296353e+01 5.799763e+01 6.307382e+00 3.541078e+00 4.662488e+00 7.275892e+00 5.324059e+00 1.208880e+01 9.078735e+00 5.349780e+00 6.213130e+00 3.262837e+00 2.948389e+00 2.633485e+00 5.048924e+00 1.332294e+00 4.921768e-01 8.026399e-01 8.793873e-01 1.094829e+00 1.742124e+00 1.814776e+00 9.635799e-01 1.122472e+00 6.602888e-01 5.600901e-01 5.014327e-01 6.674240e-01
<GCONST> 1.429241e+02
<TRANSP> 5
 0.000000e+00 1.000000e+00 0.000000e+00 0.000000e+00 0.000000e+00
 0.000000e+00 7.905702e-01 2.094298e-01 0.000000e+00 0.000000e+00
 0.000000e+00 0.000000e+00 7.911679e-01 2.088322e-01 0.000000e+00
 0.000000e+00 0.000000e+00 0.000000e+00 9.209362e-01 7.906378e-02
 0.000000e+00 0.000000e+00 0.000000e+00 0.000000e+00 0.000000e+00
<ENDHMM>
~h "ai"
<BEGINHMM>
<NUMSTATES> 5
<STATE> 2
<MEAN> 39
 -3.587916e+00 -1.642183e+01 -5.371668e+00 -5.287457e+00 -1.102629e+01 5.739004e+00 -9.481697e+00 1.211950e+01 -1.909027e+00 -1.111249e+01 -8.445030e+00 -7.839210e+00 6.036685e+01 -1.313765e-01 1.992360e-01 -7.782048e-02 7.655830e-01 -6.573109e-02 -5.207028e-01 1.253784e+00 -3.692019e-01 -3.329323e-01 2.301999e-01 -6.070944e-02 6.099354e-01 -1.119061e+00 6.941066e-02 8.603299e-02 7.532337e-02 -9.872898e-02 -6.815364e-02 -1.152678e-01 -9.237109e-02 -1.521097e-02 7.858571e-02 -2.585216e-02 -2.968376e-03 5.491023e-03 1.219267e-01
<VARIANCE> 39
 3.379175e+01 8.711205e+01 2.347576e+01 4.833596e+01 2.536700e+01 4.176798e+01 9.315488e+01 4.611285e+01 2.190493e+01 2.580745e+01 2.089352e+01 3.335601e+01 1.439558e+02 2.514834e+00 2.757534e+00 2.175561e+00 2.030616e+00 2.041630e+00 2.416286e+00 3.334016e+00 1.960188e+00 2.187924e+00 1.909944e+00 1.597094e+00 1.322138e+00 2.604795e+00 5.260634e-01 4.267730e-01 3.782387e-01 4.249173e-01 4.452737e-01 4.289153e-01 4.965405e-01 4.030102e-01 4.206779e-01 3.771035e-01 3.221075e-01 2.491278e-01 4.681119e-01
<GCONST> 1.182042e+02
<STATE> 3
<MEAN> 39
 -5.102877e+00 -1.345149e+01 -6.180306e+00 -2.151885e+00 -1.117906e+01 2.376656e+00 -4.455264e+00 9.897354e+00 -3.286509e+00 -1.022189e+01 -8.357893e+00 -5.316173e+00 5.476881e+01 -3.026536e-02 6.268346e-01 2.805055e-02 4.611248e-01 -8.639330e-02 -6.141907e-01 7.500973e-01 -4.321678e-01 -2.262091e-01 1.535942e-01 -1.193722e-02 4.904227e-01 -7.617472e-01 5.068969e-02 2.793170e-02 5.672892e-02 -1.550121e-01 -3.409958e-02 1.749072e-02 -1.704179e-01 -2.013447e-02 4.620967e-02 -1.269986e-02 2.006664e-02 -3.638623e-02 1.551069e-01
<VARIANCE> 39
 3.961045e+01 1.124835e+02 3.069145e+01 5.045353e+01 2.883936e+01 4.804647e+01 8.809386e+01 5.312762e+01 2.488746e+01 3.052296e+01 2.217887e+01 3.183341e+01 1.176493e+02 3.689231e+00 3.269879e+00 2.865246e+00 3.018544e+00 2.627217e+00 2.719903e+00 4.599446e+00 2.351400e+00 2.626582e+00 2.331049e+00 1.920436e+00 1.526734e+00 3.662203e+00 5.605903e-01 5.666458e-01 4.558873e-01 5.801494e-01 5.423470e-01 5.088588e-01 6.455388e-01 4.348488e-01 4.795344e-01 4.667220e-01 3.555764e-01 2.914352e-01 5.090367e-01
<GCONST> 1.247764e+02
<STATE> 4
<MEAN> 39
 -5.076239e+00 -7.876433e+00 -5.806383e+00 -6.295319e-01 -1.076215e+01 -8.449137e-01 -2.786016e+00 6.506485e+00 -4.726392e+00 -8.885476e+00 -7.540769e+00 -3.470757e+00 5.172921e+01 -1.670401e-02 6.622564e-01 1.898729e-01 -9.374352e-02 2.562021e-02 -1.795674e-01 -8.701000e-02 -4.793711e-01 -9.616266e-02 1.991748e-01 2.613523e-01 1.703583e-01 -2.474883e-01 -5.310757e-02 -1.634236e-01 3.139744e-02 -1.022813e-01 -6.245146e-03 2.209950e-02 -9.936272e-02 5.022098e-02 2.745925e-02 3.981677e-02 7.359251e-02 -6.434729e-02 1.679102e-01
<VARIANCE> 39
 5.684189e+01 1.309639e+02 3.924260e+01 5.192658e+01 3.200997e+01 4.393809e+01 7.883210e+01 6.304220e+01 3.069059e+01 3.665774e+01 2.753243e+01 2.496327e+01 9.898061e+01 4.279909e+00 5.270372e+00 3.528472e+00 4.454063e+00 3.244101e+00 3.688156e+00 5.472067e+00 3.083291e+00 2.840318e+00 3.064214e+00 2.235605e+00 1.930416e+00 4.967834e+00 6.706098e-01 8.398438e-01 5.961813e-01 6.376600e-01 5.396985e-01 6.138681e-01 8.177252e-01 5.558625e-01 5.549914e-01 5.984071e-01 4.290030e-01 3.729832e-01 5.747581e-01
<GCONST> 1.316094e+02
<TRANSP> 5
 0.000000e+00 1.000000e+00 0.000000e+00 0.000000e+00 0.000000e+00
 0.000000e+00 7.092590e-01 2.907411e-01 0.000000e+00 0.000000e+00
 0.000000e+00 0.000000e+00 6.955719e-01 3.044281e-01 0.000000e+00
 0.000000e+00 0.000000e+00 0.000000e+00 8.314125e-01 1.685875e-01
 0.000000e+00 0.000000e+00 0.000000e+00 0.000000e+00 0.000000e+00
<ENDHMM>
~h "an"
<BEGINHMM>
<NUMSTATES> 5
<STATE> 2
<MEAN> 39
 3.056231e+00 -1.304561e+01 1.822191e+00 -1.494397e+01 -1.527669e+01 4.946280e+00 -1.773856e+01 5.142765e+00 -8.641834e-01 7.877157e-01 -7.082511e+00 -6.035382e+00 7.443063e+01 -1.412330e-01 -1.818496e+00 -9.641599e-01 -1.160985e+00 2.055283e-01 3.583616e-01 -5.019304e-01 1.816991e+00 1.824638e-01 1.888363e-01 -4.256765e-01 -1.328592e+00 2.037370e+00 -2.831264e-01 1.547125e-01 -2.306673e-01 2.604361e-01 2.409758e-01 3.078832e-02 3.739408e-01 -5.490674e-02 9.258779e-03 -2.868176e-01 -4.674695e-03 -3.172086e-02 -3.878194e-01
<VARIANCE> 39
 4.937344e+01 5.124077e+01 5.027238e+01 1.263624e+02 5.289294e+01 1.070358e+02 7.183264e+01 8.181770e+01 2.810097e+01 3.529479e+01 7.072672e+01 3.979662e+01 3.595312e+01 3.848177e+00 4.336579e+00 2.776810e+00 1.006405e+01 2.799159e+00 4.744919e+00 6.310544e+00 8.583717e+00 3.209255e+00 3.343122e+00 2.816233e+00 3.297840e+00 6.644941e+00 7.183403e-01 5.722274e-01 6.653128e-01 8.959923e-01 3.851743e-01 7.646930e-01 1.224051e+00 1.637737e+00 5.076948e-01 5.270819e-01 5.702788e-01 6.143968e-01 6.138120e-01
<GCONST> 1.384451e+02
<STATE> 3
<MEAN> 39
 1.567846e+00 -1.682509e+01 -9.676688e-01 -1.544103e+01 -1.378749e+01 5.003398e+00 -1.723315e+01 8.762115e+00 -3.025820e-01 2.621331e-01 -8.621103e+00 -9.334554e+00 7.831002e+01 -4.177750e-01 -8.265425e-01 -8.358125e-01 -1.783881e-01 5.275246e-01 1.841161e-01 4.058194e-01 5.937772e-01 2.277588e-01 -4.924763e-01 -4.471548e-01 -7.435361e-01 9.763833e-01 -7.391971e-02 3.231643e-01 8.513497e-02 3.023883e-01 3.489026e-02 -1.363960e-01 2.397841e-01 -4.633194e-01 2.750158e-02 -1.960100e-01 7.519327e-02 2.532964e-01 -2.633922e-01
<VARIANCE> 39
 4.276297e+01 3.936592e+01 3.402582e+01 4.652325e+01 4.457106e+01 7.250129e+01 7.038754e+01 7.550772e+01 2.718896e+01 4.032527e+01 4.402634e+01 2.788143e+01 2.523767e+01 2.661825e+00 3.208089e+00 3.040133e+00 5.436880e+00 2.328241e+00 5.520603e+00 7.045124e+00 8.747770e+00 3.837366e+00 3.634833e+00 2.650841e+00 2.956097e+00 2.208314e+00 4.359643e-01 3.934087e-01 4.263846e-01 6.332199e-01 3.775040e-01 7.653826e-01 1.047922e+00 1.558931e+00 5.860276e-01 6.259975e-01 4.333496e-01 5.080497e-01 3.619870e-01
<GCONST> 1.302280e+02
<STATE> 4
<MEAN> 39
 -4.887664e+00 -1.220968e+01 -3.160923e+00 -1.037782e+01 -1.026340e+01 1.108805e+00 -1.081122e+01 6.690506e+00 -8.154733e-01 -4.707316e+00 -6.013570e+00 -6.446515e+00 7.667497e+01 -3.302409e-03 -2.744767e-02 8.628418e-02 4.185570e-02 8.156110e-03 2.613305e-02 -2.432691e-01 1.633276e-01 6.723926e-02 -4.206182e-01 1.545508e-01 -5.338310e-02 1.209048e-01 3.973866e-03 3.640647e-02 7.878568e-02 3.799730e-03 -4.669090e-02 -2.507112e-02 -1.020645e-02 1.737585e-02 -5.430197e-02 -9.867608e-03 7.090814e-02 2.029167e-02 -2.829932e-02
<VARIANCE> 39
 7.892338e+01 6.945634e+01 3.102300e+01 5.151735e+01 4.162904e+01 5.111250e+01 9.865862e+01 9.093959e+01 4.289532e+01 3.330227e+01 3.090978e+01 2.817881e+01 4.890050e+01 6.273969e+00 4.654385e+00 2.656426e+00 3.314292e+00 3.046847e+00 4.319718e+00 8.250350e+00 7.038326e+00 4.499748e+00 2.945085e+00 2.620176e+00 2.229945e+00 2.455587e+00 9.427103e-01 7.404562e-01 3.902385e-01 4.732341e-01 4.806219e-01 7.350443e-01 1.308002e+00 1.105757e+00 8.545176e-01 6.171259e-01 4.319477e-01 3.873967e-01 2.653631e-01
<GCONST> 1.333132e+02
<TRANSP> 5
 0.000000e+00 1.000000e+00 0.000000e+00 0.000000e+00 0.000000e+00
 0.000000e+00 5.575817e-01 4.424182e-01 0.000000e+00 0.000000e+00
 0.000000e+00 0.000000e+00 6.535600e-01 3.464399e-01 0.000000e+00
 0.000000e+00 0.000000e+00 0.000000e+00 9.647606e-01 3.523938e-02
 0.000000e+00 0.000000e+00 0.000000e+00 0.000000e+00 0.000000e+00
<ENDHMM>
~h "ao"
<BEGINHMM>
<NUMSTATES> 5
<STATE> 2
<MEAN> 39
 -4.770548e+00 -1.480502e+00 -4.415643e-02 -1.003210e+01 -7.629505e+00 4.946868e+00 -8.390396e+00 -3.013396e+00 -7.474124e+00 -4.413840e+00 7.876968e-01 -5.841984e+00 6.189678e+01 -8.135079e-01 -2.192180e-01 3.183274e-01 -9.048418e-01 -1.850323e-01 1.977106e-01 -2.212716e-01 6.227063e-01 8.825794e-01 2.357906e-01 -1.557584e-01 1.511802e-01 7.776395e-01 3.989928e-02 -1.476013e-01 1.171568e-01 1.910697e-02 -1.263781e-01 -1.862795e-01 -2.175793e-01 1.447641e-01 8.244734e-02 1.886502e-02 -6.468486e-03 -7.412679e-02 3.260511e-01
<VARIANCE> 39
 1.768260e+02 9.393567e+01 5.269123e+01 1.204067e+02 5.706039e+01 1.214525e+02 6.828294e+01 3.780381e+01 5.841940e+01 2.447890e+01 2.318327e+01 3.148810e+01 1.612767e+02 1.713562e+01 4.470662e+00 3.768004e+00 7.200760e+00 8.358216e+00 7.543089e+00 4.071279e+00 3.185907e+00 4.993068e+00 2.682992e+00 2.805611e+00 2.625229e+00 4.488681e+00 2.534971e+00 7.644530e-01 6.341244e-01 1.560884e+00 1.541101e+00 1.508993e+00 8.026049e-01 7.175590e-01 7.925895e-01 5.479333e-01 4.865977e-01 3.824692e-01 9.032574e-01
<GCONST> 1.445572e+02
<STATE> 3
<MEAN> 39
 -6.488801e+00 -3.060803e+00 5.827644e-01 -1.258630e+01 -8.515448e+00 5.083521e+00 -9.153953e+00 -1.628390e+00 -5.117787e+00 -3.878840e+00 1.964244e-01 -5.201662e+00 6.524374e+01 2.353358e-01 -7.429672e-01 2.369278e-01 -5.721423e-01 -7.179442e-01 7.661705e-02 -6.554559e-01 7.166480e-01 5.662150e-01 2.286814e-01 -1.671768e-01 -2.455404e-01 1.381996e+00 2.403866e-01 -1.416452e-01 -4.093686e-02 1.826752e-01 -6.735194e-02 -2.025775e-01 -1.831436e-01 1.006066e-01 -6.639937e-02 6.935520e-02 -5.597296e-02 -1.223595e-01 1.561080e-01
<VARIANCE> 39
 1.760608e+02 8.471246e+01 5.204347e+01 1.169838e+02 7.151588e+01 1.410218e+02 7.992129e+01 3.810194e+01 4.642367e+01 2.570987e+01 2.756073e+01 3.841511e+01 1.387119e+02 1.663219e+01 3.914954e+00 5.456629e+00 9.452142e+00 8.977969e+00 7.741759e+00 5.070369e+00 3.790837e+00 4.654034e+00 3.074442e+00 3.006902e+00 3.082994e+00 6.113320e+00 2.096406e+00 7.350411e-01 7.102876e-01 1.700094e+00 1.581187e+00 1.748629e+00 9.398056e-01 8.281963e-01 7.906594e-01 5.948752e-01 5.997913e-01 4.807323e-01 8.826137e-01
<GCONST> 1.475029e+02
<STATE> 4
<MEAN> 39
 -1.297064e+00 -8.839987e+00 -9.956772e-01 -1.499124e+01 -1.174251e+01 5.736278e+00 -1.342371e+01 2.257644e+00 -4.391699e+00 -2.361603e+00 -4.451219e-01 -7.697908e+00 7.322962e+01 8.230891e-01 -8.493336e-01 -5.123617e-01 -6.548262e-01 -2.157355e-01 6.498112e-01 -8.904756e-01 5.128365e-01 2.299973e-01 4.702088e-01 -8.012787e-02 -6.980218e-01 1.122898e+00 -1.354197e-01 6.783992e-02 -2.974562e-02 -3.641320e-03 1.059631e-01 3.803456e-02 5.669019e-02 -9.908458e-02 -2.702073e-02 -1.292263e-02 3.939568e-02 5.259791e-02 -1.976249e-01
<VARIANCE> 39
 8.779919e+01 5.182459e+01 7.374384e+01 1.077930e+02 7.680517e+01 1.447882e+02 8.493797e+01 5.160695e+01 4.584335e+01 3.377266e+01 5.052734e+01 4.743881e+01 8.388193e+01 6.871613e+00 3.109197e+00 5.249309e+00 9.495453e+00 6.985600e+00 1.197565e+01 6.306959e+00 5.667368e+00 4.670857e+00 3.654827e+00 4.433286e+00 4.571211e+00 6.019714e+00 9.385492e-01 5.002128e-01 8.848478e-01 1.380089e+00 1.233529e+00 1.760215e+00 1.088833e+00 1.075601e+00 8.660412e-01 7.312797e-01 8.560517e-01 9.019043e-01 6.166911e-01
<GCONST> 1.481326e+02
<TRANSP> 5
 0.000000e+00 1.000000e+00 0.000000e+00 0.000000e+00 0.000000e+00
 0.000000e+00 5.231781e-01 4.768219e-01 0.000000e+00 0.000000e+00
 0.000000e+00 0.000000e+00 5.669104e-01 4.330895e-01 0.000000e+00
 0.000000e+00 0.000000e+00 0.000000e+00 8.378716e-01 1.621284e-01
 0.000000e+00 0.000000e+00 0.000000e+00 0.000000e+00 0.000000e+00
<ENDHMM>
~h "ch"
<BEGINHMM>
<NUMSTATES> 5
<STATE> 2
<MEAN> 39
 5.846323e+00 -9.772193e+00 -8.251509e+00 -1.945570e+01 -8.161185e+00 1.677057e+01 -1.339087e+01 6.974053e-01 -6.551362e+00 -4.748675e+00 6.798358e-01 -7.243900e+00 7.062773e+01 2.998099e-01 5.725622e-01 -5.502761e-02 -4.159355e-01 -3.366304e-01 6.966985e-01 4.912248e-01 -4.251336e-01 -1.705133e-01 -2.472936e-01 2.897141e-01 6.012381e-01 -7.862401e-01 -2.037625e-01 1.324890e-01 1.130367e-01 2.753955e-01 -3.157958e-02 -2.324444e-01 8.726715e-02 9.274049e-02 2.201157e-01 -5.424733e-02 -1.229443e-01 9.804922e-02 -1.409809e-01
<VARIANCE> 39
 2.841392e+01 3.927959e+01 2.618156e+01 7.595336e+01 6.294489e+01 9.646946e+01 3.980225e+01 2.418266e+01 2.318404e+01 5.431374e+01 3.658929e+01 2.792406e+01 6.959502e+01 2.162850e+00 1.982955e+00 1.288483e+00 5.833817e+00 3.247495e+00 6.644844e+00 3.621106e+00 2.294419e+00 2.255910e+00 4.448381e+00 2.965621e+00 2.036792e+00 1.715265e+00 2.614772e-01 2.934582e-01 2.547126e-01 6.095648e-01 3.863082e-01 7.472482e-01 4.384866e-01 4.137064e-01 3.610023e-01 5.744214e-01 3.819965e-01 3.892440e-01 1.685689e-01
<GCONST> 1.208483e+02
<STATE> 3
<MEAN> 39
 6.847336e+00 -7.647695e+00 -8.455979e+00 -2.027935e+01 -9.110149e+00 1.847697e+01 -1.277482e+01 -1.703966e-01 -6.078952e+00 -6.475502e+00 1.836689e+00 -5.116561e+00 6.764679e+01 -2.745541e-01 8.435226e-01 1.401367e-01 3.875909e-01 -2.196252e-01 -1.488322e-01 6.322765e-01 -3.032064e-01 2.379939e-01 9.620730e-04 -3.395069e-02 5.736958e-01 -1.135628e+00 -1.837761e-01 -8.015394e-02 4.763774e-02 1.585844e-01 -9.934887e-03 -1.475182e-01 -6.259642e-02 7.867973e-02 1.276887e-01 1.015044e-01 -5.260245e-02 -6.051132e-02 -3.037306e-02
<VARIANCE> 39
 1.976582e+01 4.830899e+01 2.344782e+01 1.005955e+02 8.122903e+01 7.906495e+01 5.103829e+01 2.914143e+01 2.620036e+01 3.535931e+01 2.729672e+01 2.357149e+01 9.008261e+01 2.278150e+00 1.703322e+00 1.168199e+00 5.129849e+00 3.539045e+00 4.882943e+00 4.055083e+00 2.081970e+00 2.034632e+00 3.988527e+00 2.336299e+00 1.435291e+00 2.215122e+00 1.889493e-01 3.518236e-01 2.254943e-01 6.039407e-01 5.060905e-01 7.183470e-01 4.635578e-01 4.168341e-01 3.887458e-01 4.525128e-01 2.866321e-01 2.589954e-01 2.186787e-01
<GCONST> 1.191854e+02
<STATE> 4
<MEAN> 39
 4.263511e+00 -4.037349e+00 -9.035488e+00 -1.682824e+01 -8.550025e+00 1.517333e+01 -1.020037e+01 -1.793577e+00 -5.125596e+00 -5.561668e+00 1.591245e+00 -3.284886e+00 6.124794e+01 -8.622964e-01 2.874597e-01 -2.357318e-02 5.826374e-01 -6.680593e-02 -6.050172e-01 4.899355e-01 -6.667558e-03 1.823568e-01 3.977571e-01 -1.650483e-01 3.275486e-01 -1.082623e+00 -9.351408e-02 -4.139813e-01 -2.576316e-02 -1.335112e-02 1.626645e-01 -2.911024e-01 -1.166431e-01 -2.782411e-02 2.895353e-02 2.498574e-02 3.027599e-02 -2.776622e-02 3.381961e-01
<VARIANCE> 39
 4.038776e+01 5.131997e+01 2.152482e+01 1.271801e+02 9.064241e+01 9.532590e+01 7.123629e+01 3.571717e+01 2.770009e+01 2.902521e+01 2.615367e+01 2.496134e+01 1.439071e+02 2.299637e+00 2.921115e+00 1.700278e+00 3.932139e+00 4.180553e+00 4.067801e+00 4.243392e+00 2.827394e+00 2.219237e+00 3.196157e+00 2.044473e+00 1.571409e+00 3.703122e+00 2.328336e-01 4.986387e-01 2.829637e-01 8.398498e-01 9.558436e-01 9.012148e-01 5.818149e-01 5.432893e-01 4.791481e-01 5.491067e-01 3.760882e-01 3.229424e-01 7.748344e-01
<GCONST> 1.272432e+02
<TRANSP> 5
 0.000000e+00 1.000000e+00 0.000000e+00 0.000000e+00 0.000000e+00
 0.000000e+00 6.130905e-01 3.869095e-01 0.000000e+00 0.000000e+00
 0.000000e+00 0.000000e+00 5.961797e-01 4.038203e-01 0.000000e+00
 0.000000e+00 0.000000e+00 0.000000e+00 6.843458e-01 3.156542e-01
 0.000000e+00 0.000000e+00 0.000000e+00 0.000000e+00 0.000000e+00
<ENDHMM>
~h "er"
<BEGINHMM>
<NUMSTATES> 5
<STATE> 2
<MEAN> 39
 1.403999e-01 -8.975816e+00 -2.210911e+00 -2.314610e+01 -1.435255e+01 9.278500e+00 -1.079642e+01 -7.138448e-01 -1.830450e+00 -2.480163e+00 -2.841304e+00 -6.504584e+00 7.921536e+01 -4.712959e-02 -7.685156e-01 -3.546898e-01 -6.119394e-01 2.890829e-01 1.012666e+00 2.021445e-01 -4.276044e-01 -4.304906e-01 3.282934e-01 1.914967e-01 1.590644e-01 8.588992e-01 -3.278670e-02 -1.355867e-03 -3.275817e-02 2.276359e-01 7.303866e-02 -1.073489e-01 -1.826476e-02 6.704374e-02 -1.871162e-02 -9.148486e-03 6.362279e-02 -5.473510e-02 -1.721816e-01
<VARIANCE> 39
 5.859058e+01 4.737089e+01 8.878381e+01 1.014046e+02 7.174757e+01 8.903697e+01 9.301158e+01 5.792336e+01 3.092732e+01 2.977121e+01 4.031218e+01 4.601190e+01 1.278807e+02 1.566120e+00 1.832255e+00 3.354405e+00 2.381546e+00 2.154248e+00 3.813797e+00 2.806010e+00 2.977927e+00 2.862643e+00 2.188069e+00 2.120907e+00 2.817906e+00 2.182323e+00 2.071964e-01 3.003929e-01 4.089367e-01 4.595731e-01 4.297110e-01 8.147927e-01 4.266863e-01 5.099359e-01 4.504541e-01 3.483825e-01 4.075831e-01 5.052344e-01 2.202944e-01
<GCONST> 1.250632e+02
<STATE> 3
<MEAN> 39
 1.559747e+00 -1.084373e+01 1.022859e-01 -2.121468e+01 -1.554387e+01 8.992554e+00 -1.466792e+01 1.314811e+00 -3.218948e+00 -1.337810e+00 -1.654581e+00 -5.811778e+00 7.771774e+01 1.178875e-01 -1.032750e+00 -3.675874e-01 -3.106518e-01 3.560233e-01 7.624232e-01 -4.152674e-01 -1.337582e-01 1.432576e-01 5.243341e-01 -3.024473e-02 -4.332378e-01 8.505410e-01 -2.149073e-02 -6.141406e-02 -7.965179e-02 1.347199e-01 1.979768e-02 2.913447e-02 -5.750516e-02 4.713780e-02 6.094647e-02 -1.752226e-02 2.602832e-02 -2.170741e-01 -1.306192e-01
<VARIANCE> 39
 3.101685e+01 4.982687e+01 9.067255e+01 1.108623e+02 5.620262e+01 1.038463e+02 8.510333e+01 7.337737e+01 3.871233e+01 3.895836e+01 5.565255e+01 4.698926e+01 8.799496e+01 1.573645e+00 2.090885e+00 3.706611e+00 3.183703e+00 2.184396e+00 3.573023e+00 3.328113e+00 3.666986e+00 2.405444e+00 2.470869e+00 2.552793e+00 3.360851e+00 3.078441e+00 2.387158e-01 3.738534e-01 4.593695e-01 3.261440e-01 3.295630e-01 6.683634e-01 4.697692e-01 6.974103e-01 4.526159e-01 3.807685e-01 4.066123e-01 5.731477e-01 1.776264e-01
<GCONST> 1.266976e+02
<STATE> 4
<MEAN> 39
 2.463736e+00 -1.960070e+01 -6.775609e+00 -1.743017e+01 -1.135902e+01 1.271877e+01 -1.643421e+01 6.591647e+00 -3.927361e+00 -2.852474e+00 -3.623843e+00 -1.160335e+01 7.976237e+01 3.355609e-02 -2.205729e-01 -5.073540e-01 1.716536e-01 3.272087e-01 -1.314164e-01 4.831877e-02 2.682450e-01 -6.814621e-02 -1.659589e-01 1.727694e-01 -1.832395e-01 1.445683e-01 -1.476459e-02 5.782352e-02 3.150710e-02 3.961286e-02 1.139812e-02 -1.293283e-01 4.677214e-03 3.492719e-02 1.074378e-02 -3.510302e-02 1.128424e-02 5.580316e-02 -3.701865e-02
<VARIANCE> 39
 2.117600e+01 3.019911e+01 5.528042e+01 4.532270e+01 3.253121e+01 1.324310e+02 6.312501e+01 8.671658e+01 4.602228e+01 3.306935e+01 6.817562e+01 2.976320e+01 2.358121e+01 9.261444e-01 1.628873e+00 2.168590e+00 1.618440e+00 1.873037e+00 6.050883e+00 3.817443e+00 4.600122e+00 2.076226e+00 1.830083e+00 1.740343e+00 2.083193e+00 1.330883e+00 1.522395e-01 2.579969e-01 3.491579e-01 1.783148e-01 2.993004e-01 5.887842e-01 5.685759e-01 6.918793e-01 2.941225e-01 2.862117e-01 2.622072e-01 3.785177e-01 1.333734e-01
<GCONST> 1.154305e+02
<TRANSP> 5
 0.000000e+00 1.000000e+00 0.000000e+00 0.000000e+00 0.000000e+00
 0.000000e+00 6.980028e-01 3.019973e-01 0.000000e+00 0.000000e+00
 0.000000e+00 0.000000e+00 5.639194e-01 4.360806e-01 0.000000e+00
 0.000000e+00 0.000000e+00 0.000000e+00 9.631150e-01 3.688499e-02
 0.000000e+00 0.000000e+00 0.000000e+00 0.000000e+00 0.000000e+00
<ENDHMM>
~h "iu"
<BEGINHMM>
<NUMSTATES> 5
<STATE> 2
<MEAN> 39
 2.525023e+00 -3.857567e+00 3.522321e+00 -7.644101e+00 -1.810348e+01 6.744722e+00 -2.031131e+01 1.444313e+00 -6.116347e+00 -9.706610e+00 8.991332e+00 -1.072432e+01 7.008470e+01 -2.581070e-01 -4.610147e-01 -9.885018e-02 1.459736e-02 -5.682278e-01 7.532875e-02 -3.537947e-01 3.598046e-01 5.542025e-01 1.318520e-01 4.537497e-01 -8.209355e-01 6.825718e-01 8.398464e-02 -3.715464e-02 -2.592730e-01 4.111146e-02 2.114569e-01 -8.146506e-02 -1.352533e-02 -2.888954e-02 1.462953e-01 4.330803e-02 -1.729422e-01 -5.477270e-02 -1.873070e-02
<VARIANCE> 39
 1.898755e+01 2.481588e+01 9.879052e+01 5.155199e+01 8.468182e+01 7.106448e+01 5.674834e+01 5.012418e+01 5.905585e+01 3.814637e+01 8.370010e+01 5.392223e+01 3.820993e+01 2.903031e+00 1.844401e+00 1.136703e+01 6.844725e+00 1.297747e+01 9.893517e+00 7.118622e+00 7.265997e+00 5.234552e+00 3.970759e+00 7.130785e+00 3.884619e+00 3.038995e+00 4.944057e-01 3.504428e-01 1.808656e+00 1.463638e+00 2.474518e+00 2.040661e+00 1.608871e+00 1.531517e+00 1.008387e+00 8.149680e-01 1.006573e+00 6.809727e-01 4.475224e-01
<GCONST> 1.454655e+02
<STATE> 3
<MEAN> 39
 3.483835e+00 -6.198022e+00 -1.049052e+00 -8.524929e+00 -1.513277e+01 7.367526e+00 -2.350041e+01 1.020439e+00 -2.388404e+00 -8.994809e+00 9.249642e+00 -1.460044e+01 7.201254e+01 1.285894e-01 -4.255462e-01 -1.061104e-01 -9.611642e-02 5.727246e-01 -2.041221e-01 -1.322020e-01 1.603463e-02 2.768190e-01 5.836089e-02 -8.690249e-01 -6.746894e-03 2.010628e-02 -5.351833e-02 -4.022251e-02 7.773953e-02 -2.823285e-02 -4.197970e-02 -1.037735e-02 1.392811e-01 8.384237e-02 -5.274557e-02 -3.494457e-02 -1.616190e-01 1.171440e-01 -2.372529e-02
<VARIANCE> 39
 1.211931e+01 2.641130e+01 6.849317e+01 4.100012e+01 4.327686e+01 7.013012e+01 4.599930e+01 6.229412e+01 3.598300e+01 4.110683e+01 1.461814e+02 3.442298e+01 2.449829e+01 1.331972e+00 1.583508e+00 8.210360e+00 5.751356e+00 4.408332e+00 7.206813e+00 6.523409e+00 8.155649e+00 4.479330e+00 4.493653e+00 1.007833e+01 3.277185e+00 2.757375e+00 2.665834e-01 2.547167e-01 1.043979e+00 1.069991e+00 1.033950e+00 1.156242e+00 1.462235e+00 1.592043e+00 8.994259e-01 9.066778e-01 1.286260e+00 5.832423e-01 4.561134e-01
<GCONST> 1.371017e+02
<STATE> 4
<MEAN> 39
 2.915406e+00 -9.720020e+00 1.954890e-01 -8.656498e+00 -1.355721e+01 5.338918e+00 -2.204758e+01 3.122813e+00 -1.762715e+00 -9.070406e+00 2.661236e+00 -1.323148e+01 7.218858e+01 -1.716151e-01 -6.299336e-01 2.334097e-01 1.540720e-02 2.259136e-01 -4.105015e-01 4.048106e-01 4.927554e-01 1.663563e-01 3.076758e-02 -1.368218e+00 3.341233e-01 -1.097178e-01 -8.956367e-02 -2.509027e-02 -7.093877e-02 -7.828397e-02 -7.126580e-03 9.639615e-03 3.631886e-02 1.256095e-01 4.221953e-02 -1.918365e-02 -2.810765e-03 8.641482e-03 5.541190e-02
<VARIANCE> 39
 1.846636e+01 4.144081e+01 5.780653e+01 3.903283e+01 3.059975e+01 6.651377e+01 6.191166e+01 9.882280e+01 3.520027e+01 3.756196e+01 1.635962e+02 2.960703e+01 4.138145e+01 1.426439e+00 1.560677e+00 6.141660e+00 4.943069e+00 2.892916e+00 5.673927e+00 5.216271e+00 8.676552e+00 3.872941e+00 3.566495e+00 8.665829e+00 2.442663e+00 3.484807e+00 2.997446e-01 2.726846e-01 9.327694e-01 9.960108e-01 6.454320e-01 8.408406e-01 1.169065e+00 1.678752e+00 8.009602e-01 6.900395e-01 1.173838e+00 4.684770e-01 6.482598e-01
<GCONST> 1.353829e+02
<TRANSP> 5
 0.000000e+00 1.000000e+00 0.000000e+00 0.000000e+00 0.000000e+00
 0.000000e+00 8.584600e-01 1.415400e-01 0.000000e+00 0.000000e+00
 0.000000e+00 0.000000e+00 7.859296e-01 2.140705e-01 0.000000e+00
 0.000000e+00 0.000000e+00 0.000000e+00 8.244891e-01 1.755109e-01
 0.000000e+00 0.000000e+00 0.000000e+00 0.000000e+00 0.000000e+00
<ENDHMM>
~h "sh"
<BEGINHMM>
<NUMSTATES> 5
<STATE> 2
<MEAN> 39
 -6.068327e+00 -1.439469e+01 -2.224510e+00 9.024029e-01 -1.199579e+01 -7.275008e+00 9.046535e-01 9.835335e+00 -7.339456e+00 -9.836928e+00 -4.694162e+00 -4.156817e+00 5.846994e+01 -1.433773e+00 -3.397862e-01 1.210144e+00 6.176168e-01 2.315827e-01 -1.553401e+00 7.230875e-01 -4.744975e-02 1.130906e-01 2.827370e-01 5.994928e-01 -6.544850e-02 1.122130e+00 -3.795313e-01 6.772528e-02 -6.553627e-02 6.059173e-02 1.894651e-01 7.674057e-02 -9.171546e-02 -7.931189e-02 1.893617e-01 -1.142580e-02 1.846464e-02 -1.261306e-02 5.799296e-02
<VARIANCE> 39
 8.045915e+01 5.519787e+01 6.020312e+01 4.261937e+01 2.096284e+01 8.887369e+01 6.690968e+01 3.994660e+01 3.716254e+01 2.939616e+01 3.306762e+01 2.539668e+01 4.830902e+01 7.330848e+00 5.547161e+00 6.179444e+00 2.531790e+00 2.525866e+00 3.538586e+00 4.571320e+00 3.311080e+00 3.782731e+00 3.144916e+00 2.282493e+00 2.775584e+00 6.460565e+00 1.224810e+00 8.898132e-01 8.971984e-01 5.208828e-01 5.113497e-01 6.216263e-01 8.473824e-01 5.411758e-01 6.044098e-01 6.349660e-01 4.169363e-01 4.757945e-01 7.383146e-01
<GCONST> 1.330257e+02
<STATE> 3
<MEAN> 39
 -1.527220e+01 -1.290343e+01 2.672668e+00 5.051585e+00 -9.177907e+00 -1.482238e+01 2.029306e+00 7.913618e+00 -5.502659e+00 -8.575532e+00 -7.132256e-01 -3.887469e+00 6.333804e+01 -2.022672e+00 -2.637944e-01 6.188267e-01 6.439849e-01 7.593463e-01 -8.689136e-01 -1.265530e-01 -1.765263e-01 7.164685e-01 2.198442e-01 6.255434e-01 -1.170457e-01 1.249035e+00 2.180827e-01 4.170673e-02 -3.525290e-01 -1.077323e-01 4.252562e-02 2.794345e-01 -1.396935e-01 -6.489656e-02 1.745461e-02 2.226073e-02 -8.421305e-02 4.846080e-02 -1.889665e-01
<VARIANCE> 39
 1.555107e+02 3.265822e+01 4.988778e+01 3.506986e+01 2.509408e+01 5.169696e+01 3.603696e+01 3.530162e+01 3.582824e+01 2.256876e+01 2.715712e+01 1.739451e+01 4.155843e+01 8.793993e+00 3.713577e+00 4.287284e+00 3.217719e+00 2.222794e+00 3.207685e+00 3.438766e+00 2.757369e+00 2.997883e+00 2.709813e+00 1.645142e+00 2.143171e+00 3.081940e+00 1.441990e+00 7.777085e-01 6.037624e-01 6.240956e-01 4.422627e-01 5.885583e-01 6.488872e-01 5.217014e-01 5.661547e-01 5.677296e-01 3.105696e-01 4.459148e-01 4.968629e-01
<GCONST> 1.262765e+02
<STATE> 4
<MEAN> 39
 -1.407762e+01 -1.378500e+01 -4.850791e-01 1.599827e+00 -6.308087e+00 -1.233353e+01 -2.863093e+00 4.802401e+00 -1.900825e+00 -5.612700e+00 8.378189e-01 -5.923639e+00 6.907918e+01 2.413833e+00 -2.343733e-01 -9.831167e-01 -2.262215e+00 -3.689928e-01 2.478118e+00 -1.233255e+00 -9.065515e-01 1.562384e-01 8.452078e-01 9.084791e-02 -7.566894e-01 8.077903e-01 2.720166e-01 -4.572483e-02 -2.960205e-03 -4.109239e-01 -2.742951e-01 5.643412e-01 -1.159046e-01 -4.432171e-02 -6.507390e-02 6.712737e-03 6.890710e-02 -5.361327e-02 -1.599748e-02
<VARIANCE> 39
 2.179690e+02 2.293857e+01 4.121714e+01 1.040633e+02 2.439064e+01 1.053748e+02 4.451421e+01 3.563456e+01 2.515500e+01 3.284428e+01 1.792855e+01 2.268446e+01 2.512955e+01 1.961445e+01 2.874408e+00 3.061914e+00 9.535028e+00 3.293844e+00 1.301263e+01 3.204709e+00 3.522698e+00 2.460878e+00 3.088355e+00 1.975221e+00 2.392868e+00 1.872255e+00 2.783751e+00 6.405277e-01 5.248515e-01 8.996955e-01 4.495614e-01 1.197509e+00 5.449553e-01 7.096493e-01 4.620730e-01 6.673249e-01 4.197438e-01 4.755300e-01 3.898089e-01
<GCONST> 1.320531e+02
<TRANSP> 5
 0.000000e+00 1.000000e+00 0.000000e+00 0.000000e+00 0.000000e+00
 0.000000e+00 7.881640e-01 2.118360e-01 0.000000e+00 0.000000e+00
 0.000000e+00 0.000000e+00 7.773421e-01 2.226578e-01 0.000000e+00
 0.000000e+00 0.000000e+00 0.000000e+00 9.072094e-01 9.279062e-02
 0.000000e+00 0.000000e+00 0.000000e+00 0.000000e+00 0.000000e+00
<ENDHMM>
~h "si"
<BEGINHMM>
<NUMSTATES> 5
<STATE> 2
<MEAN> 39
 2.722576e+00 -8.042076e+00 -6.215994e-01 -2.288056e+01 -1.600584e+01 1.213545e+01 -1.382615e+01 1.656359e+00 -2.909287e+00 -2.128920e+00 -3.474931e+00 -4.015706e+00 7.250422e+01 -9.982057e-02 -1.200593e+00 2.110864e-02 -4.314215e-01 2.027081e-02 4.976230e-01 -2.355341e-01 -6.678832e-02 -3.212969e-01 8.451893e-01 6.711669e-03 -1.026139e-01 1.200163e+00 -9.684974e-02 5.136534e-02 -5.273655e-02 4.494391e-01 4.516653e-02 -2.551334e-01 2.601429e-02 1.029422e-01 -5.876468e-02 6.657021e-02 5.131424e-02 -8.982999e-02 -2.066602e-01
<VARIANCE> 39
 8.597120e+01 5.941982e+01 3.841277e+01 1.956382e+02 6.693555e+01 9.684949e+01 6.058500e+01 5.743234e+01 3.587351e+01 4.408334e+01 2.361694e+01 2.824815e+01 1.464942e+02 2.960041e+00 2.871638e+00 2.668353e+00 8.281371e+00 2.785629e+00 4.006952e+00 3.317618e+00 2.967805e+00 3.289855e+00 2.612273e+00 1.730337e+00 2.477711e+00 4.104027e+00 5.098600e-01 4.985965e-01 3.590441e-01 9.342608e-01 6.236439e-01 5.998058e-01 5.197950e-01 6.070983e-01 5.468695e-01 5.031158e-01 2.885398e-01 4.303209e-01 2.964635e-01
<GCONST> 1.306909e+02
<STATE> 3
<MEAN> 39
 -2.022567e-01 -1.215208e+01 -1.368804e+00 -1.636894e+01 -1.463618e+01 8.042702e+00 -1.259487e+01 1.404114e+00 -2.354664e+00 1.119819e+00 -4.949356e+00 -5.695544e+00 7.430970e+01 1.242171e-01 -7.832621e-01 2.389583e-01 1.286174e-01 -1.145334e-01 -1.145155e-01 -2.525181e-01 2.866188e-02 -3.827552e-02 5.146076e-01 -1.182413e-01 -1.365613e-01 8.359972e-01 3.354232e-03 1.384644e-01 -5.427671e-03 -1.427695e-02 6.412776e-02 -8.244007e-03 -1.646570e-01 1.429604e-01 5.196662e-02 -9.185176e-02 4.577927e-03 -1.472374e-01 -1.097488e-01
<VARIANCE> 39
 9.075929e+01 5.145679e+01 4.558934e+01 1.827932e+02 6.576373e+01 8.672263e+01 1.026055e+02 8.944842e+01 2.975788e+01 4.777401e+01 3.700371e+01 2.934792e+01 1.583865e+02 2.201147e+00 3.832349e+00 2.444091e+00 5.968896e+00 2.627337e+00 3.230196e+00 3.863706e+00 3.830712e+00 2.679868e+00 2.857486e+00 2.196793e+00 3.204882e+00 4.839442e+00 6.873003e-01 3.842859e-01 4.438684e-01 8.041212e-01 6.657425e-01 4.858597e-01 6.173066e-01 9.143147e-01 5.674925e-01 4.836441e-01 3.969379e-01 4.935592e-01 3.593886e-01
<GCONST> 1.334438e+02
<STATE> 4
<MEAN> 39
 -6.893124e+00 -8.079238e+00 -3.227335e+00 -7.859788e+00 -9.011673e+00 4.573464e-02 -8.258665e+00 3.578556e+00 -2.729366e+00 -3.731034e+00 -5.399690e+00 -5.345426e+00 7.390071e+01 -1.408670e-01 2.216699e-01 -7.805469e-02 3.792118e-03 3.164974e-01 -1.969061e-01 -1.860933e-01 -2.914195e-01 1.367357e-01 -1.533789e-01 9.111606e-02 -7.425102e-02 5.064613e-02 9.077796e-02 -1.966729e-02 3.648941e-02 -4.150952e-02 -3.337942e-02 -2.734161e-03 -1.517933e-01 2.651049e-02 -8.496813e-04 1.057008e-02 -1.091153e-02 -3.750273e-02 2.016428e-03
<VARIANCE> 39
 1.071817e+02 1.113550e+02 3.361546e+01 8.881667e+01 5.570375e+01 6.660691e+01 1.150564e+02 1.298636e+02 3.130178e+01 3.788565e+01 2.956469e+01 2.486011e+01 5.976595e+01 4.772456e+00 3.720709e+00 2.155084e+00 3.072265e+00 2.753195e+00 2.491158e+00 6.171573e+00 6.095252e+00 2.731108e+00 2.318868e+00 1.785141e+00 1.994208e+00 2.663403e+00 8.262404e-01 4.496762e-01 3.944605e-01 3.515158e-01 4.619585e-01 4.236173e-01 8.886758e-01 8.885824e-01 4.700351e-01 3.667967e-01 3.372491e-01 2.950515e-01 3.483520e-01
<GCONST> 1.291273e+02
<TRANSP> 5
 0.000000e+00 1.000000e+00 0.000000e+00 0.000000e+00 0.000000e+00
 0.000000e+00 7.184845e-01 2.815155e-01 0.000000e+00 0.000000e+00
 0.000000e+00 0.000000e+00 5.904713e-01 4.095287e-01 0.000000e+00
 0.000000e+00 0.000000e+00 0.000000e+00 8.912148e-01 1.087852e-01
 0.000000e+00 0.000000e+00 0.000000e+00 0.000000e+00 0.000000e+00
<ENDHMM>
~h "un"
<BEGINHMM>
<NUMSTATES> 5
<STATE> 2
<MEAN> 39
 -6.568192e-01 -8.448508e+00 -7.695247e+00 -1.358737e+01 -4.619988e+00 1.580054e+00 -8.518181e+00 -6.042185e+00 -2.317454e+00 -3.278144e+00 1.919573e+00 -1.356768e+00 6.603365e+01 -1.081882e+00 -7.089190e-02 4.957121e-03 1.273824e+00 1.536041e+00 -2.403046e+00 9.435154e-01 -8.940755e-01 4.684549e-01 2.734320e-01 -4.249659e-01 -1.951442e-02 3.099009e-01 6.642054e-02 1.183106e-01 5.062497e-02 3.476796e-02 -6.366485e-02 1.272213e-01 3.393533e-02 1.299640e-02 2.008025e-02 -8.304799e-02 -3.653338e-02 -1.283119e-01 5.155403e-02
<VARIANCE> 39
 8.031864e+01 4.369847e+01 3.635757e+01 7.497679e+01 1.248723e+02 1.988632e+02 6.898096e+01 4.334625e+01 3.286443e+01 2.892310e+01 3.229055e+01 3.148541e+01 1.165465e+02 3.855542e+00 7.496831e+00 4.568715e+00 7.628634e+00 1.020058e+01 1.441834e+01 6.177405e+00 5.189394e+00 3.657825e+00 3.049397e+00 3.062014e+00 3.233951e+00 1.675829e+01 7.210860e-01 1.587970e+00 9.315766e-01 1.427646e+00 2.474729e+00 3.228445e+00 1.320906e+00 1.112985e+00 7.538794e-01 6.015381e-01 6.462666e-01 5.400389e-01 2.570820e+00
<GCONST> 1.492957e+02
<STATE> 3
<MEAN> 39
 -5.420413e+00 -8.386525e+00 -7.152904e+00 -8.471857e+00 7.783442e-01 -7.692955e+00 -5.329974e+00 -9.081826e+00 4.536171e-01 -3.867673e+00 -8.244264e-01 -4.002533e+00 7.094091e+01 4.844857e-01 1.820616e-01 3.972639e-01 6.071909e-01 -2.942678e-01 -6.244983e-02 -2.882307e-01 9.293403e-02 3.189723e-01 -5.822326e-01 -2.177569e-01 -6.527626e-01 8.803256e-01 2.548218e-01 -2.724868e-02 5.469257e-04 -1.235510e-01 -3.331639e-01 4.720952e-01 -2.710843e-01 3.482578e-01 -3.858268e-02 -9.449477e-02 7.094941e-02 -4.200696e-03 -1.905999e-01
<VARIANCE> 39
 5.382922e+01 2.945242e+01 3.079416e+01 3.903143e+01 6.250858e+01 9.144168e+01 3.500453e+01 3.932212e+01 3.130644e+01 2.719491e+01 2.363593e+01 2.886927e+01 1.219834e+02 6.302304e+00 5.228182e+00 4.779615e+00 4.957784e+00 9.038627e+00 1.189069e+01 4.797061e+00 6.216865e+00 3.531300e+00 3.184264e+00 3.000707e+00 2.746381e+00 1.355860e+01 8.666224e-01 1.230894e+00 1.053093e+00 1.045065e+00 1.774546e+00 1.851393e+00 8.016089e-01 1.030311e+00 7.862452e-01 6.365214e-01 6.666651e-01 5.430263e-01 2.269423e+00
<GCONST> 1.422307e+02
<STATE> 4
<MEAN> 39
 1.227820e+00 -6.688289e+00 4.341121e+00 -4.776123e+00 -1.505700e+01 2.656129e+00 -1.392647e+01 -2.727402e+00 -3.008857e+00 -1.231750e+01 5.125390e+00 -8.732935e+00 7.228735e+01 7.330010e-02 1.591445e-01 2.192372e-01 -3.507891e-02 -8.095334e-01 5.630528e-01 -5.685947e-01 4.295010e-01 -2.603740e-03 -1.889737e-01 4.931975e-01 -3.475349e-01 8.360361e-02 -2.082700e-02 1.377755e-03 -1.672615e-01 -6.414307e-02 1.548801e-01 4.000264e-03 -7.294169e-02 -4.257461e-02 5.213980e-02 7.839482e-02 2.531541e-02 -2.081835e-02 -9.040485e-03
<VARIANCE> 39
 3.707456e+01 1.452561e+01 5.567695e+01 2.968300e+01 9.761135e+01 5.332005e+01 4.559304e+01 7.090564e+01 6.534522e+01 3.462423e+01 5.093491e+01 2.624697e+01 4.045425e+01 4.578321e+00 1.468040e+00 6.596245e+00 4.909580e+00 9.137762e+00 6.652716e+00 5.962881e+00 7.889722e+00 5.757880e+00 4.555550e+00 5.259600e+00 3.281601e+00 3.486292e+00 7.840011e-01 3.293688e-01 1.113352e+00 1.115195e+00 1.765819e+00 1.474596e+00 1.099104e+00 1.153059e+00 9.286678e-01 8.743268e-01 1.204216e+00 6.303352e-01 5.370838e-01
<GCONST> 1.402935e+02
<TRANSP> 5
 0.000000e+00 1.000000e+00 0.000000e+00 0.000000e+00 0.000000e+00
 0.000000e+00 9.009154e-01 9.908456e-02 0.000000e+00 0.000000e+00
 0.000000e+00 0.000000e+00 8.206930e-01 1.793070e-01 0.000000e+00
 0.000000e+00 0.000000e+00 0.000000e+00 9.545427e-01 4.545724e-02
 0.000000e+00 0.000000e+00 0.000000e+00 0.000000e+00 0.000000e+00
<ENDHMM>
~h "wu"
<BEGINHMM>
<NUMSTATES> 5
<STATE> 2
<MEAN> 39
 2.377114e-01 -6.879167e+00 -1.682503e+00 -2.029431e+01 -1.236903e+01 7.408903e+00 -9.586674e+00 -1.581683e+00 -2.270826e+00 -2.448560e+00 -1.608575e+00 -4.090482e+00 7.380118e+01 3.376837e-02 -4.834567e-01 2.123594e-03 -1.107560e+00 -2.439902e-01 7.096810e-01 3.748887e-01 -1.760021e-01 -2.692124e-01 2.417399e-03 9.481089e-02 3.065914e-01 1.145584e+00 1.494139e-01 1.297431e-02 -2.966506e-02 2.115043e-01 -2.884056e-02 -2.221334e-01 -1.743552e-01 1.464441e-01 2.806072e-02 -7.290512e-02 -9.348928e-02 -9.602157e-02 -9.393720e-02
<VARIANCE> 39
